%YAML:1.0
---
opencv_ml_ann_mlp:
   format: 3
   layer_sizes: [ 324, 50, 2 ]
   activation_function: SIGMOID_SYM
   f_param1: 6.6666666666666663e-01
   f_param2: 1.7159000000000000e+00
   min_val: -9.4999999999999996e-01
   max_val: 9.4999999999999996e-01
   min_val1: -9.7999999999999998e-01
   max_val1: 9.7999999999999998e-01
   training_params:
      train_method: BACKPROP
      dw_scale: 1.0000000000000000e-03
      moment_scale: 0.
      term_criteria:
         epsilon: 1.0000000000000001e-01
         iterations: 100
   input_scale:
      - 1.1961573180177039e+01
      - -1.8291222467868400e+00
      - 1.1676164760312981e+01
      - -1.6053380828778394e+00
      - 1.1895127640442553e+01
      - -1.4712059180077042e+00
      - 1.3022782532736899e+01
      - -1.3757075654267721e+00
      - 1.3376438178153609e+01
      - -1.6041601360738746e+00
      - 1.3265034770089690e+01
      - -1.3928147144794771e+00
      - 1.1927953087620097e+01
      - -1.4707892533225064e+00
      - 1.1334280529736480e+01
      - -1.5946386459874553e+00
      - 1.1737146670620394e+01
      - -1.8118195917516058e+00
      - 1.1726194111106585e+01
      - -1.8734835710460966e+00
      - 1.1310150180237205e+01
      - -1.7293484327797146e+00
      - 1.1411170745680522e+01
      - -1.5690330973655076e+00
      - 1.2374328470467894e+01
      - -1.4757727519657944e+00
      - 1.2691447283760786e+01
      - -1.7090862812759031e+00
      - 1.2466175754152635e+01
      - -1.4716712964570988e+00
      - 1.1594060931885021e+01
      - -1.5896138916435656e+00
      - 1.1290521369137002e+01
      - -1.7328547084857857e+00
      - 1.1592225211312336e+01
      - -1.8552761386062600e+00
      - 1.1961459168700058e+01
      - -2.0051639703283177e+00
      - 1.1255402919235259e+01
      - -1.7312339297006720e+00
      - 1.1469478771628623e+01
      - -1.5992185930318648e+00
      - 1.2448483669869573e+01
      - -1.4914578155627962e+00
      - 1.2661502528603615e+01
      - -1.5500611758441873e+00
      - 1.2519662865149884e+01
      - -1.5116506688979203e+00
      - 1.1477183111539391e+01
      - -1.5906908597887446e+00
      - 1.1175591116050111e+01
      - -1.7286596205501679e+00
      - 1.1859697638815490e+01
      - -1.9905691478709886e+00
      - 1.1749879386190774e+01
      - -2.0282650912710594e+00
      - 1.1253259456608371e+01
      - -1.8625377784435002e+00
      - 1.1268504020294460e+01
      - -1.7161403527968566e+00
      - 1.1817834144888772e+01
      - -1.5937347912225683e+00
      - 1.2069725669503226e+01
      - -1.6487897928294213e+00
      - 1.2006476292520540e+01
      - -1.6242174307388328e+00
      - 1.1223608911383538e+01
      - -1.7313144763123245e+00
      - 1.1113903829384325e+01
      - -1.8901940943036222e+00
      - 1.1597504227668727e+01
      - -2.0272299860521930e+00
      - 1.1817430878078785e+01
      - -1.7224031850350969e+00
      - 1.1650428536162698e+01
      - -1.5966792467809816e+00
      - 1.1940128875082419e+01
      - -1.4846452752667136e+00
      - 1.3020280256038184e+01
      - -1.4033014193886020e+00
      - 1.3186127780225059e+01
      - -1.6313045565720703e+00
      - 1.3098815639038735e+01
      - -1.4262900558912865e+00
      - 1.1797464193111040e+01
      - -1.5102858927235852e+00
      - 1.1303828317776549e+01
      - -1.6153124434238397e+00
      - 1.1542150518151528e+01
      - -1.7038128557522030e+00
      - 1.1694949162894845e+01
      - -1.8318034629017956e+00
      - 1.1300453205341036e+01
      - -1.6863616319198707e+00
      - 1.1418306223526734e+01
      - -1.5629402641705454e+00
      - 1.2256886563394541e+01
      - -1.4733896140295084e+00
      - 1.2483920894572455e+01
      - -1.7153679639780706e+00
      - 1.2464689322442313e+01
      - -1.5103006756289297e+00
      - 1.1642213550913356e+01
      - -1.6189488889596084e+00
      - 1.1260171876880825e+01
      - -1.7360915787831788e+00
      - 1.1435026111604040e+01
      - -1.8119961592245293e+00
      - 1.1737754453703412e+01
      - -1.8664041910786060e+00
      - 1.1220411998107005e+01
      - -1.7216561942272006e+00
      - 1.1441518205046778e+01
      - -1.6145497323966893e+00
      - 1.2255176739262394e+01
      - -1.5215615974483852e+00
      - 1.2530605383083131e+01
      - -1.5774760002549206e+00
      - 1.2447943956746096e+01
      - -1.5362609450861708e+00
      - 1.1403394213257958e+01
      - -1.6160132400831686e+00
      - 1.1217497536608057e+01
      - -1.7377525374108684e+00
      - 1.1526041108632610e+01
      - -1.8458273424917606e+00
      - 1.1778109076898163e+01
      - -1.9934321571890588e+00
      - 1.1224420116410126e+01
      - -1.8226436200433505e+00
      - 1.1176887605546712e+01
      - -1.7009074297597415e+00
      - 1.1602844649678627e+01
      - -1.5913625182271283e+00
      - 1.1973773015494190e+01
      - -1.6637604504041097e+00
      - 1.1978950187087591e+01
      - -1.6402784142248981e+00
      - 1.1210562563766226e+01
      - -1.7409305255339560e+00
      - 1.1090832648215084e+01
      - -1.8701787123891211e+00
      - 1.1430189526245156e+01
      - -1.9661850974121629e+00
      - 1.1981997844841930e+01
      - -1.7243889923756051e+00
      - 1.1817911845898106e+01
      - -1.5905740025587713e+00
      - 1.1896167006612657e+01
      - -1.4788563496172575e+00
      - 1.2642402871524816e+01
      - -1.3965479859064780e+00
      - 1.2945945460809815e+01
      - -1.6493611752761566e+00
      - 1.3005343319137605e+01
      - -1.4486911068433881e+00
      - 1.1881777175341274e+01
      - -1.5347359525895838e+00
      - 1.1298046433651971e+01
      - -1.6345213163949772e+00
      - 1.1435887640506387e+01
      - -1.6972353843123866e+00
      - 1.2097042344975936e+01
      - -1.9627506342158263e+00
      - 1.1528197018842221e+01
      - -1.6467477198767573e+00
      - 1.1540531113875740e+01
      - -1.5342174258986183e+00
      - 1.2108546799913485e+01
      - -1.4441518387774543e+00
      - 1.2462303957388741e+01
      - -1.7237034975446646e+00
      - 1.2535831314127318e+01
      - -1.5069310622796797e+00
      - 1.1786628110909261e+01
      - -1.6229636659609756e+00
      - 1.1204995465449558e+01
      - -1.7152333748890529e+00
      - 1.1638829817948011e+01
      - -1.9303326628825164e+00
      - 1.1785871076654738e+01
      - -1.8557974358265439e+00
      - 1.1488979102938430e+01
      - -1.7331465845265361e+00
      - 1.1483060066951085e+01
      - -1.6261046805095054e+00
      - 1.2086184186676084e+01
      - -1.5294084048801535e+00
      - 1.2394995533462382e+01
      - -1.6041135112070224e+00
      - 1.2403796979001966e+01
      - -1.5590021015327962e+00
      - 1.1512049180821171e+01
      - -1.6428649063729965e+00
      - 1.1367239057930380e+01
      - -1.7708233459256524e+00
      - 1.1466906989203826e+01
      - -1.8347267223886123e+00
      - 1.2165284373236382e+01
      - -2.1324300922425139e+00
      - 1.1500708369417580e+01
      - -1.8017962631058342e+00
      - 1.1416657130915764e+01
      - -1.6986051937858229e+00
      - 1.1695699256673938e+01
      - -1.5813634282286166e+00
      - 1.1970868282939753e+01
      - -1.6733698950705225e+00
      - 1.2145205781785924e+01
      - -1.6448005763457343e+00
      - 1.1393002447538272e+01
      - -1.7372610546313798e+00
      - 1.1149752204938972e+01
      - -1.8577761042503713e+00
      - 1.1715500512784860e+01
      - -2.1065102879792716e+00
      - 1.2353779253433487e+01
      - -1.8426953500712902e+00
      - 1.1763777210972881e+01
      - -1.6192700563467122e+00
      - 1.1917218643175707e+01
      - -1.5078745245307987e+00
      - 1.3055388445032852e+01
      - -1.4350232595535859e+00
      - 1.3430251046465031e+01
      - -1.5025573913868844e+00
      - 1.3249788241648043e+01
      - -1.4700353183817978e+00
      - 1.1802835029932014e+01
      - -1.5365021231327940e+00
      - 1.1203366626503236e+01
      - -1.6202494023464640e+00
      - 1.2040135210825810e+01
      - -1.8170253001054564e+00
      - 1.1995753896505519e+01
      - -1.8831690000979715e+00
      - 1.1366914593676256e+01
      - -1.7406642491548079e+00
      - 1.1521668006882143e+01
      - -1.6289291709080067e+00
      - 1.2325115395852993e+01
      - -1.5339795910601417e+00
      - 1.2530916091525615e+01
      - -1.5859012363960543e+00
      - 1.2571676067069181e+01
      - -1.5699434894348605e+00
      - 1.1504421364490565e+01
      - -1.6446519319575055e+00
      - 1.1228707915117226e+01
      - -1.7521265041448095e+00
      - 1.1778378674527762e+01
      - -1.8534290695723834e+00
      - 1.2445920609421785e+01
      - -1.9898658428052813e+00
      - 1.1392523192927433e+01
      - -1.7014556199480637e+00
      - 1.1525181938216035e+01
      - -1.5991683567005339e+00
      - 1.2353201125025485e+01
      - -1.5243645662526797e+00
      - 1.2779241451078985e+01
      - -1.5991131640882743e+00
      - 1.2603248117480449e+01
      - -1.5664306898611200e+00
      - 1.1402969312357211e+01
      - -1.6392053121808223e+00
      - 1.1219136729548234e+01
      - -1.7489925905298069e+00
      - 1.2009753143553718e+01
      - -1.9597193582522197e+00
      - 1.2088547867772935e+01
      - -2.0276018621785346e+00
      - 1.1476067078993733e+01
      - -1.8646628525984157e+00
      - 1.1426085611997872e+01
      - -1.7439502986087891e+00
      - 1.1860015074438676e+01
      - -1.6370764350540699e+00
      - 1.2197871996437858e+01
      - -1.7132737524220618e+00
      - 1.2172641503440458e+01
      - -1.7024685304281908e+00
      - 1.1260944631937516e+01
      - -1.7848665455449682e+00
      - 1.1168713834981965e+01
      - -1.9043499656535403e+00
      - 1.1750838506654885e+01
      - -2.0080029624935265e+00
      - 1.2156283397929634e+01
      - -1.7285811563826277e+00
      - 1.1809302035270559e+01
      - -1.6233323534950634e+00
      - 1.1954028342435405e+01
      - -1.5265263939245819e+00
      - 1.2742136436792505e+01
      - -1.4450488947722302e+00
      - 1.3201362767042131e+01
      - -1.5224806406413194e+00
      - 1.3211856380103136e+01
      - -1.4865554963595304e+00
      - 1.1739073817039559e+01
      - -1.5437395236110301e+00
      - 1.1250393650754560e+01
      - -1.6236434979837830e+00
      - 1.1933563940079372e+01
      - -1.7172005086356779e+00
      - 1.1914069133136334e+01
      - -1.8365243221412071e+00
      - 1.1403995429006166e+01
      - -1.7126619450994736e+00
      - 1.1507221303963766e+01
      - -1.6243133072165701e+00
      - 1.2028386002260346e+01
      - -1.5155580014799397e+00
      - 1.2452989784624103e+01
      - -1.5901575319952344e+00
      - 1.2596921328944537e+01
      - -1.5601260015184855e+00
      - 1.1559255157316697e+01
      - -1.6427764844125894e+00
      - 1.1265852085608309e+01
      - -1.7400660089769588e+00
      - 1.1661223339255688e+01
      - -1.8061861529417034e+00
      - 1.2130827254524432e+01
      - -1.8784387509128455e+00
      - 1.1438555930988274e+01
      - -1.7360028125571088e+00
      - 1.1561683891952118e+01
      - -1.6511289166126710e+00
      - 1.2241111817000641e+01
      - -1.5598050316910004e+00
      - 1.2570475026424470e+01
      - -1.6332010689261631e+00
      - 1.2514708252817925e+01
      - -1.5894547980410654e+00
      - 1.1435610770119840e+01
      - -1.6522603475057827e+00
      - 1.1169147625241708e+01
      - -1.7348424707644383e+00
      - 1.1713642281287786e+01
      - -1.8369964644687105e+00
      - 1.1988948615560480e+01
      - -2.0039438979043371e+00
      - 1.1406766740378751e+01
      - -1.8472406468680871e+00
      - 1.1295378522435552e+01
      - -1.7383892846418674e+00
      - 1.1745045440331220e+01
      - -1.6520332200526870e+00
      - 1.2081121436312037e+01
      - -1.7247273523386497e+00
      - 1.2173474065380029e+01
      - -1.6919310757429109e+00
      - 1.1245730165640781e+01
      - -1.7754687682213153e+00
      - 1.1060225122662501e+01
      - -1.8691046213953333e+00
      - 1.1542518188503507e+01
      - -1.9583257943082981e+00
      - 1.2269712354563760e+01
      - -1.7338588376979813e+00
      - 1.1930000427028061e+01
      - -1.6318366552745005e+00
      - 1.1957737603435161e+01
      - -1.5476656015754051e+00
      - 1.2517680403003817e+01
      - -1.4541748029819748e+00
      - 1.2942237373328878e+01
      - -1.5349247038786875e+00
      - 1.3067485860864231e+01
      - -1.4969716581656047e+00
      - 1.1799971335043686e+01
      - -1.5612243797844334e+00
      - 1.1477593901424525e+01
      - -1.6570291147580669e+00
      - 1.1916292811952628e+01
      - -1.7177722443151053e+00
      - 1.2309412684408100e+01
      - -1.9740456486609959e+00
      - 1.1636581077914400e+01
      - -1.7065481840273844e+00
      - 1.1579981122517164e+01
      - -1.6188764570776457e+00
      - 1.2158036042496379e+01
      - -1.5299774258674632e+00
      - 1.2481837635533990e+01
      - -1.5999579365914580e+00
      - 1.2616686831177766e+01
      - -1.5578148172876811e+00
      - 1.1775995938926627e+01
      - -1.6511592672664077e+00
      - 1.1402225513778625e+01
      - -1.7279940686224653e+00
      - 1.2113687832334378e+01
      - -1.9571355308012379e+00
      - 1.2164304484765522e+01
      - -1.8834751634137659e+00
      - 1.1541587787626002e+01
      - -1.7590253548696386e+00
      - 1.1519508296360645e+01
      - -1.6712777431732253e+00
      - 1.2066761284242036e+01
      - -1.5769455222396986e+00
      - 1.2316174867864305e+01
      - -1.6437898778675597e+00
      - 1.2527064379612490e+01
      - -1.6111167878668018e+00
      - 1.1463650601522245e+01
      - -1.6640045301106119e+00
      - 1.1357373490405658e+01
      - -1.7659634277104226e+00
      - 1.1870053249239815e+01
      - -1.8531162257400446e+00
      - 1.2469177626582747e+01
      - -2.1447086170376868e+00
      - 1.1533132730052934e+01
      - -1.8326804435537623e+00
      - 1.1416740359442072e+01
      - -1.7394942050749689e+00
      - 1.1742495449695321e+01
      - -1.6326751381684959e+00
      - 1.2123448776538169e+01
      - -1.7180178439910878e+00
      - 1.2238174595680340e+01
      - -1.6864998570841025e+00
      - 1.1401230592892393e+01
      - -1.7555042256859952e+00
      - 1.1235537133004975e+01
      - -1.8479653097961537e+00
      - 1.2220749377185379e+01
      - -2.1334118267228619e+00
      - 1.2702317450477473e+01
      - -1.8351084335613319e+00
      - 1.1903184744183493e+01
      - -1.5917465939076108e+00
      - 1.2114945082791374e+01
      - -1.5215664374565734e+00
      - 1.3036806038087720e+01
      - -1.4626555353338537e+00
      - 1.3492782808434153e+01
      - -1.5351856019814789e+00
      - 1.3569408561551965e+01
      - -1.5332714168429733e+00
      - 1.1782738141464547e+01
      - -1.5904668563160849e+00
      - 1.1131987321875075e+01
      - -1.6611603843629348e+00
      - 1.2276240788233872e+01
      - -1.8610130193764642e+00
      - 1.2301503860179711e+01
      - -1.8904359892876015e+00
      - 1.1643312102941350e+01
      - -1.7553931448999567e+00
      - 1.1596599975068008e+01
      - -1.6671326073132879e+00
      - 1.2355050995644051e+01
      - -1.5764066597107229e+00
      - 1.2552412781120863e+01
      - -1.6335429148741547e+00
      - 1.2783625145026692e+01
      - -1.6335261230081253e+00
      - 1.1636947147977454e+01
      - -1.7061337861210388e+00
      - 1.1258052400778055e+01
      - -1.7952589519450135e+00
      - 1.1964667666038078e+01
      - -1.8839001962303721e+00
      - 1.2719161114829074e+01
      - -1.9687990687848116e+00
      - 1.1526144151607495e+01
      - -1.6458808143487362e+00
      - 1.1614402818787344e+01
      - -1.5526618328556252e+00
      - 1.2626367241284784e+01
      - -1.5190010571950876e+00
      - 1.3208628204872950e+01
      - -1.8812668498727523e+00
      - 1.3009380177503493e+01
      - -1.5874404920228109e+00
      - 1.1588799854466711e+01
      - -1.6912162471087255e+00
      - 1.1122002175344035e+01
      - -1.7743115683340760e+00
      - 1.2245074732324184e+01
      - -2.0029162354233829e+00
      - 1.2401763533590939e+01
      - -2.0169754614759841e+00
      - 1.1549326184453959e+01
      - -1.8214485137880898e+00
      - 1.1348956431965458e+01
      - -1.6951752690556254e+00
      - 1.1837372867020383e+01
      - -1.6115997750919040e+00
      - 1.2819628033229325e+01
      - -2.0465092223336825e+00
      - 1.2375025725536428e+01
      - -1.6979414898584919e+00
      - 1.1489956077063841e+01
      - -1.8290844609063008e+00
      - 1.1108726631022357e+01
      - -1.9113399171763408e+00
      - 1.1873776781002009e+01
      - -2.0205633732867634e+00
      - 1.2530880765793222e+01
      - -1.7567611577155935e+00
      - 1.1990730081483246e+01
      - -1.6430394923943206e+00
      - 1.1921144602426553e+01
      - -1.5573980395155294e+00
      - 1.2714043706242323e+01
      - -1.4836578817671084e+00
      - 1.3148550531279673e+01
      - -1.5701362774258678e+00
      - 1.3309332114285844e+01
      - -1.5399649356879497e+00
      - 1.1908163252583917e+01
      - -1.5958500268748721e+00
      - 1.1232112860714901e+01
      - -1.6421605955951384e+00
      - 1.2046067231989268e+01
      - -1.7360481410506698e+00
      - 1.2226018137971959e+01
      - -1.8657055695856530e+00
      - 1.1643597114082000e+01
      - -1.7566569183540575e+00
      - 1.1415257844495406e+01
      - -1.6434820433084136e+00
      - 1.2143393477823800e+01
      - -1.5834617101642137e+00
      - 1.2534897452729153e+01
      - -1.6615742210723772e+00
      - 1.2710211084659978e+01
      - -1.6211426112309317e+00
      - 1.1682445495615545e+01
      - -1.6870894481054715e+00
      - 1.1261786178217319e+01
      - -1.7512886224853055e+00
      - 1.1767447451773196e+01
      - -1.8241886934263327e+00
      - 1.2489949949369878e+01
      - -1.8639696167030189e+00
      - 1.1557533483369744e+01
      - -1.7080261394812724e+00
      - 1.1457643596093721e+01
      - -1.6047657209095310e+00
      - 1.2207606167112028e+01
      - -1.5366523571586888e+00
      - 1.3082699614742632e+01
      - -1.9278340740846984e+00
      - 1.2802954292611428e+01
      - -1.5886303857340585e+00
      - 1.1594487142106825e+01
      - -1.6663795866853175e+00
      - 1.1167900979809717e+01
      - -1.7293811806509494e+00
      - 1.1856827423566157e+01
      - -1.8285191412350119e+00
      - 1.2349014188045366e+01
      - -1.9874663488132291e+00
      - 1.1704696761664502e+01
      - -1.8492448894803839e+00
      - 1.1308174049836445e+01
      - -1.7194355688693703e+00
      - 1.1730495562692576e+01
      - -1.6415125695878763e+00
      - 1.2894620586644850e+01
      - -2.0841889790550514e+00
      - 1.2423451847554317e+01
      - -1.6943593535986734e+00
      - 1.1355922011160313e+01
      - -1.7732161436661185e+00
      - 1.1121895436886961e+01
      - -1.8577873249424821e+00
      - 1.1761458090332740e+01
      - -1.9501739213536777e+00
      - 1.2587705228870385e+01
      - -1.7543784380251928e+00
      - 1.2040393133901254e+01
      - -1.6684716988796313e+00
      - 1.1890993696673444e+01
      - -1.5789023976684218e+00
      - 1.2627283824707677e+01
      - -1.5131195376372024e+00
      - 1.3016183265442233e+01
      - -1.5881986488622706e+00
      - 1.3282690271431742e+01
      - -1.5643074580893690e+00
      - 1.1959178142230970e+01
      - -1.6131564995085625e+00
      - 1.1383170330566381e+01
      - -1.6558675908267846e+00
      - 1.2007524636343755e+01
      - -1.7203683087798556e+00
      - 1.2480682820927765e+01
      - -1.9748541973169791e+00
      - 1.1705968454011764e+01
      - -1.7281486133215618e+00
      - 1.1534299729420317e+01
      - -1.6442717635128512e+00
      - 1.2233927060716683e+01
      - -1.5719083959771947e+00
      - 1.2591594772174835e+01
      - -1.6468880683607510e+00
      - 1.2864870918459712e+01
      - -1.6163188430253819e+00
      - 1.1908258234447121e+01
      - -1.6766002776171316e+00
      - 1.1461811121383052e+01
      - -1.7353518314345839e+00
      - 1.2222566441825052e+01
      - -1.9540749375630717e+00
      - 1.2453297027586828e+01
      - -1.8576669481262935e+00
      - 1.1797215374522377e+01
      - -1.7563174645073494e+00
      - 1.1407831862437188e+01
      - -1.6473226158485532e+00
      - 1.1984732061563548e+01
      - -1.5727892050026693e+00
      - 1.3008839858486137e+01
      - -1.9748999363949353e+00
      - 1.2742333072912800e+01
      - -1.6049377479680726e+00
      - 1.1702895380624112e+01
      - -1.6754247130862696e+00
      - 1.1364083193229948e+01
      - -1.7394783034801928e+00
      - 1.1875245528701710e+01
      - -1.8050865790752399e+00
      - 1.2599940706056307e+01
      - -2.1118238260200446e+00
      - 1.1688698468342297e+01
      - -1.8234410731786177e+00
      - 1.1422524075250699e+01
      - -1.7372981897176454e+00
      - 1.1763872680009236e+01
      - -1.6449550151491761e+00
      - 1.2844688293578120e+01
      - -2.0802907808404107e+00
      - 1.2343984827760213e+01
      - -1.6693693013620978e+00
      - 1.1501848198962294e+01
      - -1.7384843374678516e+00
      - 1.1252226491544425e+01
      - -1.8153671478368321e+00
      - 1.2132869657121979e+01
      - -2.0667780867138394e+00
   output_scale:
      - 5.2631578947368418e-01
      - 4.9999999999999994e-01
      - 5.2631578947368418e-01
      - 4.9999999999999994e-01
   inv_output_scale:
      - 1.8999999999999999e+00
      - -9.4999999999999996e-01
      - 1.8999999999999999e+00
      - -9.4999999999999996e-01
   weights:
      -
         - -4.7433380966294736e-02
         - 1.3359436649144298e-02
         - 1.9307639578325379e-02
         - -7.3626770015475023e-03
         - 5.8516413480951069e-03
         - 1.8847472266156687e-02
         - -2.4484700618775897e-02
         - 1.3890110797971303e-02
         - 2.7366682781000667e-02
         - 5.2642729425108274e-02
         - -1.6441423025952261e-02
         - 9.1540747922046736e-02
         - -1.6271883517038583e-02
         - -2.2376507163448717e-02
         - -2.7518734538229447e-02
         - -1.2118124548001484e-02
         - -3.2513584626515345e-02
         - 1.9371577534546554e-02
         - 2.1733791814473508e-02
         - -2.6021031702200079e-02
         - 1.6414805228296608e-02
         - 3.0066954596195704e-02
         - 2.8385865894448418e-02
         - 2.4983417816627735e-02
         - -3.8207751796546008e-02
         - 4.3459467178192351e-02
         - -4.9061452486471443e-03
         - 4.0697754244399961e-02
         - -1.6675174501334486e-03
         - 3.1805129337597438e-02
         - -4.4892883387636509e-03
         - 4.7568838035880259e-02
         - -4.4466567214118242e-02
         - 1.6815738410748383e-02
         - 1.9295022340251645e-02
         - -7.4856250205818627e-03
         - -1.9345239304814663e-02
         - -1.0302194833122851e-03
         - -2.9516290224346296e-02
         - 1.2335533564472765e-02
         - 6.8531734931054061e-03
         - 1.6131764758847429e-02
         - -6.0505935602713093e-03
         - -3.7352839396649767e-02
         - -5.6861113422212832e-03
         - 1.0935611166652459e-02
         - -4.8013604202331590e-02
         - 6.7416663244412858e-03
         - -3.9452341444374851e-03
         - 2.9130182151359086e-02
         - 2.0434076131254943e-02
         - 6.2860891031867830e-04
         - -2.6537560659463558e-03
         - 1.2105470555270087e-03
         - -8.4871312844505328e-03
         - -4.6351229742907134e-03
         - 1.2715406657016886e-02
         - -6.3626038639220533e-03
         - -7.3285356360327097e-03
         - -3.5205911207287430e-02
         - 7.9026718231910986e-03
         - -2.1978014043078304e-03
         - 1.2820643678401087e-02
         - 1.3233398301632920e-02
         - 1.1826785242776288e-02
         - 1.7997626513009415e-03
         - 2.0122247352130258e-02
         - -7.8084916343763586e-03
         - -6.5172081819565141e-03
         - 4.8261161432015549e-03
         - -6.4415643657731812e-03
         - -1.0181537518481018e-02
         - -1.2829628249378850e-02
         - -7.0833218310158222e-03
         - 1.3262071881255217e-02
         - -3.1050901998350755e-02
         - 5.1274301125767922e-03
         - -1.9071246439438416e-02
         - 1.4229424268550855e-03
         - -2.1153670858304916e-02
         - -3.4703616675904360e-03
         - 1.3905176989680704e-02
         - 2.9237024126322696e-02
         - -4.9980776359532190e-03
         - -6.8771153093098690e-03
         - 2.6191453502834709e-03
         - 2.1210494521183839e-02
         - 2.1763275015476789e-03
         - 1.6872350549024626e-02
         - -2.0113454959264699e-03
         - 3.2654156696135194e-03
         - -1.1169890638424020e-02
         - 1.1483655778440514e-02
         - 1.0847038336977621e-02
         - 4.4667070459569816e-03
         - -1.0516044833868839e-02
         - 2.4651473238238557e-02
         - -3.6240664712039407e-04
         - 3.4746107964320964e-03
         - -1.0120731201397747e-02
         - 7.7265992702110363e-04
         - 1.7041846185126885e-02
         - -2.7055609835423574e-03
         - 4.5845967075716695e-03
         - -5.0444201636864836e-03
         - 4.7672861330497179e-03
         - 3.7891436535527276e-03
         - 2.8613065484938511e-03
         - 1.1284758198728951e-03
         - -1.2859889277890869e-02
         - -5.5085256050857899e-03
         - -1.8267210509447112e-02
         - -5.9649618394219664e-03
         - 4.4103880704827320e-03
         - -3.0971448369966370e-03
         - 3.1132284082617252e-03
         - 4.8043961006338249e-03
         - -4.9232922853505098e-03
         - 1.4920553429039374e-03
         - -6.3846557744135614e-03
         - -4.5665181704904285e-03
         - -2.8355429782448097e-03
         - 1.4295453977749772e-03
         - 6.3645367078306021e-04
         - 2.5212076277830293e-03
         - -2.7637762316617409e-03
         - 8.2951290321513259e-04
         - -4.2996343210283967e-03
         - -4.3506068090303218e-03
         - -2.8898238222032800e-03
         - 5.7357492371307196e-03
         - 3.3847137069519390e-02
         - 1.6545474968187184e-02
         - 3.6688991251695607e-03
         - -7.0283970788410947e-03
         - -4.1437329330896722e-03
         - -3.4049866001498856e-03
         - -5.2238717612804846e-03
         - 9.2554429622040068e-04
         - 3.7939331673893829e-03
         - 3.2406068201810282e-03
         - 3.2465519776227149e-03
         - 1.5732320070705832e-03
         - 5.8654780853701185e-04
         - -1.8034035315879883e-03
         - 2.6040269555830577e-03
         - 1.6560017609201141e-02
         - 7.8938670978681721e-04
         - 2.8195073065165215e-03
         - -4.0467980933832906e-03
         - -1.6941585516427177e-02
         - 1.1307647338808496e-02
         - -1.6240467744474555e-03
         - 2.0096285634776275e-04
         - 4.2102195966973472e-03
         - 4.2602281437975845e-03
         - -4.7971223500986497e-03
         - 8.8285669282831911e-03
         - 7.0513184090216820e-03
         - 2.3458070206514286e-02
         - -9.5745892613745293e-03
         - -1.9715124867306678e-03
         - 1.2814373762291564e-03
         - -1.2664763582006189e-02
         - -6.4614596235251535e-03
         - -8.4142978573058403e-03
         - -1.0545843898950528e-02
         - -2.4024998067222352e-03
         - 5.6846813158198404e-03
         - -8.0131197754652829e-04
         - -2.1596044707416614e-04
         - 9.2768658743970448e-03
         - 1.0740544265005680e-03
         - 5.7334438450312329e-03
         - -6.8188522834299005e-03
         - 6.0304545740722769e-03
         - -7.1873474245147916e-03
         - 1.6565313947658443e-03
         - 3.7957699869834950e-03
         - 6.8110030476106927e-03
         - -2.9775962455062749e-03
         - 1.6516464531352425e-02
         - -1.4522049393904952e-02
         - 5.4227681778410645e-03
         - 3.7784979898947818e-04
         - -5.3290139774196206e-03
         - -2.8066103069282018e-03
         - -3.8121063095732147e-03
         - -7.8876806933658727e-03
         - -1.3415469374499171e-03
         - -3.1535660509734312e-03
         - 7.9147404849443120e-05
         - -5.9501558684687140e-03
         - -9.9144307639977992e-03
         - -3.7881682028044041e-03
         - 8.3844726315516448e-03
         - -9.5593723133937051e-03
         - -1.7289645413764252e-03
         - -3.3118048606598748e-03
         - 3.3941329745580525e-03
         - -1.7819828939463097e-02
         - 4.8698305295429792e-03
         - 8.9744968743297616e-03
         - -4.7911105932007614e-03
         - -3.1833601846476610e-03
         - -2.1142238243878575e-04
         - -9.1784679224835922e-03
         - 6.6668432738833808e-03
         - 9.2178465572704572e-03
         - 5.9741821633631110e-03
         - 2.1397931369230151e-03
         - -3.9429634377909202e-02
         - -7.6328475267498979e-03
         - -1.1354744201524202e-02
         - -1.0277644899992512e-02
         - 3.7874333966334021e-03
         - -6.8173923336496472e-03
         - 1.0008261428635272e-02
         - 1.3338197496816802e-03
         - -4.1964516821621440e-03
         - 6.1576491918649383e-03
         - 1.0830518644832195e-02
         - 1.1782457643113595e-03
         - 5.2412069523811002e-03
         - -6.0685779679907877e-03
         - -2.7016697206995719e-03
         - -6.3561391988674384e-03
         - 9.5422863850297465e-03
         - -1.6533916413206421e-03
         - 1.3283459289931038e-02
         - -6.0570436030674612e-04
         - -1.5644916005151253e-02
         - -1.5658831121259705e-02
         - 7.2668241622022471e-03
         - 6.1900839899538488e-03
         - -6.8379037140773140e-03
         - -4.8310017337140207e-03
         - 3.5692035635455357e-03
         - -1.3303199837163817e-02
         - -2.8955520222399985e-03
         - -3.8665145322422244e-03
         - 3.0999925094435470e-03
         - -1.8480347081858419e-03
         - -1.0101487281080812e-02
         - -8.3495577270297910e-03
         - -1.4605264658440996e-03
         - -6.8440665552901565e-04
         - 5.5737657531722091e-03
         - -4.5287514806468089e-03
         - 6.1334443188958533e-03
         - -3.1930701907074234e-02
         - 6.4488637833160231e-03
         - 1.3362213050821666e-02
         - -9.1077915271121149e-03
         - 3.2696711388037320e-03
         - 8.9243987648477564e-03
         - -1.2258550107122835e-02
         - 9.8746323761731841e-03
         - 1.7105011537146990e-02
         - 2.0759849186417496e-02
         - -1.3047845083432137e-02
         - 6.8832946281808518e-03
         - -1.5844680237273732e-02
         - -2.6654543237448453e-02
         - -1.0849112154362081e-02
         - -6.2759916510932495e-03
         - -2.2187391995819900e-02
         - 8.5633821127989573e-03
         - 1.0874589287704356e-02
         - -1.4431904318140568e-02
         - 4.0103029590931021e-03
         - 2.3911774678849432e-02
         - 1.6970002315291076e-02
         - 9.0495142698233527e-03
         - -2.4986254415256526e-02
         - 4.6172341956255917e-03
         - -9.8374946680269450e-04
         - 3.0804355291163949e-02
         - 1.9173105013758398e-05
         - 3.5266801279556233e-02
         - 1.3249668896589194e-03
         - -1.2363097892407185e-02
         - -2.9395917672579555e-02
         - 3.1427764943834690e-03
         - 1.0253554778526826e-02
         - -1.1343829083990283e-02
         - -1.3172692940237037e-02
         - 1.2445218686032316e-03
         - -2.0233820331573858e-02
         - 3.8383388902882625e-03
         - 2.6086128201548561e-03
         - 7.3874003402883900e-03
         - -7.3456297685226225e-03
         - -2.3592649927079302e-02
         - -3.5148745215900492e-03
         - 5.5298305376678706e-03
         - -3.7652280667552544e-02
         - 6.1213694869520462e-03
         - -4.3022339031225237e-03
         - 1.3675480926876074e-02
         - 1.8869028114525441e-02
         - -2.4143962980940362e-02
         - -9.2383999956602552e-03
         - 6.2071290644263935e-03
         - 4.2060075331590464e-04
         - -4.6220189499543759e-03
         - 2.8509805421010124e-03
         - -8.8507320201743327e-03
         - -1.1927682402909135e-02
         - -3.7126547299380482e-02
         - 7.0419592073557658e-03
         - -6.4276783694024592e-02
         - 4.0444503559908798e-03
         - 4.7181527898290812e-03
         - 5.8937474472191380e-03
         - 9.7795361669162023e-04
         - 8.7081167921400689e-03
         - 1.1307527365852473e-03
         - -2.7834423453498348e-03
         - 1.2763177207596840e-02
         - 1.8514766847132285e-03
         - -1.6627879680422585e-02
         - -2.2307633553847860e-03
         - -8.4829435903097487e-03
         - 8.6642847114207205e-03
         - -3.6210356908863685e-02
         - 6.5199577094563043e-03
         - -9.9585468798887231e-03
         - 6.9307840126479944e-03
         - -6.7497950928564919e-03
         - 1.1251036229314472e-03
         - -4.6443229562865070e-02
         - 1.6720984446176725e-02
         - 1.6456200522619953e-03
         - -6.3129450781610700e-03
         - -2.5241148423678834e-03
         - 1.5599119350423234e-02
         - 2.6810725845387545e-04
         - 1.4090058391766656e-02
         - -8.1638459401602616e-03
         - -1.1834838073530446e-03
         - -2.8768619239791038e-03
         - 4.1270566346562915e-03
         - 1.6078496158001727e-02
         - -2.6875592604979167e-04
         - -5.6903537786101351e-03
         - 2.9774276940887257e-03
         - 3.0734647859784934e-03
         - 6.5513811681396014e-03
         - -1.4753453123235347e-02
         - -1.3436148107790325e-02
         - -9.6533616932126289e-03
         - 3.6166539400138277e-03
         - -1.5553194168982940e-03
         - -2.6070157505440113e-03
         - 1.7913368451865541e-03
         - -8.2830346002762262e-04
         - 3.4113986881140865e-03
         - -1.6042660639779332e-03
         - 8.4223450635054382e-03
         - -6.5708124197786750e-03
         - -7.2232452445225165e-02
         - -8.9719780259567561e-03
         - -3.5695643225289318e-03
         - -7.1054205580249382e-03
         - -5.3482254719722233e-03
         - -1.5125896939517117e-02
         - 1.9933191427624953e-03
         - -5.8934068325731676e-04
         - -6.9846131441406141e-03
         - -1.8969825140391187e-03
         - 7.2111716520967166e-03
         - 8.6894840516398807e-03
         - -8.9645342987720237e-04
         - -1.3939361184328862e-02
         - 1.0553585530838645e-02
         - 1.2187277294128101e-03
         - 9.5450187441002803e-03
         - -6.1330159459645518e-03
         - 4.3527625266884130e-03
         - -2.7514026426491800e-03
         - -2.4921185772490625e-02
         - -1.3871076683210946e-02
         - -9.9752600292688778e-04
         - -1.9736704042178422e-03
         - -5.4516312975824450e-03
         - -8.2481329315595101e-03
         - 4.8218229347354088e-04
         - 1.1885213965910581e-03
         - 5.3497968425799706e-03
         - -3.5125549093777582e-03
         - -4.4926967082094813e-04
         - -7.5508838354166668e-03
         - -1.0503670022972139e-02
         - 3.5424051352174113e-03
         - 5.2565576962842510e-03
         - 9.9582708409974401e-03
         - 8.4924717936627327e-04
         - 3.0436024856998222e-03
         - 6.3134240199733674e-03
         - -1.4120115938898207e-02
         - -7.0333637262389101e-03
         - 3.8432340336346724e-03
         - -2.2159704369082930e-04
         - -6.0160937163213914e-04
         - 2.8639201109703595e-03
         - -5.5336692889002099e-03
         - -1.5730506085995914e-03
         - 2.4616384451458819e-03
         - 1.8007154323681791e-02
         - -4.2356655935866377e-03
         - -2.7247778533452817e-02
         - -6.7440926370274847e-03
         - 2.9162053989666674e-04
         - -9.2104779856286428e-03
         - -7.0391692258532255e-04
         - -1.1808116439378773e-02
         - 1.8647822533899825e-03
         - 4.7782751070817846e-03
         - 1.1667861926386793e-03
         - 5.8035524054073379e-03
         - 1.4271149623213623e-03
         - -9.9253216650668731e-04
         - -7.4578593309421561e-04
         - -7.4042948582292547e-03
         - 2.5007179636635787e-02
         - -7.9195251586094598e-05
         - 1.6345103769652364e-03
         - -4.2286495534068031e-03
         - 1.0807102184711178e-02
         - -4.0845214832639304e-03
         - -9.0820414262792230e-04
         - -1.0364688784060357e-02
         - 6.7363082201373345e-03
         - -2.0061058146646393e-03
         - -7.9148974253332957e-04
         - -8.2993256679041415e-03
         - 6.7277578623523915e-04
         - -7.2898956926522856e-03
         - 1.8438417416438457e-03
         - 2.0231727957209966e-03
         - 3.8494595870630162e-03
         - -1.4180529773725824e-04
         - -7.9476327724698273e-03
         - 4.4356490886701764e-04
         - 2.8981202432816892e-03
         - 1.1151498671385705e-02
         - -8.7690745411264236e-04
         - -6.4756704380896698e-03
         - 1.5012536048079510e-03
         - 1.3314948786650693e-02
         - -5.4967590530713940e-03
         - -8.2874253168393457e-03
         - 5.3077297447845602e-03
         - -4.5789040082808777e-03
         - -1.3749885972461668e-03
         - 3.5217280243559717e-03
         - -1.9839458423841377e-03
         - -3.4322102716302112e-03
         - -1.8961456673903351e-02
         - 6.5985445628495574e-03
         - 6.2008754283027261e-02
         - -1.5666850793896764e-03
         - 6.9788163969359083e-03
         - 1.0516948858537848e-02
         - 5.8885110355490992e-03
         - 1.2835180704074777e-02
         - -3.1871715189131983e-04
         - 1.2731838630943263e-03
         - 7.0070028448492999e-03
         - 1.1536502436998290e-03
         - -8.7149442770941363e-03
         - -2.8746201712285847e-03
         - -1.2911489339587990e-03
         - 6.3788325300101157e-03
         - -1.0946351625016058e-02
         - -2.0136675761003374e-03
         - -6.4850839363982723e-03
         - 7.6735892005090492e-03
         - -8.9860484941534213e-03
         - 9.4154805302600774e-05
         - -3.3446819168802457e-03
         - 1.4962951671073785e-02
         - 1.0068619794610172e-03
         - -6.2430559291046300e-03
         - -4.2573234899395095e-03
         - 2.3482410249274874e-02
         - -5.2535223292682724e-03
         - 4.7315168506578244e-03
         - -3.2704123039508965e-03
         - 1.2094966386784838e-03
         - -2.7022080741633059e-03
         - 8.0693741408755220e-03
         - 3.9883534988433235e-03
         - 8.0788072888330967e-03
         - -4.2888119491384319e-03
         - 8.9953581585424883e-03
         - 5.0308227709855696e-04
         - 6.8140544685283549e-03
         - -3.2966799362379251e-03
         - -3.6167028953360653e-04
         - 1.7910754516978579e-02
         - 4.6152356581916926e-03
         - -6.2485585030180443e-03
         - 4.6712797026349931e-03
         - 6.5197822267153965e-03
         - 1.4267932163864172e-03
         - 5.6918230993419396e-03
         - 7.1852907719627520e-03
         - -5.2874256991046996e-03
         - -1.0250790273234459e-02
         - 4.8877654313945945e-02
         - -5.7853940404589783e-03
         - -1.5743526098152267e-03
         - -7.3428793669267182e-03
         - -5.9629698063852479e-03
         - -1.1448122783501831e-02
         - 8.9599783811354465e-03
         - 5.9478374706490092e-04
         - -1.1050037326661849e-02
         - 6.4047828944505288e-03
         - 1.2946944576663597e-02
         - 8.0226660051108418e-03
         - 4.7829109498106776e-03
         - -3.0753000538101677e-03
         - -4.9976039217553888e-03
         - 2.7403579140550085e-03
         - 1.5126602213481591e-03
         - -4.5306128296312862e-03
         - 8.2732669115056726e-03
         - -2.7803464672907126e-03
         - 3.0084586548512014e-02
         - 2.3450195035294124e-03
         - 2.2478149600556384e-04
         - -2.2284302559744079e-03
         - 3.6984513349744863e-03
         - -2.2847143641862100e-03
         - -6.4085223227214128e-03
         - -3.1941816179767530e-03
         - 2.0621915033918400e-03
         - -3.6224174458292569e-03
         - 1.2274198966091878e-04
         - 4.6414115638542208e-04
         - -1.4352817435357421e-02
         - 1.2748408021082580e-03
         - -2.2695491496026272e-03
         - -1.0918519361238692e-03
         - 5.2434376637552243e-04
         - 4.0649358618668960e-03
         - 2.5861620824455403e-03
         - -6.6831865561929810e-04
         - 2.2362639642903543e-02
         - 5.1234046963581636e-03
         - 9.7949166303726277e-04
         - 1.5213403986606819e-03
         - 8.9286880433084997e-03
         - -8.5568426097109109e-04
         - 5.7168439231571081e-03
         - 7.5987338590806745e-03
         - 5.2354292976279290e-03
         - 1.2062755242439979e-04
         - -1.7810150970315575e-02
         - -4.8435839279926344e-03
         - -1.1118656909369173e-02
         - -6.8792350179330162e-03
         - -6.9895238361949120e-03
         - 1.4959959624443893e-03
         - 1.2412243831947526e-03
         - 6.9786436992407604e-03
         - -9.6671334734067960e-03
         - 5.6681094177773424e-03
         - 1.3186023471551478e-03
         - -7.1199361953220371e-04
         - -1.3521750992970939e-03
         - 3.5859541657279393e-03
         - 1.0121315747761201e-02
         - -1.1150968753431676e-03
         - -4.5937118482012396e-03
         - -9.0741747162164028e-04
         - -1.6721704733829597e-03
         - -4.3128265154766159e-03
         - 1.6830425606211393e-02
         - 1.3416573380578644e-02
         - 3.2016556299916885e-03
         - 1.5561786522836623e-03
         - -1.9963811082513274e-03
         - -2.6718052731235435e-03
         - 2.6024932549931598e-03
         - -1.0604338556668758e-02
         - 2.1781842155582953e-03
         - 3.7596411435806463e-03
         - 5.9828127593289700e-03
         - 2.0801499409309841e-03
         - -5.9490714045720618e-03
         - -3.4457497070306383e-04
         - 3.6589150926849127e-03
         - 1.6018259003771677e-02
         - -3.4814725066924773e-03
         - 3.5115083614528212e-03
         - 7.8686545554885398e-03
         - -5.8288954262231216e-03
         - 1.3555036046640170e-02
         - 4.6912783477338037e-03
         - 3.7844479905928541e-03
         - 5.3141772513334174e-03
         - -4.5206598985532377e-03
         - -3.2130385946135048e-03
         - 1.1040931651712805e-03
         - 9.1294199811860696e-03
         - 1.3679027215992205e-02
         - -6.6703475263479766e-03
         - 1.3352801422181728e-02
         - -4.6758604471367230e-03
         - -1.2115550999506605e-02
         - 3.7646264019350951e-03
         - -7.1249618131547666e-03
         - -2.6748128437402178e-03
         - -7.9634936350516170e-05
         - -6.0689487483019684e-03
         - -3.8812475001294730e-03
         - -3.0353680702642355e-03
         - 3.1288117565556081e-03
         - -5.6177375037461215e-03
         - -2.6841623977850279e-03
         - 5.3986135033359164e-03
         - -2.7161472581802323e-03
         - 4.2280549416499865e-03
         - -6.0838639006891623e-03
         - 1.3448616100398176e-03
         - 1.0833273081437397e-03
         - 3.3684787585976910e-03
         - 4.1750174572993126e-03
         - 1.5032624879552532e-03
         - 3.9657293341323089e-03
         - 1.3745147847971299e-03
         - -3.4408800201719092e-03
         - 2.5731776084657191e-03
         - -2.4015831571398663e-03
         - -7.0699856299643680e-03
         - 1.4550462647691415e-04
         - -2.6842664092600172e-04
         - -4.4820998837134902e-03
         - -2.4975392426064219e-03
         - -3.2554868042777379e-03
         - -1.0471147150780383e-03
         - 3.6665337175189679e-03
         - -6.1795932427503907e-03
         - -1.8937212317764963e-03
         - -4.9424846620287344e-03
         - 3.8387873843497445e-03
         - 7.7225430360319874e-03
         - -6.9851215043781768e-03
         - 1.4620079367600677e-03
         - 4.9620828760031264e-03
         - -4.7416111196568389e-03
         - -1.0569871592817266e-02
         - 5.4894235585087716e-03
         - 1.2101983066283180e-03
         - -1.3337272880949207e-02
         - -1.8122158507580498e-02
         - 5.6850263308077485e-03
         - -6.8242123589101741e-02
         - -8.2710752213482680e-04
         - 3.7578753371998374e-03
         - 4.5490972078181648e-03
         - -2.9230645907299397e-03
         - 8.8515122717102174e-03
         - -8.8385735072365988e-03
         - -7.6444546845499794e-03
         - 1.0484694657971168e-02
         - -1.6025894517689039e-03
         - -6.1943935582970625e-03
         - -1.2170575635695336e-02
         - -5.5527606605452334e-03
         - 1.1873949789651219e-02
         - -2.6767123692597442e-02
         - 1.6488392125540647e-03
         - -7.6021226418856178e-03
         - 1.9119037643076126e-03
         - -1.8107915921026074e-02
         - 4.0387008469697548e-03
         - -2.6320335654556895e-02
         - 1.6312225885393543e-02
         - -1.2708450395701048e-03
         - -3.6870010521689246e-03
         - 1.4149260863807066e-03
         - 2.5746606214723949e-02
         - 2.7101554381096624e-03
         - 6.7639951019508185e-03
         - -1.8922542592490032e-03
         - -1.8794222856938828e-03
         - -7.3836611637360531e-03
         - 7.5772005743641830e-03
         - 1.6228563420327812e-02
         - -2.1396915529839295e-03
         - -8.3520729158444371e-03
         - 1.4397391277339645e-02
         - -7.1492655198381310e-03
         - 1.9924556302579124e-03
         - -8.6244081102981162e-03
         - 8.3642007016134102e-03
         - -2.2889484338570840e-02
         - -8.5198013448669809e-03
         - -2.1194449140490073e-03
         - -6.4014468463314900e-03
         - -1.5463356912390988e-03
         - 4.3565354930347995e-03
         - -8.8572258560456057e-03
         - -1.5483737025389710e-02
         - -2.7578962645747451e-02
         - 4.3097314556196191e-03
         - -3.4295178969473351e-02
         - 9.2791578201489328e-03
         - 6.3476626380425324e-03
         - 2.3887603085944497e-03
         - 3.4947482624479330e-03
         - 1.1686870456117061e-02
         - -5.5096600128193641e-03
         - -5.4936939561940042e-03
         - 1.0451875546958467e-02
         - -4.3210516322658285e-03
         - -9.4346461770076859e-03
         - -9.1229486990264917e-04
         - -8.7148740362094513e-03
         - 7.3191200491022146e-03
         - -4.0121226139186728e-02
         - 6.1054938785958541e-03
         - -7.7036759067117232e-03
         - 6.6068060058046872e-03
         - -1.1792168384857488e-02
         - 4.8535477381902422e-03
         - -4.5747163220684769e-02
         - 6.7852240470151889e-03
         - -6.7308636131809571e-04
         - -4.3894384251352107e-03
         - 5.1826332412863822e-03
         - 2.6923267875241356e-02
         - 3.5139942608753568e-03
         - 1.4110870264353842e-02
         - -4.3188417635503093e-03
         - -6.5975885535115722e-03
         - -5.1193629300580711e-03
         - 3.0566880621481327e-03
         - 1.0288017042222477e-02
         - 5.0856132305116628e-03
         - 1.5109560740751793e-03
         - -3.4039904024385954e-03
         - 2.8907242227724540e-03
         - -5.5504430226570854e-04
         - -9.2468914221447828e-03
         - 1.2141878181699241e-02
         - -2.2460926980059123e-02
         - -8.2273225171038151e-03
         - 2.3188371658789601e-03
         - -7.6072916726965230e-03
         - -8.3943044491052478e-03
         - 1.2971936322059542e-02
         - 5.8761218802699116e-04
         - -1.8960812240618366e-02
         - -3.9531549012531586e-02
         - 9.9027792870266893e-03
         - -9.3824099330053784e-02
         - 1.0409243566723290e-02
         - 1.1550825657511404e-02
         - 5.4925047392214840e-03
         - 4.0254249181845428e-03
         - 1.2648247145733784e-02
         - -7.0545265423233913e-03
         - -3.7240574120190454e-03
         - 9.2585388988651093e-03
         - -1.0221962900832640e-02
         - -1.4972154339817559e-02
         - -9.4702146002510063e-03
         - -1.0923230067773746e-02
         - 1.1826345678744516e-02
         - -3.9991923493290726e-02
         - -2.6163202197438569e-03
         - -1.3744482033861530e-02
         - 6.6523813748693714e-03
         - -8.8082618231944618e-03
         - 1.6033538305641765e-03
         - -4.8554243080864985e-02
         - 2.4890296694329423e-02
         - -1.1379984920627145e-03
         - -8.0711148898379350e-03
         - 6.7712051490514992e-03
         - 1.2770544524084234e-02
         - 5.3092760879325709e-03
         - 9.7479363877902344e-03
         - -5.7305236523532760e-03
         - 1.8277434228263102e-03
         - -8.5014931901310747e-03
         - 4.4107059671684885e-03
         - 1.9762031254379926e-02
         - 8.4653935416894276e-03
         - -1.0807808832753874e-03
         - 1.1971423323092400e-02
         - -5.8857269405328868e-03
         - -9.3228458169104843e-04
         - -1.7116752022566989e-02
         - -3.1739676453960079e-02
         - 8.2149456334328561e-03
         - 7.2246364236038373e-03
         - -1.1320835265413885e-02
         - 6.4106395481299165e-03
         - 1.3418478511667319e-02
         - -1.5128302146421765e-02
         - 2.0170471175856852e-03
         - 1.7626498548475502e-02
         - 2.9452134931914425e-02
         - -8.9379060114365069e-03
         - -5.5196431325737254e-02
         - -1.2899463093077988e-02
         - -1.6755015952444604e-02
         - -1.4358750145524443e-02
         - -5.3323791195393835e-03
         - -2.3539416448256516e-02
         - 9.0413055811333024e-03
         - 1.7141022286110877e-02
         - -1.8090496302820409e-02
         - 5.8496620128830491e-03
         - 1.6339028189854051e-02
         - 1.9885052218592783e-02
         - 1.5392567212411260e-02
         - -1.9746914089537410e-02
         - 2.3988844938814487e-02
         - 1.1244060501129946e-03
         - 2.6507927851280519e-02
         - -1.7292275815573713e-03
         - 2.5441731608407556e-02
         - 2.9248271350191383e-03
         - 1.6128944038399401e-02
         - -2.6766106957370420e-02
         - 6.1951863661256820e-03
         - 9.4085301624911074e-03
         - -6.9585238385659791e-03
         - -2.5948280701749440e-02
         - -3.6075660598682236e-03
         - -1.7692849233802859e-02
         - 4.4462262795448978e-03
         - -5.7542154843929604e-04
         - 5.7181439838876425e-03
         - -2.2314183634758486e-03
         - -2.6614749896112233e-02
         - -1.0150812973678548e-02
         - 6.0166994200629527e-03
         - -1.7774269079103986e-02
         - 5.4994804810693217e-03
         - -8.9814520887187849e-03
         - 1.3349488212715220e-02
         - 2.7746213628038496e-03
         - -1.1790712685714492e-02
         - 1.4262597796898633e-03
         - -2.5593958296153962e-03
         - 3.1907839304724170e-03
         - 2.7808092981145981e-03
         - -2.3996549412395917e-03
         - 1.6268672888799731e-03
         - -1.2589487040725779e-02
         - -3.8461123726603627e-03
         - 1.0493372909847099e-03
         - -4.4668442854580735e-02
         - -3.9129132979826339e-03
         - 5.5285654750556728e-03
         - 4.2545176212323583e-03
         - 3.2115970205079569e-03
         - -3.0337909097602364e-05
         - -6.5599256411385458e-04
         - 2.2342012755452198e-03
         - 2.0557044684393799e-03
         - -1.7915862991782670e-03
         - -6.2009472997995273e-03
         - -4.8071489333245832e-03
         - 5.4299036179041092e-04
         - 4.8018664684566486e-03
         - 1.5585230699933015e-03
         - 2.7592522193199474e-03
         - -4.0154663838974196e-03
         - 4.2393683329831544e-03
         - -9.0085773402243489e-03
         - 4.8705498834449249e-03
         - -1.3463082880375555e-02
         - 1.2117853470738599e-02
         - -4.2152132632105391e-03
         - -3.1515169221748274e-03
         - 4.8155768610349649e-03
         - 1.9069168628066025e-03
         - 4.2819121632741673e-03
         - 3.6168456381242554e-05
         - -1.2031768789376976e-03
         - 3.4312627524478705e-03
         - 2.1588557425458055e-03
         - -1.2773971616424160e-04
         - 4.8665534454044954e-03
         - 4.8960025619332872e-03
         - -6.6662761437591474e-03
         - 2.0654094563358642e-02
         - -1.7296835336899871e-04
         - -3.1020419291069522e-03
         - -3.8375325219034521e-03
         - -2.0387969759550150e-03
         - -1.8758853784871517e-03
         - -2.8338377338099200e-03
         - -6.0300099978906102e-04
         - 3.3026945675093994e-03
         - -2.3987460606633435e-03
         - 5.0042582243527787e-03
         - 3.8661962435338742e-03
         - -2.6474595462316385e-03
         - -2.7372076580565105e-03
         - -1.8059361378917644e-03
         - 5.6208430153848452e-02
         - 5.0670959680478554e-04
         - 7.1932049337694029e-03
         - -1.2615266095632913e-03
         - -2.3768209498761222e-03
         - -2.3043870305370679e-03
         - 3.8704889602821820e-03
         - 3.1558282238549311e-04
         - -3.8908536732671331e-03
         - -1.5461144141719681e-03
         - -4.1146375719036182e-03
         - -7.3783152001675742e-03
         - -3.2869346152805240e-03
         - 7.6615465593665721e-03
         - -2.9562497314752040e-03
         - 5.1962969747238949e-03
         - -3.8653553328609550e-03
         - 2.7337834894876618e-03
         - -4.6134066504640425e-03
         - 6.6332471191493571e-03
         - 1.5184141509336304e-02
         - 3.1896826205512355e-03
         - -3.1396825729429825e-03
         - 1.3027382166699620e-03
         - -3.0004961264482452e-03
         - 1.1073940355882522e-02
         - -4.4200924618405628e-03
         - 2.8202293339869540e-03
         - 5.7172309903859540e-03
         - 2.7059210918903278e-03
         - -4.2329011249973092e-03
         - 4.9044379660194625e-03
         - 1.7222388725625125e-03
         - -2.3228067473045943e-03
         - 2.7406510023131473e-03
         - 6.1833659149084907e-04
         - -4.4041884109168013e-03
         - -3.9967505326908032e-03
         - -1.2497324321250934e-03
         - -1.2683794113192199e-02
         - 2.2522926029284667e-02
         - 4.3607011868268438e-04
         - 7.4299815643641268e-04
         - -8.1092642110448853e-05
         - 9.0262909667261047e-03
         - -2.7586444504079260e-03
         - 3.4258509925663527e-03
         - 2.1760237111196148e-02
         - -7.9696575486050084e-03
         - -3.2672531922718130e-03
         - 3.3616824430572151e-02
         - -5.3489191957724926e-03
         - -5.4557796234771649e-03
         - -1.3576530915852338e-02
         - -8.5972870540598802e-03
         - -1.0309981585039214e-02
         - 2.4017595745214485e-03
         - 5.3279670451046920e-03
         - -4.2736891635925698e-03
         - 7.5488650056777266e-03
         - 1.2764146009438192e-02
         - 1.1482947389069267e-02
         - 1.0862785057856003e-02
         - -9.9119533141890075e-03
         - 2.1394142809154750e-03
         - -2.0852621142302928e-03
         - 1.1696037172039252e-02
         - -5.5752479036433478e-03
         - 1.1917732287470270e-02
         - -4.2586899432274367e-03
         - 5.5130448775375818e-02
         - 1.7019328838113502e-03
         - 5.9810146227415682e-03
         - -1.6395149360967157e-03
         - -7.2427334423962009e-04
         - -2.3494228282292359e-03
         - -2.6405252761649007e-03
         - -1.2684013394782256e-02
         - 1.0566680848338388e-02
         - 1.1707623895334061e-03
         - 9.7840424233113454e-04
         - -3.5866556018725954e-03
         - -1.2770675037441578e-02
         - -5.1934146079885236e-03
         - 9.9692297976871017e-03
         - 4.8803320443016589e-03
         - 1.9337047073326376e-04
         - 2.0274552350018804e-03
         - 1.0603747839808107e-02
         - 2.3308057304500386e-03
         - 2.3770012936656031e-02
         - 9.1520042218739964e-04
         - -6.7257036262498215e-03
         - 5.0830172033319238e-03
         - 1.9665286512532674e-03
         - -6.1885092745844238e-03
         - 4.4170591937574459e-03
         - 1.5238512306827285e-02
         - -5.6032756797422907e-03
         - -2.4947538754338141e-03
         - -9.6782921962322958e-03
         - -3.3854696780727112e-03
         - -4.1371479602204100e-03
         - -8.5416895161744659e-03
         - -6.1409833075780752e-04
         - -6.9766857562634363e-03
         - 1.7109805785170816e-03
         - -3.0496545564878490e-03
         - -1.0615589416907510e-02
         - 4.5487776828549891e-03
         - 2.1238583622208707e-03
         - 8.7156374463572429e-03
         - 7.3598594485412760e-03
         - 4.9205521001468135e-04
         - -8.9839508123378702e-04
         - 1.6497494783719797e-03
         - -3.2334683365724429e-03
         - -6.6999746222690688e-03
         - -2.3132878737406803e-03
         - 1.5455640154933485e-03
         - 3.7768553548786887e-02
         - 1.5673246046059228e-02
         - -3.9415828444149328e-03
         - -4.1321230199519686e-03
         - -3.5965080631234652e-03
         - -2.5447742440883755e-03
         - -1.4564276816888724e-03
         - -4.9964585625557958e-03
         - 8.9268640825501460e-04
         - -2.9715758201264999e-03
         - -5.0689214996261502e-04
         - 2.3806442794043650e-03
         - -1.7129713996180231e-03
         - -6.0763378907633409e-03
         - 7.4407442395013415e-03
         - 1.2783471716279884e-02
         - 5.5991690794428032e-03
         - 4.0649075587571908e-04
         - 3.9831383131482215e-03
         - 1.0542097841562993e-02
         - 7.0539945002860028e-03
         - -7.8720724717466026e-03
         - 1.1964074607604550e-03
         - 3.3709936564230727e-03
         - -3.8369274011824418e-03
         - 4.8577829961275977e-03
         - -5.4152154884038548e-03
         - -1.1702573643612607e-02
         - -7.0887497874459497e-03
         - 4.6649217031338105e-03
         - -6.9665115197972416e-03
         - 1.1560243355372887e-02
         - 5.0282715227517741e-03
         - 2.2815083412426993e-03
         - 7.8636754943096215e-04
         - 1.0055375151577178e-02
         - -9.4172983019135403e-03
         - -1.3543058166669904e-02
         - 4.9368411746876333e-03
         - -9.7274883826696534e-04
         - -1.0646610997850685e-02
         - -7.4933059442040774e-03
         - -2.2288793305115105e-03
         - 1.5645335122945025e-02
         - -2.0295689759158211e-02
         - 6.3512942552812193e-03
         - -1.5393825140825924e-02
         - -2.6971075048885440e-03
         - -1.4954799991947080e-02
         - -9.7235245241184887e-04
         - -6.4618902111143678e-03
         - 1.6090663256753839e-02
         - -2.0504651197932886e-03
         - -1.1817784586217185e-02
         - 1.6277925468642311e-03
         - 1.8927014208618777e-02
         - -4.1522522042259863e-03
         - 1.0367102174893493e-02
         - -7.5338234316933825e-04
         - 2.5206485598457907e-03
         - -1.1817416852173725e-02
         - 8.7191235589395271e-03
         - 8.6648262828795779e-03
         - 8.3829026358456780e-04
         - -4.4667976734623725e-03
         - 9.3346591380104524e-03
         - -2.6388762012459887e-03
         - 4.8483452441137097e-03
         - -9.9075165103106651e-03
         - 5.2601929691963598e-03
         - -1.0241442490045140e-02
         - -3.8725332211458009e-03
         - -3.4568175708805352e-03
         - -4.1997417502322876e-03
         - 2.5988102271805156e-04
         - -4.6237581962192432e-04
         - 3.1997897634542475e-03
         - -3.3661628416434028e-03
         - -5.2377594940232900e-03
         - 9.1284350656256636e-03
         - -3.7407425044135391e-02
         - -4.9612311441965280e-04
         - 1.0929592115920022e-02
         - 5.5666902411196087e-03
         - 5.4460657126484437e-03
         - 3.6064822592019601e-03
         - -3.8838845644357674e-03
         - -5.6712949241943540e-04
         - 5.9047999599781938e-03
         - -1.0761616339832732e-03
         - -4.2137835865830404e-03
         - -7.0846783831275918e-03
         - -4.0284807314505035e-03
         - 9.9329312800975622e-03
         - -1.7541632442464858e-02
         - 3.0233255585287544e-03
         - -3.2587539919144725e-03
         - -6.1068121772835503e-03
         - -7.8036031584060670e-03
         - -3.4479924024179106e-03
         - -2.4873421844060124e-02
         - 8.2746299034178912e-03
         - -5.5846442959745501e-03
         - -7.0472049145342743e-03
         - 4.4202429110781722e-04
         - 1.5679844502824537e-02
         - -4.3850829700995773e-03
         - 7.3178107147932152e-03
         - 5.5007063737918833e-04
         - -3.4258859501113143e-03
         - 3.1472881927778608e-03
         - 1.8354046801085590e-03
         - 1.8641888373594395e-03
         - 7.2198727432716504e-03
         - -3.5125656450722647e-03
         - 1.2806657752980882e-02
         - 1.0560669643586114e-03
         - -3.1891636402771751e-03
         - -8.3353746141920284e-03
         - -2.3656618257363964e-02
         - 6.8165235524898478e-03
         - 7.6280914199335767e-03
         - -9.6183453006628717e-03
         - 4.7751154566901102e-04
         - 6.9722275260303268e-04
         - -8.5103764451959652e-03
         - 1.0195300890732386e-02
         - 9.5562146409121657e-03
         - 2.7678770926342203e-02
         - -5.6407049433189367e-03
         - -1.0211716234528477e-02
         - -1.0110098122012537e-02
         - -1.5345249936684433e-02
         - -1.2838801923613405e-02
         - -8.7046885437555219e-03
         - -1.4018325378809626e-02
         - 7.3412351493847700e-03
         - 1.2514734781812776e-02
         - -1.0398755128528758e-02
         - 8.9326733315553287e-03
         - 1.9249881453248689e-02
         - 6.1691660856397820e-03
         - 1.3647625848004706e-02
         - -1.9613800680737842e-02
         - 4.4389915686599197e-04
         - -3.8276117082481770e-03
         - 2.8034966520034500e-02
         - 2.5980078388893320e-05
         - 1.9290810187070240e-02
         - -3.5313728419733321e-04
         - -1.4237804312703902e-02
         - -3.1647353042851191e-02
         - 2.8363648020171962e-03
         - 9.8028916885716071e-03
         - -3.1351171268005733e-03
         - -4.6628979315706783e-03
         - 2.1433669439768288e-03
         - -1.7280415750685861e-02
         - -2.1534673767411908e-03
         - 4.5179452909061887e-03
         - 6.4217089661252258e-03
         - -7.2689321732323335e-03
         - -1.0596139295225328e-02
         - 1.6508468029975766e-04
         - 1.0915545817757619e-02
         - -3.4270921450397472e-02
         - -4.7948895911890054e-04
         - -2.8622952579758494e-03
         - 7.3441874912723174e-03
         - 1.8394506893015850e-02
         - -2.5198375389102596e-02
         - -9.7518226893140124e-03
         - 6.7096053248107542e-03
         - -7.6384379555411493e-03
         - -1.1206174162542933e-02
         - 3.0776995926369670e-03
         - 1.0186660236595553e-03
         - -9.6881925900784479e-03
         - -1.7064433869892180e-02
         - 1.2675620126835449e-02
         - -4.1754987127113598e-02
         - -4.9400315592325129e-05
         - 1.2119608571723802e-02
         - 1.3650406148295309e-02
         - -1.8296914377625240e-03
         - 1.1634396981236746e-02
         - -2.5338598377115302e-03
         - -1.1026558884007529e-02
         - 9.0321394536108275e-03
         - -6.7096564936187410e-04
         - -1.4543024667281648e-02
         - -1.1281963593989730e-02
         - -5.8879467310341081e-03
         - 5.0434669673915635e-03
         - -2.9168236417870481e-02
         - 2.5913842110836757e-03
         - -1.0286156277962071e-02
         - -2.6104140414680678e-03
         - -8.3159780601650430e-03
         - 5.1518811770576642e-03
         - -4.1105979627344719e-02
         - 1.5257334961391898e-02
         - -5.4643472827246124e-03
         - -6.6804804466625116e-03
         - -1.5389738840589297e-03
         - 7.5958031959543430e-03
         - 2.1801480654339120e-03
         - 8.3486650515288471e-03
         - -4.5485451578912324e-03
         - 5.6994162186179568e-03
         - 1.8525474642932006e-04
         - -1.1885281740421473e-04
         - 8.9364328391755080e-03
         - 2.5187417366081519e-04
         - 9.7288030509347704e-04
         - 4.9791121292722087e-05
         - 3.7663509225977568e-03
         - 1.7259809379082253e-03
         - -1.3660185885036294e-02
         - -2.6926162175588502e-02
         - -6.0944897084303550e-03
         - 1.0324074530643587e-02
         - 1.7491150522863270e-05
         - 2.3679215936682060e-03
         - 1.4166194147336037e-02
         - -6.4853795918095617e-03
         - 6.3133073182215860e-03
         - 1.4172111128894120e-02
         - 3.1113755037158235e-02
         - -1.0723336269786993e-02
         - -2.1642977803044902e-02
         - -1.1401599118238674e-02
         - -8.2559614679407565e-03
         - -1.0686858728359705e-02
         - -2.6075050257882092e-03
         - -1.2572281597555933e-02
         - 1.2705003294560563e-02
         - 1.4624563466331042e-02
         - -1.0291054685542388e-02
         - 5.1513112122870365e-03
         - 1.5147149820535655e-02
         - 1.4924507368768981e-02
         - 1.4247777270195973e-02
         - -1.3918360549151673e-02
         - 3.7369686027764061e-02
         - -1.6422360362245952e-03
         - 2.2894742410298867e-02
         - 3.0800210582336632e-03
         - 2.3154756238586857e-02
         - -1.3471305026621062e-03
         - -4.8582218526775018e-03
         - -3.0863877909232357e-02
         - 1.1670226232552920e-02
         - 1.0808779238302384e-02
         - -1.1636480336863527e-03
         - -3.0598754707111826e-02
         - 7.3540231963019700e-04
         - -6.1574108990312950e-03
         - 4.5874422882694801e-03
         - -4.0051925160937574e-03
         - 1.0006088399820702e-02
         - -8.4156387993065684e-03
         - -1.9271317338861116e-02
         - -6.5423041793800105e-03
         - 1.1594435771394816e-02
         - -1.9040423544524274e-02
         - 6.2140661332973747e-03
         - -6.6665710171234164e-04
         - 9.6390278690357076e-03
         - -6.0411524391801429e-03
         - -1.4572021535126108e-02
         - 2.5390915534004108e-03
         - -6.2769536041400525e-05
         - 3.5470258010983596e-03
         - 1.4956567795659098e-03
         - -3.6451482344674311e-03
         - 4.1100901883971384e-03
         - -1.0042795660852328e-02
         - 5.8801008864563025e-04
         - 4.3909079319336408e-03
         - -1.5214364456600741e-03
         - -5.1243386617680414e-03
         - 9.3793637068861086e-03
         - -2.6086059227863425e-03
         - -5.2026054430563615e-03
         - 3.1263856610650111e-03
         - -6.1070286489407532e-03
         - 5.2992354617565135e-03
         - 2.7958038178611958e-03
         - 3.3246046675067313e-04
         - -8.4475984855532165e-04
         - -4.1641646406804320e-03
         - -4.3275007998788938e-03
         - 5.3247691180284785e-03
         - 1.1394103440182589e-02
         - 6.5045968369960572e-03
         - -5.6955465105230276e-03
         - 1.9611457233850616e-03
         - -5.7918279020623504e-03
         - -2.3750502361999503e-03
         - -9.9465643354130200e-03
         - 4.0284939519776020e-03
         - -2.1417589501234874e-03
         - 5.3210618847390218e-03
         - 3.2734378951975638e-03
         - -3.1981750996221553e-03
         - -2.1738162350586608e-03
         - 8.8601498189204235e-04
         - 2.1084735753569882e-03
         - 3.2199656901825465e-03
         - -2.2671661912429947e-03
         - -1.5900523151203675e-03
         - 7.5500702415430155e-03
         - -8.7231776291169601e-04
         - -2.6312270828583680e-03
         - 4.6239876938867081e-03
         - -4.2201994914561657e-03
         - 1.9618366383470414e-04
         - -4.8719385191638657e-03
         - -3.1547327095815337e-03
         - 2.5415037173789163e-03
         - 3.4331299518566938e-03
         - -1.4162252920859174e-03
         - -5.2489862454270699e-03
         - -8.4101551792164890e-04
         - 4.0310758312610351e-03
         - -5.9297082928446744e-03
         - -4.4439242140952000e-03
         - -2.0270573375785441e-02
         - 5.5162660574405130e-03
         - 7.0185060952878464e-02
         - -2.5077100206599909e-03
         - 8.5844504143231977e-03
         - 7.0098147992438860e-03
         - -4.1458231525135624e-03
         - 4.3969606148311132e-03
         - -4.7636318752948695e-03
         - 4.0351723250456805e-03
         - -3.8674284652968184e-03
         - -5.9811269083264659e-03
         - 3.0247157351598721e-03
         - -7.3231230723557229e-03
         - -1.1204513416643125e-03
         - 5.9291279846178518e-03
         - -1.1351034143027149e-02
         - 3.1965461101262508e-03
         - -4.9733082658040193e-04
         - 2.2038230959738202e-03
         - -4.8871217817457804e-03
         - -1.4165365350389805e-03
         - 1.2408274513065750e-02
         - 9.1330318975956417e-03
         - -1.2491356716406354e-03
         - 4.8328240756296799e-03
         - 5.9093861600297585e-03
         - 1.6179787287363870e-02
         - 5.2506911503007467e-03
         - 8.1929910449880551e-03
         - -1.2310548499296487e-03
         - 1.2156509663092234e-03
         - -3.7123567515401777e-03
         - -2.8079662673161127e-03
         - 7.7771174344667959e-03
         - -4.6766508978724241e-03
         - 5.2249954188742899e-03
         - 1.1608111989640577e-02
         - 5.3875422402825069e-03
         - 2.5237566615434027e-06
         - -8.0419063190042342e-03
         - 1.4653565000889423e-02
         - 1.4714712803711760e-02
         - 2.4550849088001521e-03
         - 5.7527117873167784e-03
         - -4.4827959813746251e-04
         - -2.7692741561344330e-03
         - 9.0196203458056028e-04
         - -1.7633188188880924e-03
         - 7.1372380146500079e-04
         - -3.1414318881082738e-02
         - 3.8417910903526219e-03
         - 2.3708437141680635e-02
         - -1.2945739668588094e-03
         - 8.2464527019618979e-03
         - 8.3703344467193821e-03
         - 3.7415632754322216e-03
         - 2.4375921445085099e-03
         - -7.9847786362144298e-03
         - -5.2537230929365058e-03
         - 1.4058403455284112e-03
         - -3.8799908720883649e-03
         - -5.7235466793712038e-03
         - -9.3786344995864992e-03
         - -3.9451004288068138e-03
         - 3.2042244548776240e-04
         - -1.6528356202158472e-02
         - 5.0380515137909213e-03
         - -1.0254732791318943e-02
         - 2.4936158668074975e-03
         - -1.3814839123487433e-02
         - -4.0794789950024616e-03
         - 2.2298179246152728e-02
         - 2.7745007590942752e-02
         - -6.7489090979371584e-03
         - -2.0456269416304823e-04
         - -1.4792167907865979e-03
         - 2.0953158381703439e-02
         - 9.8481934759094393e-04
         - 2.3958843865635880e-03
         - 5.3239074769278133e-03
         - -1.3620063906931417e-03
         - -5.5623354488608173e-03
         - 5.3178589026240753e-03
         - 5.8845887548899843e-03
         - 6.5982016603711759e-03
         - 4.6219340025270068e-04
         - 3.1309180156796013e-02
         - -2.2401513785424735e-03
         - 5.0389208980701917e-03
         - -9.8887027073361680e-03
         - -1.7986738080278859e-02
         - 3.4992747972653761e-02
         - 6.3646956894042031e-03
         - -7.8942642542659223e-03
         - -2.6418044531118981e-04
         - 9.9060907533188528e-03
         - -1.1917254099743950e-02
         - 1.3548124529340810e-03
         - 2.1974331945879728e-02
         - 2.3414750135736406e-02
         - -7.4350061217659377e-03
         - 2.8399810017272452e-03
         - -6.6507106501937996e-03
         - -1.7442429005701525e-02
         - -1.2777467247396817e-02
         - 7.0762030267943951e-04
         - -1.3459423811211473e-02
         - 6.7914879400626862e-03
         - 7.3004619925168285e-03
         - -7.5329121303369219e-03
         - 5.2520930117577304e-03
         - 1.5461805990520943e-02
         - 1.3262716621089340e-02
         - 9.1091166682705903e-03
         - -1.5945607654854588e-02
         - 2.1454634721614789e-02
         - -1.6190415240590042e-03
         - 9.1482856786587793e-03
         - 1.9127959702703924e-03
         - 7.2215455810862072e-03
         - -4.4802395017628409e-03
         - 3.9348914088933817e-02
         - -1.1962141262896271e-03
         - 7.3189104751882374e-03
         - 8.6261500921670699e-03
         - -6.5985365651541417e-03
         - -1.3926067749893889e-02
         - -2.9879384633860933e-03
         - -9.5368584737055961e-03
         - 3.1112378079223009e-03
         - 4.8681677990086211e-03
         - 1.9954599959391352e-03
         - -3.8955023356099959e-03
         - -1.6189014841686774e-02
         - -3.5372624195559796e-03
         - 1.1964086405890298e-02
         - 7.8196310564658186e-03
         - -1.0574136428567243e-04
         - -4.1467913381045395e-03
         - 1.5044621866282479e-02
         - 7.9420359088453792e-03
         - 6.8285435327431025e-03
         - -6.7491415403337267e-03
         - 8.3034876683493516e-03
         - -4.3266157990490776e-03
         - -1.2745535644346774e-02
         - 5.5681838163554158e-04
         - 1.0990485470997130e-03
         - -3.3083673134570030e-03
         - 1.1354148179750754e-02
         - 6.5456027195930364e-03
         - 2.9738486744510747e-03
         - 3.9446301658599492e-03
         - 5.5487665331708218e-03
         - 1.6755486449334066e-03
         - 3.7958501265919188e-04
         - 1.7781118015247815e-02
         - -5.8231432412980799e-03
         - -9.6452714267209038e-03
         - 1.8539693052901231e-03
         - -7.0882670531090264e-04
         - -1.0542602337475207e-02
         - -6.2426641552335389e-03
         - -8.0443234338590866e-03
         - 1.3769482667204149e-02
         - -2.4572220796948194e-02
         - -2.6342121535774914e-03
         - -2.0486015158782591e-02
         - 2.3352013589108159e-03
         - -1.8340713970997524e-02
         - -7.6725469229983420e-04
         - -3.0004805715630979e-03
         - 1.7048065723877751e-03
         - -2.5790987299298255e-03
         - -1.0057538496541858e-02
         - 3.9482410576243644e-03
         - 1.6829020508135974e-02
         - 2.2171104943251013e-03
         - 3.8757536846626439e-03
         - -8.3916538635963375e-03
         - 3.4474841012752749e-03
         - -4.8399118059506956e-03
         - 3.6206037471851514e-03
         - 1.1882235632667200e-02
         - 4.0029274576384617e-03
         - -4.8478627360504858e-03
         - 2.1808142728105710e-02
         - 2.4866127408752011e-04
         - 4.7355974364223100e-03
         - -1.0139456487912736e-02
         - -1.1850484271374575e-02
         - 5.1686890496165311e-03
         - 1.0227186288935649e-02
         - -4.2855399038935612e-03
         - -2.8648688996310012e-03
         - 5.6157720019061061e-03
         - -1.0626336009237165e-02
         - 7.7365243792717180e-03
         - 9.1550260947396381e-03
         - 3.3034531694828534e-02
         - 8.2517509671589326e-05
         - -1.7954921216354575e-02
         - -8.0942697862419906e-04
         - -1.0084664362397588e-02
         - -8.9285265239517804e-03
         - -6.9849501654616992e-03
         - -8.6851590985471960e-03
         - 5.2124992890433229e-03
         - 1.0792490878452144e-02
         - -9.8449655719755561e-03
         - 1.8884019516156509e-04
         - 5.0480449215142276e-03
         - 1.0565809432302647e-02
         - 1.2505014629647950e-02
         - -8.2848307148183069e-03
         - -1.0102693712731928e-02
         - -2.7689423819110839e-03
         - 1.7162183542090283e-02
         - -5.4567949840646267e-03
         - 1.7057700144227226e-02
         - -3.5254387965549965e-03
         - -7.2699422648442322e-03
         - -1.9805786592189234e-02
         - 1.6827245191369023e-03
         - 9.0870962506223382e-03
         - 7.0837726630356139e-04
         - 2.9258142672552280e-03
         - -4.9397453994073446e-03
         - -1.3824052279860251e-02
         - 3.3700805511901236e-03
         - 1.2177180523246158e-03
         - 8.6917543037227044e-03
         - -4.2929665566219860e-03
         - -9.5279820345136462e-03
         - -5.6137542826927202e-03
         - 5.3833617429840811e-03
         - -2.4875220158172888e-02
         - -3.6718765345845473e-03
         - 4.3491197692726432e-03
         - 1.4084219311130736e-02
         - -2.2909534760965158e-02
         - 2.3659289637458156e-04
         - 1.0904362353546188e-02
         - -7.1287820158703824e-03
         - 8.9754413277497724e-03
         - 6.9416138815109564e-03
         - -1.5384776055111659e-02
         - 1.1148663493912421e-02
         - 1.1512870995603356e-02
         - 3.5487234514560477e-02
         - -1.0828523797269901e-02
         - -3.3896522674350294e-03
         - -1.1121585535320203e-02
         - -1.2441969052623951e-02
         - -1.4996735843588585e-02
         - -5.4731385002894199e-03
         - -1.4004460671565468e-02
         - 2.2505199588495387e-03
         - 3.1986751665330220e-03
         - -1.2122491902556739e-02
         - 3.7639312590978902e-03
         - 1.2210190749770039e-02
         - 1.5151688680750019e-02
         - 6.8814644699514930e-03
         - -1.2502982019686115e-02
         - 3.5439843659989790e-03
         - 5.9909920407713382e-05
         - 2.7145739357792860e-02
         - -2.8276129517742260e-03
         - 3.0150030910647319e-02
         - -4.9007374256669206e-03
         - -1.3785703629049503e-02
         - -3.6800202231631302e-02
         - 7.3673930624749912e-03
         - 1.3256726065287100e-02
         - -3.8166967725715780e-03
         - -6.8437756573384058e-03
         - 4.2832215852442639e-03
         - -1.5069793667335815e-02
         - 4.9490705547800924e-03
         - -3.1367078366921562e-04
         - 3.8241575929366268e-03
         - -9.7641260446692593e-03
         - -2.0729110349643781e-02
         - -1.0115637765454239e-03
         - 7.5331960099865574e-03
         - -4.0621784720133891e-02
         - 2.5935901797357747e-03
         - -1.7854430685786613e-03
         - 1.6527898869857689e-02
         - -2.6855421355489326e-02
         - 7.8623119305597528e-03
         - 1.2746526815911671e-02
         - -1.7367667091975562e-03
         - 1.0067478752270454e-02
         - 1.1332430219591696e-02
         - -7.5312762138889794e-03
         - 5.6610395913983579e-04
         - 1.3994546879308780e-02
         - 3.2806857596571169e-02
         - -1.6222608728861356e-02
         - -2.8697365548791442e-02
         - -1.2850372196684582e-02
         - -2.7982316295585580e-02
         - -1.7721988701930608e-02
         - -4.2703291135838340e-03
         - -2.5189729908016687e-02
         - 1.5897891269782426e-02
         - 1.1196010286804252e-02
         - -1.2613607256629302e-02
         - 9.9626334342093423e-03
         - 2.0690926047060229e-02
         - 1.8777184117869352e-02
         - 1.5034649088655330e-02
         - -2.0486063500049695e-02
         - 2.0346696645761997e-02
         - -3.5917251949922572e-03
         - 3.6212258768233856e-02
         - -4.7485114856146227e-03
         - 2.8846337716985457e-02
         - -5.6069217335863271e-03
         - 4.5870538092898164e-03
         - -3.4363557163970743e-02
         - 8.3572164187796869e-03
         - 7.6391886205271079e-03
         - -1.5073476456171225e-03
         - -3.1440395431281715e-02
         - -7.3938214230640622e-03
         - -2.0707773673005789e-02
         - 6.8346891576632433e-03
         - 1.0906810971306631e-03
         - 1.3682754342240935e-02
         - -9.0444795311713077e-03
         - -1.9860338065453266e-02
         - -6.2210223438481371e-03
         - 4.0332059454652389e-03
         - -4.6328096533513309e-02
         - 6.0303090602556054e-03
         - -3.8309399486327347e-03
         - 1.9355498101244897e-02
         - 2.1269662576502837e-02
         - -3.0416091057409285e-02
         - -6.3758086073875276e-03
         - 2.9010151614298572e-03
         - -7.7258180676130668e-03
         - -8.2497060181489223e-03
         - 1.6236292241344621e-02
         - -7.9322767263370082e-03
         - -2.0628107054625006e-02
         - -2.7127286191239525e-02
         - 7.4970463926415610e-03
         - -4.5933296416538268e-02
         - 1.1374215864417562e-02
         - 1.5978086399774598e-02
         - 1.5256885214793499e-02
         - 4.9550854948889030e-03
         - 2.3510096238524288e-02
         - -1.1549325978443705e-02
         - -7.4143369446929936e-03
         - 1.4867655792835974e-02
         - -1.2684914085404019e-02
         - -1.4761924363970259e-02
         - -1.2867390462550140e-02
         - -1.4338830742002148e-02
         - 1.5336695068779070e-02
         - -1.2705508763228953e-02
         - 3.2722621441855547e-03
         - -1.1786750134207769e-02
         - -6.8072079172630247e-04
         - -1.2316619445851227e-02
         - 4.0124714941286129e-04
         - -4.6071651491998010e-02
         - 1.0662972229819576e-02
         - -8.0489031031393196e-03
         - -2.7800781800502916e-03
         - -2.6887972679734209e-03
         - 4.3756946921769306e-03
         - 2.3543978058628294e-03
         - 1.5059970289407096e-02
         - 7.7835500659498866e-04
         - -5.4216969524207596e-03
         - -9.2607467588715561e-03
         - 9.6025831456684370e-03
         - 2.4391669993972992e-02
         - 6.5209244754535021e-03
         - -7.6378259361733905e-03
         - 1.5675700170952357e-02
         - 5.4355088830136070e-04
         - 4.3330509952630878e-03
         - -1.6364837501111840e-02
         - 3.9206160149748287e-03
         - -1.6012404826811957e-02
         - 1.9112529261185304e-03
         - 7.5363562072676129e-03
         - -2.8639657888014534e-03
         - -8.0760842545387311e-03
         - 1.1698495715344774e-02
         - -2.9221817279820638e-03
         - -1.3905669244071626e-02
         - -2.0027604681603164e-02
         - 4.3150990838434940e-03
         - -1.1327299085513137e-03
         - -5.3100777115181136e-04
         - 6.5609793040935071e-03
         - 6.2881451419653485e-03
         - 1.4824233276991340e-03
         - 2.9225567232581484e-03
         - -2.3600271229172729e-03
         - -3.6774743296470579e-03
         - 4.6422855827287848e-03
         - -4.9389011008855728e-04
         - -1.2589920864305368e-02
         - -7.6457222090058896e-03
         - -3.4724476648435379e-03
         - 9.7448296369481487e-03
         - -9.0298568594732179e-05
         - 3.5175325041680288e-03
         - -1.5984956815676656e-02
         - 8.0952246124382371e-03
         - -7.5509972058083940e-03
         - 5.1925242780285338e-03
         - -1.1812399867923522e-02
         - 6.2124988574892327e-03
         - -6.6466867084272272e-03
         - -1.0606545771894609e-02
         - 3.8787594949672593e-03
         - 1.1365890856168603e-02
         - 6.4277377237000350e-03
         - 1.1713819737094816e-02
         - -4.7217247729589617e-03
         - -3.6581449602603451e-03
         - 1.9024286740224891e-03
         - 4.4735398211008751e-03
         - 4.6252369594839225e-03
         - 1.0618561023224822e-03
         - -7.2262909217422613e-03
         - 1.4402158412000633e-02
         - -2.2857987544253481e-03
         - 4.6372218728660817e-04
         - -1.3228463888991198e-02
         - 1.4457944803661269e-03
         - -5.7296373595034505e-03
         - 2.9326983561342073e-03
         - 5.0708817689474345e-03
         - -3.7134489442230312e-03
         - -4.0781653932706383e-04
         - 3.7187399499511013e-03
         - 4.3035973415470616e-03
         - -7.3572092914757350e-03
         - -1.4568893885610326e-02
         - 2.9844316739798594e-03
         - 6.4903508609637534e-02
         - -2.8971860135542484e-03
         - 1.0108089772129862e-02
         - 5.1161403083346043e-03
         - 6.1989777972522109e-03
         - 6.3143172424514485e-03
         - -8.1869466669622819e-04
         - 2.0352806597187913e-03
         - 7.4608131876059683e-03
         - 1.2597295681648928e-03
         - -2.4343028644843606e-03
         - -6.2859992848537391e-03
         - -5.9056059642410052e-03
         - -3.9749030437848049e-03
         - -4.6764508454860583e-03
         - -2.9419283402990315e-03
         - -3.3167405747620742e-03
         - 6.7826916200294145e-03
         - -6.2536271345992080e-03
         - -6.8915058632277879e-05
         - -6.3794147770232556e-04
         - 1.3544252960788971e-03
         - -6.0420217702997102e-03
         - 5.5917763049560516e-04
         - 4.8107239939635385e-03
         - 7.9476096435800638e-03
         - 2.7442020566322803e-04
         - 3.0182377198679257e-03
         - -5.5445754817064980e-03
         - -2.8410548361508716e-03
         - -5.0532187020056376e-03
         - 2.5822573341585499e-03
         - -3.0433530601007503e-03
         - -4.2523340935844188e-03
         - 1.7989066080301682e-03
         - 5.1693069545166587e-03
         - 4.1420211212040252e-03
         - 8.8654699836730332e-04
         - -5.5596415502870587e-03
         - 9.6132238380774570e-03
         - 4.1323013414832598e-03
         - -5.7088663522887112e-03
         - -2.9138625946827841e-03
         - -9.2045889718341228e-04
         - 2.9130050338276991e-04
         - -8.2040059627443032e-04
         - 4.8781530177075699e-04
         - 7.0824683871298843e-03
         - -1.5928934283553325e-02
         - -6.9264372742579034e-04
         - 4.6774072867543634e-02
         - 2.3148036016516372e-03
         - -4.1715138496213628e-03
         - -4.7879289197687094e-03
         - -5.1909224671237326e-03
         - 8.0252471648369454e-03
         - -2.2737548397290335e-03
         - -5.4388592554482484e-04
         - -2.5499897740971561e-03
         - 4.1691383747664021e-03
         - -7.6554726686375654e-03
         - -4.4723917561037075e-04
         - -2.3333327478855205e-03
         - -3.2354904232899445e-03
         - -1.1353138581502564e-02
         - -2.7051927875761709e-03
         - -1.2103766735750433e-02
         - -1.4269673324574872e-03
         - -8.9479533218247888e-03
         - -2.3829050052715768e-03
         - 3.0498942837020327e-04
         - 1.1975424035009664e-02
         - -3.6492935107038001e-03
         - -8.7730450941173618e-04
         - -4.9822207926697058e-03
         - 1.4837916357884656e-02
         - -5.3429744931084554e-03
         - -1.7388587360194724e-03
         - 3.6237916481430821e-03
         - -6.3040853999774904e-03
         - 4.5397927778514039e-03
         - -6.3650873055000551e-03
         - -1.5368363102682703e-03
         - 1.2885367863791236e-03
         - -2.3860792436536855e-03
         - 1.7628018328305677e-02
         - 3.2420705330172511e-03
         - -1.4567410129579909e-03
         - -3.4363845613187404e-03
         - 2.9536676286614650e-02
         - -2.4840748119215874e-03
         - -1.1535706329939818e-02
         - 1.4209117492088783e-03
         - 1.7466696343270973e-03
         - -6.7416986157455439e-03
         - 1.0464715180310247e-02
         - -6.5150442119779640e-03
         - -9.1785376463954724e-03
         - -2.5963556014165150e-02
         - 1.6881205862635772e-02
         - -5.5332900953719531e-02
         - 4.5818035784979758e-03
         - 1.0944532925515909e-02
         - 7.0520186846890114e-03
         - 7.2021209249952837e-03
         - 2.4565256675865361e-02
         - -4.3255721199145754e-03
         - -6.7957800718379509e-03
         - 1.1288139549122963e-02
         - -7.2806122490353120e-03
         - -1.7184202505946697e-02
         - -1.7078513396168928e-02
         - -1.6190280561424606e-02
         - 2.5367220467919643e-02
         - -1.3738929287658370e-02
         - 6.8589329296889386e-03
         - -3.4259989099392214e-02
         - -6.9383747769700727e-04
         - -3.6246530225131218e-02
         - -4.0054007872512469e-03
         - -6.9478682742630466e-03
         - 4.3128551116652904e-02
         - -1.6964468615757789e-03
         - -7.6128373060353602e-03
         - 1.6366111762206828e-03
         - 1.8514588465394086e-02
         - 2.7657077426875231e-03
         - 5.7894643569438922e-03
         - -4.1469601392841770e-03
         - 1.3507607487373084e-03
         - -8.4015695877898647e-03
         - 1.5260538510364031e-03
         - 1.6175265680718524e-02
         - 2.9233491565458371e-03
         - -2.8341162614993446e-03
         - 5.3810992043971426e-02
         - -3.9390100531545624e-04
         - 7.4186145355317244e-05
         - -1.4390349259839343e-02
         - -7.2090187885417954e-03
         - 2.0840814365695758e-02
         - 3.5066053858698134e-03
         - 3.5838362840970241e-03
         - 6.4011170439350678e-03
         - 3.7141698427703208e-03
         - -9.4971251386105938e-03
         - 3.8808522366788338e-03
         - 1.0070703480026106e-02
         - 2.4838915529253394e-02
         - -1.1958399077505960e-02
         - -2.6033469209777506e-04
         - -6.5563163447141882e-03
         - -1.5081664128053878e-02
         - -3.1644783308628615e-03
         - 4.1006404794730110e-04
         - -1.1645941149078519e-02
         - 3.2313590787439580e-03
         - -6.3077796589586482e-04
         - -1.2271610226327560e-02
         - -4.8493200349754729e-04
         - 9.3819120791880182e-03
         - 1.8465834486619916e-03
         - 1.0813911413834537e-02
         - -6.7223089365487446e-03
         - 1.1978005232964443e-02
         - 4.3067388630665879e-03
         - 9.6984303022681281e-03
         - -4.6180148590013893e-03
         - 7.0117436041078948e-03
         - -1.1482285908780538e-03
         - 9.4569153370998738e-03
         - -1.9400789339304215e-02
         - 4.7176279250662487e-03
         - 5.5643343017276747e-03
         - -4.7018817212392313e-03
         - -9.1431608263895740e-03
         - -3.6186120114650609e-03
         - -1.0929919564106093e-02
         - 6.8811964636417795e-03
         - -6.4070551999060471e-04
         - 1.0913783425226488e-03
         - -1.3584682143512818e-03
         - -6.6096241096816628e-03
         - -2.3526732344961113e-03
         - 3.5237084586069592e-03
         - -1.5866426367065419e-02
         - 4.0104324936354411e-03
         - 4.1653230232691985e-03
         - 4.1926213482670806e-03
         - 2.6453320308587359e-03
         - -1.4019530944453054e-02
         - -5.1544099521911061e-04
         - 1.1779529494251081e-05
         - -1.1290121854961252e-03
         - -3.2731002703783266e-03
         - 5.3436506704735405e-03
         - -2.6802078150787974e-03
         - -7.7473523637562533e-03
         - -7.6675160440166940e-03
         - 3.1220485776915058e-03
         - -6.7360018500431593e-02
         - 3.5347912230719795e-03
         - 5.1077207352211024e-03
         - 6.1857346279247331e-03
         - 1.3590397588358440e-03
         - 8.8976050178797769e-03
         - -2.7889661761532633e-04
         - -8.6700643871572888e-03
         - 4.8690045414296777e-03
         - -5.2199611159772230e-03
         - -9.7748049211050826e-03
         - 3.3776864565015162e-04
         - 9.2457779940435391e-04
         - 6.2866648969143084e-03
         - -2.3336742776293797e-02
         - 4.4272908489089482e-04
         - -1.0257694219345042e-02
         - -2.9594420873775770e-03
         - -6.2664501371300111e-03
         - -3.7460318899942106e-03
         - -3.1545009239999679e-02
         - 8.2945886418257248e-03
         - -3.8012595144352075e-03
         - -9.3301011160408769e-03
         - -6.0910307782735648e-04
         - 1.5030428609355459e-02
         - -2.6742481431323265e-03
         - 4.7228370608709438e-04
         - 1.3660098754872283e-03
         - 5.0433809044824005e-04
         - -2.4217372609170152e-03
         - -3.3981877843584953e-03
         - 8.0328511177148020e-03
         - 6.7150862742303393e-03
         - -5.0924088402477374e-03
         - 1.4075054531453371e-02
         - -6.1030322784699710e-04
         - 7.6076491338184218e-03
         - -7.2761202443409360e-03
         - -3.4331101122689875e-02
         - 1.1404715946594526e-02
         - 7.7537056138314679e-03
         - -2.6465117365637512e-03
         - 2.7977380158768351e-03
         - 9.6675596079876004e-03
         - -1.8772680165862060e-02
         - 1.2464366388105198e-02
         - 1.4806832361865391e-02
         - 1.9039249583977982e-02
         - -6.7419548558806429e-03
         - -8.5956650671184069e-03
         - -6.3595515127783196e-03
         - -2.4579639711143485e-02
         - -1.9764602711838289e-02
         - -7.8968289153357064e-03
         - -3.0287856078884495e-02
         - 7.6890864058519652e-03
         - 1.4148668812403991e-02
         - -1.7761458626304561e-02
         - 1.0363780713156018e-02
         - 2.6261166951192988e-02
         - 1.8221662548637867e-02
         - 1.4559608509011069e-02
         - -2.2140002571700172e-02
         - 6.1796493343635791e-03
         - -7.1772202144133089e-03
         - 3.4076407801795716e-02
         - -6.4382114162319704e-04
         - 3.0197985838629440e-02
         - -6.3347711799463750e-03
         - 2.0808498915389651e-03
         - -2.7927045534561299e-02
         - 1.1432214710928415e-02
         - 1.4696800456371518e-02
         - -8.3554802554397980e-03
         - -1.4883868319194990e-02
         - -5.7088893649429344e-03
         - -2.1231688288128641e-02
         - 4.7058006236982679e-03
         - 3.5367188524013937e-03
         - 6.2103070616107243e-03
         - -7.0030451590688521e-03
         - -1.9335339321899330e-02
         - -1.0212658923328451e-02
         - 1.0591592964875286e-02
         - -5.8394556924289458e-02
         - 3.2954276499980221e-03
         - -2.5263082941986491e-03
         - 2.5423334660610981e-02
         - 1.5439689040609243e-02
         - -1.7881639235378124e-02
         - -7.1151408316347219e-03
         - 3.5876211068691581e-03
         - -3.8482549175747139e-03
         - -8.3399675962890201e-03
         - 7.1319029826729316e-03
         - -3.3127625027241769e-03
         - -7.9990875200304928e-03
         - -4.2791793837854405e-02
         - 1.9100738554464890e-03
         - -8.8977327917722907e-02
         - 3.5962275485243510e-04
         - 1.4178650824712360e-02
         - 1.2081440374178500e-02
         - 6.7129778010344924e-04
         - 8.9920730129633090e-03
         - 1.2122033323540440e-03
         - -9.9429829872174896e-03
         - 6.1771402339267359e-03
         - -9.8712218423733008e-03
         - -2.9550969437490402e-03
         - -1.7088803082625373e-03
         - -3.0589895583539085e-03
         - 1.1010299590594276e-02
         - -3.5145949669854869e-02
         - 2.1516356671904121e-03
         - -3.5917850411640220e-04
         - -4.1341239955860112e-03
         - -1.1538398950286775e-02
         - 1.7314590749799642e-03
         - -3.4918563828547362e-02
         - 2.2500455550731997e-02
         - -4.5649631297355877e-03
         - 1.9089325750261728e-03
         - -2.4733041508179904e-03
         - 9.7054583210460267e-03
         - 1.4474625219279267e-03
         - 1.5426644646949253e-02
         - 3.3389005014963905e-03
         - -1.5279700359612798e-03
         - -4.9330660992247307e-03
         - 1.1611576779066331e-03
         - 1.1492081240053343e-02
         - 9.9279479925194324e-04
         - -8.8398283591927199e-03
         - 4.0913647089615311e-03
         - 2.7070962524237685e-03
         - 4.5427179107775453e-03
         - -5.2768344036873693e-03
         - 1.1642705815270479e-02
         - -1.9389131157711407e-02
         - 9.8401634323165122e-06
         - 3.2909951233458571e-03
         - 1.9702347250841125e-03
         - 1.9330735977090160e-03
         - 3.0638252779009419e-04
         - 2.7195002750511214e-04
         - -1.5142689535679682e-02
         - -1.8309652226807683e-02
         - 7.2389602187726779e-03
         - -1.0028463230327235e-01
         - 1.0020886374641221e-02
         - 4.6455099403123383e-03
         - 2.9313088114332818e-03
         - -2.7516635984695050e-03
         - 5.0157366231204830e-03
         - 2.0370268562043777e-03
         - -1.7660019215737094e-03
         - 1.3203081511471121e-02
         - 1.6152324847950083e-03
         - 1.2462350289896092e-05
         - -2.6064931604183670e-03
         - -2.3602035846033149e-03
         - 2.2268227816307981e-03
         - -9.7355768677248981e-03
         - 3.1407300225482437e-03
         - -3.1027742841311830e-03
         - -1.5331729277829993e-03
         - -9.3114509894949293e-03
         - 1.9727794721850450e-03
         - -2.3038870673218349e-02
         - 1.8279922011367321e-02
         - -4.8062237593814042e-03
         - -6.3315704384269405e-03
         - -3.0165408747217155e-03
         - -6.3292465346763459e-03
         - 2.7641728523396911e-03
         - 4.1517418271014208e-03
         - -5.3795752190844148e-03
         - 8.0287903778312082e-03
         - -3.6720375042559512e-03
         - 9.0242043242592020e-03
         - 2.7427351162129347e-03
         - -2.1581167642672440e-03
         - -1.8386691547240986e-03
         - 2.3320087278469671e-02
         - -4.2679590333967749e-03
         - -4.4513024771750363e-03
         - -1.3500361881959844e-02
         - -3.4933051033011552e-02
         - -1.1775772974677505e-03
         - 5.6966890920716372e-03
         - -7.2840402305567129e-03
         - 5.0779464428980558e-03
         - 1.0398413014438215e-02
         - -8.7229784205460469e-03
         - 5.4637635107406520e-03
         - 1.6738377873808771e-02
         - 2.7214699900814442e-02
         - -9.4856150991327205e-03
         - -7.6578860759124352e-03
         - -4.9839795626586310e-03
         - -2.4507171828857650e-02
         - -1.0719152262978898e-02
         - -1.1221963156618081e-02
         - -3.0347067573840359e-02
         - 8.1058520801870516e-03
         - 1.7991625806863375e-02
         - -1.9158097022899293e-02
         - 8.4671750254553674e-03
         - 1.5984896709513613e-02
         - 1.1358556750454168e-02
         - 8.9926098769687497e-03
         - -2.5239926827675188e-02
         - 4.1158360448292686e-02
         - 4.5230528518450650e-04
         - 1.6539619620674441e-02
         - -1.2496719670289957e-03
         - 2.1218363442561828e-02
         - -3.7249022814742994e-04
         - 8.6548315685479795e-03
         - -3.4427981960571771e-02
         - 6.0824546188636914e-03
         - 9.6447719463615585e-03
         - 1.2261632181575369e-03
         - -3.5141487183365794e-02
         - 2.7328535152926279e-03
         - -1.9876901035615766e-02
         - 5.4607323234882382e-03
         - 4.3673201608284305e-03
         - 1.2357913288606078e-02
         - -8.3660668760541790e-03
         - -2.1913860566019887e-02
         - 1.1234984882712725e-03
         - 1.3493478477296022e-02
         - -1.7712523844538128e-02
         - 9.1650676694798906e-03
         - -2.8014265474240363e-03
         - 1.4829555419764091e-02
         - 1.4558333869623420e-02
         - -9.7071066101735628e-03
         - -9.3999725838335880e-04
         - -7.1583867867521054e-04
         - -4.2512802449591698e-03
         - -5.5925250524623141e-03
         - 2.3714174530290806e-03
         - 5.8270106223167438e-04
         - -1.8874991411307787e-03
         - -7.1616283460675815e-03
         - -1.9834557987950018e-03
         - 5.7874361056702787e-02
         - -2.5645985067572065e-03
         - 5.8506472955898578e-03
         - 8.8272531399951198e-03
         - -1.6340804361387362e-03
         - 8.9297218982283834e-04
         - -6.7267140118691280e-03
         - -4.6980007548381372e-03
         - 8.2977375206434571e-04
         - -6.8818907239718520e-03
         - 2.8926395738114360e-04
         - -7.1158809196830604e-03
         - -8.4541939936369267e-03
         - -8.5982500192921421e-04
         - -7.6916057841345037e-03
         - 5.1015543353874959e-03
         - -1.2552710301165971e-02
         - 3.8921660028581628e-03
         - -1.4076778731070806e-02
         - -6.4433482513401731e-04
         - -8.9411110899488729e-03
