%YAML:1.0
---
opencv_ml_ann_mlp:
   format: 3
   layer_sizes: [ 324, 50, 2 ]
   activation_function: SIGMOID_SYM
   f_param1: 6.6666666666666663e-01
   f_param2: 1.7159000000000000e+00
   min_val: -9.4999999999999996e-01
   max_val: 9.4999999999999996e-01
   min_val1: -9.7999999999999998e-01
   max_val1: 9.7999999999999998e-01
   training_params:
      train_method: BACKPROP
      dw_scale: 1.0000000000000000e-03
      moment_scale: 0.
      term_criteria:
         epsilon: 1.0000000000000001e-01
         iterations: 100
   input_scale:
      - 1.1818912360762891e+01
      - -1.8183350105423146e+00
      - 1.1569191065285313e+01
      - -1.5878137049452308e+00
      - 1.1907451497351239e+01
      - -1.4670919710308341e+00
      - 1.3083130631899600e+01
      - -1.3500903387940311e+00
      - 1.3231994128388708e+01
      - -1.6004278119902968e+00
      - 1.3230190567653565e+01
      - -1.3725161625197646e+00
      - 1.1793780723784332e+01
      - -1.4630706040161749e+00
      - 1.1369362525716332e+01
      - -1.5835096332965206e+00
      - 1.1671712677447358e+01
      - -1.8083742959047093e+00
      - 1.1590389184583577e+01
      - -1.8689295724136230e+00
      - 1.1280765227106919e+01
      - -1.7206641886962957e+00
      - 1.1378846311919821e+01
      - -1.5650874117132958e+00
      - 1.2352255239740495e+01
      - -1.4492828581137627e+00
      - 1.2463530897480210e+01
      - -1.6973489535899691e+00
      - 1.2426965579934606e+01
      - -1.4476954329157330e+00
      - 1.1441314994978727e+01
      - -1.5677097462466780e+00
      - 1.1224001438824896e+01
      - -1.7180110572784755e+00
      - 1.1459166352218165e+01
      - -1.8492148346229187e+00
      - 1.1690081694117625e+01
      - -1.9592938292454565e+00
      - 1.1162626640754059e+01
      - -1.7129737064011130e+00
      - 1.1467311751656965e+01
      - -1.5917322848149060e+00
      - 1.2545044269083174e+01
      - -1.4695114468868260e+00
      - 1.2537244388637928e+01
      - -1.5485314772179490e+00
      - 1.2436706660046896e+01
      - -1.4819181986981294e+00
      - 1.1495243711138174e+01
      - -1.5889362972616377e+00
      - 1.1267823896556921e+01
      - -1.7211927493759902e+00
      - 1.1718082211363344e+01
      - -1.9619389451312812e+00
      - 1.1529371592378226e+01
      - -1.9962833718389390e+00
      - 1.1181683419713377e+01
      - -1.8445135399142614e+00
      - 1.1262416536258486e+01
      - -1.7146369922594142e+00
      - 1.1880280242708839e+01
      - -1.5731530106554441e+00
      - 1.1976978707984012e+01
      - -1.6491619753178386e+00
      - 1.1960375329258401e+01
      - -1.5936718400895902e+00
      - 1.1147163392606837e+01
      - -1.7214033398479829e+00
      - 1.1140463259640432e+01
      - -1.8842816265777955e+00
      - 1.1425533567392341e+01
      - -2.0066066309742943e+00
      - 1.1725263288251961e+01
      - -1.7117493057018909e+00
      - 1.1588212065800084e+01
      - -1.5836062639310058e+00
      - 1.1906373418733773e+01
      - -1.4743916588471111e+00
      - 1.3041041273075207e+01
      - -1.3769154848315444e+00
      - 1.2971186906267755e+01
      - -1.6151217447723796e+00
      - 1.3019886963190379e+01
      - -1.3950622795734795e+00
      - 1.1745727663832970e+01
      - -1.4974960172136749e+00
      - 1.1274733141141466e+01
      - -1.6081328346003247e+00
      - 1.1462560286547127e+01
      - -1.6986133008600801e+00
      - 1.1651478117171223e+01
      - -1.8415921766777392e+00
      - 1.1275187505375264e+01
      - -1.6800689379342908e+00
      - 1.1387647399022622e+01
      - -1.5566782994545443e+00
      - 1.2426279117265924e+01
      - -1.4590446537096271e+00
      - 1.2417776909556192e+01
      - -1.7158704314489774e+00
      - 1.2423561515336209e+01
      - -1.4851719497443068e+00
      - 1.1500097194408692e+01
      - -1.6030096164402237e+00
      - 1.1176357948314903e+01
      - -1.7236446343909841e+00
      - 1.1378906382104423e+01
      - -1.8268902634626254e+00
      - 1.1574574576667567e+01
      - -1.8505175594217693e+00
      - 1.1156011087439499e+01
      - -1.7051658433560244e+00
      - 1.1428133835668058e+01
      - -1.6034442666238542e+00
      - 1.2414227601503542e+01
      - -1.5044691624581799e+00
      - 1.2443145064017271e+01
      - -1.5708380295412172e+00
      - 1.2384083738138136e+01
      - -1.5020170603021228e+00
      - 1.1424266202899279e+01
      - -1.6126126143552295e+00
      - 1.1248278634642981e+01
      - -1.7365674437750402e+00
      - 1.1458446005411295e+01
      - -1.8438635336323572e+00
      - 1.1617803110786330e+01
      - -1.9938251215291163e+00
      - 1.1072035559210478e+01
      - -1.8034938348384082e+00
      - 1.1168435531148909e+01
      - -1.6911277517613248e+00
      - 1.1778130875138773e+01
      - -1.5734525376498631e+00
      - 1.1977674651309165e+01
      - -1.6694675717139436e+00
      - 1.1944705160849262e+01
      - -1.6146840154343032e+00
      - 1.1185980134287671e+01
      - -1.7372220294049421e+00
      - 1.1098703280643502e+01
      - -1.8702080874557392e+00
      - 1.1338879507325919e+01
      - -1.9736781426049528e+00
      - 1.1875955885905773e+01
      - -1.7170964236373054e+00
      - 1.1712179983337220e+01
      - -1.5663410590635587e+00
      - 1.1920013788678661e+01
      - -1.4642794005195738e+00
      - 1.2846258434401571e+01
      - -1.3739429156107277e+00
      - 1.2899552805217786e+01
      - -1.6390110996231702e+00
      - 1.3007559249012136e+01
      - -1.4245720368107833e+00
      - 1.1730126346958047e+01
      - -1.5240761506489939e+00
      - 1.1169043202879218e+01
      - -1.6163725960317321e+00
      - 1.1374789170672669e+01
      - -1.7075400454898839e+00
      - 1.2018114434969613e+01
      - -1.9577312593281941e+00
      - 1.1368946922863023e+01
      - -1.6193886847289680e+00
      - 1.1494466447273062e+01
      - -1.5225319999266307e+00
      - 1.2299750463529696e+01
      - -1.4311564340797640e+00
      - 1.2396622830594753e+01
      - -1.7145574170066238e+00
      - 1.2526587708293350e+01
      - -1.4756733532992701e+00
      - 1.1586373682102073e+01
      - -1.6039820348111720e+00
      - 1.1030974625796715e+01
      - -1.6887738232530740e+00
      - 1.1551938514439357e+01
      - -1.9371088664685994e+00
      - 1.1685488884213832e+01
      - -1.8571625769765840e+00
      - 1.1283967080491237e+01
      - -1.7055192929667504e+00
      - 1.1479940191367573e+01
      - -1.6073108207229216e+00
      - 1.2317127487201374e+01
      - -1.5046735518111136e+00
      - 1.2346683319078071e+01
      - -1.5949542303121962e+00
      - 1.2386433333627236e+01
      - -1.5316425189930505e+00
      - 1.1483344901013824e+01
      - -1.6393144798423389e+00
      - 1.1286295413591192e+01
      - -1.7546151117555115e+00
      - 1.1354014643187657e+01
      - -1.8297767065183110e+00
      - 1.2014456019973888e+01
      - -2.1217352786103101e+00
      - 1.1244537421608257e+01
      - -1.7655073924744846e+00
      - 1.1337642468225331e+01
      - -1.6790188704554712e+00
      - 1.1844972558816661e+01
      - -1.5610036812370212e+00
      - 1.1916576317598743e+01
      - -1.6673615767738139e+00
      - 1.2066568920146929e+01
      - -1.6140341188169234e+00
      - 1.1330784429114708e+01
      - -1.7311253458081559e+00
      - 1.1020598625057549e+01
      - -1.8404797805590785e+00
      - 1.1612252428300955e+01
      - -2.1046836279089773e+00
      - 1.2173742691098646e+01
      - -1.8298624167935547e+00
      - 1.1687035765228472e+01
      - -1.6106245765298766e+00
      - 1.1979518293113394e+01
      - -1.5109843216583596e+00
      - 1.3207040133447837e+01
      - -1.4276653109791910e+00
      - 1.3310425968126149e+01
      - -1.5142430919296521e+00
      - 1.3074839178657633e+01
      - -1.4451711573752737e+00
      - 1.1756275606148973e+01
      - -1.5337731298449329e+00
      - 1.1297801848961798e+01
      - -1.6197943373441410e+00
      - 1.1899732333983438e+01
      - -1.8112993059112943e+00
      - 1.1903008824601642e+01
      - -1.8899209105894919e+00
      - 1.1361103950643361e+01
      - -1.7394342435152106e+00
      - 1.1578490315326841e+01
      - -1.6365634178414041e+00
      - 1.2409038938679533e+01
      - -1.5255972880376354e+00
      - 1.2376126322054683e+01
      - -1.5908011796854866e+00
      - 1.2417848873541464e+01
      - -1.5411794413437938e+00
      - 1.1378640051348807e+01
      - -1.6346445530053955e+00
      - 1.1268281234577490e+01
      - -1.7520599627941591e+00
      - 1.1627949746816437e+01
      - -1.8576476853362192e+00
      - 1.2125173351345381e+01
      - -1.9551099288848606e+00
      - 1.1405283052061373e+01
      - -1.6963140282945390e+00
      - 1.1626568753407035e+01
      - -1.6048031158747564e+00
      - 1.2524477243052470e+01
      - -1.5125989447273203e+00
      - 1.2688440936504927e+01
      - -1.5917768934622243e+00
      - 1.2582910733558224e+01
      - -1.5370261778131409e+00
      - 1.1537460944714793e+01
      - -1.6393799768273023e+00
      - 1.1385137247846728e+01
      - -1.7485790298834358e+00
      - 1.1937959074067304e+01
      - -1.9468284170912442e+00
      - 1.1891793953462857e+01
      - -2.0199427819139690e+00
      - 1.1378371786814981e+01
      - -1.8488037061924305e+00
      - 1.1413128680213743e+01
      - -1.7422054505601301e+00
      - 1.1907399386536390e+01
      - -1.6211822050140257e+00
      - 1.2141117290285504e+01
      - -1.7119822273868368e+00
      - 1.2061141672275847e+01
      - -1.6586210338065137e+00
      - 1.1192952878228869e+01
      - -1.7596158225496628e+00
      - 1.1240546293249166e+01
      - -1.9004104446039445e+00
      - 1.1648034753568982e+01
      - -2.0033360182791866e+00
      - 1.2004684010169047e+01
      - -1.7283919974980424e+00
      - 1.1665144787943026e+01
      - -1.6046179311100981e+00
      - 1.1989677374751290e+01
      - -1.5239584917059632e+00
      - 1.2866834609224778e+01
      - -1.4260678879688160e+00
      - 1.3147387145825627e+01
      - -1.5224020305253914e+00
      - 1.3049613039120674e+01
      - -1.4483527092531094e+00
      - 1.1679853257834550e+01
      - -1.5348862909752929e+00
      - 1.1348993044622897e+01
      - -1.6253068539300766e+00
      - 1.1828875821145219e+01
      - -1.7218474443458780e+00
      - 1.1821149248809681e+01
      - -1.8537100895107441e+00
      - 1.1328427882406505e+01
      - -1.7092425762707091e+00
      - 1.1534174571628597e+01
      - -1.6232786686751137e+00
      - 1.2198872115286227e+01
      - -1.5022467788654696e+00
      - 1.2353123993729898e+01
      - -1.5947774566146704e+00
      - 1.2455582801107624e+01
      - -1.5302954820483305e+00
      - 1.1440118323997844e+01
      - -1.6321983737368166e+00
      - 1.1188315618218164e+01
      - -1.7263507673509280e+00
      - 1.1577259954427898e+01
      - -1.8189828046317931e+00
      - 1.1898324118581952e+01
      - -1.8622122328428647e+00
      - 1.1265033324953635e+01
      - -1.7149791127411851e+00
      - 1.1548511348711115e+01
      - -1.6444965257104540e+00
      - 1.2385849880569969e+01
      - -1.5372668864606656e+00
      - 1.2547397227864710e+01
      - -1.6244460356348873e+00
      - 1.2474886086431043e+01
      - -1.5436195879502606e+00
      - 1.1400976436120622e+01
      - -1.6232085732458172e+00
      - 1.1235472987788977e+01
      - -1.7237632260218860e+00
      - 1.1645521082823619e+01
      - -1.8296210422522707e+00
      - 1.1748673826160358e+01
      - -1.9855955504159253e+00
      - 1.1177656447502264e+01
      - -1.8144970599388930e+00
      - 1.1190524019839680e+01
      - -1.7184705883207363e+00
      - 1.1765426623708160e+01
      - -1.6159514910551029e+00
      - 1.2029015643149275e+01
      - -1.7161575697024916e+00
      - 1.2083262043055644e+01
      - -1.6472513857791224e+00
      - 1.1110507714127831e+01
      - -1.7451304666556164e+00
      - 1.1033513090534534e+01
      - -1.8532353524593346e+00
      - 1.1465760086279651e+01
      - -1.9571904529932103e+00
      - 1.2167072232672719e+01
      - -1.7383850937100374e+00
      - 1.1731660756913824e+01
      - -1.6099299653917822e+00
      - 1.1894248755725616e+01
      - -1.5235916387332444e+00
      - 1.2772093990660075e+01
      - -1.4351129331783057e+00
      - 1.2881728370084362e+01
      - -1.5265084415967352e+00
      - 1.3010905788756675e+01
      - -1.4719153789258759e+00
      - 1.1686115028161323e+01
      - -1.5506485245855077e+00
      - 1.1385769488381190e+01
      - -1.6383728046800399e+00
      - 1.1761757264957732e+01
      - -1.7097982114847154e+00
      - 1.2263659686802276e+01
      - -1.9956519631969540e+00
      - 1.1371769750220983e+01
      - -1.6829376382896080e+00
      - 1.1444683509282925e+01
      - -1.5927597516780538e+00
      - 1.2282882975183039e+01
      - -1.5014327879693341e+00
      - 1.2420548103421606e+01
      - -1.5972958585167636e+00
      - 1.2605122045521464e+01
      - -1.5388513296302428e+00
      - 1.1581255647657008e+01
      - -1.6278113711372844e+00
      - 1.1246430208754516e+01
      - -1.7089153741409444e+00
      - 1.1953753527252479e+01
      - -1.9557031789998154e+00
      - 1.1900430275521677e+01
      - -1.8603767816312704e+00
      - 1.1230821000650090e+01
      - -1.7131344394824262e+00
      - 1.1448165460167750e+01
      - -1.6366146373542760e+00
      - 1.2239630840561457e+01
      - -1.5349206240224615e+00
      - 1.2258317730378185e+01
      - -1.6217218660066319e+00
      - 1.2520535679737945e+01
      - -1.5666042017429687e+00
      - 1.1389447772084374e+01
      - -1.6407185004007803e+00
      - 1.1316904807877041e+01
      - -1.7478006422510994e+00
      - 1.1703175254307546e+01
      - -1.8324029414036809e+00
      - 1.2231380524473508e+01
      - -2.1308385317488487e+00
      - 1.1222539242279002e+01
      - -1.7940286365147724e+00
      - 1.1289410906807339e+01
      - -1.7047340129283841e+00
      - 1.1889241288559051e+01
      - -1.5944058921979967e+00
      - 1.2041325990613414e+01
      - -1.6950107080579160e+00
      - 1.2073330318723727e+01
      - -1.6260290920959362e+00
      - 1.1248474537031377e+01
      - -1.7264855349015054e+00
      - 1.1122722619217596e+01
      - -1.8259132783084395e+00
      - 1.1979004118816139e+01
      - -2.1116283334657320e+00
      - 1.2419164991570188e+01
      - -1.8214365254152527e+00
      - 1.1852090057592644e+01
      - -1.5922057948422330e+00
      - 1.2073705203834432e+01
      - -1.5260595512931194e+00
      - 1.3149756952342344e+01
      - -1.4471022215005032e+00
      - 1.3465222953002817e+01
      - -1.5425861830534369e+00
      - 1.3469123419715611e+01
      - -1.5028614246391756e+00
      - 1.1739472654810962e+01
      - -1.5738430472819587e+00
      - 1.1282203121350651e+01
      - -1.6523770233166866e+00
      - 1.2172319063692226e+01
      - -1.8504452779920197e+00
      - 1.2056566737851062e+01
      - -1.8980668535235372e+00
      - 1.1514752849447182e+01
      - -1.7575903901892851e+00
      - 1.1597779731133818e+01
      - -1.6831240774900484e+00
      - 1.2377353764111520e+01
      - -1.5651392204849917e+00
      - 1.2452216268629471e+01
      - -1.6424277373939491e+00
      - 1.2621861789514899e+01
      - -1.5919370750639561e+00
      - 1.1502677023886168e+01
      - -1.6772679562714676e+00
      - 1.1378758898904261e+01
      - -1.7915218121324237e+00
      - 1.1842286290695954e+01
      - -1.8858489147510886e+00
      - 1.2531202821399615e+01
      - -1.9568323712702114e+00
      - 1.1500094773076734e+01
      - -1.6542507890387075e+00
      - 1.1650047244217260e+01
      - -1.5661070665023067e+00
      - 1.2687412673803987e+01
      - -1.4937109525236663e+00
      - 1.3158977813166860e+01
      - -1.8784477402969553e+00
      - 1.2996461079675845e+01
      - -1.5537806611298404e+00
      - 1.1615458503437772e+01
      - -1.6679993753692517e+00
      - 1.1337437472003343e+01
      - -1.7608694701167158e+00
      - 1.2234443413685204e+01
      - -1.9872093449773487e+00
      - 1.2213782730170042e+01
      - -2.0158061606903050e+00
      - 1.1456513253364552e+01
      - -1.8285637720035277e+00
      - 1.1349187571907438e+01
      - -1.7124582742810242e+00
      - 1.1874049426436120e+01
      - -1.5976772109463966e+00
      - 1.2721170272019407e+01
      - -2.0406621076753368e+00
      - 1.2245445960814990e+01
      - -1.6590078366165075e+00
      - 1.1380952641326633e+01
      - -1.7959677202933106e+00
      - 1.1179218515636428e+01
      - -1.8950498743537403e+00
      - 1.1900974461882621e+01
      - -2.0282270554479704e+00
      - 1.2262747260562518e+01
      - -1.7530635454507824e+00
      - 1.1814334742395053e+01
      - -1.6380314761273025e+00
      - 1.1909489863796528e+01
      - -1.5735563222722959e+00
      - 1.2856853700716394e+01
      - -1.4755841085600716e+00
      - 1.3082731488912907e+01
      - -1.5701761931144242e+00
      - 1.3284077741591640e+01
      - -1.5048296510926031e+00
      - 1.1820138796414797e+01
      - -1.5724721730001181e+00
      - 1.1294086318129779e+01
      - -1.6291195266151564e+00
      - 1.1902892599162824e+01
      - -1.7294166002300688e+00
      - 1.2003695125240458e+01
      - -1.8648994137519377e+00
      - 1.1443944602873831e+01
      - -1.7422286836440426e+00
      - 1.1352116997786153e+01
      - -1.6441187053866417e+00
      - 1.2158461251093593e+01
      - -1.5552128739690168e+00
      - 1.2490999327671258e+01
      - -1.6616540544579033e+00
      - 1.2638309378895350e+01
      - -1.5913096886769398e+00
      - 1.1429294018094172e+01
      - -1.6540219553560482e+00
      - 1.1221082969188249e+01
      - -1.7366351539822746e+00
      - 1.1664999163776312e+01
      - -1.8312963148833483e+00
      - 1.2291458927960123e+01
      - -1.8554136450668848e+00
      - 1.1468537931049156e+01
      - -1.7092872084064308e+00
      - 1.1507222568384771e+01
      - -1.6189243195296557e+00
      - 1.2364992922229897e+01
      - -1.5244899114575061e+00
      - 1.2943628330215093e+01
      - -1.9036940412945327e+00
      - 1.2831483804560451e+01
      - -1.5566471802722655e+00
      - 1.1673079580365089e+01
      - -1.6545777877142323e+00
      - 1.1325996723651189e+01
      - -1.7226159938916039e+00
      - 1.1918779952293644e+01
      - -1.8396923524870161e+00
      - 1.2168173868081508e+01
      - -1.9833235638127347e+00
      - 1.1548210883424948e+01
      - -1.8368217862476546e+00
      - 1.1380020553865647e+01
      - -1.7241561901533506e+00
      - 1.1915752964771791e+01
      - -1.6186797244555235e+00
      - 1.2820592756731669e+01
      - -2.0656500865636076e+00
      - 1.2379321700785582e+01
      - -1.6595598031859444e+00
      - 1.1316407947443505e+01
      - -1.7556552418366440e+00
      - 1.1160415734072247e+01
      - -1.8495024707423053e+00
      - 1.1746066182876390e+01
      - -1.9603406438842643e+00
      - 1.2258454644503004e+01
      - -1.7367062937070814e+00
      - 1.1668686220017930e+01
      - -1.6259761181490608e+00
      - 1.1781604530584657e+01
      - -1.5493338050365277e+00
      - 1.2768641798618702e+01
      - -1.4739749844602228e+00
      - 1.2944076912091777e+01
      - -1.5711366413326742e+00
      - 1.3128754521653505e+01
      - -1.5180471480539544e+00
      - 1.1733363194271424e+01
      - -1.5858730705456854e+00
      - 1.1348763015261092e+01
      - -1.6432041682409118e+00
      - 1.1804409424894640e+01
      - -1.7108186528361251e+00
      - 1.2304746031189389e+01
      - -1.9880947720976847e+00
      - 1.1382618824352283e+01
      - -1.7063441952201488e+00
      - 1.1426642774920159e+01
      - -1.6221531129764835e+00
      - 1.2452695338552745e+01
      - -1.5469635082447597e+00
      - 1.2526026094235656e+01
      - -1.6362976723587364e+00
      - 1.2678273018057430e+01
      - -1.5608566089045437e+00
      - 1.1630002972278810e+01
      - -1.6446837049614200e+00
      - 1.1372708234812713e+01
      - -1.7154691008900946e+00
      - 1.2000501716145548e+01
      - -1.9523060335953675e+00
      - 1.2180310210277019e+01
      - -1.8372165226924400e+00
      - 1.1533341587630380e+01
      - -1.7215652175373946e+00
      - 1.1386256880434090e+01
      - -1.6227968383087237e+00
      - 1.2245166715014436e+01
      - -1.5384337942243758e+00
      - 1.2926463706724933e+01
      - -1.9408386583504695e+00
      - 1.2692088137073380e+01
      - -1.5602196265640984e+00
      - 1.1646184312932869e+01
      - -1.6523219472336752e+00
      - 1.1353251676125508e+01
      - -1.7207601200294362e+00
      - 1.1847518680342109e+01
      - -1.8067392476473250e+00
      - 1.2286075118889750e+01
      - -2.0867677271152547e+00
      - 1.1417496512831431e+01
      - -1.7901996322167044e+00
      - 1.1358956390915276e+01
      - -1.7102820755885344e+00
      - 1.1873172358339263e+01
      - -1.5956317140378393e+00
      - 1.2664712938715127e+01
      - -2.0377810536579615e+00
      - 1.2175699782462202e+01
      - -1.6140791996756469e+00
      - 1.1364291715558121e+01
      - -1.7130698208109936e+00
      - 1.1207193557494955e+01
      - -1.8001156155504461e+00
      - 1.1999688215583619e+01
      - -2.0677394897582824e+00
   output_scale:
      - 5.2631578947368418e-01
      - 4.9999999999999994e-01
      - 5.2631578947368418e-01
      - 4.9999999999999994e-01
   inv_output_scale:
      - 1.8999999999999999e+00
      - -9.4999999999999996e-01
      - 1.8999999999999999e+00
      - -9.4999999999999996e-01
   weights:
      -
         - -4.3436524724069586e-02
         - 1.4305094634212425e-02
         - 1.8435781775797251e-02
         - -7.3938464027881222e-03
         - 5.4141105220105873e-03
         - 1.7446038937731313e-02
         - -2.3211901047944808e-02
         - 1.2980013591872999e-02
         - 2.5133408657388934e-02
         - 3.2602747433840590e-02
         - -1.4613454673297792e-02
         - 6.8511839400184224e-02
         - -1.5825411865588088e-02
         - -1.9365842011875925e-02
         - -2.6146817959561388e-02
         - -1.1474745616575934e-02
         - -3.0352022132408146e-02
         - 1.8570758346052839e-02
         - 2.1066988157983298e-02
         - -2.4551426494361966e-02
         - 1.5958826300049991e-02
         - 2.8038873882288994e-02
         - 2.7355827681591106e-02
         - 2.3931543984799238e-02
         - -3.6927322046904451e-02
         - 4.1295681134672642e-02
         - -4.2057918571741853e-03
         - 3.7901577921405021e-02
         - -1.7521816102932003e-03
         - 3.0392440716508352e-02
         - -4.8044842826124954e-03
         - 4.8468703936824953e-02
         - -3.2039394468182471e-02
         - 1.6305955667447521e-02
         - 1.8804913076647396e-02
         - -7.9627460444277858e-03
         - -2.0307153757353310e-02
         - -5.5457889616691944e-04
         - -2.7899061020249107e-02
         - 1.0993741506558991e-02
         - 5.7737803748413169e-03
         - 1.5740142707630526e-02
         - -5.9823715900830018e-03
         - -3.5221502078284311e-02
         - -5.0587867056447198e-03
         - 1.0031525570123096e-02
         - -4.2642004048776008e-02
         - 5.9378335496121466e-03
         - -3.1805612395830810e-03
         - 2.7045789973316935e-02
         - 1.9117628870741660e-02
         - -7.0753268441529097e-03
         - -2.6019619218882496e-03
         - 1.3841752027249992e-03
         - -8.4623021724035234e-03
         - -4.7666467669889483e-03
         - 1.2690465698253838e-02
         - -6.3612020342805400e-03
         - -9.0210904573430530e-03
         - -3.3502849980999408e-02
         - 8.0194195383523452e-03
         - -8.2896361480651014e-03
         - 1.3058463744241439e-02
         - 1.3114205307113706e-02
         - 1.1970469023344128e-02
         - 1.7641838690866250e-03
         - 2.0439658742645205e-02
         - -7.7251504053440796e-03
         - -7.0648650879108028e-03
         - 5.5676125946885688e-03
         - -6.4012558340156324e-03
         - -1.0237123061114472e-02
         - -1.2732576285002274e-02
         - -6.7849157079136607e-03
         - 1.2639706058404976e-02
         - -2.2391410582367700e-02
         - 4.9676871775716364e-03
         - -1.7040834525445470e-02
         - 1.5999557486607475e-03
         - -1.8977327692870909e-02
         - -3.3097288939135626e-03
         - -4.4591640856255655e-03
         - 2.5322433189190491e-02
         - -5.0062333124618772e-03
         - -7.1182789194537410e-03
         - 2.8901473721446112e-03
         - 2.2853740293594965e-02
         - 2.0987279198921597e-03
         - 1.7247279575864641e-02
         - -1.7194996689249525e-03
         - 3.6990482684418902e-03
         - -1.1184915894697956e-02
         - 1.1762994460216529e-02
         - 1.1416563467221350e-02
         - 4.4931399469694041e-03
         - -1.0359870630628326e-02
         - 1.8232048070638367e-02
         - -2.0296116306711131e-04
         - 3.3486766232422695e-03
         - -1.0233452191319690e-02
         - -1.8876487692987131e-03
         - 8.8272757242440925e-03
         - -2.1874752997482218e-03
         - 4.0147151414476117e-03
         - -4.7787894013419548e-03
         - 5.0889027146283202e-03
         - 2.9452982041330610e-03
         - 3.1303203409882110e-03
         - -1.5210444017335850e-05
         - -6.3596035686984912e-03
         - -5.8689043722933501e-03
         - -2.4892323094921606e-02
         - -6.6180362701203938e-03
         - 3.3205250612436113e-03
         - -3.9043857396300575e-03
         - 2.8307852330960851e-03
         - 4.6749427035616626e-03
         - -4.4012862113111820e-03
         - 2.2047920283496509e-03
         - -6.9232874742050018e-03
         - -3.9451916623504113e-03
         - -2.0401683446700496e-03
         - 2.2896787387547799e-03
         - 1.6685451610198945e-03
         - 9.7449228008832187e-04
         - 3.8780883632500061e-03
         - 8.4237076656141282e-04
         - -1.6118505475288139e-03
         - -4.7420049826122053e-03
         - 8.1089145647916415e-04
         - 5.6276274000548248e-03
         - 5.5698086614628349e-03
         - 1.1414767826185225e-02
         - 4.3293530432908260e-03
         - -6.5503771481749736e-03
         - -4.5439561987698990e-03
         - 6.5137168208792518e-04
         - -5.2529308964815733e-03
         - -3.3945001447800228e-04
         - 3.7670678173272677e-03
         - 2.9607782329277052e-03
         - 3.9356609536245341e-03
         - 9.7535513701795678e-04
         - -4.6178244715362250e-04
         - -1.9851563884376732e-03
         - 3.0461717979286176e-03
         - 1.6769905360726485e-02
         - 9.2141990682680975e-04
         - 2.7360164979201005e-03
         - -3.0442970027121786e-03
         - -2.0350428710839724e-02
         - 9.0169252842448692e-03
         - -5.0767457702691784e-04
         - -1.0347793798051463e-03
         - 4.7947186594480828e-03
         - 5.4553308894616905e-03
         - -6.5639051023377339e-03
         - 9.5338807429687800e-03
         - 8.0270621892463354e-03
         - 2.7044169043423966e-02
         - -1.0819334112498621e-02
         - -1.2328498770148173e-02
         - -3.1115771242289499e-04
         - -1.4954934766393998e-02
         - -8.4957872964348327e-03
         - -9.1429022401485795e-03
         - -1.1896307102190893e-02
         - -1.2760979334990605e-03
         - 7.8350995951878867e-03
         - -2.9856718808036198e-03
         - 1.1327068821056115e-03
         - 1.1479591955721001e-02
         - 3.3530731027081855e-03
         - 7.9587252961782571e-03
         - -9.0431726900890540e-03
         - 1.7115597047681511e-02
         - -7.1894687659688908e-03
         - 4.7042812925190977e-03
         - 2.9178061716488186e-03
         - 9.4463113243898889e-03
         - -3.2726230485844838e-03
         - 2.4987060109952150e-03
         - -1.6358846183111821e-02
         - 6.7233762429262977e-03
         - 1.7599731355510857e-03
         - -6.2173564285075396e-03
         - -4.2185470407100339e-03
         - -3.8732660406811952e-03
         - -1.0815318363305172e-02
         - -1.3402726371348258e-03
         - -3.8479884537173581e-03
         - 1.5891697295106900e-03
         - -7.3519318396768557e-03
         - -1.3644182726135452e-02
         - -4.3973175879222564e-03
         - 9.4512511534444663e-03
         - 4.2594263707718665e-03
         - -1.4332689407430498e-03
         - -3.5630890572026720e-03
         - 5.7618695363155390e-03
         - 4.3091698634875487e-03
         - -9.4712167278347310e-03
         - 7.8632461339769887e-04
         - -1.8384536945984794e-04
         - -7.0053206614304857e-03
         - -1.0991659616691657e-02
         - 1.7351197432085780e-03
         - 9.1651300241541291e-04
         - -7.8929589677166293e-03
         - -1.3362367714080557e-02
         - 1.2945185485673459e-02
         - -6.0894361548823779e-02
         - 9.0780587124136098e-04
         - 6.4660723685037499e-03
         - 1.8267113981116447e-03
         - 8.9317263227596012e-03
         - 1.5076353115159881e-02
         - 2.2588975653161135e-03
         - -8.5289907828977347e-03
         - 8.9568365457741699e-03
         - -1.1286084316313601e-03
         - -7.0099125694188611e-03
         - -1.2077275507260234e-02
         - -7.1602214050921677e-03
         - 1.3503709126816137e-02
         - -1.2411347229921790e-02
         - -3.9315217097819792e-03
         - -1.0783480919307017e-02
         - 1.3741606167191403e-03
         - -8.8117049128413304e-03
         - -6.5351908530442138e-04
         - -3.5150294450711578e-02
         - 1.1466288927163365e-02
         - 6.1655589417917707e-04
         - -2.2526147653475566e-03
         - -5.0354864281066695e-03
         - 1.4065170956187966e-02
         - 5.3490631945318709e-03
         - 1.7321382464693647e-03
         - -7.4038718868194558e-03
         - -4.9586890368468030e-03
         - -4.3622952768517338e-03
         - 4.4662086555626365e-03
         - 7.3144147948396143e-03
         - -4.0192904963170786e-03
         - -9.2805509756800266e-03
         - 4.8493581527251681e-02
         - 1.4652207806939799e-03
         - -8.9356700951930728e-04
         - -1.1761065088685008e-02
         - -4.1424814690989464e-02
         - 1.4686207647318136e-02
         - 1.6125626486364578e-02
         - -1.0710715978050862e-02
         - 4.6312738001673855e-03
         - 1.2907559665314556e-02
         - -1.5831137461573667e-02
         - 1.1930121384912977e-02
         - 2.4222587788780531e-02
         - 4.4053019726326498e-02
         - -1.7299859435697444e-02
         - 2.3829750958246694e-02
         - -1.8833280384619372e-02
         - -3.2627458214488370e-02
         - -1.5406546355097020e-02
         - -8.0913556510605229e-03
         - -3.0653889647370203e-02
         - 1.1208938924443700e-02
         - 1.5347313284800558e-02
         - -1.9406321126487353e-02
         - 6.4293180945893492e-03
         - 3.0641647225300127e-02
         - 2.1578261569369209e-02
         - 1.3454356596117028e-02
         - -3.0352378154286618e-02
         - 3.2993010045710057e-02
         - -1.8824121927567934e-03
         - 3.6016195592052054e-02
         - -9.5605472676504302e-04
         - 3.9264884351975317e-02
         - 1.3502349502196760e-03
         - 1.7237943230566228e-02
         - -3.9574426055273663e-02
         - 5.4423991139191342e-03
         - 1.3236597177175189e-02
         - -1.1945519224656727e-02
         - -2.1596325587790507e-02
         - 5.4903072052470852e-04
         - -2.5657957835930896e-02
         - 5.5429384848922634e-03
         - 3.0544957178878724e-03
         - 9.9451405056649872e-03
         - -9.4168672704904345e-03
         - -3.1604389375987064e-02
         - -5.0972831496744041e-03
         - 8.2538756145654670e-03
         - -3.1779534061240566e-02
         - 7.6170853873125978e-03
         - -5.5785287924948390e-03
         - 1.9709959825241923e-02
         - 3.4556815317890489e-03
         - -1.0468350101466141e-02
         - -4.8232092810388000e-03
         - 3.9562764802136561e-03
         - 2.5282923486562490e-03
         - 1.5677189792161373e-03
         - -2.9666470917585454e-03
         - -5.6026728668855628e-03
         - -4.9202890498977912e-04
         - -3.9559272174401377e-03
         - 5.3234084055216538e-04
         - -3.2321336441618165e-02
         - -3.9780273631111716e-04
         - -5.9347461799098252e-03
         - -1.0109485034711743e-03
         - -1.8993459730764102e-03
         - -5.1492350359216366e-03
         - 5.2963556339778190e-03
         - 2.9300444152416702e-03
         - 5.3065131226526178e-03
         - 5.5788399242836456e-03
         - -6.2414541429293997e-03
         - 5.0807773750507152e-03
         - -1.8628389037217430e-03
         - -8.1877541299509666e-04
         - -1.4914079440764682e-02
         - 4.9885453374557635e-03
         - 1.0825410271705625e-03
         - 5.5111409691200285e-03
         - 2.7437727273687371e-03
         - 1.2876429517757787e-03
         - -7.8829345092664548e-03
         - -1.5776768939425765e-03
         - 5.0861144035051504e-03
         - -1.8006826082422262e-03
         - -3.0905296952542663e-03
         - 3.5928652855201871e-03
         - -8.4671870973323539e-04
         - 5.8715172984880066e-03
         - -5.2475266865859415e-03
         - -7.5812119498545010e-05
         - 1.0246206724467098e-03
         - 1.0177507930887938e-03
         - 5.6554283863057041e-03
         - -2.7454578019863486e-03
         - -1.3515329259353715e-03
         - -9.3244077851217053e-03
         - 5.4872823583180406e-03
         - 4.4294171121664052e-03
         - -4.4118293130191721e-03
         - -1.3109562529822039e-02
         - -1.5315478484777807e-03
         - 3.3657639098084767e-03
         - -5.2301334014995282e-04
         - -2.7396182069928774e-03
         - 1.7102833601415864e-03
         - -3.5006956678386501e-04
         - 3.4146674694654688e-03
         - 1.8687748460943175e-04
         - 1.2016677115778480e-02
         - -6.6647627199206616e-03
         - -6.1788640030168526e-02
         - -7.9983727996489548e-03
         - -4.3722903367365770e-03
         - -6.5556327174717275e-03
         - -5.3343328084731129e-03
         - -1.5482106211206600e-02
         - 1.6052278888289760e-03
         - -2.2559697718564820e-03
         - -6.2279873681281824e-03
         - -2.5963203948513340e-03
         - 7.1829972372691123e-03
         - 8.0840967672384401e-03
         - -1.6679572588316730e-03
         - -1.2743899548782770e-02
         - -1.0085175138493837e-04
         - 8.0463401696145398e-04
         - 1.0849346710047494e-02
         - -5.3795019055047502e-03
         - 4.6654671396530074e-03
         - -2.3245831889483889e-03
         - -2.5936500120881424e-03
         - -8.0075877027455129e-03
         - -1.7124754110706410e-03
         - -2.8360166648310650e-03
         - -4.4403654819001048e-03
         - -1.0039799652275213e-02
         - 2.5540136563790509e-04
         - 2.6274114790744776e-03
         - 6.3289558661866925e-03
         - -2.1973709110100236e-03
         - -1.2836618122229514e-03
         - -6.4741623601563270e-03
         - -8.6317265252108550e-03
         - 3.6350976470758928e-03
         - 5.1457654257972621e-03
         - 2.2148519260151340e-02
         - 1.1200697868311718e-03
         - 2.7819738437785402e-03
         - 6.1645555852362305e-03
         - -2.8314858037094257e-02
         - 1.0860376435658181e-02
         - 9.6303828511190223e-03
         - -2.4050644126462017e-03
         - 2.0813504692850596e-03
         - 1.0595859799844795e-02
         - -1.3128724698952998e-02
         - 2.7133655753662713e-03
         - 1.5918702382881542e-02
         - 2.7654369148559798e-02
         - -1.2405283970497206e-02
         - -1.3719569396851634e-03
         - -1.1896418059277641e-02
         - -1.2964830831045316e-02
         - -1.7461624223151357e-02
         - -4.4969381092744790e-03
         - -2.6486336239400284e-02
         - 7.1452887829250222e-03
         - 1.0346498647738666e-02
         - -7.1222131353125559e-03
         - 1.0430417073296290e-02
         - 1.4537724151330901e-02
         - 8.0943399872454320e-03
         - 7.9970329695710548e-03
         - -1.9795237178774888e-02
         - 3.0823602218681734e-02
         - -2.4200055608299721e-03
         - 1.7178824465897025e-02
         - -5.5711612924821408e-03
         - 2.7777373974699839e-02
         - -3.5304308528654646e-03
         - 3.0734731432862997e-02
         - -1.8134823198608430e-02
         - 1.0782423958109695e-02
         - 3.1738313117271647e-03
         - -8.8890010057790416e-04
         - -2.5064910448638990e-02
         - -9.4988941578739528e-04
         - -1.6799892109871359e-02
         - 6.4794248923236274e-03
         - 4.4772533569722535e-03
         - 8.5146512639210099e-03
         - -3.3538983234385421e-03
         - -1.9651519573150582e-02
         - -2.6510709941696053e-03
         - 8.6757353746099546e-03
         - 4.6160896432189446e-03
         - 2.5637644495903828e-03
         - -9.5697356838682582e-03
         - 1.4107151806013275e-02
         - 5.9021398937455572e-04
         - 3.7920527045740824e-03
         - -3.3358219849445579e-03
         - 1.9360085471384664e-03
         - -2.2661369883402271e-03
         - 4.9826340638668906e-03
         - -3.1436061223391412e-03
         - 1.3086175489905175e-03
         - 6.3551423615734841e-03
         - -1.2930429167732758e-02
         - 4.1126928626899296e-04
         - 5.8734492149746582e-02
         - -7.2308455586282717e-03
         - -2.7047074880667422e-03
         - 2.9179990360021948e-03
         - 2.8720079546744833e-03
         - -9.1010756717951728e-04
         - 4.4505815048781084e-03
         - 7.9061438349608149e-03
         - -8.7252229951805416e-04
         - 5.9193108747225727e-03
         - 2.2035227578947629e-03
         - 5.6441022918498835e-03
         - 6.7433370163859935e-03
         - -5.8785101992566034e-03
         - 8.8424927976892206e-03
         - -3.1286734280356263e-03
         - 5.9712384316795500e-03
         - 5.4230611390320080e-03
         - 5.1969724761217109e-03
         - -1.4225113419920251e-04
         - 1.5908291862485466e-02
         - 5.8488022530747974e-03
         - 5.2308623615646959e-03
         - -7.4132153782832482e-04
         - -5.9046770640013750e-03
         - 7.2914692528256156e-03
         - -6.1182274912297951e-03
         - -4.6392732240978498e-03
         - -1.2218412374714858e-03
         - 1.0538494968395712e-03
         - 2.2485317163898652e-03
         - 3.7608525873939029e-03
         - -7.5598112599452889e-03
         - 5.4931648133152494e-03
         - 4.4471717708517467e-04
         - -4.2901887861184129e-03
         - 2.7405661005264637e-03
         - 4.8693440027825739e-03
         - 7.4158958458177774e-03
         - 1.7239483736331784e-02
         - -1.3345315863292533e-03
         - -1.6083613511303054e-03
         - -1.1028140438780502e-03
         - 1.7113421009189542e-03
         - -1.7034904060750269e-03
         - 1.0120350683936326e-02
         - 1.4951114104903612e-03
         - -7.7839889135968791e-03
         - -2.4569326388564294e-02
         - -2.3288145597382798e-03
         - 2.9600003573821830e-02
         - 2.1165614461809527e-03
         - 1.2348309408054004e-02
         - 2.7224998335551626e-03
         - -2.1416177930161664e-03
         - 6.2887713658433750e-03
         - 2.8553898810449842e-03
         - -9.7992142087072222e-03
         - 1.0212484454449888e-03
         - 1.1139936745480501e-04
         - -9.6726591604533911e-04
         - -2.7755646926163045e-03
         - -5.0009765653224250e-03
         - 1.1955074085741623e-02
         - -1.5098534856594525e-02
         - 3.7041716725927298e-03
         - -1.2357753918491103e-02
         - -1.0201173114919998e-03
         - -6.5278442341402728e-03
         - -1.9914821588551796e-03
         - 3.2770292410109758e-03
         - 1.8687603288104607e-02
         - -5.5713433565691512e-03
         - -1.0122375374057066e-02
         - 6.8454419631266148e-03
         - 1.4135907378621028e-02
         - -5.5654457436049342e-03
         - 1.0027026997181221e-02
         - 5.0320793632432860e-04
         - -2.0009281674402304e-03
         - -6.6970272339647611e-03
         - 7.0955001197956537e-03
         - 1.2349837143423208e-03
         - 4.6482404393988555e-03
         - -8.0358869509713892e-03
         - 9.3286760514508758e-03
         - -1.8970958366284110e-03
         - 6.1330312623597630e-03
         - -1.1766917865922748e-02
         - 1.7906407101822455e-04
         - 1.5079291477917478e-02
         - 4.5376037080692554e-03
         - 1.0596386573137604e-03
         - 1.2220266242909744e-03
         - 7.7503545247348251e-03
         - -8.9606620937573151e-05
         - 5.1493686045559874e-03
         - 4.1196125679440979e-03
         - 1.0720071745406320e-03
         - 1.5159623089486681e-03
         - -3.1805910035196339e-02
         - -4.3027570419049872e-03
         - -9.5963053774374054e-03
         - -5.8520014544049866e-03
         - -6.5431441115265830e-03
         - 4.6480304133973763e-03
         - 7.0662123741232650e-04
         - 6.0651641458799397e-03
         - -8.2546073857876750e-03
         - 5.2672052321373593e-03
         - -5.7656643039821699e-04
         - -1.6320272725231979e-03
         - -1.9787831397571616e-03
         - 3.9911351350377308e-03
         - 9.2838010096897381e-03
         - -7.7965757785444898e-04
         - -2.4399966818973409e-03
         - -8.8181797915982073e-04
         - 1.0700914064878289e-03
         - -4.4366881507165550e-03
         - -4.9553518157622652e-03
         - 1.6344031567769996e-02
         - 3.0002782261710189e-03
         - 7.7791033860933560e-04
         - -2.1273271345181323e-03
         - 1.6636427586779372e-03
         - 2.8227448705013931e-03
         - -9.7725664579172318e-03
         - 1.4351528355541351e-03
         - 3.2456636182919239e-03
         - 5.5765855748070832e-03
         - 2.3420786525712102e-03
         - -4.4370886260855485e-03
         - 7.3784245109100399e-05
         - 3.0014278696478460e-03
         - 1.6738816030805025e-02
         - -3.9709513313130633e-03
         - 3.8851952517118347e-03
         - 6.0761845024732124e-03
         - -2.7206196144666440e-02
         - 2.4068177686562914e-02
         - 1.1923273954038213e-02
         - -2.7375916893011198e-03
         - 8.7802812405703874e-03
         - 4.4921856166069314e-03
         - -1.3405525860729692e-02
         - 5.7047792571458368e-03
         - 2.2428104277131943e-02
         - 4.0126319272259139e-02
         - -1.5047085074673849e-02
         - 1.3224584685498159e-02
         - -1.4114825390143334e-02
         - -2.7426247335300549e-02
         - -7.9969455421590712e-03
         - -1.1458614340311202e-02
         - -2.1227445145916082e-02
         - 7.1096539661059605e-03
         - 6.0933464096323640e-03
         - -1.7306359566888946e-02
         - 4.6415321607187459e-03
         - 1.8572331988372194e-02
         - 7.5271435390796429e-03
         - 9.4004420391751164e-03
         - -1.3202518697856774e-02
         - 2.8436918148919091e-02
         - 3.4597531083236182e-03
         - 1.3586223266895178e-02
         - -3.1306200231943182e-03
         - 2.1170058153598802e-02
         - 2.2156684848210779e-03
         - 7.5636283440402583e-03
         - -2.1958357380303339e-02
         - 1.1262660874039069e-02
         - 1.0417684400406330e-02
         - -7.6062532535267572e-03
         - -1.9819897292405336e-02
         - -3.1570598771516805e-03
         - -2.2832496799517224e-02
         - 1.2151970961141539e-03
         - -2.9452809521519864e-03
         - 3.8521816583310755e-03
         - -1.0654259592741955e-02
         - -2.2042433241204435e-02
         - -4.8009183478772898e-03
         - 1.0273152246969994e-02
         - -1.8673270843760813e-02
         - 6.0799396055074390e-04
         - -7.0981448207271805e-03
         - 1.9570975986213872e-02
         - -1.4890875087513944e-03
         - -3.8224311224276651e-04
         - 4.2091131936790923e-03
         - 2.1376785310665077e-03
         - -3.4280411948223433e-03
         - -7.2008429644431276e-03
         - 1.5454130488109577e-03
         - 2.9689975978438783e-03
         - -7.8724848601138334e-03
         - -2.3877112151988593e-04
         - 2.4577474957455069e-03
         - -6.8461719462381457e-02
         - -4.6422924562177208e-03
         - -2.1924879821856652e-03
         - -2.0726268963123780e-04
         - -4.5817280065983115e-03
         - 1.7198731224837165e-03
         - -6.0203378630760774e-03
         - -2.2559497229425358e-03
         - 5.0637673371816240e-03
         - 1.4341269781082929e-03
         - 7.0501267687718232e-05
         - -6.7292812166461500e-03
         - -6.2942607289763605e-04
         - 5.1105322734091001e-03
         - -3.1872264323231560e-03
         - 1.4934306253575229e-03
         - 1.0021326274688467e-04
         - -1.9519858314253182e-05
         - -1.0017612306986574e-02
         - 3.4582918142547258e-03
         - -2.0174165514566987e-02
         - 1.1525467787442741e-02
         - 1.6431631750482198e-03
         - 8.0474408440837306e-05
         - -4.3881062226371645e-04
         - 1.2588185435184107e-02
         - 2.5053241266120500e-03
         - 3.6727926013034519e-04
         - -1.8077266520362372e-03
         - -3.3251459704323736e-03
         - -3.9499652376646498e-03
         - 4.1555873427763018e-03
         - 7.9040638222849201e-03
         - -3.5761922083202011e-03
         - -5.8625380697348078e-03
         - 3.2329055009230175e-02
         - -6.3276025007890854e-03
         - 1.3450901089915321e-03
         - -2.6906749857994960e-03
         - 5.5432347636172471e-04
         - -1.5190901209089069e-02
         - -6.5215046495734914e-03
         - -3.4132650954111676e-03
         - -5.4466800921844655e-03
         - 1.3621816220291702e-03
         - 1.6612630403626141e-03
         - -7.3083944610971893e-03
         - -9.9462832114179892e-03
         - -2.4291645858839591e-03
         - 1.1217661460297943e-03
         - -1.6800532433235670e-02
         - 7.0233960845469496e-03
         - 1.5817770658127326e-03
         - -1.0478833556510853e-03
         - 2.1627973563647968e-03
         - 5.0452446519487822e-03
         - -3.6035968533513394e-03
         - -1.9694878767600736e-03
         - 6.5872439205809574e-03
         - -2.5258900713866525e-03
         - -4.2501745535523444e-03
         - 2.7665567285005510e-03
         - -5.3718265249886087e-03
         - 3.4289472363554776e-03
         - -1.2479453229387856e-02
         - 5.5089732446663648e-03
         - -3.8351582738059237e-03
         - 5.8017994617076355e-03
         - -9.3210160159884793e-03
         - 4.8392097668680436e-03
         - -2.3344064123060955e-02
         - -4.5433057287664466e-03
         - 9.9691188573786029e-04
         - -2.0561602310299938e-03
         - 4.7293296427908006e-03
         - 1.6249923549679208e-02
         - 3.0631098133283531e-03
         - 9.9293581060097332e-03
         - -3.1789403061736688e-03
         - -6.3783467916340699e-03
         - -3.0983709617289600e-03
         - 1.4457146606728049e-03
         - 3.7180291914570766e-03
         - 3.9370762916033685e-03
         - 3.4655235436333439e-03
         - -1.7199920502974791e-03
         - 3.9037655411551576e-03
         - -1.4572051455169527e-03
         - -4.7653352984918101e-03
         - 9.3438453645358513e-04
         - -1.0689328437204458e-02
         - -5.1146642008836505e-03
         - 1.1512485322608189e-03
         - -6.1704368956008015e-03
         - -4.0314777888389979e-03
         - 8.9811718198622003e-03
         - 3.0167244474912955e-03
         - -1.0280554635515842e-02
         - -1.4061819494989223e-02
         - 5.0484538828011703e-03
         - -6.5630811879461043e-02
         - 7.6401230689987958e-03
         - 3.8418684588892517e-03
         - 7.0742664410380636e-04
         - 1.9212887614644149e-03
         - 2.8364992533313443e-03
         - -4.2207048543457110e-03
         - -9.6248531423538195e-05
         - 4.1806353113193187e-03
         - -7.8634242797698505e-03
         - -7.4079763745751523e-03
         - -4.1727908359066538e-03
         - -6.3701267980479275e-03
         - 5.6865552799391286e-03
         - -2.3567001797701638e-02
         - -3.9547420031668477e-03
         - -6.3705929577852856e-03
         - 5.9774070368973798e-03
         - -2.4215020189451127e-03
         - 1.9584628924013609e-03
         - -1.7791556590252468e-02
         - 1.5568397879357817e-02
         - 1.0125231820454768e-03
         - -5.0697498446205698e-03
         - 6.9058039604699114e-03
         - 2.2169386058445433e-03
         - 4.3953658793853120e-03
         - 4.4913026740741194e-03
         - -3.1409807502329194e-03
         - 3.3063258207463664e-03
         - -6.0581153456101631e-03
         - 2.7113197701822498e-03
         - 1.2791887827257379e-02
         - 6.7076819004210060e-03
         - 2.0140393573316717e-03
         - 8.3013991507639023e-03
         - -4.0025408979803313e-03
         - -2.6330763916553503e-03
         - -9.8650956631332470e-03
         - -1.6624703830146845e-02
         - 5.0256331500204022e-03
         - 1.8470699355265304e-03
         - -6.1895936338110342e-03
         - 3.8951396535374999e-03
         - 6.7894479287331526e-03
         - -7.6604220652346389e-03
         - -1.3024628132803110e-03
         - 9.1758842620307535e-03
         - 1.4428992229548947e-02
         - -2.8448308724976713e-03
         - -5.0791333562546385e-02
         - -5.6643017862796031e-03
         - -6.6667700959057129e-03
         - -5.7352546683907164e-03
         - -2.2525915520842121e-03
         - -1.0169689260753585e-02
         - 3.6680528258044463e-03
         - 7.7574937451912228e-03
         - -8.2235676286668610e-03
         - -2.4844475142459416e-05
         - 5.2077467512433931e-03
         - 1.0309346887229015e-02
         - 6.3274966769489068e-03
         - -5.3942669041695188e-03
         - 2.4729970997636338e-04
         - 1.5307752390380683e-03
         - 1.2598701815989054e-02
         - 1.8270648901243466e-03
         - 1.0467177979338823e-02
         - 3.9309780797265005e-03
         - 1.8994048459937758e-02
         - -3.6949674428873353e-03
         - 6.6578978407391340e-04
         - 2.5110319667167487e-03
         - -3.5308249154582501e-03
         - -1.2540643069624992e-02
         - -3.0853470775147815e-03
         - -5.6692417601023094e-03
         - 4.0373621871329975e-03
         - 1.9259846281761638e-03
         - -6.7373590378128783e-04
         - 4.0891970806702224e-03
         - -1.2280159851676568e-02
         - -7.4162496146799543e-03
         - 1.2183118173151408e-03
         - 8.2435891098848850e-03
         - 3.7772663073506012e-03
         - -7.5553860484479547e-03
         - 1.9679224480224416e-03
         - -5.3782431100922500e-03
         - 1.6805935202090778e-03
         - 4.8143881021479908e-03
         - -4.2610860877728080e-03
         - 4.7790903494903591e-03
         - 7.3369353087552889e-03
         - -7.0341575638216622e-03
         - 4.0488810983804989e-03
         - -4.2184030676968845e-03
         - -7.4293045828913878e-04
         - -3.4989285542587679e-03
         - -2.7344046646444832e-02
         - -7.3422262616866258e-03
         - -2.2482430919887639e-03
         - -7.8940704766373418e-04
         - 1.0097765027362903e-03
         - -9.6573316505167983e-03
         - 2.4983695601008089e-03
         - 5.9901824134072443e-03
         - -3.2400772876038948e-03
         - 1.1340465705426258e-03
         - 1.5529494798268216e-03
         - 6.3557030765421657e-04
         - 5.7379919261674964e-03
         - -2.7680764496193543e-03
         - 6.2270044890814459e-03
         - 1.6372528877287523e-03
         - 5.3642580046802850e-03
         - 3.1366830776067044e-03
         - 1.6856063875400702e-03
         - 4.9993217786073758e-03
         - 1.0888851934564861e-02
         - 1.3129270861117365e-02
         - -1.7227396531722550e-03
         - 2.8379639961092048e-04
         - 4.3157070439065184e-03
         - -1.1901556836409553e-02
         - 3.4954031180051510e-03
         - -5.7036911458746738e-03
         - 9.6385764518513669e-04
         - 4.2492132814652903e-03
         - 5.1672137090140432e-03
         - -2.4615659523784914e-03
         - -2.1701252936249262e-03
         - 3.1028661077181410e-03
         - -3.2968071806691659e-03
         - 2.6567477032741302e-02
         - 1.6743032011116953e-03
         - -4.7581180591098875e-03
         - 3.7363485700518217e-03
         - 5.5879332594754747e-03
         - -7.8174192563754408e-03
         - -5.2504114873283339e-03
         - 8.0193140288917718e-04
         - 2.0665423166570120e-03
         - -5.8229605785049196e-03
         - 8.5434835561587694e-03
         - 1.9341771814018281e-03
         - -9.0638053976302684e-03
         - -2.3706736141620211e-02
         - 1.9322709182871638e-03
         - 3.4744750165172596e-02
         - 3.1307660971555749e-03
         - 1.3812852952264129e-02
         - 2.6362086868494871e-03
         - -6.7655131725369722e-04
         - 4.1015890153512325e-03
         - 1.5521122080975325e-03
         - -3.1369276790473430e-03
         - 7.9760921553636665e-04
         - -3.6762284045703084e-03
         - -9.8526244703355144e-03
         - -1.1342010921761150e-02
         - -7.0714092507702031e-03
         - 1.2609187673234963e-02
         - -1.0962553040336002e-02
         - 6.0174479814580272e-03
         - -1.0545651278806908e-02
         - 3.6443098591309470e-03
         - -8.3607103536110228e-03
         - 6.5601833006042774e-03
         - 4.3977707840471064e-03
         - 1.6297029878864038e-02
         - -5.1784825478571406e-03
         - -1.2533548072717075e-03
         - -2.4921063087991841e-03
         - 1.5070073754661103e-02
         - -3.8122827576579908e-03
         - 7.9474012855256949e-03
         - 4.1659739551021075e-03
         - 2.2331364998831923e-03
         - -6.5099515170065582e-03
         - 6.8407933594931570e-03
         - 7.6036778664797505e-03
         - -9.0923492595587304e-04
         - 3.4269162677548140e-04
         - 3.6384883962239183e-03
         - -5.7680614688559095e-03
         - -2.8263852165300299e-03
         - -6.9858062345761179e-03
         - -1.2396204345539386e-02
         - 1.3177578461364383e-02
         - -3.0179484521744956e-04
         - 4.1520359030210879e-04
         - -4.2451536959857758e-04
         - 7.7266964866470143e-03
         - -1.7206977456043276e-03
         - 2.5443089414479291e-03
         - 1.7306051192379143e-02
         - -1.2569388553257068e-02
         - -1.4548153922574576e-03
         - 2.3021461331973997e-02
         - -5.1908102675631085e-03
         - -2.1871670062847503e-03
         - -1.2521579917267101e-02
         - -7.9090199856456708e-03
         - -9.1762280915914114e-03
         - 1.7952350013207073e-03
         - 5.2481427331510806e-03
         - -2.9981521958522359e-03
         - 7.3633279766904258e-03
         - 1.0470352439565173e-02
         - 1.0693517823300282e-02
         - 1.0028215834838478e-02
         - -9.9018423527618311e-03
         - 7.5622277287925978e-03
         - -1.3204792268093721e-03
         - 1.1783013262556364e-02
         - -5.8276137221220364e-03
         - 1.4674648855370648e-02
         - -4.7157026741856314e-03
         - 3.3383966083204306e-02
         - 3.3421187398323701e-03
         - 5.8866234024308774e-03
         - -1.8759014027092133e-03
         - -1.4400969780841888e-03
         - -1.6929617358323195e-03
         - -2.1445964955166884e-03
         - -1.1557437552407835e-02
         - 8.9862944223486566e-03
         - -2.4356657275949957e-04
         - 8.0637093952689730e-04
         - -3.8207197871970174e-03
         - -1.1316670627959094e-02
         - -4.6097429836227327e-03
         - 9.1421762888252364e-03
         - -2.8266692517189837e-03
         - -6.4865732144959044e-04
         - 2.8026194986370038e-03
         - 8.1987102774489264e-03
         - 6.7897981783442175e-03
         - 1.1332552367984468e-02
         - -5.8686395386481436e-04
         - -5.8399649465620453e-03
         - 4.4226795112991910e-03
         - -2.8287096987214229e-04
         - -4.1325716835520516e-03
         - 3.2847577295282704e-03
         - 9.0830602509227622e-03
         - -1.1999876252441560e-02
         - -3.6762390135608599e-04
         - -3.1768272756804238e-02
         - -1.7427944726399870e-03
         - 5.2307855208602399e-04
         - -6.1806765778800836e-03
         - 3.8053597074093917e-04
         - -1.7588535845759362e-03
         - 2.2939463488880432e-04
         - -5.2003298974737655e-03
         - -7.4983499790914621e-03
         - 3.2289167340875183e-03
         - -1.7220673669225185e-03
         - 6.1006852835407358e-03
         - 5.1314206312397855e-03
         - 3.7442614110241522e-03
         - -1.6372208394724505e-03
         - 2.1112129339782280e-03
         - -6.2946879605776324e-03
         - -6.0922783309061137e-03
         - -3.6908508458826867e-03
         - 1.5762363535917097e-03
         - 5.3280507008501505e-03
         - 2.0398112453997454e-02
         - -5.1123604913090532e-03
         - -5.8670928560721654e-03
         - -3.2603737265242318e-03
         - 4.4936454687562457e-03
         - -1.1167895032355335e-03
         - -2.1757022956131683e-03
         - 8.4481367120514008e-05
         - -3.1412804251569558e-03
         - -1.9908440605969331e-03
         - 3.6643211915235049e-03
         - 1.7550323035537580e-03
         - -5.2389023608374764e-03
         - 5.9831161475328940e-03
         - 1.2683950878529509e-02
         - 4.8587846364160523e-03
         - 1.0856677796208922e-03
         - -2.4861032231014035e-04
         - -2.8454534669012351e-03
         - 1.3185486220320725e-02
         - -2.3035075562600643e-03
         - -3.9217319621258255e-03
         - 6.1242002526066507e-03
         - 3.2222701474856090e-03
         - -3.1014033847572417e-03
         - -1.7976551937057108e-03
         - -1.8379756743392177e-03
         - 2.0452810604893760e-03
         - -2.0703347801168865e-03
         - -1.5762812045797703e-02
         - 4.0828307110661304e-03
         - -6.0139152764853848e-03
         - -7.0219501433495092e-03
         - -2.5914240096895137e-03
         - -2.4275155946452314e-03
         - -3.8763054451624399e-03
         - -3.8591293085949259e-03
         - -5.7422624372286775e-03
         - 5.0685120579321901e-03
         - 1.2458887291941368e-03
         - 2.6454054404822227e-03
         - 7.1835883041892999e-03
         - 2.3655989825953423e-03
         - 2.5907112926288676e-03
         - 5.7851084585824331e-03
         - -1.6106159409751636e-03
         - -6.2055488522063714e-03
         - -2.1982681589766155e-03
         - -1.9066528692386312e-03
         - -9.2150841645879441e-03
         - 5.7959226073430545e-03
         - 3.4915880663220437e-03
         - -4.6146477589932644e-03
         - -1.7170501500678320e-03
         - 5.2350550305246824e-03
         - -4.7400677123549872e-03
         - -2.0323250411638776e-03
         - 9.2606872857833430e-05
         - 4.2048017234394867e-04
         - -5.2890385251837830e-03
         - 2.3473943240258986e-03
         - -6.3407536942345268e-03
         - -2.1257965201365221e-03
         - 7.2945093201704718e-04
         - 2.1220927831180352e-03
         - -6.3792186081993406e-04
         - 3.1854678130642201e-03
         - 1.6938741363736868e-03
         - 1.0401438511512174e-02
         - -1.4271509268586228e-02
         - -5.3912442464326407e-03
         - -2.8214952052768674e-03
         - -4.8607398623669550e-03
         - -1.7840735601499472e-03
         - 1.5036003508437916e-03
         - 2.1346198892626235e-03
         - -7.1635919103737932e-03
         - -9.0001687264059573e-03
         - 1.1045098995797522e-02
         - -4.2136033967497863e-02
         - 8.7105051435952140e-04
         - 1.4729505556443881e-02
         - 7.5264855065122942e-03
         - 6.3477617596061752e-03
         - 9.3868782360816052e-03
         - -5.2752876835633891e-03
         - -1.7930229574076170e-03
         - 8.0876227402390654e-03
         - -2.2786838857988337e-03
         - -7.4595877913508513e-03
         - -9.1469934501164016e-03
         - -5.9657931718547653e-03
         - 1.3940535368279813e-02
         - -9.7517435555124782e-03
         - 3.5550922477995397e-03
         - -7.2103952962568199e-03
         - -5.7051293084928482e-03
         - -1.3642371302664623e-02
         - -3.5381690352589692e-03
         - -3.2712105344184575e-02
         - 1.6175360640603258e-02
         - -6.6781411596080796e-03
         - -8.4446894469961953e-03
         - 5.4965159285186641e-04
         - 1.9553745515995490e-02
         - -3.9900915268444711e-03
         - 9.7534470894031170e-03
         - -4.6444917478186332e-04
         - -3.8782858378751039e-03
         - 2.0259827337378179e-03
         - 2.8316523555072114e-03
         - 3.9836547847944149e-03
         - 8.0022816588815326e-03
         - -4.9353538352574092e-03
         - 3.3526032297823465e-02
         - 2.3772630718949276e-04
         - -2.4612554202561835e-03
         - -1.2152681098448997e-02
         - -1.5289187413085074e-02
         - 3.0895057949513307e-03
         - 4.4716831813277598e-03
         - -7.1802889884728729e-03
         - -1.0134608712059655e-03
         - -3.1344436957238967e-03
         - -4.1419326007723547e-03
         - 8.1692076189864102e-03
         - 4.3552512438912441e-03
         - 2.1964624470038576e-02
         - -2.1448464116082346e-03
         - -1.0673908154549055e-02
         - -6.4092889635429823e-03
         - -8.4560977632517579e-03
         - -8.2179652817403609e-03
         - -6.8441998729704186e-03
         - -6.1340854317282183e-03
         - 4.2474492140661992e-03
         - 8.5661715142904774e-03
         - -5.5138060316098220e-03
         - 5.7808028330200295e-03
         - 1.2940354170522316e-02
         - 8.9370506458214384e-04
         - 8.6481655179948477e-03
         - -1.0954281935731801e-02
         - 6.2863662463819607e-03
         - -3.2787482138192936e-03
         - 1.8254675698909206e-02
         - 1.7112206761425853e-03
         - 6.8886672534937531e-03
         - -4.8744699639783777e-05
         - -8.7210673224281943e-03
         - -2.4851282722575002e-02
         - -1.1254804726977183e-04
         - 6.2809962273017005e-03
         - -1.7944070062174008e-03
         - 5.2582764693949388e-03
         - 2.6325929444160289e-03
         - -1.1253984273377855e-02
         - -3.0424752818836447e-03
         - 5.1154051617088225e-03
         - 3.1606754150047805e-03
         - -4.1173570270349805e-03
         - -4.3068299180579290e-03
         - 1.7329545556878086e-03
         - 8.0300709094825781e-03
         - -2.5133951962614615e-02
         - -1.7177611714258810e-03
         - -1.7589970178695630e-03
         - 2.9880980921495148e-04
         - 4.1190355508196934e-02
         - -3.6848337216418531e-02
         - -1.8918174056541233e-02
         - 1.1935324308362499e-02
         - -1.1939599098178780e-02
         - -2.2983361070210179e-02
         - 1.5245491936547981e-02
         - -5.3652889652756903e-03
         - -2.6481334469423932e-02
         - -3.7544567723447823e-02
         - 2.4617513882195852e-02
         - -5.8554265278541864e-02
         - 9.4145677467736520e-03
         - 3.1248546921263706e-02
         - 2.7152555836855684e-02
         - 3.9733447049113040e-03
         - 3.2629575767703450e-02
         - -1.1168364140466442e-02
         - -2.2196501776533525e-02
         - 2.2842518291426094e-02
         - -8.8410853543948644e-03
         - -3.3892445453024167e-02
         - -2.6230429363791906e-02
         - -2.0314703478605318e-02
         - 2.6222394139884173e-02
         - -5.5494054421084404e-02
         - 5.3305424116504799e-03
         - -3.4611583177815160e-02
         - 8.0338086736342525e-04
         - -3.5034625102146187e-02
         - 5.1052726579812096e-03
         - -4.5552825035372342e-02
         - 3.7502495034601319e-02
         - -1.3119424119194286e-02
         - -1.5861960845340094e-02
         - 4.6637725397514346e-04
         - 3.4148299102041174e-02
         - 4.1890986288123074e-03
         - 2.5065701482251075e-02
         - -9.6349646030354993e-03
         - 4.4971806913852337e-03
         - -8.2488488355589949e-03
         - 6.8571314297744528e-03
         - 2.9065082115471333e-02
         - 5.0085669832277187e-03
         - -7.7948284386838863e-03
         - 2.5756401070207366e-02
         - -8.3269779119455310e-04
         - 5.8236448523835927e-03
         - -3.2815714291285179e-02
         - -2.5510213669683101e-02
         - 4.0893326294919085e-04
         - 9.3908050592470434e-03
         - 6.5408186157587839e-04
         - 1.8980564251001241e-03
         - 1.3082535760384420e-02
         - -5.1885710632798955e-03
         - 5.6971024136053088e-03
         - 1.4738604948533140e-02
         - 2.9839176655630930e-02
         - -9.5625832381268684e-03
         - -1.5950542946351679e-02
         - -1.0364274410211670e-02
         - -7.1125714198857649e-03
         - -9.2737109464690569e-03
         - -2.0054451469726231e-03
         - -1.2280240562440228e-02
         - 1.1838481230649076e-02
         - 1.3076444789253173e-02
         - -9.1261752394089096e-03
         - 4.1840591134318025e-03
         - 1.3567270616798521e-02
         - 1.3245563122862888e-02
         - 1.2413177178868990e-02
         - -1.1721647555900683e-02
         - 1.9193368659581423e-02
         - -1.4009586648828652e-03
         - 1.9658083957652794e-02
         - 3.5309047152905586e-03
         - 2.0798461652704093e-02
         - -1.3402690619790708e-03
         - 1.7018843523253339e-02
         - -2.3869328519385336e-02
         - 1.0774992282221126e-02
         - 9.9688147004731026e-03
         - -8.6218142228087016e-04
         - -2.7721140231072548e-02
         - 9.2042727999682686e-04
         - -4.2461621471417445e-03
         - 4.1638033971662086e-03
         - -4.0277600351515952e-03
         - 9.0354972337908374e-03
         - -7.6793392894135759e-03
         - -1.6331421597331381e-02
         - -6.0662301101860822e-03
         - 1.0632300868464591e-02
         - -4.1719195236511299e-03
         - 5.7173492941554795e-03
         - -2.4049199491430623e-04
         - 8.1982220089767029e-03
         - -1.6548444007508895e-02
         - -2.0759665493333393e-04
         - 6.5263559414492087e-03
         - -2.4939334203976219e-03
         - 5.3582581923211116e-03
         - 6.7206744253209948e-03
         - -8.8592378165791991e-03
         - 6.8310202610563104e-03
         - -5.0762596273186704e-04
         - 2.4922205416131890e-03
         - -6.3712076268031216e-04
         - 7.9624961709420655e-03
         - -9.3886548482931768e-03
         - 7.4418882866518032e-04
         - -8.5598132619294810e-03
         - -7.5676410045345333e-03
         - -8.5724651946467341e-03
         - -2.3364403272680750e-03
         - 1.0046645203504408e-02
         - -3.6958523378269256e-03
         - 3.9247580194833511e-03
         - 8.0217240071240124e-03
         - 2.3248601163809437e-03
         - 1.6581034562400386e-03
         - -4.2974162656880081e-03
         - 8.9073075287210389e-03
         - 5.4396263352998846e-03
         - 3.7181234697308729e-03
         - 3.9056287167309298e-04
         - 7.0997695234310300e-03
         - -2.5143183320048786e-03
         - 1.6313638394822794e-02
         - 3.9749742342209196e-03
         - 1.0706146784529114e-03
         - 9.6845220516812141e-03
         - 2.2053527271844241e-03
         - -1.5750605475283553e-02
         - -2.9680823437033600e-03
         - -6.2751460066717384e-03
         - 4.0585652061126123e-03
         - 3.4227452169395627e-03
         - 1.5126231149643033e-03
         - -4.8382331791446869e-03
         - -8.4386202320711431e-04
         - -2.9359586184691984e-03
         - 1.1140734320429352e-03
         - 5.3980494661195434e-03
         - -2.3616137557224610e-03
         - -1.4716105234471892e-03
         - 4.0446656084191573e-03
         - -9.8166433107898590e-03
         - 5.3814528541993971e-03
         - 6.0489169122849582e-03
         - -2.1482827202915660e-03
         - -4.0892191598745327e-03
         - 2.5644414347943084e-03
         - 8.0293060307838247e-04
         - -4.1172201733132765e-03
         - -7.2385622258238689e-05
         - -1.8898168080008909e-02
         - 1.8842581607761708e-03
         - 7.2282468414183662e-02
         - -4.6109222712341965e-03
         - 4.1358921787939557e-03
         - 3.3946420803066635e-03
         - -5.7957218641806188e-03
         - -2.7655466753310400e-03
         - -2.3851551384496189e-03
         - 6.1737446109033714e-03
         - -6.7329681065175107e-03
         - -4.0208762326109466e-03
         - 8.7270203548278150e-03
         - -3.2879654602208947e-03
         - 2.7803385143823169e-03
         - -1.5236653543001415e-05
         - 3.6047292259805824e-03
         - 2.0247747414673359e-03
         - 5.8789179874366706e-03
         - 1.7769597204601801e-03
         - 4.8269265461159316e-03
         - -1.0593757831720968e-03
         - 2.3614626943054128e-02
         - 5.6475253217523180e-03
         - 5.0606552462250580e-04
         - 6.9342423418064618e-03
         - 6.1652337564072702e-03
         - 5.0163803705271879e-03
         - 4.5033151334603998e-03
         - 4.2964558526602525e-03
         - 1.0008772558958645e-03
         - 2.6067267128503978e-03
         - -1.9086578441175563e-03
         - -3.8884746525432632e-03
         - 1.8631095866829196e-03
         - -6.0492751003394509e-03
         - 7.8023958273385745e-03
         - 1.2896318258920720e-03
         - 7.0005368914345433e-03
         - -1.4439673701436373e-03
         - -2.6754743641309933e-03
         - -8.0134703456169552e-03
         - 2.1171707513803581e-02
         - 1.0584379476622800e-02
         - 2.4985287308939138e-03
         - 3.3425885210971230e-03
         - 7.9118237274409427e-03
         - -9.6187921156394955e-03
         - 4.1121623804725388e-03
         - 1.5401373357659561e-02
         - -1.1977473351553794e-02
         - -7.6173384069723234e-03
         - 4.3259765732594768e-02
         - -8.6479787103318061e-03
         - -7.6965683923406764e-03
         - -3.3953589652344915e-03
         - -1.5017675957925828e-03
         - -1.8084167647419033e-02
         - -4.4602762317180983e-04
         - 3.1605378176085197e-03
         - -9.6911269781285395e-03
         - 2.6957838601471122e-03
         - 1.2061256100394147e-02
         - 3.4984438468233670e-03
         - 8.5349127454157278e-03
         - -1.7800518856938091e-02
         - 1.7858811364802819e-02
         - 1.7689455556111355e-03
         - 1.0867577486657395e-02
         - 5.2154663631623398e-04
         - 1.1571877243165753e-02
         - -3.3537524902798495e-03
         - 3.2934725138319215e-02
         - 8.6126113707309260e-03
         - -6.8988404464958393e-04
         - 7.0628271213698446e-03
         - -1.6775152649094506e-03
         - -8.0449945180602420e-04
         - -1.2131058226417084e-03
         - -1.1521963267485546e-02
         - 1.1549075999996014e-02
         - 1.7949281684091869e-03
         - 9.0388567877004646e-04
         - 7.2133398299884183e-04
         - -1.2249405014939253e-02
         - 2.2643737652265797e-03
         - 8.4430076321068675e-03
         - 5.0402865639683967e-04
         - 2.5137333904021448e-03
         - 8.0356054519946168e-04
         - 6.6827904185109768e-03
         - -2.1381245800935391e-03
         - 1.5504179759815127e-02
         - 1.0507927995700333e-03
         - -3.8795074236701184e-03
         - -2.7546656305680595e-03
         - 2.7319682036643402e-03
         - -4.5856589588116935e-03
         - -2.3169521717200524e-03
         - 7.8624675883254558e-03
         - -2.5782204188983713e-03
         - -5.4832029023792422e-04
         - -2.2882510939764060e-02
         - -2.9971429007753298e-04
         - -4.6582408436827462e-03
         - -4.3078409928275609e-03
         - 4.0374511408458871e-03
         - 2.4668600971681190e-03
         - 1.6014245727286758e-03
         - -8.7462462383436183e-04
         - 2.7119153548140667e-03
         - 5.7953353398927112e-05
         - 3.2941229967501122e-03
         - 4.1095166093843317e-03
         - 8.4513957870066406e-04
         - -3.1210279870302984e-03
         - 8.8460726689653085e-03
         - -6.3052864356583961e-04
         - -1.9309243361511120e-03
         - 4.6371283202974378e-03
         - -3.0278283800376617e-03
         - -4.0136497312197213e-03
         - 4.1920184808464786e-03
         - 1.8282350816060812e-02
         - 2.6174086727367928e-03
         - 2.2124004833806001e-03
         - -4.3568437182161567e-03
         - 2.4141814510138292e-03
         - -2.1387763718990292e-03
         - 1.0655041784764431e-03
         - 1.3097309918525747e-03
         - 5.5874582302527067e-03
         - -3.6803151399164595e-03
         - 1.3314879357412110e-03
         - -3.4026968636016101e-03
         - -6.9051793967776895e-04
         - 6.9306767995918521e-03
         - 1.8526068029177268e-02
         - -2.3789503794718796e-03
         - -2.2124498392572323e-03
         - 2.1782063208886284e-03
         - -1.6011811472774755e-03
         - 1.0834771298629007e-02
         - -2.5150579241737000e-03
         - 5.0205155926186249e-03
         - -2.2361936773611659e-03
         - -7.3481457662590939e-03
         - -5.3332037286733325e-03
         - 3.9750848251211540e-03
         - 3.8138644914746836e-03
         - 1.5898087950072335e-02
         - 1.0859585950108201e-03
         - -2.8477405450347357e-03
         - -1.1805429244609346e-03
         - -2.9069785956972933e-03
         - -5.1839536806498557e-03
         - -2.2482572002897865e-03
         - 9.1866229711996261e-03
         - -1.6364867150442340e-03
         - -3.0269731482087470e-03
         - -5.4712703309324128e-03
         - 3.5775088220097568e-03
         - -1.5011297478176066e-03
         - 1.2663089134923211e-03
         - -9.0727297377928137e-04
         - 4.2676777036424153e-03
         - -2.7327543947433851e-03
         - -3.4810922258719998e-03
         - -9.4591523655543682e-03
         - 1.2393850319956755e-04
         - -8.3382820314466637e-03
         - -1.1324730502643046e-03
         - -5.8849447557157526e-03
         - -6.5741481378329119e-03
         - 1.3901219072625453e-03
         - -5.1100672458387923e-03
         - 2.1352165932729404e-03
         - 3.4112091884354518e-03
         - 1.5482215484931843e-03
         - -5.0469091103983853e-03
         - -6.9596115407640274e-03
         - 2.8142102635128432e-03
         - -3.1908462145110284e-04
         - -5.3781861108589642e-04
         - 5.6428975940970476e-04
         - 1.6929505953186361e-03
         - -8.5263579110522280e-04
         - 1.6806724631549846e-02
         - 2.0227951634155805e-03
         - 3.1438908188826469e-03
         - -1.7953756737882059e-03
         - -1.5557746219290722e-02
         - 7.6218583431581265e-03
         - 1.1702040124832034e-02
         - -5.9813472378164078e-03
         - -2.1361633309126501e-03
         - 7.3591773386820474e-03
         - -1.2699533522957288e-02
         - 8.6089539329692148e-03
         - 1.1416387029536488e-02
         - 4.0118767074691135e-02
         - -1.6863737562529341e-03
         - -3.0763430869381957e-02
         - -3.0127693302567874e-03
         - -1.2723392142404900e-02
         - -1.1689725649449230e-02
         - -7.8690734083761479e-03
         - -1.1256536218904808e-02
         - 6.7094829693366475e-03
         - 1.4263948766598601e-02
         - -1.2938140728449560e-02
         - 1.9400010921820133e-03
         - 8.3078862758544352e-03
         - 1.3740423312342209e-02
         - 1.5435846625793077e-02
         - -1.1480226558717964e-02
         - 1.2290250161525093e-02
         - -2.7381893293000662e-03
         - 2.0497549154860358e-02
         - -6.6053800097211190e-03
         - 1.9425139746922705e-02
         - -3.9062709975780175e-03
         - -7.2052119125378044e-03
         - -2.0803515163441973e-02
         - 3.3693660614666082e-03
         - 1.1261157430829838e-02
         - -5.1577116808080822e-04
         - -4.9198147372576176e-03
         - -4.9712967829198150e-03
         - -1.7498263681320798e-02
         - 3.1976924239408427e-03
         - 1.6524179859889686e-04
         - 1.0745845006895407e-02
         - -6.2761542753799237e-03
         - -1.4624751434212003e-02
         - -6.3943618337678320e-03
         - 6.6832648967137974e-03
         - -1.2032513678503973e-02
         - -3.3425420887940177e-03
         - 4.0782583778346225e-03
         - 1.6756357421405198e-02
         - -3.1571789101110706e-02
         - 8.8913341849503943e-03
         - 1.3451672251070454e-02
         - -9.2599468059263220e-03
         - 1.0151378043648001e-02
         - 1.0385321444364128e-02
         - -1.8841151958421832e-02
         - 1.2853733216423580e-02
         - 1.7831933983320416e-02
         - 5.4891037593307677e-02
         - -1.4265178283683766e-02
         - 4.4859597766576985e-03
         - -1.4403503805994563e-02
         - -1.7916838480945226e-02
         - -1.9377549188518119e-02
         - -7.0655614741126421e-03
         - -2.1715993539752506e-02
         - 4.6931734725828332e-03
         - 8.1386141668836932e-03
         - -1.7457082645003081e-02
         - 6.3022585132183158e-03
         - 1.8278842324030556e-02
         - 1.9924332657200929e-02
         - 1.1119947723452992e-02
         - -1.8222719060708048e-02
         - 2.9027502573392979e-02
         - -2.7339745793271799e-04
         - 3.2492427102210480e-02
         - -4.2347572627617555e-03
         - 3.3919748536880602e-02
         - -5.2274170643034842e-03
         - 4.9972494882720483e-03
         - -4.9175082419342216e-02
         - 9.7430311007126683e-03
         - 1.6608503369299154e-02
         - -5.1106911037772278e-03
         - -1.5467232026118903e-02
         - 4.0054071513743903e-03
         - -2.0777475113176489e-02
         - 5.5303892060015033e-03
         - -9.9791372558863736e-04
         - 6.7364239146113581e-03
         - -1.2433866728013826e-02
         - -2.8254361747012079e-02
         - -2.3664332398512641e-03
         - 9.8375983184758320e-03
         - -4.2479799967078555e-02
         - 3.5469703355318167e-03
         - -2.5621336247897042e-03
         - 2.2081256087805496e-02
         - -2.4544332108040898e-02
         - 1.1121787346582110e-02
         - 1.0996102834488078e-02
         - -1.1770720155195597e-03
         - 9.2399952223391740e-03
         - 9.2207053137207725e-03
         - -5.2395233457885933e-03
         - -6.8578494893084302e-04
         - 1.2842720803106984e-02
         - 3.6576188680090757e-02
         - -1.3902020682044785e-02
         - -2.4167762052056244e-02
         - -1.1482878103044953e-02
         - -2.5102836936765200e-02
         - -1.5453062235534540e-02
         - -3.1626820069948162e-03
         - -2.3341004275370190e-02
         - 1.4245564210059162e-02
         - 1.0047150089101781e-02
         - -1.1037607540842738e-02
         - 8.5322799858564280e-03
         - 1.7354059710161959e-02
         - 1.6355802934270403e-02
         - 1.2127436270204420e-02
         - -1.6886933298073333e-02
         - 1.3190805819841804e-02
         - -2.7590785604163816e-03
         - 3.0510571184643440e-02
         - -4.4049842684441001e-03
         - 2.2041003279950594e-02
         - -5.8302310139254770e-03
         - 1.8005398020917811e-02
         - -3.0227280785378414e-02
         - 7.0428054093827439e-03
         - 6.4682061371111321e-03
         - -1.6089962194607986e-03
         - -2.4973785347939398e-02
         - -6.8441489237531959e-03
         - -1.8003897428043678e-02
         - 5.2825804182440612e-03
         - 1.6288381247788042e-04
         - 1.2374855539962442e-02
         - -8.2669881803433144e-03
         - -1.6350605721522870e-02
         - -5.3031662316065913e-03
         - 2.2725452319206879e-03
         - -3.8398486923550898e-02
         - 4.8791583221936665e-03
         - -2.8121396943789597e-03
         - 1.6434036556861618e-02
         - 1.3372747018075771e-04
         - -9.7343790572263673e-03
         - 7.6144370014431925e-04
         - -1.1158060572895223e-03
         - -4.3762937114916580e-03
         - 1.3394384325348678e-03
         - 6.6804122886169916e-03
         - -2.7834114158891868e-03
         - -3.0323265390753162e-03
         - -3.8280792994137124e-03
         - -2.2304351517622605e-03
         - -2.9019040310444472e-02
         - 3.9457145617694091e-03
         - -4.7018955637321820e-04
         - 4.4596041341542882e-03
         - 4.0980414585339766e-04
         - 2.4992863286073387e-03
         - -4.7500908274020689e-03
         - 1.2045597199554965e-03
         - 3.0850702775367801e-03
         - -6.4294786400527406e-03
         - 1.3185792426262952e-03
         - -1.1731163379628952e-03
         - -3.7295238772512831e-03
         - -1.1611123053962751e-03
         - -9.3644043229984038e-03
         - 1.0697595933928849e-03
         - 4.2271040521229463e-03
         - -3.3197694571133109e-03
         - 6.1738568443239251e-03
         - 4.6951238291047400e-04
         - -6.4135888687058889e-03
         - -3.9998689454881992e-03
         - -2.3720651124194813e-03
         - 4.7992980422981038e-03
         - -4.1832095856217328e-03
         - -1.1790996498714571e-02
         - 7.4390397218896569e-04
         - 2.0367335161499190e-03
         - 4.8571178438188327e-03
         - -4.3337805386396864e-03
         - -2.6961524108737060e-03
         - 4.1101439919848824e-03
         - 9.2173309855559486e-03
         - 2.6628705689101372e-03
         - -8.0837524613051404e-04
         - 1.2152194008344653e-02
         - 4.2349300156777243e-03
         - 1.1014946267554190e-03
         - 9.4060953258830898e-06
         - -4.5849886580203482e-03
         - -4.5864388113440267e-03
         - 5.0032973936551843e-03
         - 6.2587238751443692e-03
         - -1.4829212857849054e-03
         - -3.8758037265748096e-03
         - 7.6790254395785592e-03
         - -6.9754587777968937e-04
         - -5.9642226486889705e-03
         - -1.6428904918938520e-02
         - 7.8810842507792941e-05
         - 4.9634547709219651e-03
         - -3.3544785887842819e-03
         - -2.8256829003500781e-04
         - 1.7998150547831318e-03
         - -4.2835900151176289e-04
         - -6.8663403480188259e-03
         - 4.8311941068136647e-04
         - -7.9482419181976652e-04
         - 9.3722821095029799e-05
         - 1.9732278230312969e-03
         - -5.4664188375720428e-03
         - -2.8609201634118924e-03
         - 1.0219394772603559e-03
         - 2.5861062029414053e-03
         - -1.9884443396100578e-03
         - 2.3588735561668275e-03
         - -9.0140333022013658e-03
         - 7.2844541555324403e-03
         - 2.8696795098884444e-03
         - 5.3943286347076999e-03
         - 1.1370482810406207e-02
         - 6.1157295973139894e-03
         - -4.4879998445924120e-03
         - -7.6575384513765761e-03
         - 3.7110696714672885e-03
         - -3.7259040411662244e-04
         - 5.6131466828246877e-03
         - 6.6642400590098579e-03
         - -2.5195160465497578e-03
         - -2.5625722882185380e-03
         - 4.4016769089745781e-03
         - 2.6146416967086582e-03
         - -1.9072774453641019e-03
         - -5.4554687815731406e-04
         - -4.2589010992210106e-03
         - 1.8512191040398255e-02
         - -5.3317662216349976e-04
         - -1.1011012965035784e-03
         - -6.1273068337634531e-03
         - -4.0288070289629975e-03
         - -6.6895021177489772e-04
         - 5.8780405158753305e-03
         - 4.1612966144662748e-03
         - -2.3479424363551005e-03
         - 3.5408985754942219e-03
         - 2.3724944344168678e-05
         - 6.4856084194649458e-03
         - -1.1370271590568810e-03
         - -2.0732545900470696e-02
         - -1.3573562726932218e-03
         - 5.2549627662210732e-02
         - -5.3311973851858799e-03
         - 4.9631208260155222e-03
         - 8.8725986227750943e-04
         - 4.2641964783123563e-03
         - -9.4915828818769058e-04
         - 1.8729425044048792e-03
         - 4.5140586030681523e-03
         - 3.6942359976570140e-03
         - 3.5472771502670290e-03
         - 4.2073168068341785e-03
         - -2.1658464768518292e-03
         - -1.5208983948757535e-03
         - -9.8438202240263527e-03
         - 7.0205688276668305e-03
         - -4.2707261175904451e-03
         - 1.3962256063316909e-03
         - 6.2179983323862754e-03
         - 5.3125128800927826e-04
         - 3.4977981243894965e-04
         - 1.6875507039163424e-02
         - 1.7024153235686778e-03
         - -4.1118153584332288e-03
         - 2.9905381603751060e-03
         - 5.0777765070748500e-03
         - 4.4599470836438984e-04
         - -5.7384094444764037e-04
         - -1.7312379668089491e-03
         - -2.9184519114932015e-03
         - -1.2134618481327850e-03
         - -2.9244862379905943e-03
         - 1.2613219226687473e-03
         - -9.4546331718897859e-03
         - -5.8887864819374223e-03
         - 4.7577462726961029e-03
         - 2.5217387356233282e-03
         - 6.0297240699347197e-03
         - -7.9733131909708000e-04
         - 5.6832110427721696e-04
         - 6.1707021912665010e-03
         - 1.8010021085626108e-03
         - -4.6019428822114310e-03
         - -2.9280952011157641e-03
         - -4.3574310473730937e-04
         - 1.6598129316025328e-03
         - -2.1908073004344975e-03
         - 1.2931331434539934e-03
         - 7.8508182558347309e-03
         - -1.1505210576196818e-02
         - -2.3143886307444750e-03
         - 5.0863534307347774e-02
         - 1.6948084763597575e-03
         - -6.0108621797030533e-03
         - -6.2248144925137333e-03
         - -5.9022409801988271e-03
         - 5.9156959679861412e-03
         - -1.3459456602150470e-03
         - -3.4840195123739335e-04
         - -3.2934698383283749e-03
         - 4.9295000922080327e-03
         - -5.2318797243327457e-03
         - 1.4458894317372528e-03
         - -4.2705038575115986e-04
         - -6.3624248678660683e-03
         - -4.5278155459315692e-03
         - -3.3522806531628741e-03
         - -5.0567608221327781e-03
         - -1.4099196318414068e-03
         - -2.7776665490371879e-03
         - -2.0354737941146823e-03
         - 2.1677178901588390e-03
         - 7.9242047073698665e-03
         - -2.9210373753161853e-03
         - -4.4527805339016069e-04
         - -4.5277293722391235e-03
         - 1.2870996029070290e-02
         - -5.7719277397405280e-03
         - -3.3952705882550442e-03
         - 4.9279701962270288e-03
         - -5.2204277897628746e-03
         - 5.2077767343024295e-03
         - -6.4982548193788696e-03
         - -3.5380625768262120e-03
         - 7.2583747674166536e-04
         - -1.2251739256380245e-03
         - 1.0316500531972344e-02
         - 4.1006894110294095e-03
         - -2.2203396288746915e-03
         - -1.5970342094597354e-03
         - 1.3319381687987079e-02
         - 9.4324185364402975e-04
         - -6.1538617032220857e-03
         - -1.4031066812390141e-03
         - 4.2687689383391304e-03
         - 7.4502780732266081e-05
         - 3.3189421100130023e-03
         - -2.7161262191818672e-03
         - -3.5094528329699732e-05
         - -1.0180676719988745e-02
         - 9.8256414082709478e-03
         - -3.6616045446740270e-02
         - -7.1874175491533614e-04
         - -3.5462739390438122e-04
         - -8.7705140180197125e-04
         - 3.8175786949469609e-03
         - 1.1840306739213135e-02
         - 7.5522020328591709e-04
         - -7.9538954158721157e-04
         - 3.4791192673502831e-03
         - -2.5629497105454650e-03
         - -5.6903348703674960e-03
         - -8.3719310074579934e-03
         - -7.6240542650004807e-03
         - 1.1933051040427306e-02
         - 2.2813521014340634e-03
         - 5.0485867794273533e-03
         - -1.6142852544759233e-02
         - -2.5057662832018469e-03
         - -1.6921185562991402e-02
         - -3.8022929355076129e-03
         - -9.0054793040802422e-03
         - 2.8630791937053715e-02
         - 2.7599632747486468e-03
         - -2.6162170362685833e-03
         - 7.8596456066911790e-04
         - 8.8479719601959866e-03
         - 1.4736929127601613e-03
         - -4.2606056129995701e-03
         - -8.1588784518449450e-04
         - 2.4263101177128838e-03
         - -3.6134929547724983e-03
         - -2.2810425047019591e-03
         - 4.2483001753069044e-03
         - 6.3764657873994872e-05
         - 2.3807756194678983e-03
         - 4.0727418969460999e-02
         - 2.4518414409287282e-03
         - -2.4998368520238443e-03
         - -3.2375084985983146e-03
         - -1.0438945588722504e-03
         - 1.2608191519978086e-02
         - 1.3702918401025889e-03
         - 4.2780885558272204e-03
         - 5.4266913911141827e-03
         - 7.7758140075058176e-04
         - -6.6738384735656213e-03
         - 2.2357872449347430e-03
         - 4.3891032049818441e-03
         - 1.8249961308512141e-02
         - -8.7004865611801461e-03
         - -2.4088679248581754e-02
         - -4.6316964085311952e-03
         - -1.0050552041946461e-02
         - -2.0676024500653487e-04
         - 1.7682532722643959e-03
         - -4.8286026135417187e-03
         - 1.2782347903249275e-03
         - -2.7576089884312530e-03
         - -8.9960872619137683e-03
         - -2.1370150193388356e-03
         - 4.3728152395341741e-03
         - -1.6116175361058208e-03
         - 7.7775862155450319e-03
         - -2.0750009950062749e-03
         - 1.5721463803434966e-02
         - 5.1866685177902258e-03
         - 2.1384851520133297e-03
         - -4.2259923619688599e-03
         - -1.7462786191585478e-04
         - -1.3747367307752085e-03
         - -1.2073447765809779e-02
         - -9.1293498460043154e-03
         - 3.3879782346852402e-03
         - 3.5315649226385177e-03
         - -4.7619984698204837e-03
         - -6.5119600868986773e-03
         - -2.9963840777695169e-03
         - -7.6646168971164896e-03
         - 5.0897202140488314e-03
         - -1.7027497557819105e-03
         - -5.4179485890120326e-04
         - -3.0161394337654382e-04
         - -2.8385481700364816e-03
         - -1.1952293001373951e-03
         - 1.4007232228598269e-03
         - 1.1535327664428692e-02
         - 2.6814284898822034e-03
         - 5.2971729299774893e-03
         - -5.9692719491180450e-04
         - 4.1110575030620768e-03
         - -1.5617956027730058e-02
         - -1.4059050928745575e-03
         - -2.9041909359684310e-04
         - -1.5243874358888162e-03
         - -4.5790159202777478e-03
         - 6.3839972310425529e-03
         - -3.4280164610724891e-03
         - -9.9460587941096121e-03
         - 7.8051120116673042e-04
         - 4.6355238232240904e-03
         - -7.9465246673214210e-02
         - 3.8830740180351990e-03
         - 6.8940919415943717e-03
         - 7.0358658977017303e-03
         - 1.9496498397500695e-03
         - 1.1836235058475015e-02
         - -9.6900068218397665e-04
         - -8.5124362213216311e-03
         - 5.6589888357230517e-03
         - -5.6095197054129124e-03
         - -1.1695305062623182e-02
         - -6.2141672812494951e-04
         - 3.6255787579267466e-05
         - 8.4068776611695567e-03
         - -8.6687528667032613e-03
         - 1.0878522053713226e-03
         - -1.3944539287415094e-02
         - -3.2334014265983173e-03
         - -9.5041893134795614e-03
         - -4.1343336534836990e-03
         - -3.8884330354263447e-02
         - 1.4087433930503294e-02
         - -4.0516135156004086e-03
         - -9.7047444143096087e-03
         - -1.2141756598548473e-03
         - 1.2188682211846900e-02
         - -2.2832362490447147e-03
         - 1.2057934671882769e-03
         - -4.2029064875656131e-05
         - -7.7084242858396540e-04
         - -2.6138551930793377e-03
         - -3.5718606282277889e-03
         - 8.0371158282451869e-03
         - 7.2205213522194660e-03
         - -6.0179675091884257e-03
         - 4.9428904220146952e-02
         - -1.4432675333065795e-03
         - 8.3655285073124912e-03
         - -9.2271713723344143e-03
         - -5.1134717166394283e-02
         - 2.3852058262096795e-02
         - 1.2675220408362950e-02
         - -6.7805949701106047e-03
         - 5.1929382026067745e-03
         - 1.6192831554774103e-02
         - -2.5745008714270573e-02
         - 1.5819074340701782e-02
         - 2.6117441790194224e-02
         - 6.0920582922727354e-02
         - -1.3137424310243716e-02
         - 1.5889276827357232e-02
         - -1.2675233868021402e-02
         - -3.6120638211210337e-02
         - -2.7953534794419543e-02
         - -1.0960579496767179e-02
         - -4.4861250834838079e-02
         - 1.2507504080854362e-02
         - 2.2963309484102284e-02
         - -2.7412192596391733e-02
         - 1.5404110781271949e-02
         - 3.7697289374531741e-02
         - 2.7381506956126688e-02
         - 2.2791470216118367e-02
         - -3.4112781660786309e-02
         - 4.3961747193848433e-02
         - -7.9144939029433849e-03
         - 4.5781014262841230e-02
         - -3.4451467032740658e-03
         - 4.0642931886096807e-02
         - -6.9909791863094865e-03
         - 2.3829003502364034e-02
         - -5.3633041961552157e-02
         - 1.6220287373797375e-02
         - 2.0914751193256975e-02
         - -1.0865767073030474e-02
         - -3.3456715987498969e-02
         - -6.4166968281644393e-03
         - -3.2032637994873735e-02
         - 5.9312937825730903e-03
         - 2.2372462204703230e-03
         - 1.1819956814544105e-02
         - -1.2190051798615433e-02
         - -3.3313302600769736e-02
         - -1.2782424874670881e-02
         - 1.5252826658926339e-02
         - -6.8526872506860376e-02
         - 5.1289485121511266e-03
         - -4.1397481073015101e-03
         - 3.6658466982794395e-02
         - 9.4643684363410543e-03
         - -1.0243886803241868e-02
         - -5.8526782736551897e-03
         - 3.3950944806141049e-03
         - -3.2284248845067874e-03
         - -6.4353279458337605e-03
         - 5.4536185691772491e-03
         - -2.1333047373746339e-03
         - -2.7911018802096112e-03
         - -2.2149246596042865e-02
         - -4.3175374608364771e-04
         - -6.9424519736957860e-02
         - -4.9626002139888082e-04
         - 1.0050572950339386e-02
         - 1.0078056597673347e-02
         - -2.8421122472840080e-04
         - 4.1920581035871400e-03
         - 2.3333517028830031e-03
         - -8.5538078362359209e-03
         - 3.8702540459977430e-03
         - -9.1180276136615928e-03
         - 5.6609770751302017e-04
         - 4.9527267697499011e-04
         - -1.4040022831440621e-03
         - 9.1685247786844112e-03
         - -2.5579747882495160e-02
         - 1.3886330662900410e-03
         - 1.2767787210811480e-03
         - -4.1971031398001851e-03
         - -1.0724895895571934e-02
         - 2.0549296883474863e-03
         - -1.6233042339755369e-02
         - 1.6150094241335851e-02
         - -3.9197076695752821e-03
         - 3.0880174289490071e-03
         - -2.0296665870413442e-03
         - 5.2964370036881810e-03
         - 9.3844427211402346e-04
         - 1.3694036504610731e-02
         - 4.9216748074702990e-03
         - -3.6145314617177333e-04
         - -4.1195958872042495e-03
         - 8.7482558400267551e-04
         - 8.9270090991859369e-03
         - 2.2442964950867200e-04
         - -7.4853410793522725e-03
         - -3.3089476635200466e-03
         - 3.6061929164266501e-03
         - 3.6401323922084076e-03
         - -1.9289836124171101e-03
         - 1.1502213821565032e-02
         - -1.1545560971419008e-02
         - -2.4170032759006114e-04
         - 3.5073475359994571e-03
         - 1.9195138573129419e-03
         - 1.8188179551314589e-03
         - 6.1248632627318444e-04
         - 2.2132312585680956e-04
         - -1.2926713241170715e-02
         - -1.7022633740768053e-02
         - 7.4675836400699969e-03
         - -7.9774828329890954e-02
         - 1.0302236718472847e-02
         - 3.8687272398151410e-03
         - 3.2806715534871283e-03
         - -2.6555269870173069e-03
         - 4.0066371245743183e-03
         - 1.8247045439292741e-03
         - -2.0968991104262824e-03
         - 1.2975582191785261e-02
         - 1.2737670526779838e-03
         - -1.8980137318532682e-04
         - -3.1156519730552957e-03
         - -3.1455059147525687e-03
         - 3.2265899400448061e-03
         - -2.1238874660185623e-02
         - 3.1523649639588944e-03
         - -3.6601369650236942e-03
         - -1.3868826425360321e-03
         - -9.5929862782612747e-03
         - 2.0464669526749292e-03
         - -9.5820462441035103e-03
         - 2.4664492434697954e-02
         - -5.2019236891772324e-03
         - -6.4013009550491261e-03
         - -2.8646231316405012e-03
         - -4.5539279839537710e-03
         - 2.7778604197761427e-03
         - 5.2067855274792870e-03
         - -5.3297497129393082e-03
         - 8.2259522601151481e-03
         - -3.9689106423132971e-03
         - 9.2942604249922831e-03
         - 4.4965300070661917e-03
         - -2.1059976991084587e-03
         - -2.0010899669277477e-03
         - 3.0058486492749375e-02
         - -4.3113348523133761e-03
         - -4.4071779030586860e-03
         - -1.3622370745121203e-02
         - -3.0501223634413547e-02
         - 4.5451474728229911e-03
         - 4.8654544961127906e-03
         - -7.2464166051991576e-03
         - 4.7143385048877707e-03
         - 9.3249705171467578e-03
         - -7.6861296700868973e-03
         - 4.7663305304518544e-03
         - 1.6356371195963910e-02
         - 1.0727675727845465e-02
         - -8.0712222972956042e-03
         - -1.1932387665517628e-02
         - -4.5553799547769233e-03
         - -2.2250709916619517e-02
         - -9.5633468583231195e-03
         - -1.0641891107954606e-02
         - -2.8929505408322287e-02
         - 7.3032680041052811e-03
         - 1.7371319225973725e-02
         - -1.8420418844254938e-02
         - 7.9521202199178895e-03
         - 1.4232903203453263e-02
         - 9.6927399158599700e-03
         - 7.5686681870181273e-03
         - -2.3356581277582465e-02
         - 3.1193697662886533e-02
         - 1.0302846166728515e-03
         - 1.2800195566548328e-02
         - -1.3179470369622040e-03
         - 1.9828341341820120e-02
         - -6.0549940659148586e-04
         - 2.0843970151020779e-02
         - -1.8790606568201369e-02
         - 5.4894808899262288e-03
         - 9.2388701398617625e-03
         - 8.8134760139020488e-04
         - -3.4840584513947184e-02
         - 3.1135492673455265e-03
         - -1.8443394776543352e-02
         - 4.3835465490439304e-03
         - 3.5580393006779307e-03
         - 1.1846670410894608e-02
         - -8.1878958253778448e-03
         - -1.9937957514175819e-02
         - 1.5853680373479396e-03
         - 1.2638865921780637e-02
         - 4.6319904146597023e-03
         - 8.5038676216218755e-03
         - -2.2078534161309982e-03
         - 1.3083279706927966e-02
         - 6.6423325444616892e-03
         - -3.1312448942930776e-03
         - 2.2508552921121664e-03
         - -1.9096493440817150e-03
         - -2.7670274590332715e-03
         - -1.3429236430320653e-03
         - -1.8057386947013753e-03
         - 2.9066888726454639e-03
         - 5.0692631417455060e-03
         - -1.0111185757390151e-02
         - -6.6131740340159232e-03
         - 5.2517957390285197e-02
         - -5.4362011564760317e-03
         - -3.9667750880010069e-04
         - 4.1761487937050593e-03
         - -3.6811485467939885e-03
         - -7.7321297910721877e-03
         - -3.7776353804291085e-03
         - -1.5593761581670878e-03
         - -3.5841811699460616e-03
         - -4.2827475071069302e-03
         - 7.7958879288562311e-03
         - -2.4803811814781635e-03
         - -3.5972195403206442e-03
         - -8.1687792598798478e-03
         - 1.2676768416391892e-03
         - 3.8164520268324574e-03
         - -5.7648837375728311e-03
         - 3.1742397269492618e-03
         - -4.8018405434611389e-03
         - -3.2385114264583964e-04
         - 9.6983109772189359e-03
