%YAML:1.0
---
opencv_ml_ann_mlp:
   format: 3
   layer_sizes: [ 324, 50, 2 ]
   activation_function: SIGMOID_SYM
   f_param1: 6.6666666666666663e-01
   f_param2: 1.7159000000000000e+00
   min_val: -9.4999999999999996e-01
   max_val: 9.4999999999999996e-01
   min_val1: -9.7999999999999998e-01
   max_val1: 9.7999999999999998e-01
   training_params:
      train_method: BACKPROP
      dw_scale: 1.0000000000000000e-03
      moment_scale: 0.
      term_criteria:
         epsilon: 1.0000000000000001e-01
         iterations: 100
   input_scale:
      - 1.2018114701294380e+01
      - -1.8373550168412782e+00
      - 1.1707446396617005e+01
      - -1.6078176063705734e+00
      - 1.1929415900571513e+01
      - -1.4728646950929600e+00
      - 1.3059180292198656e+01
      - -1.3665562739100678e+00
      - 1.3463562869015899e+01
      - -1.6078238164845593e+00
      - 1.3481840860278032e+01
      - -1.3875325623092825e+00
      - 1.1866538035134775e+01
      - -1.4692529965227621e+00
      - 1.1302799054581030e+01
      - -1.5891823509161462e+00
      - 1.1914782942570909e+01
      - -1.8296414281427675e+00
      - 1.1753965470179425e+01
      - -1.8808256775094840e+00
      - 1.1353802554855054e+01
      - -1.7376665538695375e+00
      - 1.1372870802163504e+01
      - -1.5704329987824073e+00
      - 1.2381750587096343e+01
      - -1.4666248031646676e+00
      - 1.2692304140085263e+01
      - -1.7137313359925481e+00
      - 1.2646697645113557e+01
      - -1.4724742425528665e+00
      - 1.1540787935400628e+01
      - -1.5844095935412064e+00
      - 1.1252616693890303e+01
      - -1.7267157631170280e+00
      - 1.1713606738354418e+01
      - -1.8724874727435861e+00
      - 1.1834842634975530e+01
      - -1.9855715177729454e+00
      - 1.1214900869759234e+01
      - -1.7246295838558561e+00
      - 1.1448445818909494e+01
      - -1.5955352861877616e+00
      - 1.2498687190700993e+01
      - -1.4890692169009621e+00
      - 1.2683960514471142e+01
      - -1.5632086876675195e+00
      - 1.2580067716671067e+01
      - -1.5034071283226189e+00
      - 1.1432098417559269e+01
      - -1.5956468518683058e+00
      - 1.1196672712012250e+01
      - -1.7336563867980821e+00
      - 1.1827678430245514e+01
      - -1.9872311621501657e+00
      - 1.1635058915724480e+01
      - -2.0158053702665208e+00
      - 1.1219407479038725e+01
      - -1.8602218558321235e+00
      - 1.1222691831080114e+01
      - -1.7187427238492479e+00
      - 1.1911952424894041e+01
      - -1.6043423771421959e+00
      - 1.2086284875280016e+01
      - -1.6656302967445391e+00
      - 1.2045758728794329e+01
      - -1.6186825238621736e+00
      - 1.1179508756766543e+01
      - -1.7393225334050024e+00
      - 1.1124199211054563e+01
      - -1.8954700130479476e+00
      - 1.1571108862544710e+01
      - -2.0361893463982952e+00
      - 1.1824673597771843e+01
      - -1.7179393374718810e+00
      - 1.1649645286011806e+01
      - -1.5967140694396127e+00
      - 1.1895640924337380e+01
      - -1.4816587783199426e+00
      - 1.3169026659783775e+01
      - -1.4006441397168861e+00
      - 1.3186021729933278e+01
      - -1.6322914329437475e+00
      - 1.3157801878604726e+01
      - -1.4135432766303475e+00
      - 1.1778753562618988e+01
      - -1.5052908187856044e+00
      - 1.1282691887652817e+01
      - -1.6050632115490469e+00
      - 1.1750948053433769e+01
      - -1.7218781972175228e+00
      - 1.1677944033553128e+01
      - -1.8367846810953441e+00
      - 1.1292602604535707e+01
      - -1.6874683407930828e+00
      - 1.1409396802839549e+01
      - -1.5599630321221458e+00
      - 1.2476350889571689e+01
      - -1.4767369754295816e+00
      - 1.2574792191726829e+01
      - -1.7262212819042180e+00
      - 1.2464433137668477e+01
      - -1.5077231915564047e+00
      - 1.1503697175153327e+01
      - -1.6134838999729713e+00
      - 1.1261523654364741e+01
      - -1.7350931726129797e+00
      - 1.1626084961526148e+01
      - -1.8458793136940941e+00
      - 1.1607320064418362e+01
      - -1.8509455571358495e+00
      - 1.1164259956914215e+01
      - -1.7104015722583954e+00
      - 1.1426507434796005e+01
      - -1.6101191936456667e+00
      - 1.2397175530061475e+01
      - -1.5303280302950371e+00
      - 1.2523297011859578e+01
      - -1.5892665235679930e+00
      - 1.2502179504842971e+01
      - -1.5342659987495348e+00
      - 1.1421085879142488e+01
      - -1.6254252578108004e+00
      - 1.1250471122178128e+01
      - -1.7371437247122881e+00
      - 1.1579288308929232e+01
      - -1.8615198089376845e+00
      - 1.1633255772857941e+01
      - -1.9893609697325472e+00
      - 1.1113106220865729e+01
      - -1.8080605718944283e+00
      - 1.1166102722948173e+01
      - -1.6933516295024105e+00
      - 1.1818467133992343e+01
      - -1.6065470460099645e+00
      - 1.2044044631300752e+01
      - -1.6793845224967290e+00
      - 1.1999330752064315e+01
      - -1.6460601887857442e+00
      - 1.1153547892423903e+01
      - -1.7495169383675309e+00
      - 1.1059968207973343e+01
      - -1.8689492065028070e+00
      - 1.1490942496436334e+01
      - -2.0007876858387403e+00
      - 1.1878007564924888e+01
      - -1.7152490133760803e+00
      - 1.1826932024230965e+01
      - -1.5830334216591107e+00
      - 1.1988451223119196e+01
      - -1.4732600919098375e+00
      - 1.2844871793688561e+01
      - -1.3868768056493941e+00
      - 1.3044735600857928e+01
      - -1.6427858572655927e+00
      - 1.3073775120527291e+01
      - -1.4461703859263959e+00
      - 1.1770443910371300e+01
      - -1.5325981204580081e+00
      - 1.1244481292711948e+01
      - -1.6251129168125353e+00
      - 1.1667400065105809e+01
      - -1.7299512955824319e+00
      - 1.1960828084213048e+01
      - -1.9528697941252640e+00
      - 1.1433751436037570e+01
      - -1.6359707705426585e+00
      - 1.1577969988446583e+01
      - -1.5255164886560799e+00
      - 1.2300594928028698e+01
      - -1.4369506622788315e+00
      - 1.2550834347107095e+01
      - -1.7173649866589551e+00
      - 1.2594352044048385e+01
      - -1.5012896998527925e+00
      - 1.1613418609537163e+01
      - -1.6089725821888761e+00
      - 1.1177686718989694e+01
      - -1.7081359750435758e+00
      - 1.1765045868542215e+01
      - -1.9602376458632187e+00
      - 1.1637203038840099e+01
      - -1.8495701781310143e+00
      - 1.1335693035191463e+01
      - -1.7108329596185028e+00
      - 1.1521104041534779e+01
      - -1.6095204233181648e+00
      - 1.2281834191039300e+01
      - -1.5280452486339005e+00
      - 1.2499397232937310e+01
      - -1.6091840300464855e+00
      - 1.2367090735964535e+01
      - -1.5534073195622231e+00
      - 1.1437573824249043e+01
      - -1.6430828849788204e+00
      - 1.1296216197609626e+01
      - -1.7664188400231757e+00
      - 1.1507369939959222e+01
      - -1.8503425248100800e+00
      - 1.1959926817067245e+01
      - -2.1223030616635148e+00
      - 1.1265575337094283e+01
      - -1.7784413706546269e+00
      - 1.1357726137919601e+01
      - -1.6783747350872766e+00
      - 1.1842762847596733e+01
      - -1.5850170364628642e+00
      - 1.2029380626667555e+01
      - -1.6809356219448672e+00
      - 1.2057156408553876e+01
      - -1.6368503039079545e+00
      - 1.1298399454361828e+01
      - -1.7339109330786568e+00
      - 1.1085371453019569e+01
      - -1.8635530915175618e+00
      - 1.1789106278142430e+01
      - -2.1329281636562478e+00
      - 1.2249766202378146e+01
      - -1.8147086959131205e+00
      - 1.1743911763654269e+01
      - -1.6027733208458304e+00
      - 1.1938689348791932e+01
      - -1.4963506506862281e+00
      - 1.3124380258665598e+01
      - -1.4298321194746173e+00
      - 1.3420239256009598e+01
      - -1.5125842019692926e+00
      - 1.3174745810926083e+01
      - -1.4519668349295611e+00
      - 1.1681806054535995e+01
      - -1.5266014563737160e+00
      - 1.1115836412926305e+01
      - -1.6045997037448778e+00
      - 1.1973938338284016e+01
      - -1.8042309895258433e+00
      - 1.1947971901825058e+01
      - -1.8656105214320655e+00
      - 1.1281219526615104e+01
      - -1.7148009399514177e+00
      - 1.1464911682291868e+01
      - -1.6142486297182981e+00
      - 1.2420600206260984e+01
      - -1.5387378999968302e+00
      - 1.2505211520452201e+01
      - -1.5945119390018143e+00
      - 1.2513364376839236e+01
      - -1.5550148523664604e+00
      - 1.1323501674355281e+01
      - -1.6336820860992685e+00
      - 1.1171364934222947e+01
      - -1.7440150976905275e+00
      - 1.1787124770410831e+01
      - -1.8581526845696823e+00
      - 1.2177951293399543e+01
      - -1.9399592272497728e+00
      - 1.1351111184416752e+01
      - -1.6768918632856558e+00
      - 1.1518448839249434e+01
      - -1.5811210578249519e+00
      - 1.2381333030646234e+01
      - -1.5195070272673876e+00
      - 1.2712435493286321e+01
      - -1.6027235493858276e+00
      - 1.2549770035995991e+01
      - -1.5481831525660081e+00
      - 1.1316780056831163e+01
      - -1.6257201582460252e+00
      - 1.1128497017635732e+01
      - -1.7282023089941490e+00
      - 1.1860299821685292e+01
      - -1.9301569660979674e+00
      - 1.1950403462819565e+01
      - -1.9997741832236549e+00
      - 1.1307904066988405e+01
      - -1.8196081813316909e+00
      - 1.1307207447243703e+01
      - -1.7138547946870228e+00
      - 1.1835019516910100e+01
      - -1.6357864429287454e+00
      - 1.2167953294186765e+01
      - -1.7217673731964036e+00
      - 1.2088062793318079e+01
      - -1.6842473786021830e+00
      - 1.1079278390388117e+01
      - -1.7656334779609626e+00
      - 1.1024976503890349e+01
      - -1.8851298323471160e+00
      - 1.1636484568304907e+01
      - -1.9937671894248210e+00
      - 1.2122799073217807e+01
      - -1.7167178490084789e+00
      - 1.1679792680391044e+01
      - -1.5913489845400939e+00
      - 1.1957232233974665e+01
      - -1.5138362390479798e+00
      - 1.2918765830193029e+01
      - -1.4486384214984143e+00
      - 1.3221809332435159e+01
      - -1.5299384169809578e+00
      - 1.3121303590436764e+01
      - -1.4699081143706945e+00
      - 1.1647844302632882e+01
      - -1.5430760950306621e+00
      - 1.1244721528383446e+01
      - -1.6157723601331475e+00
      - 1.1974444761118743e+01
      - -1.7260218964143288e+00
      - 1.1830134741250976e+01
      - -1.8246876251354669e+00
      - 1.1375127852752007e+01
      - -1.6933065592170586e+00
      - 1.1468684829234784e+01
      - -1.6053689644925990e+00
      - 1.2175579206143691e+01
      - -1.5214329357876137e+00
      - 1.2475516657098067e+01
      - -1.5987155028962858e+00
      - 1.2527507647992490e+01
      - -1.5567287425802951e+00
      - 1.1458754960297611e+01
      - -1.6400156262399892e+00
      - 1.1190365116006488e+01
      - -1.7289574373482559e+00
      - 1.1717903150442321e+01
      - -1.8267982773260529e+00
      - 1.1941143359663307e+01
      - -1.8389501312795387e+00
      - 1.1316462660152672e+01
      - -1.6903531507617635e+00
      - 1.1557669701060496e+01
      - -1.6261365398350387e+00
      - 1.2317404943139490e+01
      - -1.5543639052978850e+00
      - 1.2577060020858095e+01
      - -1.6374983995048600e+00
      - 1.2468342386999572e+01
      - -1.5751610911111884e+00
      - 1.1276807692632842e+01
      - -1.6412853741757991e+00
      - 1.1074344297754640e+01
      - -1.7241123264533900e+00
      - 1.1587494732942911e+01
      - -1.8179582299031587e+00
      - 1.1792930297473150e+01
      - -1.9692586860793457e+00
      - 1.1181296770996919e+01
      - -1.7947540378318771e+00
      - 1.1172245227731272e+01
      - -1.6989036344734072e+00
      - 1.1744196255620066e+01
      - -1.6359051138593244e+00
      - 1.2100505070352403e+01
      - -1.7343392226368017e+00
      - 1.2104069558622252e+01
      - -1.6874411291801741e+00
      - 1.1120872294828079e+01
      - -1.7748471103373546e+00
      - 1.0927384953890032e+01
      - -1.8627303660591408e+00
      - 1.1439871550277314e+01
      - -1.9471271620565027e+00
      - 1.2157322224998611e+01
      - -1.7143500298044447e+00
      - 1.1871550535961653e+01
      - -1.6044360539106053e+00
      - 1.1974285132748463e+01
      - -1.5194833237457135e+00
      - 1.2701919552179987e+01
      - -1.4518599398600227e+00
      - 1.2972487402409374e+01
      - -1.5337925152521339e+00
      - 1.3097827761596557e+01
      - -1.4963500578782409e+00
      - 1.1691976601973080e+01
      - -1.5555686471962471e+00
      - 1.1341169546999113e+01
      - -1.6429213564623899e+00
      - 1.1943223772264931e+01
      - -1.7228503794716188e+00
      - 1.2237288253573892e+01
      - -1.9694695148375871e+00
      - 1.1464529542782145e+01
      - -1.6789544257687106e+00
      - 1.1483061777796578e+01
      - -1.5826794713383006e+00
      - 1.2196117296623889e+01
      - -1.5164383230961456e+00
      - 1.2460170913677969e+01
      - -1.6009413068921667e+00
      - 1.2566148814459318e+01
      - -1.5482444320591320e+00
      - 1.1615005017986840e+01
      - -1.6354189855693737e+00
      - 1.1306926812275863e+01
      - -1.7224798743622107e+00
      - 1.2099691811266773e+01
      - -1.9634268485107220e+00
      - 1.1904091561725918e+01
      - -1.8385080789459918e+00
      - 1.1291616261941746e+01
      - -1.7016813620171809e+00
      - 1.1509440843747816e+01
      - -1.6299473646787990e+00
      - 1.2132590260863752e+01
      - -1.5511677044273700e+00
      - 1.2331772026721302e+01
      - -1.6394467798037431e+00
      - 1.2465881893521056e+01
      - -1.6025015407602592e+00
      - 1.1340189934418973e+01
      - -1.6573492117901489e+00
      - 1.1237647517720855e+01
      - -1.7572181707329364e+00
      - 1.1735478714304282e+01
      - -1.8308529006805971e+00
      - 1.2226953535090628e+01
      - -2.1142872448351517e+00
      - 1.1296910810903672e+01
      - -1.7883713937788315e+00
      - 1.1342219116335398e+01
      - -1.6965263955364325e+00
      - 1.1782612191060316e+01
      - -1.6102624002550578e+00
      - 1.2106624857315708e+01
      - -1.7108826517464748e+00
      - 1.2017746451224269e+01
      - -1.6634335644794722e+00
      - 1.1220855800626714e+01
      - -1.7428416150513095e+00
      - 1.1093777364785845e+01
      - -1.8382758145794145e+00
      - 1.2077254691855453e+01
      - -2.1209952082169203e+00
      - 1.2421141517616981e+01
      - -1.7854586696100778e+00
      - 1.1814077819498404e+01
      - -1.5562241533625916e+00
      - 1.1963479016406650e+01
      - -1.4854592424978141e+00
      - 1.3005802562628684e+01
      - -1.4389533165044934e+00
      - 1.3478078866148522e+01
      - -1.5381516961012058e+00
      - 1.3525413681801830e+01
      - -1.5108449934869543e+00
      - 1.1588073006940409e+01
      - -1.5680918008926472e+00
      - 1.0963231895956985e+01
      - -1.6339970544688853e+00
      - 1.2064332156827744e+01
      - -1.8240774222028306e+00
      - 1.2050326011297370e+01
      - -1.8471416301060390e+00
      - 1.1461165484413781e+01
      - -1.7029919076365478e+00
      - 1.1472012224027113e+01
      - -1.6241152857736725e+00
      - 1.2260269545031827e+01
      - -1.5524687051343329e+00
      - 1.2464848238597037e+01
      - -1.6306433395668778e+00
      - 1.2704283493200251e+01
      - -1.6064258211051712e+00
      - 1.1396743120149559e+01
      - -1.6745596491901296e+00
      - 1.1054868491638356e+01
      - -1.7689979743121147e+00
      - 1.1722748137388749e+01
      - -1.8563893617681422e+00
      - 1.2503811929962509e+01
      - -1.9245080788236928e+00
      - 1.1469426888183001e+01
      - -1.6087390988770138e+00
      - 1.1507083746164367e+01
      - -1.5123823418086562e+00
      - 1.2510207424666362e+01
      - -1.4780408243244463e+00
      - 1.3096109530175667e+01
      - -1.8687938007382241e+00
      - 1.2941885716940174e+01
      - -1.5684285819323973e+00
      - 1.1483055806133436e+01
      - -1.6763544075168506e+00
      - 1.0972827952686400e+01
      - -1.7516943608474356e+00
      - 1.1985463213326446e+01
      - -1.9595441855373847e+00
      - 1.2137144452515457e+01
      - -1.9709877331245551e+00
      - 1.1403513517415135e+01
      - -1.7757955384844419e+00
      - 1.1232221300729158e+01
      - -1.6505162693015720e+00
      - 1.1786061191114502e+01
      - -1.5802469301109581e+00
      - 1.2669042095984665e+01
      - -2.0222457127009883e+00
      - 1.2326043151898650e+01
      - -1.6788230185272146e+00
      - 1.1324904369381471e+01
      - -1.8101337888085045e+00
      - 1.0947099174647992e+01
      - -1.8990251731280994e+00
      - 1.1663442002608775e+01
      - -2.0027776270413034e+00
      - 1.2310812146583684e+01
      - -1.7146752570218520e+00
      - 1.1851721512141248e+01
      - -1.5908050788310637e+00
      - 1.1899778243164247e+01
      - -1.5277594361901716e+00
      - 1.2785202083979275e+01
      - -1.4731286649920998e+00
      - 1.3114932973375399e+01
      - -1.5617302435710716e+00
      - 1.3328885526316173e+01
      - -1.5195275018584975e+00
      - 1.1727714593876271e+01
      - -1.5804405095935097e+00
      - 1.0977454548694336e+01
      - -1.6204228595281778e+00
      - 1.1744367859966992e+01
      - -1.7016538205066452e+00
      - 1.1991998942619304e+01
      - -1.8248018670178883e+00
      - 1.1451287729415023e+01
      - -1.7010051698179673e+00
      - 1.1323827656957310e+01
      - -1.6020127974358025e+00
      - 1.2155209294356808e+01
      - -1.5569900992387928e+00
      - 1.2520080017036069e+01
      - -1.6558496082027656e+00
      - 1.2681776805410010e+01
      - -1.6070519286482401e+00
      - 1.1406117057444515e+01
      - -1.6648627974252745e+00
      - 1.0981803431236330e+01
      - -1.7312080217163930e+00
      - 1.1530018569001362e+01
      - -1.7988109180207617e+00
      - 1.2317300413138966e+01
      - -1.8322746939421413e+00
      - 1.1439465991519466e+01
      - -1.6661463425879537e+00
      - 1.1396950118239744e+01
      - -1.5635085360109209e+00
      - 1.2251705241459419e+01
      - -1.5153927030544292e+00
      - 1.2940976530848239e+01
      - -1.9007567480482148e+00
      - 1.2885331908211278e+01
      - -1.5766891188949890e+00
      - 1.1562974311729784e+01
      - -1.6648517913544232e+00
      - 1.1078254062044795e+01
      - -1.7268089999102179e+00
      - 1.1654820098769024e+01
      - -1.8120205883621048e+00
      - 1.2146666170939344e+01
      - -1.9553625893886857e+00
      - 1.1479644189859274e+01
      - -1.7895888638510511e+00
      - 1.1230173342855574e+01
      - -1.6705001833114426e+00
      - 1.1715212131348371e+01
      - -1.6059474113090504e+00
      - 1.2762885477149636e+01
      - -2.0586868431309093e+00
      - 1.2418876122311440e+01
      - -1.6824122150364014e+00
      - 1.1241521965926161e+01
      - -1.7708430105409325e+00
      - 1.0892493602164409e+01
      - -1.8467287798266561e+00
      - 1.1577224771699056e+01
      - -1.9391899619586803e+00
      - 1.2292144319885756e+01
      - -1.6993860286626796e+00
      - 1.1728411629945027e+01
      - -1.6012134251960362e+00
      - 1.1775215855385746e+01
      - -1.5232405461763245e+00
      - 1.2652002486797423e+01
      - -1.4745430569132592e+00
      - 1.2972197997937498e+01
      - -1.5689380566364490e+00
      - 1.3149688441702398e+01
      - -1.5371785038725307e+00
      - 1.1654277392863712e+01
      - -1.5871481031678789e+00
      - 1.1127713931075453e+01
      - -1.6331636103332670e+00
      - 1.1771116971252416e+01
      - -1.6861993428109079e+00
      - 1.2181987562901567e+01
      - -1.9316759827390013e+00
      - 1.1455478496514713e+01
      - -1.6775617772721596e+00
      - 1.1439873294960277e+01
      - -1.5922465161663155e+00
      - 1.2303896470912893e+01
      - -1.5390331605680718e+00
      - 1.2535797943143825e+01
      - -1.6239807392211241e+00
      - 1.2662486768278468e+01
      - -1.5869798674291840e+00
      - 1.1627203985521060e+01
      - -1.6538496838003092e+00
      - 1.1252587464123248e+01
      - -1.7163730072142003e+00
      - 1.1979626083060179e+01
      - -1.9341695714355329e+00
      - 1.2163024799976696e+01
      - -1.8038273324172049e+00
      - 1.1518984195358282e+01
      - -1.6825217604324376e+00
      - 1.1302675642731675e+01
      - -1.5847758475997424e+00
      - 1.2066064869289857e+01
      - -1.5372975469793768e+00
      - 1.2908691100903772e+01
      - -1.9410156796461813e+00
      - 1.2713564433861759e+01
      - -1.5858949018506361e+00
      - 1.1563434083908289e+01
      - -1.6663692302606221e+00
      - 1.1100681433637380e+01
      - -1.7162051281699553e+00
      - 1.1655439717974380e+01
      - -1.7810354857296813e+00
      - 1.2285984876731980e+01
      - -2.0635717574149433e+00
      - 1.1449646796985128e+01
      - -1.7673808009027965e+00
      - 1.1262630116334918e+01
      - -1.6696190119201890e+00
      - 1.1746515629412011e+01
      - -1.5991563547912273e+00
      - 1.2622448568080298e+01
      - -2.0276729454770628e+00
      - 1.2153338978261599e+01
      - -1.6374496228380606e+00
      - 1.1296836101490017e+01
      - -1.7213264805637154e+00
      - 1.0991605588087511e+01
      - -1.7962108334323132e+00
      - 1.1831811331037398e+01
      - -2.0428353831252859e+00
   output_scale:
      - 5.2631578947368418e-01
      - 4.9999999999999994e-01
      - 5.2631578947368418e-01
      - 4.9999999999999994e-01
   inv_output_scale:
      - 1.8999999999999999e+00
      - -9.4999999999999996e-01
      - 1.8999999999999999e+00
      - -9.4999999999999996e-01
   weights:
      -
         - -4.8582871267624519e-02
         - 1.8117015809428375e-02
         - 1.9570748730946989e-02
         - -7.5208047334309070e-03
         - 5.9907623392723708e-03
         - 1.9128570117487538e-02
         - -2.4774838576390099e-02
         - 1.3949246587786042e-02
         - 2.7968192082246403e-02
         - 4.9642640769922163e-02
         - -1.6606974084841675e-02
         - 8.2742240181792909e-02
         - -1.6531906560730239e-02
         - -2.3243361371774171e-02
         - -2.7788598515423830e-02
         - -1.2269830861626656e-02
         - -3.4194607618086438e-02
         - 1.9628113587065104e-02
         - 2.2028831915490855e-02
         - -2.6209345338431968e-02
         - 1.6701201164928046e-02
         - 3.0990972282712474e-02
         - 2.8922950590900654e-02
         - 2.5578282833712759e-02
         - -3.9649067735909829e-02
         - 4.8889752106814954e-02
         - -4.9274827258779588e-03
         - 4.1764773118861266e-02
         - -1.7888739108932908e-03
         - 3.4255877134058053e-02
         - -4.5342163860207776e-03
         - 5.3527499762718124e-02
         - -4.7286402738558518e-02
         - 1.6970264526522477e-02
         - 1.9673977975682436e-02
         - -7.6127144544595269e-03
         - -1.4748000709182059e-02
         - -1.0234605203779548e-03
         - -2.9802097824354015e-02
         - 1.2339642749434514e-02
         - 6.7441825074606651e-03
         - 1.6373158692857537e-02
         - -6.2695592100165988e-03
         - -3.8302755817599815e-02
         - -5.7598277044025228e-03
         - 1.1104529885330380e-02
         - -5.6989314116024169e-02
         - 6.7382788228171958e-03
         - -4.0141311447170133e-03
         - 3.0203488231231548e-02
         - 2.1223341382812719e-02
         - -7.5265412027968586e-03
         - -3.6519422663661033e-03
         - 2.2356599840641389e-03
         - -8.9868212781237227e-03
         - -5.9896277823772810e-03
         - 1.4199079830967661e-02
         - -7.0296634195799509e-03
         - -1.0003793574422623e-02
         - -4.4264201972077317e-02
         - 9.1291297477812360e-03
         - 4.4545677192167031e-03
         - 1.4329041124168591e-02
         - 1.4750227366006735e-02
         - 1.3561584279426921e-02
         - 2.3975311994781350e-03
         - 2.1668662815342150e-02
         - -8.7627598725271341e-03
         - -8.3180731473451088e-03
         - 6.8924604896600282e-03
         - -7.4830733618864382e-03
         - -1.2022419595612330e-02
         - -1.4509305588200402e-02
         - -8.3452583793026426e-03
         - 1.4952652396796934e-02
         - -2.1202176451202381e-02
         - 5.1264256637724081e-03
         - -2.0380988432325459e-02
         - 2.1329745887189236e-03
         - -2.2447920112412072e-02
         - -3.2126253457566345e-03
         - 1.0260477207402327e-02
         - 3.3023562015608084e-02
         - -5.9730251990694639e-03
         - -8.3048928806762901e-03
         - 3.3151989937799742e-03
         - 3.4142430481740260e-02
         - 2.2696306566494036e-03
         - 1.8796097139214190e-02
         - -2.0669310179812395e-03
         - 3.8982451012979391e-03
         - -1.2398920087834883e-02
         - 1.2777732758741469e-02
         - 1.3030956404432283e-02
         - 4.9796100925524646e-03
         - -1.1488232567259187e-02
         - 2.0625235431596525e-02
         - -6.3740750636622195e-04
         - 3.7726188946998196e-03
         - -1.2123570184445990e-02
         - 5.8668582503408548e-03
         - 2.8923330791541541e-03
         - -4.8152187041342965e-03
         - 5.8196579421171488e-03
         - -6.0903492655807311e-03
         - 1.6803527057772500e-03
         - 6.5974441036899109e-03
         - 1.2747836842446143e-03
         - -5.0002728008705540e-03
         - -3.3961068608322639e-02
         - -2.5305328127849759e-03
         - -2.5587559119798011e-02
         - -3.7130246344070348e-03
         - 8.3205569646890194e-03
         - 2.2854659567287061e-04
         - 4.4881204384885198e-03
         - 1.0940243636073252e-02
         - -6.9246992976238304e-03
         - -1.1934306300361330e-03
         - -2.8016301871678826e-03
         - -6.3877120408915092e-03
         - -7.4863550650194803e-03
         - -1.7984950704348394e-03
         - -2.2179259721283344e-03
         - 6.7906386760101653e-03
         - 7.9692557796021601e-04
         - 1.5105026800036260e-03
         - -1.0080280138689621e-02
         - -3.5637604870070701e-03
         - -7.5202691390733583e-03
         - 5.7196736457525901e-03
         - 1.2358252015208418e-02
         - 2.9557853956200579e-02
         - 1.9761654783335466e-03
         - -9.5588915555999184e-03
         - -3.7370943684929734e-03
         - 9.6622759888346267e-03
         - -4.7355429763900943e-03
         - 4.1813659854486561e-03
         - 2.5574970178976735e-03
         - 2.9414612371887498e-03
         - 1.3221702539787010e-03
         - 3.2194292344842916e-03
         - 5.0147835415412182e-03
         - -6.3621092930341678e-04
         - 4.8291635247565864e-04
         - 3.0825855009337284e-02
         - -3.2781946349912149e-04
         - 3.8606202190139233e-03
         - -8.7015171428722372e-03
         - -3.1549688012662863e-02
         - 1.6134434792384415e-02
         - 3.8017253982606867e-03
         - -4.0840459781579666e-03
         - 6.7989411394236889e-03
         - 1.1097286608028173e-02
         - -1.2484992332183446e-02
         - 1.2434860565254193e-02
         - 1.6792110929940596e-02
         - 4.2582275438431738e-02
         - -1.6377602071504804e-02
         - 1.1873677849002732e-02
         - -5.4185121505265299e-03
         - -2.4243979159315462e-02
         - -1.5267717282508492e-02
         - -1.1786327007057056e-02
         - -2.2832827828365113e-02
         - 2.9742285065177897e-03
         - 1.4606415413944376e-02
         - -1.0919305781380584e-02
         - 5.3317912445321495e-03
         - 2.1044162545750440e-02
         - 1.1146904970893193e-02
         - 1.4958610462216282e-02
         - -1.9956479518122749e-02
         - 3.7943295388010168e-02
         - -8.1066887452645488e-03
         - 1.6566958024089980e-02
         - 8.6610457464255438e-04
         - 2.1300581078198103e-02
         - -3.5698260123837831e-03
         - 1.4408246295498668e-02
         - -3.4128354734496463e-02
         - 1.0477276696613726e-02
         - 6.6024843687303089e-03
         - -7.8010750916807040e-03
         - -1.5955109664809869e-02
         - -4.5968747663041876e-03
         - -1.9914404279155289e-02
         - 3.0068121518366105e-04
         - -4.2505883595060035e-03
         - 6.0497801723448427e-03
         - -1.1405064604765088e-02
         - -2.5022807210834927e-02
         - -6.6627414194273303e-03
         - 1.3555508696923657e-02
         - -2.0392433120725445e-02
         - 4.2279826992614090e-04
         - -5.1638978849423648e-03
         - 1.4840636427351816e-02
         - 1.3265768813766137e-03
         - -6.3547602889752527e-03
         - 2.3370702590195967e-03
         - -6.7727713902015823e-04
         - -6.2822115867148028e-03
         - -8.9909732433494510e-03
         - -4.0562039190016578e-04
         - 2.0813244477457071e-03
         - -4.7110520504321579e-03
         - -4.9579630464110826e-03
         - 1.0751987698304866e-02
         - -4.1638250006643840e-02
         - -5.0700149344621779e-04
         - 3.2009454454905014e-03
         - -3.3479379822359042e-04
         - 7.8651230365437575e-03
         - 1.2499477011821631e-02
         - 3.7118522669293092e-03
         - -6.8825049214452190e-03
         - 6.3654895371716000e-03
         - 6.8502449235749256e-05
         - -3.8763098412526328e-03
         - -9.4496417303960561e-03
         - -4.8417736652498116e-03
         - 1.0549563816798916e-02
         - -5.9718660626452789e-03
         - -4.5790869503545524e-03
         - -5.4082358195533930e-03
         - 1.0806807873368412e-03
         - -5.0010306506556032e-03
         - -4.9588223253376168e-04
         - -3.8401487688237965e-02
         - 1.8657980728317063e-04
         - 1.6479777643074445e-03
         - -1.0330035160800266e-03
         - -4.9991703033300302e-03
         - 1.7483986399474766e-02
         - 4.9107774475600670e-03
         - -1.0639953672045286e-03
         - -6.0567281927841462e-03
         - -4.2387096372498529e-03
         - -3.1803074412500476e-03
         - 3.7012606481187254e-03
         - 4.1206456629812403e-03
         - -4.8261333762745599e-03
         - -7.7099710227492343e-03
         - 2.5598851777315253e-02
         - 2.4164837722693575e-03
         - -1.7424334688820639e-03
         - -8.8070755374668065e-03
         - -3.9020293423843222e-02
         - 1.7243672748136606e-02
         - 1.5501922426959559e-02
         - -1.1657418156541852e-02
         - 4.3504371806371792e-03
         - 1.1923389512208438e-02
         - -1.5411132475271844e-02
         - 1.1223134704185350e-02
         - 2.3072473901082177e-02
         - 4.6592279122785095e-02
         - -1.5664649402845492e-02
         - 2.6731682062656841e-02
         - -1.9398658715412020e-02
         - -3.0469679955599845e-02
         - -1.4846873258956584e-02
         - -7.5380297781616904e-03
         - -2.8879273429930425e-02
         - 1.0796600291704419e-02
         - 1.6025821063487090e-02
         - -1.9864170955536845e-02
         - 6.5761856497842238e-03
         - 2.8748527916140021e-02
         - 2.0973269973388206e-02
         - 1.2718958862953322e-02
         - -2.9534384472829363e-02
         - 2.4474014435351941e-02
         - -8.9800813795576915e-04
         - 3.7053972415466110e-02
         - -1.7219822464475374e-03
         - 3.8085477086378682e-02
         - 6.0901545281457714e-04
         - 6.4385250474706642e-03
         - -3.8026985160785572e-02
         - 5.5131607850090808e-03
         - 1.3594888174285332e-02
         - -1.3236989845176420e-02
         - -5.4529204063213767e-03
         - 1.1751590780742483e-03
         - -2.5665793927205395e-02
         - 3.5658042962115047e-03
         - 8.8912832886603064e-04
         - 1.0272393883852086e-02
         - -1.0503491510587066e-02
         - -3.0037444259486335e-02
         - -4.6105830695718671e-03
         - 7.4936664033091235e-03
         - -4.3129818155776573e-02
         - 6.6636919152653273e-03
         - -4.7245627724636476e-03
         - 1.8317087308649831e-02
         - -1.2203283030226077e-02
         - 1.1418999493099577e-03
         - 9.5306626584750094e-04
         - 3.9136855961350057e-04
         - 5.2425842223418262e-03
         - 8.9275161533014739e-03
         - -1.0961214831894368e-02
         - -1.5668319549525401e-03
         - 1.1417561786065468e-02
         - 1.2557964989681437e-02
         - -6.8065118448078473e-03
         - -1.5063308896446529e-02
         - -6.7453831889917855e-03
         - -1.7788166911495894e-02
         - -9.7956267050734111e-03
         - -5.4543176393466774e-03
         - -1.9728555123695094e-02
         - 1.0805406713124948e-02
         - 1.0003978624533635e-02
         - -3.7219840422545881e-03
         - 1.0864525688180545e-02
         - 5.9537048268190644e-03
         - 1.4168201583027904e-02
         - 7.0201824123984485e-03
         - -1.4380679886359549e-02
         - -9.0908689961765633e-03
         - 3.4204159731597477e-03
         - 1.7268185500457025e-02
         - 3.1947922984449134e-03
         - 1.8551847172000591e-02
         - 1.1324944439594924e-03
         - -2.1783395034563694e-04
         - -1.3125049447191787e-02
         - 1.0004499068549156e-02
         - 4.2963526046927531e-03
         - -4.6757459279638588e-03
         - -1.1001589701711233e-03
         - -2.0196422434026148e-03
         - -4.9472948330727485e-03
         - -2.3569150014459053e-03
         - 1.7442417596210140e-04
         - 6.4611917454812607e-03
         - -3.7521724858255953e-03
         - -6.2077374778756380e-03
         - -5.7482661332456178e-03
         - 4.2109038823127864e-03
         - -2.4333129566767794e-02
         - 8.2706826177008363e-03
         - 1.9405791354041710e-03
         - 8.1554399739949771e-03
         - -2.0513644333332848e-02
         - 7.1781123996630990e-04
         - 6.0134275523802145e-03
         - -1.6886807004167204e-03
         - -1.4868218621721468e-03
         - 5.0414872627194338e-03
         - -3.8418375829378511e-03
         - 5.3327537559415715e-03
         - 4.5185517624996181e-03
         - 1.7579756050505772e-02
         - -1.0099909295693708e-02
         - -5.1542748656560805e-02
         - -1.0387055623192693e-02
         - -9.2241376804071580e-03
         - -1.0375730786663364e-02
         - -6.9861781572871208e-03
         - -2.1900130275108499e-02
         - 4.0955431245469744e-03
         - -8.9997460983852083e-06
         - -9.0831699188862226e-03
         - -4.7268678316708592e-04
         - 1.2298547852434380e-02
         - 1.1757212573946922e-02
         - 2.0972954202205405e-03
         - -1.8504040472036371e-02
         - -1.2087207110574110e-03
         - -2.1099253927870818e-04
         - 1.6389372216628145e-02
         - -6.0848391336044555e-03
         - 1.1976616925812223e-02
         - -2.1370843708662652e-03
         - -9.0330979287533194e-03
         - -1.5901670651387291e-02
         - 3.9890380702763725e-04
         - -4.3692184873122544e-04
         - -4.6008005192347545e-03
         - -1.7407431329897478e-02
         - -4.6956966571280392e-04
         - -1.2964221504605669e-03
         - 8.2282757034269106e-03
         - -1.3353792997512638e-03
         - 8.6383437441436188e-04
         - -7.9917554817173948e-03
         - -1.2920470091234711e-02
         - 2.1944051591640513e-03
         - 7.7828019040608104e-03
         - 1.7831096491300755e-02
         - 2.6293779924584791e-03
         - 1.4247987565435176e-03
         - 1.1957371630182951e-02
         - -1.8350357588467398e-02
         - 2.6195915708012349e-03
         - 5.6124321949645936e-03
         - -2.9090255739193166e-04
         - 2.0429031707913805e-04
         - 5.2256132484300426e-03
         - -7.6790976266913544e-03
         - -1.9375979852484287e-04
         - 6.3305289211344267e-03
         - 1.7037202711982474e-02
         - -6.8063601006101782e-03
         - -1.6367777067540425e-02
         - -7.7021823759334321e-03
         - -3.7979436160711518e-03
         - -1.1488367142173845e-02
         - -1.9325134821084619e-03
         - -1.6427388241793944e-02
         - 3.3864528619932028e-03
         - 5.3127324898612025e-03
         - -2.6730218348483331e-04
         - 6.8959126116466853e-03
         - 5.4387143138019565e-03
         - 1.4051408331316245e-03
         - 1.7265932735263288e-03
         - -1.0974288171018243e-02
         - 1.9292138284805201e-02
         - -1.1277459019770225e-03
         - 5.7750918991433600e-03
         - -4.1761594768796101e-03
         - 1.8164617823650669e-02
         - -3.6241023476229050e-03
         - 8.0534065951166373e-03
         - -1.3116262816304923e-02
         - 7.6203654948832208e-03
         - -8.0512906689949573e-04
         - -1.2671205964216644e-04
         - -2.0177115141368909e-02
         - 1.5210682955778246e-05
         - -9.0423447901647729e-03
         - 3.9966726809741214e-03
         - 3.7023646294093958e-03
         - 4.8653026440484805e-03
         - -3.1758483649936347e-04
         - -1.0318823927850385e-02
         - -5.1284937704345864e-04
         - 4.7439189266537916e-03
         - 1.1530468369162956e-02
         - 4.1415134354024592e-04
         - -7.6672025397223932e-03
         - 5.4546678716614018e-03
         - 1.5658259149748048e-02
         - -5.6582605277546048e-03
         - -9.0279444538678127e-03
         - 6.2481831690242599e-03
         - -4.9605345642863416e-03
         - -2.3765930562595280e-03
         - 4.7846365876037739e-03
         - -2.4770912216734763e-03
         - -4.8306637182116644e-03
         - -2.5547246203463346e-02
         - 7.4007530346848855e-03
         - 4.2380573566858933e-02
         - -2.4015561160316970e-04
         - 8.4547396515936759e-03
         - 1.1909429721467099e-02
         - 6.3441939762941624e-03
         - 1.4295793251667984e-02
         - -1.1613837944025886e-03
         - -3.8075334734334208e-04
         - 8.8561513880924692e-03
         - 2.2197516398225859e-04
         - -9.6531594298898387e-03
         - -4.5911615523588764e-03
         - -2.3727449830984264e-03
         - 8.2216516896375831e-03
         - -4.4891292553551933e-03
         - -2.0704400271020552e-03
         - -1.0489601446059539e-02
         - 8.3651920350189916e-03
         - -1.0502397642141071e-02
         - 3.7475947575659954e-04
         - -3.4916588868957850e-03
         - 1.7624524410555537e-02
         - -2.9286123363412832e-05
         - -7.3296895863772275e-03
         - -3.4897963158904699e-03
         - 3.4099027182376299e-02
         - -5.2523178111726502e-03
         - 6.6738484835864517e-03
         - -3.0802674840193691e-03
         - 1.9577789357137069e-03
         - -3.9113890346950545e-03
         - 9.3793529698815038e-03
         - 5.2736779380911326e-03
         - 8.5044112337539241e-03
         - -5.0244010135254442e-03
         - 5.5305735192257071e-03
         - 3.4600470450990155e-04
         - 6.9249576773328077e-03
         - -4.9717298046864228e-03
         - 4.2815095182312923e-03
         - 8.2271151929905421e-03
         - 2.4307190996146954e-03
         - -4.4937764256801514e-03
         - 3.6544616132884889e-03
         - 3.7809488684704237e-03
         - 4.5337186258256673e-03
         - 4.1886059781122472e-03
         - 1.9871925899836657e-03
         - -1.4350792439772641e-02
         - -7.5968973976530893e-03
         - 4.1286330750356155e-02
         - -3.0387222931231471e-03
         - 2.7086665360612490e-03
         - -3.8686293870772845e-03
         - -4.6475797959237928e-03
         - -6.5525340201848256e-03
         - 6.8487307335028521e-03
         - -2.6985077155512989e-03
         - -7.2040149520485874e-03
         - 4.2687270573470272e-03
         - 8.8854761442988331e-03
         - 4.5745499874441740e-03
         - 1.7577098506741402e-03
         - 1.0955694769785944e-03
         - 4.2131002200831418e-03
         - 3.0935324940269673e-03
         - -3.7631997843120754e-03
         - -3.3545990642192582e-03
         - 3.9258090652960634e-03
         - -2.5288940996173910e-03
         - 2.6131330250369841e-02
         - 1.1604195125434823e-02
         - -1.7989576256126295e-03
         - -4.9163080291093472e-03
         - 4.7504308724504235e-03
         - 9.9931326981103213e-03
         - -6.1023435193793829e-03
         - 6.9154917585760904e-04
         - 1.4389464547015591e-03
         - -3.0566865512942775e-03
         - -2.2759193215705588e-03
         - 2.6788159146286777e-03
         - -1.0295669659463326e-02
         - 2.4872321046747925e-03
         - -4.3443922546402957e-03
         - 4.0498877307583551e-03
         - -3.6656538114216650e-04
         - 4.8656194951196266e-03
         - -2.1560951849354695e-03
         - -3.7632918839019544e-03
         - 1.5684082856654024e-02
         - 5.9057785649381080e-03
         - 7.1950452501912121e-04
         - 1.8490573368198291e-03
         - 9.6576911020438364e-03
         - -1.8307561159943437e-03
         - 6.2236215803928808e-03
         - 7.5030965080027153e-03
         - -7.8432381465062002e-03
         - -8.2025545758022652e-04
         - -1.7201197005777661e-02
         - -5.4601094392034838e-03
         - -1.3478450922636083e-02
         - -7.8103118232895176e-03
         - -7.4447835421488796e-03
         - 3.1045183442654761e-04
         - 1.9592734167194117e-03
         - 7.6573308646593775e-03
         - -1.0482459732772582e-02
         - 6.3635211760373449e-03
         - 3.3452919176809033e-03
         - 1.1214106702753476e-03
         - 3.7117154295791290e-04
         - 5.1348382692392692e-04
         - 2.1865933180339393e-02
         - -1.4413064175083821e-03
         - -1.4129241193529751e-03
         - -1.0222860242614196e-03
         - 4.0835521636669939e-03
         - -4.2534902464127066e-03
         - 7.1018171454856017e-03
         - 1.8961723697765248e-02
         - 3.7810797428610978e-03
         - 1.8121333322633157e-03
         - -1.9785339896503480e-03
         - -5.4125363802079041e-03
         - 2.3808912180614847e-03
         - -1.2632478769559865e-02
         - 2.7327662050321932e-03
         - 4.1169588442465533e-03
         - 6.6646380918933563e-03
         - 1.6712088161045140e-03
         - -8.5871432703957355e-03
         - -6.8827733556881150e-04
         - 4.3539494784701682e-03
         - 2.3465945161094539e-02
         - -3.0398801448198766e-03
         - 3.1384262715417406e-03
         - 9.3011252877894784e-03
         - -2.5787623898230343e-02
         - 2.1896962543109647e-02
         - 1.1465605597110504e-02
         - -2.1316572404479236e-03
         - 8.5657396238684423e-03
         - 4.1200264538771960e-03
         - -1.2808884296279067e-02
         - 5.4939103448811430e-03
         - 2.1722087033012788e-02
         - 4.2438430670437476e-02
         - -1.4797077777694300e-02
         - 2.5070840928515106e-02
         - -1.3516774955098015e-02
         - -2.6662785302546971e-02
         - -7.2273019323459680e-03
         - -1.1205177437612103e-02
         - -2.0171210075400903e-02
         - 6.6990468915213257e-03
         - 5.4904266154220263e-03
         - -1.6869615398429436e-02
         - 4.1588139671174234e-03
         - 1.8000336736614064e-02
         - 7.2908059966310321e-03
         - 8.8897291452039746e-03
         - -1.1981961307691351e-02
         - 3.3598946422151915e-02
         - 3.3882297198766414e-03
         - 1.5352362151972115e-02
         - -2.6754190486194414e-03
         - 2.1185081597597695e-02
         - 2.3853310933039393e-03
         - 1.2434844322590510e-02
         - -2.7056316459812157e-02
         - 1.0577742801297496e-02
         - 9.5876791553207528e-03
         - -7.0694584048348157e-03
         - -2.0335971237279937e-02
         - -3.2142650091256338e-03
         - -2.2136885798603022e-02
         - 1.4218172745263894e-03
         - -2.4185380940408454e-03
         - 3.3880209651862498e-03
         - -9.9847389908730953e-03
         - -2.1675928467634040e-02
         - -4.5451346640542943e-03
         - 9.9766612768203648e-03
         - -3.0828323776845218e-02
         - 5.9659896870442684e-04
         - -7.0287285020931957e-03
         - 1.8519983726775574e-02
         - 2.1199468781215199e-02
         - -1.3390678520769330e-02
         - -3.4474889633319744e-03
         - 6.2838200797547834e-03
         - -6.9861206013199480e-03
         - -1.7145601000163695e-02
         - 1.1652462612286927e-02
         - -2.5049235255283622e-03
         - -2.3839424448588515e-02
         - -1.8128312371862191e-02
         - 1.2872788705722631e-02
         - -5.7988062248147017e-02
         - 3.0100504228541386e-03
         - 1.5041805195755339e-02
         - 1.1311093662870775e-02
         - 3.1294301803660340e-04
         - 2.2056909583629710e-02
         - -1.3250514509438661e-02
         - -1.1310575386062789e-02
         - 1.6560691196302574e-02
         - -5.1991269252691912e-03
         - -1.7123906892353914e-02
         - -1.8948270935645863e-02
         - -1.2395718578263808e-02
         - 2.3278877834923495e-02
         - -2.3298316086587566e-02
         - 3.9716158797234698e-03
         - -1.5438219389283034e-02
         - 2.6537094230203681e-03
         - -3.0391525412929266e-02
         - 3.2608523724952207e-03
         - -4.0571846571943064e-02
         - 2.3387646070764847e-02
         - -4.5421763425095062e-03
         - -7.7355488203357092e-03
         - 9.0102902000085354e-04
         - 3.6566139969890117e-02
         - 4.2746772593208479e-03
         - 1.4378354933999121e-02
         - -6.4382261843271976e-03
         - -4.7595579284928861e-03
         - -1.0755873288077469e-02
         - 9.7525850729099570e-03
         - 2.5253156425159590e-02
         - 5.7086595332958719e-04
         - -1.3227879829924304e-02
         - 2.8533120638094440e-02
         - -1.0290012678324302e-02
         - 4.8897247193396397e-03
         - -1.9769450649024821e-02
         - -1.4895033585920840e-02
         - -1.3738173118423426e-03
         - -6.0522579258191257e-04
         - -7.4211590710706642e-03
         - -2.6737744216255408e-03
         - 8.9624719162350857e-03
         - -6.4528926608966629e-03
         - -3.3102442770939146e-03
         - 2.5843456519590059e-03
         - 2.0249316825027487e-02
         - -6.3061739404243755e-03
         - 5.2586247951067590e-03
         - 2.1634220023399392e-04
         - -1.0353389094116079e-02
         - -1.0086420991190491e-02
         - -1.4561240862814371e-03
         - -9.9677488599520681e-03
         - 2.0782254026232893e-03
         - 6.1247568281626880e-03
         - -3.7058339936279902e-03
         - 3.0779894000707020e-03
         - 8.1871846788178250e-03
         - 1.2434455156718510e-02
         - 3.8024117456061449e-03
         - -1.0194599760757534e-02
         - -3.2197388658894307e-03
         - 4.1435632296483041e-03
         - 1.4346157456891223e-02
         - 3.1062407546606180e-03
         - 6.8524696601262106e-03
         - 4.5283201228238038e-03
         - -1.1862552667272043e-02
         - -2.3622842048036295e-02
         - 6.1621280463180069e-03
         - 4.4544394416623431e-03
         - 2.6841964645052735e-03
         - 1.4625892463754743e-02
         - 2.0264535552815652e-03
         - -1.6192169111404016e-03
         - -7.6065064760084641e-04
         - -6.7024569059171779e-03
         - 2.7503965267717100e-03
         - -3.8785329533530762e-03
         - -8.9673708242316401e-03
         - 8.6802266257806715e-04
         - 9.0394483120933757e-03
         - -3.2790669017516767e-02
         - 6.6153325107374634e-03
         - -3.7704269260604808e-03
         - 7.9829594774840015e-03
         - -2.7084473369945613e-03
         - -7.5749802091143060e-03
         - -3.9042638760156305e-03
         - -5.5217569177123743e-04
         - -5.5609204937136078e-03
         - -2.6978731884176694e-03
         - 7.0337916551129944e-03
         - 3.5902704481599237e-03
         - -8.3454604237349315e-03
         - -1.0478392924282542e-02
         - 4.2643860885247025e-03
         - -4.8891647690609691e-02
         - 5.4041409780044014e-03
         - 2.2941822601283829e-03
         - -1.4294053443371501e-03
         - 1.3867998867408229e-03
         - -8.2909452263384685e-04
         - -2.9089693575893678e-03
         - 2.1172689967109662e-03
         - 1.9019785620107241e-03
         - -6.2195221602292976e-03
         - -5.6068610238037848e-03
         - -2.3064205640996381e-03
         - -4.4494865158955007e-03
         - 1.6470774753371365e-03
         - -2.9980319216520775e-02
         - -3.6485390302257691e-03
         - 4.4036419572125425e-05
         - 4.7880020835612772e-03
         - 1.6238328187847674e-03
         - 1.4063628984184076e-03
         - -1.9184156624107718e-02
         - 1.2600176591576901e-02
         - 2.5964028146283655e-03
         - -3.1684174675858387e-03
         - 5.4147035115956269e-03
         - 9.5568373877735931e-03
         - 4.5233122062629276e-03
         - 1.7448341562447968e-03
         - -3.8596316122740059e-03
         - 1.7412412744026553e-03
         - -4.2632856561766776e-03
         - 5.8880786409588740e-04
         - 1.0911137217801447e-02
         - 6.1588256129383049e-03
         - 3.0494339479236808e-03
         - 7.7484340737308090e-04
         - -3.8560007167978212e-03
         - -2.6853191891155564e-03
         - -7.0576063471976258e-03
         - -4.0442936617438897e-02
         - 1.9550075029566599e-02
         - 1.0044390631765286e-02
         - -1.2073390180132110e-02
         - 7.7618589685517578e-03
         - 1.7225898929422424e-02
         - -1.8881993260228977e-02
         - 4.1876906143932576e-03
         - 2.4857244775828354e-02
         - 4.5595759311439776e-02
         - -1.2980424703832672e-02
         - -2.0155222958473405e-02
         - -1.5174135027863862e-02
         - -2.3673055617587539e-02
         - -1.8506466906435287e-02
         - -7.2291818604096041e-03
         - -3.1865735281944828e-02
         - 1.1673593949985975e-02
         - 1.9035125039096996e-02
         - -2.1399399254764497e-02
         - 7.8547782300879762e-03
         - 2.2356171266318198e-02
         - 2.3874013399428500e-02
         - 1.9100211393210838e-02
         - -2.5922194022421356e-02
         - 1.7537773107456200e-02
         - -2.0246435522554797e-04
         - 3.5062422128225801e-02
         - -2.1023690820171459e-03
         - 3.3320579166720724e-02
         - 3.3387599977008709e-03
         - 3.1278837228602335e-02
         - -3.4348485102359286e-02
         - 8.1029387218076419e-03
         - 1.1773161007834694e-02
         - -6.6385242277556206e-03
         - -3.5560081582667477e-02
         - -4.4626471125146150e-03
         - -2.1287730059208091e-02
         - 7.0958410510793173e-03
         - 1.0835349124134748e-03
         - 7.6976742076732422e-03
         - -3.4798902419339909e-03
         - -3.0448600048837243e-02
         - -1.1712274257658478e-02
         - 8.9506376664230166e-03
         - -1.8021978941810294e-02
         - 7.3341318469305706e-03
         - -1.0669858697802561e-02
         - 2.0163691484766346e-02
         - -1.6808494124288188e-02
         - 8.7084666784474993e-03
         - 8.5315395891896843e-03
         - -6.6780634453815508e-03
         - 6.5385877973473125e-03
         - 1.2138417585680902e-02
         - -1.1986714163452199e-02
         - 6.5847983095577321e-03
         - 2.8070698070790201e-03
         - 1.7855429816332660e-02
         - -8.3934485923875743e-03
         - 1.4128306842269645e-03
         - -1.1400956865647129e-02
         - -1.0183402303556891e-02
         - -6.5807132678416961e-03
         - -1.3021774094842641e-03
         - -1.9390406446338816e-02
         - 6.0830120183791320e-03
         - 1.1223083407453614e-02
         - -9.2694090511404592e-03
         - 4.5343282885205059e-03
         - 9.7880678989675542e-03
         - 6.8071388664846114e-03
         - 1.1559147258054151e-02
         - -1.1862991992551548e-02
         - 1.8937918374749761e-02
         - 6.8575511083928927e-04
         - 1.4999995137973558e-02
         - 1.5510331543430332e-03
         - 1.2082136586032124e-02
         - 4.8879061319358399e-03
         - 1.0708675680716716e-02
         - -8.6201302021993963e-03
         - 1.5289043933236083e-03
         - 4.4028737464933626e-03
         - 3.2470785953492270e-03
         - -2.2233408600318916e-02
         - 2.7911590143212730e-03
         - -1.2705429463452208e-02
         - 2.7220027871281546e-03
         - 4.2897512768473407e-03
         - 8.7551067656550189e-03
         - -5.5477503157949021e-03
         - -1.0976456037007792e-02
         - 1.1205717974958438e-03
         - 2.2183567844669350e-04
         - 3.5883188031105300e-04
         - 3.3865254959662356e-03
         - -6.2898432592080238e-03
         - 1.1924542987810987e-02
         - -3.0237401624169124e-03
         - -6.7393313696923547e-04
         - -2.8864846137920800e-03
         - -1.4886320783385606e-03
         - 3.2241903161357517e-03
         - -2.8681425726233222e-03
         - 5.1612506232505632e-03
         - 3.4392398202749302e-03
         - -3.9406742421345979e-03
         - -1.4097435695933721e-02
         - -8.1822076406597752e-04
         - 2.9961513522898851e-02
         - -9.4678769194505755e-05
         - 7.9624939394347463e-03
         - -1.2192097170849480e-03
         - -2.1115624692393449e-03
         - -3.6146599286758854e-03
         - 3.9274305095803336e-03
         - 1.4056325393059189e-03
         - -4.0293007489728113e-03
         - -1.0913155327077683e-03
         - -4.2602698411412961e-03
         - -7.1603314407679246e-03
         - -3.2493554103224477e-03
         - 5.5833437335766865e-03
         - -5.8436630813471372e-04
         - 5.8801743582900402e-03
         - -5.1665736431183024e-03
         - 2.0484496490877791e-03
         - -1.4125548074871066e-03
         - 6.1494680296554109e-03
         - 1.5437842797174795e-02
         - 6.3405099595187199e-03
         - -2.8130467000569630e-03
         - 2.0545321720570387e-03
         - -4.0857057380329301e-03
         - 1.4816938018253288e-02
         - -4.0229915869161468e-03
         - 2.5491056939264066e-03
         - 4.2982260730567295e-03
         - 1.1722609263963720e-03
         - -3.7444966617090920e-03
         - 3.8807619398780395e-03
         - 1.4996112201314470e-03
         - -2.1908050542220050e-03
         - 2.3824698192645645e-03
         - -4.1626963622009633e-03
         - -4.9956144113292014e-03
         - -3.4273718639712103e-03
         - -1.1090456109729455e-03
         - -2.3647922235243358e-02
         - 2.0711100397998904e-02
         - 3.1308248289301580e-03
         - -1.6764182785477758e-03
         - 1.1836457346968226e-03
         - 1.2278297618450779e-02
         - -6.3719227861286157e-03
         - 5.0064100006264470e-03
         - 2.5897940005974236e-02
         - -1.0815423457028680e-02
         - -6.1781404588726972e-03
         - 4.5712603464442815e-02
         - -8.8667725996154096e-03
         - -1.1605557763113701e-02
         - -1.7775027220201207e-02
         - -1.0121199135889505e-02
         - -1.9687592310096164e-02
         - 5.1549661449503481e-03
         - 1.0150887381797964e-02
         - -9.1982872467457292e-03
         - 1.0504370270613865e-02
         - 1.9078709863178563e-02
         - 1.6351664038331899e-02
         - 1.5575591137092044e-02
         - -1.8696953939653368e-02
         - 2.0033357284053574e-02
         - -2.2995969980261809e-03
         - 1.8566600938697209e-02
         - -7.1987013956247934e-03
         - 2.2701142459503637e-02
         - -4.7410208227398748e-03
         - 5.5838580166768383e-02
         - 1.3779960899179251e-04
         - 8.6520676188508120e-03
         - 1.8217029724459240e-03
         - -2.3242457490960564e-03
         - -8.6978611954760011e-04
         - -2.8751032264971613e-03
         - -1.8632700331086827e-02
         - 1.0836942279317479e-02
         - 1.2499317175757935e-04
         - 4.0224635603031585e-03
         - -6.6818974592078037e-03
         - -1.9397340112171903e-02
         - -6.5405269076503174e-03
         - 1.2351574729206310e-02
         - -4.7818006836008683e-05
         - 1.0498803596081243e-03
         - 1.2948598083903278e-03
         - 1.6741901866358540e-02
         - 6.9786160403276743e-03
         - 9.1967962371835663e-03
         - -1.2616542849487812e-03
         - -5.5028902599824755e-03
         - 4.0371607843736846e-03
         - -1.1168235080711393e-03
         - -3.2312038938594962e-03
         - 2.7858496360293654e-03
         - 8.7924718898245817e-03
         - -3.3034727966075143e-02
         - 5.7585834524616017e-04
         - -2.0933358097304042e-02
         - -1.1364566246958288e-03
         - 2.3570419493962791e-04
         - -5.1228608377932852e-03
         - 8.5389061967781671e-04
         - -1.7942306636393908e-03
         - -3.4995304240449676e-04
         - -5.6930008849176940e-03
         - -7.0323453210943314e-03
         - 2.6798137951234229e-03
         - -2.3387265677680081e-03
         - 5.1857179620441165e-03
         - 4.3460227778441031e-03
         - 4.2076490858661657e-03
         - -1.6528662430077474e-03
         - 2.4084299707159231e-03
         - -1.1147075690220876e-02
         - -5.8868026829583852e-03
         - -6.2887993478678971e-03
         - 1.5062619523996291e-03
         - 1.6777980202258749e-02
         - 3.4596408368570510e-02
         - -5.7037177610451302e-03
         - -6.5231784210801752e-03
         - -3.2517118711474944e-03
         - 1.0733213120859956e-02
         - -9.2603734972891607e-04
         - -1.4766019684680932e-03
         - -4.3193015685926740e-04
         - -3.3618384256276978e-03
         - -2.5612692621985451e-03
         - 4.0176608269901623e-03
         - 3.0840048724665430e-03
         - -4.8855113824026923e-03
         - 5.2597983594962370e-03
         - 3.6204396632592777e-02
         - 4.4404541125658472e-03
         - 1.4709504249950194e-03
         - -8.1289426497738507e-04
         - 7.3446951012445380e-03
         - 4.0348200706655573e-03
         - -6.2032449623625934e-03
         - -1.5175818154317784e-03
         - 4.2151528789006335e-03
         - -1.9615799618353624e-03
         - 2.1946639597182349e-03
         - -4.5888139034839749e-03
         - -1.0005193555527489e-02
         - -9.1498193907690577e-03
         - 3.3247537456183953e-03
         - -2.0904007147210101e-02
         - 8.2837432286268792e-03
         - 1.8580875960476498e-03
         - -9.1849312574356252e-04
         - -7.7817984657602027e-05
         - 7.1817418628471897e-03
         - -7.5501767404271888e-03
         - -8.8014264755871523e-03
         - 4.1350649375803111e-04
         - 1.4812792737135469e-03
         - -7.3681824784713416e-03
         - -3.7280948527626391e-03
         - 1.1064965651428401e-03
         - 1.1285754327905358e-02
         - -4.6931752339570898e-03
         - 6.9088277346234057e-03
         - -1.1107808753883413e-02
         - -4.6685439060908541e-03
         - -1.1226081769169415e-02
         - -1.8276940544225107e-03
         - -1.6461806854964948e-02
         - 1.3869167945722630e-02
         - 2.1082283193705220e-04
         - -8.8720327866307937e-03
         - -6.7817067112375799e-04
         - 1.7377309380649322e-02
         - -3.9046028673724253e-03
         - 5.4131877149929926e-03
         - -2.0004157133241651e-03
         - 3.3782293288604343e-05
         - -9.0422608843455689e-03
         - 5.4244216155802079e-03
         - 2.8464137563870718e-03
         - -3.8782457252262132e-05
         - -3.0925019300188749e-03
         - 1.1636411002322570e-02
         - -2.5892720376831622e-03
         - 4.9380349595921627e-03
         - -6.8124858488206085e-03
         - -1.0293202165925278e-02
         - -2.1359257450933818e-06
         - 1.8823543178943117e-03
         - -7.1069851405740920e-03
         - -1.4254274330589155e-03
         - 7.7565971595467947e-03
         - -8.4412047899759084e-03
         - 7.1982759193415470e-03
         - 8.4335551423045350e-03
         - 2.0740680733957458e-02
         - 1.3939516277113517e-03
         - -1.8988365274627789e-02
         - -6.9289175705419320e-03
         - -1.6907701059838717e-03
         - -3.4926773208422326e-03
         - 1.7566591049333240e-03
         - -9.8239564993380622e-03
         - 1.6789109017320059e-03
         - 7.7364217797801999e-03
         - -4.0749249978536805e-03
         - 4.2528939443687809e-03
         - 8.3973811748461157e-03
         - 3.0750984105720157e-03
         - 5.3555426242461743e-03
         - -2.7817415990782045e-03
         - 1.3993001570010353e-02
         - 1.4535967381903167e-03
         - 1.2693790884467473e-02
         - -8.5231787429398010e-03
         - 7.3609654938853811e-03
         - -3.5789089550488369e-03
         - -1.4261160126652081e-02
         - -1.1002394093708059e-02
         - -5.9770398934721374e-04
         - -8.8203086057550388e-04
         - -1.1459682989690047e-03
         - 5.1688790506985889e-03
         - -5.5422784205118869e-03
         - -4.0501104510878251e-03
         - 3.4719858958856924e-03
         - -3.1868429570987866e-03
         - 8.7860004052841608e-03
         - -2.9531500683424024e-03
         - -1.2472417376916949e-02
         - 4.1235892801439579e-03
         - 2.0653464664383905e-03
         - 3.8973385878257969e-03
         - 3.8418414935671506e-03
         - -5.6513009029692364e-03
         - 3.9051666047505568e-03
         - -2.5236611748169005e-02
         - 1.1322208967455694e-02
         - 8.7359329003054396e-03
         - -8.8649241180720553e-03
         - 1.0407417849401122e-03
         - 2.5252496306232652e-03
         - -9.9520380483200058e-03
         - 1.1367993949067139e-02
         - 1.3249509203539003e-02
         - 4.1541585746873784e-02
         - -8.1778541833347537e-03
         - -5.2484863804970350e-03
         - -1.0232315956366426e-02
         - -1.7582039064265871e-02
         - -1.4412600937606122e-02
         - -9.6581125804364003e-03
         - -1.5240250207619880e-02
         - 8.2156187478097178e-03
         - 1.2447450515370072e-02
         - -1.1382282948975532e-02
         - 9.1554547169303609e-03
         - 2.1813302396999940e-02
         - 7.3736049658651107e-03
         - 1.4964499636710326e-02
         - -1.9032846724295154e-02
         - 1.1682667000375782e-02
         - -5.1007651380687528e-03
         - 3.0593130916958051e-02
         - 6.3526356946252862e-04
         - 1.8095493887528537e-02
         - 3.6641213151358067e-04
         - -7.8061718219334039e-03
         - -3.6519961210918418e-02
         - 3.1273656680239192e-03
         - 9.9989028345858297e-03
         - -1.8047085057706117e-03
         - 4.6455035021232115e-03
         - 1.4031451095254225e-03
         - -1.8423102884742883e-02
         - 4.4570412229071781e-04
         - 6.8911427490415192e-03
         - 6.5206110403208620e-03
         - -6.5632831761190096e-03
         - -1.2471208696694375e-02
         - -5.6277344419936710e-04
         - 1.2321806181808129e-02
         - -4.0615722736137491e-02
         - 8.5475840863854580e-04
         - -4.0904962026139663e-03
         - 9.3359375617780224e-03
         - 1.8733484657564373e-02
         - -1.9631867193184577e-02
         - -1.0522437125635525e-02
         - 6.3437560559631680e-03
         - -7.9432563395486506e-03
         - -1.2178017362631180e-02
         - 3.7058284078306612e-03
         - 4.2636904838267944e-04
         - -9.3974654880036017e-03
         - -9.8176870332956998e-03
         - 1.3887666189942091e-02
         - -3.9415318740534638e-02
         - -8.9529690810274032e-05
         - 1.4107726220213050e-02
         - 1.4159447445938982e-02
         - -1.2274375943255253e-03
         - 1.1934873386174107e-02
         - -3.1050090576192732e-03
         - -1.1042924287566720e-02
         - 9.1435629623380539e-03
         - -9.4056627987796596e-04
         - -1.6012055359049229e-02
         - -1.2232830926217825e-02
         - -7.1267516668073131e-03
         - 6.6506373615629168e-03
         - -3.6415341339050528e-02
         - 3.2355312383862992e-03
         - -1.0148802128539094e-02
         - -2.9316439267290271e-03
         - -1.2160838341999099e-02
         - 4.7353967731496105e-03
         - -2.9306598933095739e-02
         - 1.5839170194021777e-02
         - -5.6230976143133186e-03
         - -6.7149070250979940e-03
         - -2.2391114278073236e-03
         - 1.6635814483703180e-02
         - 2.6046838144781399e-03
         - 8.8363538093663898e-03
         - -5.9445467162337912e-03
         - 4.3813348945454279e-03
         - 7.6870100031971734e-06
         - -4.5788326635985081e-04
         - 1.0164476831766550e-02
         - 6.2636707024640306e-04
         - 2.5471747644102244e-04
         - -4.8046555838945218e-03
         - 3.0434957534889668e-03
         - 2.4240977810279702e-03
         - -1.4798369056993216e-02
         - -1.8731175157617786e-02
         - -4.6770752191795210e-03
         - 7.2521669518510207e-03
         - 2.0157557705080147e-03
         - 9.0305482044140354e-04
         - 1.0088332539268361e-02
         - -2.3363205090267502e-03
         - 4.2024602913022496e-03
         - 9.0194979820010807e-03
         - 2.3997280729697354e-02
         - -6.5661078029648785e-03
         - -3.0735657070533568e-02
         - -8.0357904930063555e-03
         - -8.5297778305945798e-04
         - -6.1277299681496873e-03
         - -6.2944927505768065e-04
         - -5.3213861778299322e-03
         - 9.7335931372489071e-03
         - 9.8477184626663567e-03
         - -4.9399419082714266e-03
         - 2.2417808986000521e-03
         - 8.3390776960653307e-03
         - 9.5984303262388396e-03
         - 9.0449979423245577e-03
         - -6.4392405962547840e-03
         - 8.1145824735922214e-03
         - -8.3831492882444579e-04
         - 1.5541058443322653e-02
         - 4.4347425364192452e-03
         - 1.5090301387341430e-02
         - -1.2621509335600707e-03
         - -6.0284338251773780e-06
         - -2.0701332544654828e-02
         - 9.0483247751263589e-03
         - 7.5420941500758962e-03
         - -2.6328171683211746e-04
         - -2.2721151793286924e-02
         - 1.3553259061063975e-03
         - 8.4971541276969464e-05
         - 3.1220437083681286e-03
         - -4.1238225923809924e-03
         - 6.9961994485083666e-03
         - -5.7919147681212675e-03
         - -1.0896187524113138e-02
         - -4.9012013230332182e-03
         - 8.6808183760522586e-03
         - -9.7588811560448893e-03
         - 4.6742739195618759e-03
         - 6.3564656939814194e-04
         - 3.1684622383753220e-03
         - -1.7727367715071329e-02
         - -3.0344405532179629e-04
         - 6.8985191440793089e-03
         - -2.4637321936865071e-03
         - 5.5116752415693962e-03
         - 7.0750063302204239e-03
         - -9.3289210343978080e-03
         - 7.1979937747035172e-03
         - -6.9788275345227901e-04
         - -9.4198354485681686e-04
         - -1.2639552054465944e-03
         - -2.2500736685060772e-04
         - -9.5228081741866501e-03
         - 3.8162509751866834e-04
         - -9.1862385330749863e-03
         - -7.9046906531135032e-03
         - -8.6659196423638299e-03
         - -2.0125100753685282e-03
         - 1.0229198383032389e-02
         - -3.6263878863700672e-03
         - 4.1422185070797311e-03
         - 8.8709523045708959e-03
         - 2.9484690144844900e-03
         - 2.1596805465274095e-03
         - -4.8265115440187523e-03
         - 9.0799577917349047e-03
         - 5.1463887554204476e-03
         - 3.6114045915701266e-03
         - 4.4747091964158619e-04
         - 7.9246409492163827e-03
         - -2.3024151819004057e-03
         - 6.2360385463265840e-03
         - 5.9651278926352389e-04
         - 1.2776662703339132e-03
         - 9.8907399592256858e-03
         - 2.4317318975231130e-03
         - -1.8537722130679626e-02
         - -3.1252859942813723e-03
         - -6.7240448050509410e-03
         - 4.6151110357976217e-03
         - 4.0008455722401566e-03
         - 1.6795040404230899e-03
         - -4.7605007911664630e-03
         - -1.4256887264357588e-03
         - -3.2228845668811480e-03
         - 1.5500689110185041e-03
         - -3.1329016994147878e-03
         - -2.0260466575826017e-03
         - -1.7911660298034640e-03
         - 4.8833690990874095e-03
         - -5.0099566022417247e-03
         - 3.5288086408196855e-03
         - 3.7931392957422649e-03
         - -1.5171607644885248e-03
         - -5.0967415507432402e-03
         - -4.8801382778092337e-04
         - 3.7943264435722278e-03
         - -5.7748744279353158e-03
         - -4.2700460512191335e-03
         - -2.7005536688150037e-02
         - 5.0498369610059313e-03
         - 5.1320488224568590e-02
         - -2.7073628589382292e-03
         - 8.0684439272339578e-03
         - 6.4391915393655196e-03
         - -4.3235209069221146e-03
         - 2.1900564210927316e-03
         - -4.4664172535581808e-03
         - 4.6197534810774364e-03
         - -4.0219565881174698e-03
         - -5.7181139905325470e-03
         - 4.5809776837652805e-03
         - -6.8111270103723490e-03
         - -5.5385951849879996e-04
         - 4.0788609153407920e-03
         - 8.5124750787825233e-04
         - 3.1068659819510590e-03
         - -2.5931817341440714e-03
         - 2.1498070601787610e-03
         - -1.8011882199616008e-03
         - -1.3613830442927776e-03
         - 1.6083667760756513e-02
         - 1.2084003643254631e-02
         - -1.1302584195252586e-03
         - 5.2725676690942346e-03
         - 5.9216166936159617e-03
         - 1.6713675834424801e-02
         - 5.2086523592590325e-03
         - 7.4999351434618423e-03
         - -1.0138164209540172e-03
         - 1.4328782298404911e-03
         - -3.6228658853426090e-03
         - -2.9102157721569866e-03
         - 5.7312453519424503e-03
         - -4.8141645232887701e-03
         - 5.4793855771554352e-03
         - 8.7385278523741533e-03
         - 5.5762595905588875e-03
         - -1.6650322945100954e-04
         - -7.0907923497043647e-03
         - -1.1769930270552884e-02
         - 2.3347824035086298e-02
         - 1.1210170294247142e-02
         - 1.4819559968846075e-03
         - 3.6500806851166119e-03
         - 8.7441846303656680e-03
         - -1.0627869419387039e-02
         - 4.5288815212805346e-03
         - 1.8027143518998937e-02
         - -1.4327285799736418e-02
         - -8.3406655301710379e-03
         - 5.4886179702702390e-02
         - -9.8692550663807468e-03
         - -1.1325868066850842e-02
         - -4.6783442575949585e-03
         - -1.8299163495921506e-03
         - -2.1407688805912799e-02
         - 3.0246685714604824e-04
         - 5.3870165652245847e-03
         - -1.2027555801699339e-02
         - 3.6377710621770848e-03
         - 1.4682267332229592e-02
         - 4.7702610066801716e-03
         - 9.7996284562674278e-03
         - -2.0563959802069279e-02
         - 2.4008806582626784e-02
         - 1.9656560817476461e-03
         - 9.9090504960684996e-03
         - -2.1899285463126836e-04
         - 1.1776927447957315e-02
         - -3.6867123173476395e-03
         - 4.3455818700748390e-02
         - 1.0854293408458412e-02
         - 6.5566549110854607e-05
         - 8.3786769000444364e-03
         - -2.6122226434034919e-03
         - 6.1852821404426665e-03
         - -1.1284000761389225e-03
         - -1.4050103055250023e-02
         - 1.1066201706281642e-02
         - 9.2794843807360490e-04
         - 1.9320883847133922e-03
         - -6.3677268303978616e-04
         - -1.4865432586801956e-02
         - 1.9476678850275451e-03
         - 8.8915566632564221e-03
         - 1.3113806801360853e-02
         - 2.5199323520924415e-03
         - 8.2728094034990353e-04
         - 9.2377048510325563e-03
         - -1.6798139279555643e-02
         - 2.3689067353257293e-02
         - 5.5745907344288709e-03
         - -7.4819290428469812e-03
         - -6.5196835019713101e-04
         - 8.6065129278772180e-03
         - -1.0760367350567788e-02
         - 6.6420570634493931e-04
         - 1.8217417044806079e-02
         - -4.1846387412707329e-04
         - -6.1931140283796706e-03
         - -5.7017508051190793e-03
         - -5.9188409388034281e-03
         - -1.5925594189664924e-02
         - -1.1432797248250189e-02
         - 1.3183545576494747e-03
         - -1.1440461925158857e-02
         - 6.0448982738414815e-03
         - 6.4704036842212374e-03
         - -6.0347690106120717e-03
         - 4.6296948924703330e-03
         - 1.4201071819309050e-02
         - 1.2245664464156213e-02
         - 8.3016349829534430e-03
         - -1.5263357417455953e-02
         - 2.8211867135337278e-02
         - -1.3129493463719226e-03
         - 5.6810481865036339e-03
         - 2.2336132157552546e-03
         - 8.5701445971345987e-03
         - -4.5245142193189982e-03
         - 2.5086892687725359e-02
         - 1.5164053110646813e-02
         - 6.6851594173733871e-03
         - 7.6357434356439215e-03
         - -6.5110722494583677e-03
         - -9.1376412755090845e-03
         - -2.7677412691767757e-03
         - -8.7211811442942256e-03
         - 2.5299996515134476e-03
         - 4.6071631323703673e-03
         - 1.2527967898856413e-03
         - -3.3643225086254004e-03
         - -1.5047479770974226e-02
         - -3.0293231035449205e-03
         - 1.1090688642909142e-02
         - 2.8189286392249872e-02
         - -6.0134014534065738e-04
         - -3.6834465903880431e-03
         - 1.3090177685661548e-02
         - 9.8577848060511820e-03
         - 7.3643558321898907e-04
         - -6.8185832933511936e-03
         - 7.9413870850712429e-03
         - -4.3381806171429700e-03
         - -1.2982312786910238e-02
         - 5.4773683401686973e-04
         - 9.6350400469124317e-04
         - -5.0045009712708609e-03
         - 1.5741871114586608e-03
         - 6.8334693780747633e-03
         - -1.4234283891776245e-02
         - 3.6335338067210771e-03
         - 6.0918625635205609e-03
         - 1.6423942962253673e-03
         - 4.6340900471154628e-04
         - 1.9894346771852020e-02
         - -5.7957276184114476e-03
         - -9.0030590147705848e-03
         - 1.5093891163876297e-03
         - -5.0556862898391613e-04
         - -1.0918354086219167e-02
         - -5.7842575078719998e-03
         - -7.6541689602399182e-03
         - 1.4806851206969387e-02
         - -1.2723383517184841e-02
         - -2.3786156838385320e-03
         - -1.9913730515751113e-02
         - 2.0543026065531866e-03
         - -1.8276495058625879e-02
         - -9.2212015153409811e-04
         - -1.3085088858673741e-02
         - 5.1186357642124588e-03
         - -2.3972124088407717e-03
         - -1.0011083492106389e-02
         - 3.5378173394637075e-03
         - 1.7828283553950504e-02
         - 2.3757243334151020e-03
         - 3.4380431259773796e-03
         - -8.9388661117894060e-03
         - 2.8265322269107798e-03
         - -4.5549406862497492e-03
         - 3.1795917911288012e-03
         - 1.1007709142965148e-02
         - 4.0736225912777063e-03
         - -4.9968548294737338e-03
         - 2.8517942938857174e-02
         - 3.3618165429089050e-05
         - 4.9698284530627791e-03
         - -1.1103377401032358e-02
         - -2.3709160531174955e-02
         - 1.3761484366702544e-02
         - 1.4827344604289647e-02
         - -7.4557574868487674e-03
         - -6.3684000693802671e-04
         - 1.1515462092007326e-02
         - -1.7002697603716206e-02
         - 1.0903664219179090e-02
         - 1.8214157257900463e-02
         - 5.4751740453261574e-02
         - -5.9998513115992027e-03
         - -8.7033686992443841e-03
         - -6.0878863752667845e-03
         - -1.9935962857118125e-02
         - -1.6232489795819108e-02
         - -9.8914206262690919e-03
         - -1.8917520575775747e-02
         - 9.6936237557560014e-03
         - 1.7819380944244616e-02
         - -1.7934478684316954e-02
         - 4.5831217237530973e-03
         - 1.4824845681528380e-02
         - 1.8908709919343392e-02
         - 2.0167975977785017e-02
         - -1.7386394152783622e-02
         - 2.1319050088114896e-02
         - -3.9021818925938957e-03
         - 3.0545858886181082e-02
         - -7.5389585391153844e-03
         - 2.8967197968078350e-02
         - -3.7687332159168246e-03
         - 2.4377773029096711e-04
         - -3.4480034010814967e-02
         - 5.7763791487941462e-03
         - 1.4132463005277327e-02
         - -7.9263839383954932e-04
         - -6.7235783473601068e-03
         - -5.7772888825039686e-03
         - -2.2897649389527396e-02
         - 5.3960506705713696e-03
         - 1.0387397925595749e-03
         - 1.3416942101726493e-02
         - -8.4090099893075268e-03
         - -2.0844966043465335e-02
         - -8.0544109942976352e-03
         - 9.7703985399278468e-03
         - -3.0638428344180024e-02
         - -1.5793012080144205e-03
         - 2.4722270257985786e-03
         - 2.3439504482389423e-02
         - -2.9798138258069359e-02
         - 1.0760007559628811e-02
         - 1.3679653363042049e-02
         - -8.3411110138237928e-03
         - 1.0316248071942249e-02
         - 1.0810305284431498e-02
         - -1.9174816713625586e-02
         - 1.3279272938583305e-02
         - 1.8601877765831509e-02
         - 6.1311359879394164e-02
         - -1.5022192405980465e-02
         - 1.0720766179180698e-02
         - -1.3813391449887070e-02
         - -1.8239033222054921e-02
         - -1.9390247749421129e-02
         - -7.3494703675697050e-03
         - -2.0077114873191998e-02
         - 4.8280492682968145e-03
         - 6.6505560318513360e-03
         - -1.6853036036417378e-02
         - 6.0144496946900839e-03
         - 1.8212279009485372e-02
         - 1.9584440242031799e-02
         - 1.1102730108233035e-02
         - -1.6578707038858262e-02
         - 2.1680227083535064e-02
         - -1.0570333044890919e-03
         - 3.6890196482425863e-02
         - -3.5691978720954706e-03
         - 3.4473245466264540e-02
         - -4.6976417154612916e-03
         - -6.4924385743492870e-04
         - -5.2854362045610843e-02
         - 9.5134261068837312e-03
         - 1.5867943052451785e-02
         - -3.9410383748687454e-03
         - -5.2404890509729005e-03
         - 3.5649051057678543e-03
         - -2.0083084372487993e-02
         - 7.0930350110641081e-03
         - 6.8634439749698994e-04
         - 6.1866064837629913e-03
         - -1.1453753069696270e-02
         - -2.6881116421978102e-02
         - -2.5659954025324221e-03
         - 1.0375507453463398e-02
         - -6.0122840277941680e-02
         - 4.2388899275955412e-03
         - -3.2799566926341437e-03
         - 2.2157919214912124e-02
         - -3.7589557434308307e-02
         - 2.0031188807968132e-02
         - 1.6085890635606462e-02
         - -3.5447606390757013e-03
         - 1.1684890857687161e-02
         - 1.5914582409417698e-02
         - -1.2208862865823383e-02
         - 3.0526025601751682e-03
         - 2.2963384765519592e-02
         - 5.4385664203843095e-02
         - -2.0941456007495016e-02
         - -1.8283626905361758e-03
         - -1.6381860726711977e-02
         - -3.5248928647034654e-02
         - -2.3013916907494207e-02
         - -6.4088230093127946e-03
         - -3.5179421429834594e-02
         - 1.9079548788862234e-02
         - 1.5193490533402597e-02
         - -1.8064958899426335e-02
         - 1.2832304477021474e-02
         - 2.7866015102424528e-02
         - 2.4151955146153196e-02
         - 1.9774757330751985e-02
         - -2.7832756569365350e-02
         - 2.1425937695063325e-02
         - -4.6911283994241900e-03
         - 4.7517636760030499e-02
         - -5.8800796435919973e-03
         - 3.5887984340243123e-02
         - -5.5705883926704019e-03
         - 2.6225789614143038e-02
         - -4.6507269155210314e-02
         - 1.1050250251080309e-02
         - 1.1136406375662846e-02
         - -2.0662224466447428e-03
         - -3.2678270282101338e-02
         - -8.1277243312692440e-03
         - -2.6672441303354642e-02
         - 8.9062902450091040e-03
         - 1.7126259280204178e-03
         - 1.6691173581673265e-02
         - -1.1540902198384795e-02
         - -2.6718220631583300e-02
         - -8.0687622040926492e-03
         - 7.3854347001133880e-03
         - -6.2587406465168777e-02
         - 7.7618447487283505e-03
         - -5.4309489853919760e-03
         - 2.7256597138036177e-02
         - 1.5343599461406439e-02
         - -1.9971628619751391e-02
         - -4.1880507124445769e-03
         - 2.1278845786799352e-03
         - -6.7387401225502980e-03
         - -5.3122131022010346e-03
         - 1.3340102765114138e-02
         - -6.2356101383289541e-03
         - -1.4663168104549073e-02
         - -1.6893492357302468e-02
         - 4.3768840301064002e-03
         - -4.2981147700901605e-02
         - 9.5122970421677652e-03
         - 1.1854847458851148e-02
         - 1.2024393726981383e-02
         - 3.5244124534560871e-03
         - 1.7078126084775692e-02
         - -9.5420597133938963e-03
         - -5.8177051804857759e-03
         - 1.2085678608794025e-02
         - -1.1087788110009747e-02
         - -1.0039526625122551e-02
         - -9.7109445720343131e-03
         - -1.1508103540186500e-02
         - 1.0531474824401952e-02
         - -2.5292205292425155e-02
         - 2.3243752297441027e-03
         - -5.8938497330136355e-03
         - -1.1390529091051778e-03
         - -7.7632657287613092e-03
         - 6.7015931474583652e-04
         - -2.8511469553385231e-02
         - 4.3306606847533496e-03
         - -6.5865462892208907e-03
         - -7.9395645565483663e-04
         - -2.6102480932951480e-03
         - -2.4484294283013642e-03
         - 1.7271253319815004e-03
         - 1.1804756969658232e-02
         - 2.5748170747271104e-03
         - -4.3706464449233991e-03
         - -7.6150433951052855e-03
         - 8.5016827615133628e-03
         - 2.0733386376709600e-02
         - 5.2758044354623349e-03
         - -5.4694525701034207e-03
         - 7.9076299915039408e-03
         - 1.8760687784452590e-03
         - 3.1424295431793114e-03
         - -1.1288559560729203e-02
         - -2.9853416291401484e-04
         - -6.9478527734988527e-03
         - 3.5883846205190433e-03
         - 6.9719404837532035e-03
         - -2.1368152090775559e-03
         - -5.8780210157617771e-03
         - 9.5749413584691467e-03
         - -1.6709769649118794e-03
         - -9.6409174005187542e-03
         - -1.9252219632122970e-02
         - 1.8562607652312681e-03
         - 2.6908999422798553e-03
         - -1.8972722198767691e-03
         - 3.2474807134602640e-03
         - 3.6409583740872327e-03
         - 4.2288417398162267e-04
         - -2.3705465091801059e-03
         - -8.7753903814153994e-04
         - -2.1610614324750069e-03
         - 2.4712479467078018e-03
         - 7.4845882738881081e-04
         - -8.1732152504120272e-03
         - -4.9260187557633251e-03
         - -1.0585333768652200e-03
         - 5.6945980951825384e-03
         - -2.0027811389942253e-03
         - 2.8209437823456377e-03
         - -1.2806884330928300e-02
         - 7.7453318394104763e-03
         - -1.6583660023211965e-03
         - 5.4192190643354201e-03
         - -2.4782971589657967e-03
         - 3.3803949655332958e-03
         - -5.5939623460747991e-03
         - -9.0065046278619120e-03
         - 3.9370415923486767e-03
         - -3.4690701681725990e-03
         - 5.9331896382520295e-03
         - 8.9571972830035859e-03
         - -3.3580581274625667e-03
         - -2.7934007170544732e-03
         - 3.1337129030900735e-03
         - 3.7278542220452347e-03
         - 3.5800495412697782e-04
         - 1.5583480102325571e-04
         - -5.5757099000222589e-03
         - 7.8168210809689970e-03
         - -1.2794579438157301e-03
         - -4.8642170906645302e-04
         - -9.3573927923687496e-03
         - -1.1998001090437709e-02
         - 6.6735075900762036e-03
         - 8.0279956386384264e-03
         - 1.7783187441141814e-03
         - -1.3058485990672447e-03
         - 6.2734906645712093e-03
         - -3.0452787267336852e-03
         - 7.7988803181035645e-03
         - 3.8411260724162503e-03
         - -8.4976024427229954e-03
         - -3.7302304754036919e-03
         - 5.0890139945318519e-02
         - -8.4792752075924672e-03
         - -7.5083129877696170e-04
         - -2.7576573276845264e-03
         - 3.0169750022068825e-03
         - -7.3376900015230499e-03
         - 4.0431289610523332e-03
         - 9.1084449914437138e-03
         - -1.2080262490464777e-03
         - 6.0248222139004529e-03
         - 9.4905924248197670e-03
         - 2.0717884603210944e-03
         - 2.3288989927497945e-03
         - -1.6249477689731635e-02
         - 1.7916391034624654e-02
         - -4.2706261298597423e-03
         - 6.0086115843754288e-03
         - 4.6086006207698158e-03
         - 7.4783262531839517e-03
         - -2.2484596432351787e-04
         - 1.6982010490922607e-02
         - -7.0858067116202324e-03
         - -1.8305891219788410e-03
         - 6.2296636036581416e-03
         - 3.3243369544993183e-03
         - 4.3632705179188326e-03
         - -7.0187319534201892e-04
         - -7.1981737170620196e-03
         - -3.1437436220868864e-03
         - -2.6430927814813094e-03
         - -2.4098298485413674e-04
         - -1.6507934427746097e-03
         - -1.6018163942925462e-02
         - -6.9481207252216340e-03
         - 6.6131297507589113e-03
         - -9.9652334926406908e-03
         - 6.5643886353548408e-03
         - -1.2388995949571908e-03
         - 5.3545450261819408e-03
         - 8.3388598524639819e-03
         - 1.0374317686148143e-03
         - -5.2942270571735717e-03
         - -2.1137120161153658e-03
         - -7.7426599979890339e-04
         - 9.7119986249744777e-04
         - -1.0849819753257902e-03
         - 9.3037748133310036e-04
         - 7.3238879232672598e-03
         - -1.9235794568162722e-02
         - -1.8535220727181425e-03
         - 3.6733637237255555e-02
         - 2.7325901736198546e-03
         - -5.1395313595554801e-03
         - -5.1869494656347354e-03
         - -5.5628507359162726e-03
         - 7.2076253537760671e-03
         - -2.0222547647246332e-03
         - -1.3193471235834729e-03
         - -2.3768037782166858e-03
         - 4.1056150876505543e-03
         - -5.7874898982269605e-03
         - 4.5945865104667354e-04
         - -1.3825481563509131e-03
         - -5.0959928258758891e-03
         - 3.2329495497790384e-03
         - -3.4290141472353985e-03
         - -1.0928318361278956e-02
         - -8.2841675549266366e-04
         - -5.7730212383178053e-03
         - -1.8543987777713935e-03
         - 4.4164626249137088e-03
         - 1.6365834712752540e-02
         - -3.8422547116061219e-03
         - -1.3728762111490744e-03
         - -3.9132554791255570e-03
         - 1.6004821433887130e-02
         - -5.7656484477435115e-03
         - -2.5536898888534718e-03
         - 5.0870210652087253e-03
         - -4.6539861288530738e-03
         - 4.2092617374818011e-03
         - -5.5670926109853778e-03
         - -3.8468525780475616e-03
         - 1.0988751989485829e-03
         - -1.8928769981726647e-03
         - 1.7208137016044470e-02
         - 3.9400130223811239e-03
         - -2.0800011434139853e-03
         - -2.8443784358722661e-03
         - 1.0120800420629981e-02
         - 1.3605464974473440e-03
         - -4.9938021744944799e-03
         - -1.4658857981858042e-03
         - 4.7826697153808932e-03
         - 1.6824636176926973e-03
         - 1.8499479845743843e-03
         - -1.7509181702631458e-03
         - 2.8584204820890362e-03
         - -1.9118123347925807e-02
         - 7.7210241180228041e-03
         - -2.6890554202442681e-02
         - -1.5663719675803795e-03
         - -3.8143510563049821e-03
         - -2.5061450253888620e-03
         - 3.0022481059585326e-03
         - 8.4478721273399792e-03
         - 1.7877543965615006e-03
         - 2.8872602738073987e-04
         - 1.7080979408176556e-03
         - -1.7585954643216937e-03
         - -2.1737275921266865e-03
         - -5.9160879981456308e-03
         - -5.5542578294804669e-03
         - 9.1262770605922919e-03
         - 1.3978942881270929e-02
         - 4.3692847746180062e-03
         - -1.5997062207844952e-02
         - -2.4764824850907639e-03
         - -1.4470948044132995e-02
         - -3.5021022505325413e-03
         - 2.2306788877617337e-03
         - 3.2138168115576793e-02
         - 3.2973675686778863e-03
         - -1.8949623059362317e-03
         - 1.1794640946766331e-03
         - -3.1237242666254644e-04
         - 1.0173231671156242e-03
         - -6.6041778799543378e-03
         - 5.8115995345628055e-04
         - 3.5076360359752182e-03
         - -2.8129511669747259e-03
         - -2.5860713459204161e-03
         - 3.3194138688694651e-04
         - -5.8848982592178017e-04
         - 3.5812637130641918e-03
         - 4.4143343241778425e-02
         - 3.3326048698736638e-03
         - -3.2067183233369717e-03
         - -4.5413459085278404e-04
         - 6.2607543322479664e-03
         - 7.0891483599110003e-03
         - -1.3048532241009673e-03
         - 6.2348200532374937e-03
         - 4.1756713955354262e-03
         - -2.5492054655905450e-03
         - -3.1081817798854099e-03
         - 4.4028944252394675e-04
         - -8.7132644065041130e-04
         - 1.6872134831543775e-02
         - -5.5626729204775113e-03
         - -7.7497527579988349e-04
         - -1.6502713729245745e-03
         - -4.4931212058884730e-03
         - 4.0133540527551208e-03
         - 3.4145646027500371e-03
         - 2.0118455883208950e-03
         - -1.2918759891161907e-03
         - -6.2166186786582808e-03
         - -4.9212484528547394e-03
         - -4.6530944377628754e-03
         - -1.0287778916346602e-03
         - -5.3646228134008773e-03
         - 3.9160157705482521e-03
         - 4.4862698380306286e-03
         - 1.3402096088876242e-02
         - 5.7775443884619708e-03
         - 6.6040967487396600e-04
         - -2.8908221705961235e-03
         - -5.4501700755563874e-03
         - -1.1501718744451714e-03
         - -9.9065722214634212e-03
         - -1.4289060230048523e-02
         - 9.1650320851555198e-04
         - 3.9163724063053109e-04
         - -3.6977851086540179e-03
         - -1.4400747524123886e-03
         - -2.5684615254555642e-03
         - -2.6783764930703637e-03
         - 4.1122389741857042e-03
         - -1.3934328460844278e-03
         - -3.0830297342759648e-03
         - 2.1889875610629230e-03
         - 2.6685596517484391e-03
         - 2.1957310697505176e-04
         - -1.0079572335315522e-03
         - -9.5902395875108962e-03
         - 1.6027560551505201e-03
         - 6.3439420683808218e-03
         - -6.4407344698679397e-03
         - 2.1631601989319297e-02
         - -2.6010866621399023e-02
         - -7.5085574532434713e-03
         - 2.7951054190200426e-03
         - -4.3700736734280576e-03
         - -1.2570942455722069e-02
         - 1.4316767236215564e-02
         - -7.8386841474638903e-03
         - -2.2995991084109740e-02
         - -1.1913301596125239e-02
         - 1.3115014208477608e-02
         - -6.2902770053504906e-02
         - 9.7429940738264446e-03
         - 2.0864283330345991e-02
         - 1.6179669875651920e-02
         - 5.8937264416134231e-03
         - 2.7802883778921660e-02
         - -6.7060028478467893e-03
         - -1.5304734276808386e-02
         - 1.4727727264645921e-02
         - -1.0742538992470617e-02
         - -2.5365961093453040e-02
         - -9.9007011930596581e-03
         - -9.2049646518328407e-03
         - 2.2661572598688055e-02
         - -2.4763949360349025e-02
         - 3.2347331669207603e-03
         - -2.3498621645743612e-02
         - -1.2504124903249608e-03
         - -2.4205194964328190e-02
         - -4.3916616656404757e-03
         - -5.6674088658882439e-02
         - 1.8345416191527887e-02
         - -8.8314163251154588e-03
         - -1.5714708780212576e-02
         - -3.9875384393822140e-04
         - 3.2500162358491264e-02
         - -7.6948691277845655e-04
         - 1.2284035365085039e-02
         - -4.0894126459986692e-03
         - -2.2736897869988534e-03
         - -7.8208326370803865e-03
         - 6.6261094397839317e-04
         - 2.1974210693218262e-02
         - 1.0541805970784822e-02
         - -1.1886055241798088e-02
         - 3.3242380971803209e-02
         - -4.6969318938831434e-03
         - 1.1321418235219391e-02
         - -2.2879504247162140e-02
         - -3.8113972673689843e-02
         - 1.6533332294155649e-02
         - 8.4961060795989418e-03
         - -3.5921218407631312e-03
         - 3.1681038091436842e-03
         - 1.0665771047246309e-02
         - -2.0068230990893832e-02
         - 1.2944987251160722e-02
         - 1.7240181600032697e-02
         - 4.8437960468376923e-02
         - -7.6421726026556789e-03
         - 1.6191356772307555e-02
         - -7.7158359562074508e-03
         - -2.6012098023586772e-02
         - -2.1305986653645331e-02
         - -8.3255487367412569e-03
         - -3.2637516606785127e-02
         - 8.4773792431910994e-03
         - 1.6538940697150267e-02
         - -2.0070442653521429e-02
         - 1.1337047536290884e-02
         - 2.7879396027015217e-02
         - 1.9899174010900748e-02
         - 1.5897968791770963e-02
         - -2.3255997477681215e-02
         - 2.3361009272140014e-02
         - -7.0956498498853668e-03
         - 3.8928833923287290e-02
         - -1.3288157208069785e-03
         - 2.9811464936168420e-02
         - -6.6341577797030061e-03
         - 5.7494459326059462e-03
         - -4.3486496461664789e-02
         - 1.2433235355215641e-02
         - 1.5898097531396743e-02
         - -9.1102838441867017e-03
         - -8.7848589487430871e-03
         - -5.6967068158663287e-03
         - -2.3319193125723083e-02
         - 4.4523585918140032e-03
         - 2.7663470376740251e-03
         - 7.4090872520457636e-03
         - -8.1584420403060711e-03
         - -2.2037269733657248e-02
         - -1.0551705836369220e-02
         - 1.1351773313223033e-02
         - -7.2282327730329970e-02
         - 3.4115370235981205e-03
         - -2.6402226090082291e-03
         - 2.7152291401920142e-02
         - -1.5148523374098642e-04
         - -4.1982076604602635e-03
         - -2.7493396947540004e-03
         - 3.6653492012791528e-04
         - -1.7085850942392471e-03
         - -2.6826355407821422e-03
         - 9.0202382465519836e-04
         - -3.3169332143527042e-04
         - 2.6692954341735460e-03
         - -1.0662213942977049e-02
         - -3.5467097697232291e-03
         - -4.6689981026536299e-02
         - -4.8530659822212602e-03
         - 4.1274146054426693e-03
         - 5.0510882994573890e-03
         - -2.0043556486112192e-03
         - -4.4814249900411848e-03
         - 5.5520325344881631e-03
         - -3.5778768595001254e-03
         - -1.5277308423849087e-03
         - -5.6381029403200743e-03
         - 6.3280483682510505e-03
         - 5.7284934731521306e-03
         - 3.5178990623524068e-03
         - 1.8342172294685011e-04
         - -2.7936108566251627e-02
         - 1.2552621601130971e-03
         - 1.4046614425027240e-02
         - -6.3328069117394963e-03
         - -1.2758854629857680e-03
         - 1.3581474399890297e-03
         - -1.0020265305889108e-02
         - 5.2131520159447910e-03
         - -5.3154021903537474e-04
         - 7.1257536374661956e-03
         - -4.2099078024472030e-03
         - 9.0734261001096401e-03
         - 7.2544380616214213e-04
         - 7.4122195473793565e-03
         - 4.9233656720968945e-03
         - -2.0398323404380893e-03
         - -3.5933102743454189e-04
         - -3.0098033319450232e-03
         - 2.9467089417346769e-03
         - -1.3602713735269567e-03
         - -4.6271689137309183e-03
         - -1.3028751486144694e-02
         - 4.6025680038744472e-03
         - 2.8889150098998437e-03
         - 5.3243377562397515e-03
         - 9.0031680214338102e-03
         - -1.1604008245308639e-02
         - 3.4338127667238604e-04
         - 2.8302851365424346e-03
         - 2.1604395994204500e-03
         - 2.3331081314823870e-03
         - -2.6728085020593804e-04
         - 4.3731829595973666e-04
         - -1.3059270766072498e-02
         - -1.2095230224794053e-02
         - 7.2314580779874547e-03
         - -6.3082583858506472e-02
         - 9.4375989781441388e-03
         - 3.1639088454421278e-03
         - 2.3350774628225018e-03
         - -2.9362842611886414e-03
         - 2.6150721120409919e-03
         - 2.4690867284362580e-03
         - -1.6982983506689351e-03
         - 1.2845193237659433e-02
         - 1.9933507345721302e-03
         - 9.2079602430448392e-05
         - -2.2122544090118022e-03
         - -2.3714250351447026e-03
         - 5.7894684204658924e-04
         - -2.8214562615582198e-02
         - 3.2352114793535920e-03
         - 4.4227240351404369e-04
         - -1.8850637309715433e-03
         - -7.5251965163208217e-03
         - 1.8212341188885324e-03
         - -1.5735964228267573e-02
         - 1.6396607254968713e-02
         - -4.3454776192574434e-03
         - -5.6628309166183010e-03
         - -3.4376171077548541e-03
         - -4.3353426061591054e-03
         - 2.7999833312514310e-03
         - 4.5577635446882583e-03
         - -5.5456397236885299e-03
         - 7.6151847353344015e-03
         - -3.1600763129890153e-03
         - 8.4899613854744517e-03
         - 4.6820694103769812e-03
         - -2.3757665643165450e-03
         - -1.4443598298058268e-03
         - 2.3123837224450126e-02
         - -4.2250088459360770e-03
         - -4.4429692738146434e-03
         - -1.2070848014726458e-02
         - -1.9417162993704367e-02
         - -3.5779521595204642e-03
         - 7.4101022299765816e-04
         - -3.5794182455932983e-03
         - 2.7059286689074123e-03
         - 3.9473296802421025e-03
         - -1.9521720340572042e-03
         - 2.0938632942826044e-03
         - 7.5584160500810540e-03
         - 4.5393027026664296e-03
         - -3.1619532241069399e-03
         - 6.7719210403285749e-04
         - 9.3357168383506183e-04
         - -1.4002941367701912e-02
         - -2.8932292065820247e-03
         - -8.1602155026919750e-03
         - -1.6964402832617360e-02
         - 3.2270094238535793e-03
         - 1.0466666888281715e-02
         - -1.0468151507038451e-02
         - 3.5463326716250847e-03
         - 5.2546320607719816e-03
         - 2.3010470800850697e-03
         - 8.3340753906213910e-04
         - -1.2941122869399775e-02
         - 1.8560059820901330e-02
         - 1.4527204163921432e-03
         - 2.0201856049188133e-03
         - 1.2387130976100307e-03
         - 8.2376672588229862e-03
         - 3.6402467366030169e-05
         - -3.7090125548871655e-03
         - -1.7994625608491154e-02
         - 1.4925500151835545e-03
         - 3.9618073010975977e-03
         - 3.2873740309349335e-03
         - -2.2783619288179111e-02
         - 3.5778705627903021e-03
         - -9.5750296510013783e-03
         - 3.7876102283109880e-03
         - 5.0635721836014124e-03
         - 7.0910509465305065e-03
         - -3.4497837943895529e-03
         - -9.7274217878267951e-03
         - 3.7524443927494720e-03
         - 8.8487691169114712e-03
         - -3.8196629739469935e-03
         - 7.0285358918403089e-03
         - -1.0143706180880045e-03
         - 3.9357363918135777e-03
         - 6.3725192849502154e-03
         - -1.5256175888238679e-03
         - 2.0258347759930027e-03
         - -1.5791425659726765e-03
         - -2.9108137333152080e-03
         - -1.5579176366484560e-03
         - -1.4400616554941063e-03
         - 2.8077007668528167e-03
         - 5.3585147795825270e-03
         - -8.1926926574970166e-03
         - -6.4739373331118601e-03
         - 3.6022903935077899e-02
         - -4.9994517552967230e-03
         - -8.6270920253969055e-04
         - 4.4607257201389958e-03
         - -3.6107899961486446e-03
         - -7.2343311305254412e-03
         - -4.0525056099103033e-03
         - -1.7847143380758936e-03
         - -3.5909340137793163e-03
         - -4.6259145232928666e-03
         - 7.9937686788586881e-03
         - -2.6674763122625398e-03
         - -3.8093098822234136e-03
         - -8.2084427456359209e-03
         - 5.5959002661134724e-03
         - 3.7642692611656696e-03
         - -8.1800023912211757e-03
         - 3.4375688279822971e-03
         - -4.9633248315551406e-03
         - -1.9719672847646512e-04
         - 3.0487381977050755e-03
