%YAML:1.0
---
opencv_ml_ann_mlp:
   format: 3
   layer_sizes: [ 324, 100, 2 ]
   activation_function: SIGMOID_SYM
   f_param1: 6.6666666666666663e-01
   f_param2: 1.7159000000000000e+00
   min_val: -9.4999999999999996e-01
   max_val: 9.4999999999999996e-01
   min_val1: -9.7999999999999998e-01
   max_val1: 9.7999999999999998e-01
   training_params:
      train_method: BACKPROP
      dw_scale: 1.0000000000000000e-03
      moment_scale: 0.
      term_criteria:
         epsilon: 1.0000000000000000e-04
         iterations: 300
   input_scale:
      - 1.1845964973477985e+01
      - -1.8052367539126739e+00
      - 1.1687380316589527e+01
      - -1.5813543653507391e+00
      - 1.2099606036046126e+01
      - -1.4560114638531030e+00
      - 1.3091744511646029e+01
      - -1.3552147447592222e+00
      - 1.3247711545904471e+01
      - -1.6142454284008327e+00
      - 1.3225392213729032e+01
      - -1.3962427763611494e+00
      - 1.1797943428176573e+01
      - -1.4888079673232950e+00
      - 1.1415225901077068e+01
      - -1.6218109247963808e+00
      - 1.1780393447496380e+01
      - -1.8272040909917677e+00
      - 1.1583722836639520e+01
      - -1.8560450773710619e+00
      - 1.1386230930612346e+01
      - -1.7132654701166308e+00
      - 1.1613901789676628e+01
      - -1.5621230580983709e+00
      - 1.2415490341929388e+01
      - -1.4532064647993486e+00
      - 1.2584637878888127e+01
      - -1.7178410184184936e+00
      - 1.2489354836202230e+01
      - -1.4775335522667463e+00
      - 1.1487088214155074e+01
      - -1.5936326701299146e+00
      - 1.1354421066356700e+01
      - -1.7581263678422732e+00
      - 1.1629738654293185e+01
      - -1.8846749844112760e+00
      - 1.1736680911641187e+01
      - -1.9608239577182032e+00
      - 1.1302340166581246e+01
      - -1.7167407331606992e+00
      - 1.1686982239858807e+01
      - -1.5934175819458769e+00
      - 1.2496709401961821e+01
      - -1.4739734305390573e+00
      - 1.2669179191396211e+01
      - -1.5735129625946438e+00
      - 1.2514010689922273e+01
      - -1.5166346392578502e+00
      - 1.1412485817216465e+01
      - -1.6088212197827094e+00
      - 1.1330171321868958e+01
      - -1.7645287315366356e+00
      - 1.1895462863579052e+01
      - -2.0062871209299749e+00
      - 1.1511842953904132e+01
      - -2.0001538658275724e+00
      - 1.1327148282649249e+01
      - -1.8643344163318221e+00
      - 1.1431272093472895e+01
      - -1.7185642215734731e+00
      - 1.1960680160951407e+01
      - -1.5783245970158106e+00
      - 1.2109999584154091e+01
      - -1.6750789725212407e+00
      - 1.2001343504468414e+01
      - -1.6252527969813417e+00
      - 1.1140061818555107e+01
      - -1.7401025026159458e+00
      - 1.1267433128481400e+01
      - -1.9287863939708052e+00
      - 1.1622637782437179e+01
      - -2.0593494326651900e+00
      - 1.1750992364974261e+01
      - -1.7165433442459015e+00
      - 1.1639602432681631e+01
      - -1.5834371886064653e+00
      - 1.2112068327328201e+01
      - -1.4779825697518687e+00
      - 1.3148814876724446e+01
      - -1.3849302656831000e+00
      - 1.3129246798459832e+01
      - -1.6350111883409648e+00
      - 1.3155177876481821e+01
      - -1.4205233561763655e+00
      - 1.1772978611169982e+01
      - -1.5136035099484668e+00
      - 1.1391605873446538e+01
      - -1.6354128207390228e+00
      - 1.1673165353419318e+01
      - -1.7385249129613221e+00
      - 1.1711102836718700e+01
      - -1.8479493090866026e+00
      - 1.1375883677791046e+01
      - -1.6930854668747684e+00
      - 1.1574626609901394e+01
      - -1.5674597313355438e+00
      - 1.2425844948655616e+01
      - -1.4642988224771969e+00
      - 1.2582992690475040e+01
      - -1.7429395937608987e+00
      - 1.2602304127657657e+01
      - -1.5137515953096716e+00
      - 1.1566798282878668e+01
      - -1.6234066037119361e+00
      - 1.1289247374693321e+01
      - -1.7571523744376183e+00
      - 1.1563380646390714e+01
      - -1.8614083348258059e+00
      - 1.1594389617483731e+01
      - -1.8637112195205665e+00
      - 1.1268657268707040e+01
      - -1.7246294452102278e+00
      - 1.1652623161146968e+01
      - -1.6187558774685507e+00
      - 1.2498064195831644e+01
      - -1.5107364209378606e+00
      - 1.2592954727981416e+01
      - -1.5962486992455258e+00
      - 1.2505227276043225e+01
      - -1.5360420400806607e+00
      - 1.1401168430288546e+01
      - -1.6265352213711988e+00
      - 1.1298991274204381e+01
      - -1.7623608828479767e+00
      - 1.1667849532916859e+01
      - -1.8949022175815615e+00
      - 1.1685157248792692e+01
      - -2.0083937298652343e+00
      - 1.1192419939910613e+01
      - -1.8276374314181083e+00
      - 1.1297270167463299e+01
      - -1.7044124332434452e+00
      - 1.1834814837507237e+01
      - -1.5881970550254774e+00
      - 1.2116137020273134e+01
      - -1.6958678063091619e+00
      - 1.2085545847753616e+01
      - -1.6443231611271047e+00
      - 1.1229483035355818e+01
      - -1.7558697621200221e+00
      - 1.1182685575872650e+01
      - -1.9045793520249437e+00
      - 1.1569963150446599e+01
      - -2.0340436296086057e+00
      - 1.1874019956060016e+01
      - -1.7097775425440569e+00
      - 1.1830611359749531e+01
      - -1.5816811859917157e+00
      - 1.2072965250273038e+01
      - -1.4797042577731145e+00
      - 1.2800128511860546e+01
      - -1.3815833882170039e+00
      - 1.3039847347042404e+01
      - -1.6651858652802443e+00
      - 1.3168074275915615e+01
      - -1.4443292085121493e+00
      - 1.1772977633417931e+01
      - -1.5349227118263418e+00
      - 1.1273116822678901e+01
      - -1.6367802658643726e+00
      - 1.1549333277373043e+01
      - -1.7251445661446632e+00
      - 1.1999240669836754e+01
      - -1.9539068990866602e+00
      - 1.1486134655700731e+01
      - -1.6451726187909577e+00
      - 1.1584194046513234e+01
      - -1.5356313553189260e+00
      - 1.2301616386446881e+01
      - -1.4376713610296052e+00
      - 1.2513291659162048e+01
      - -1.7351330098381688e+00
      - 1.2660830795620248e+01
      - -1.4952709924786531e+00
      - 1.1641292362028812e+01
      - -1.6131676338701602e+00
      - 1.1175455344016317e+01
      - -1.7145250717991405e+00
      - 1.1728167035544173e+01
      - -1.9624346663555670e+00
      - 1.1686071793296849e+01
      - -1.8601369999285953e+00
      - 1.1354214663015885e+01
      - -1.7204542167870036e+00
      - 1.1569182482204658e+01
      - -1.6237777461603049e+00
      - 1.2258465467183623e+01
      - -1.5168498777882804e+00
      - 1.2493772141212647e+01
      - -1.6231434181142130e+00
      - 1.2534198227064964e+01
      - -1.5549449151097456e+00
      - 1.1524891418307977e+01
      - -1.6487800598548379e+00
      - 1.1343224198723577e+01
      - -1.7739069829248377e+00
      - 1.1514754686145368e+01
      - -1.8625697550089402e+00
      - 1.2060950994229975e+01
      - -2.1326266709053083e+00
      - 1.1342177508198741e+01
      - -1.7877447551266563e+00
      - 1.1495297621426047e+01
      - -1.7051950194544503e+00
      - 1.1852787518145258e+01
      - -1.5783450541397603e+00
      - 1.2035242780433453e+01
      - -1.6902796397475757e+00
      - 1.2196213643244198e+01
      - -1.6367845875609222e+00
      - 1.1321260900571769e+01
      - -1.7361690339490163e+00
      - 1.1124207377736738e+01
      - -1.8664261253728451e+00
      - 1.1778493248029486e+01
      - -2.1406505161028964e+00
      - 1.2219391120692826e+01
      - -1.8242752400685602e+00
      - 1.1806054390136072e+01
      - -1.6099200327912493e+00
      - 1.2163668776582774e+01
      - -1.5094668436682253e+00
      - 1.3273269401201986e+01
      - -1.4266025936033813e+00
      - 1.3501017000105451e+01
      - -1.5282869083304125e+00
      - 1.3208444831066553e+01
      - -1.4704139715907838e+00
      - 1.1725669038453940e+01
      - -1.5524409726988027e+00
      - 1.1291520036067258e+01
      - -1.6448750402754948e+00
      - 1.2113677113750612e+01
      - -1.8460670852258234e+00
      - 1.1925646340208406e+01
      - -1.8847048888881541e+00
      - 1.1423055729536228e+01
      - -1.7381607155487400e+00
      - 1.1701128253432779e+01
      - -1.6276550614974512e+00
      - 1.2529188061136674e+01
      - -1.5214998121251893e+00
      - 1.2553917796093906e+01
      - -1.6080287011033583e+00
      - 1.2548261720017573e+01
      - -1.5705633953298186e+00
      - 1.1339985719307865e+01
      - -1.6503372589535952e+00
      - 1.1329822358795175e+01
      - -1.7841996939073008e+00
      - 1.1868288120431080e+01
      - -1.8970332469484337e+00
      - 1.2168218300321907e+01
      - -1.9596289846429211e+00
      - 1.1430822746976910e+01
      - -1.6841133279291625e+00
      - 1.1714054706574373e+01
      - -1.5862411337466604e+00
      - 1.2615578495455297e+01
      - -1.5073511831938713e+00
      - 1.2860339280662851e+01
      - -1.6055839406198662e+00
      - 1.2615634706787111e+01
      - -1.5572850567908687e+00
      - 1.1413344891612489e+01
      - -1.6593219376937438e+00
      - 1.1310141489495539e+01
      - -1.7779000334641133e+00
      - 1.1993909051057607e+01
      - -1.9774408544877076e+00
      - 1.1961497327643331e+01
      - -2.0296659290227765e+00
      - 1.1439017747010327e+01
      - -1.8443984799280295e+00
      - 1.1452115006662112e+01
      - -1.7249380213985401e+00
      - 1.2007618905303639e+01
      - -1.6186830668512633e+00
      - 1.2274762779709778e+01
      - -1.7262736487021051e+00
      - 1.2117568546633155e+01
      - -1.6856804394454104e+00
      - 1.1196850858664886e+01
      - -1.7951333709440076e+00
      - 1.1234697381486688e+01
      - -1.9450889584415914e+00
      - 1.1785704714677662e+01
      - -2.0487336948058106e+00
      - 1.2054355218662089e+01
      - -1.7351178294003458e+00
      - 1.1755303819424068e+01
      - -1.6129997892491155e+00
      - 1.2138788966982238e+01
      - -1.5230852241867605e+00
      - 1.3073205824191250e+01
      - -1.4335234405228552e+00
      - 1.3302029617391881e+01
      - -1.5382047663728338e+00
      - 1.3217336451183266e+01
      - -1.4820694183998393e+00
      - 1.1694194250070961e+01
      - -1.5557466335134496e+00
      - 1.1357267188124062e+01
      - -1.6544708602898315e+00
      - 1.2135766479975832e+01
      - -1.7721443612756924e+00
      - 1.1900024890871775e+01
      - -1.8635339214673139e+00
      - 1.1406962424962986e+01
      - -1.7251830279731273e+00
      - 1.1588423806777003e+01
      - -1.6210858229754168e+00
      - 1.2316934937754191e+01
      - -1.5143883090537080e+00
      - 1.2538650428158482e+01
      - -1.6107588108996234e+00
      - 1.2686320824318924e+01
      - -1.5614127006947687e+00
      - 1.1547280573739178e+01
      - -1.6540292304960829e+00
      - 1.1323913501418604e+01
      - -1.7633280114038143e+00
      - 1.1824623943020494e+01
      - -1.8660785600152379e+00
      - 1.1966741492174538e+01
      - -1.8752632659825712e+00
      - 1.1365563720372020e+01
      - -1.7174638639255906e+00
      - 1.1662850501280843e+01
      - -1.6372825853238056e+00
      - 1.2485104289537412e+01
      - -1.5381323001920806e+00
      - 1.2701730309804525e+01
      - -1.6432388641340194e+00
      - 1.2575730352585111e+01
      - -1.5777366928045793e+00
      - 1.1413325882240544e+01
      - -1.6601134011344820e+00
      - 1.1267863059068423e+01
      - -1.7711945921568495e+00
      - 1.1783301773017831e+01
      - -1.8764797990946711e+00
      - 1.1863647588742237e+01
      - -2.0088527626288366e+00
      - 1.1270930433739284e+01
      - -1.8305554049783754e+00
      - 1.1328228288229097e+01
      - -1.7211081192140882e+00
      - 1.1915889966831548e+01
      - -1.6271761500680106e+00
      - 1.2251660015680944e+01
      - -1.7479800720252481e+00
      - 1.2264609684554811e+01
      - -1.6889060914824772e+00
      - 1.1240269585074676e+01
      - -1.7816412015426351e+00
      - 1.1116396452344363e+01
      - -1.9043129196527135e+00
      - 1.1626049334531869e+01
      - -2.0055398383213650e+00
      - 1.2236350498977428e+01
      - -1.7451379251525450e+00
      - 1.1874539876423391e+01
      - -1.6312492789934743e+00
      - 1.2024961276947682e+01
      - -1.5414452039644719e+00
      - 1.2754110519290764e+01
      - -1.4474547463263945e+00
      - 1.3027876193844737e+01
      - -1.5486735624288541e+00
      - 1.3245545371395790e+01
      - -1.4966973484522983e+00
      - 1.1745531763244637e+01
      - -1.5542205855415709e+00
      - 1.1449330785171469e+01
      - -1.6524587242797706e+00
      - 1.2021089769912908e+01
      - -1.7444790837500632e+00
      - 1.2311040961230676e+01
      - -1.9934411208004243e+00
      - 1.1509750071482626e+01
      - -1.7052620418206843e+00
      - 1.1573932271785488e+01
      - -1.6157118432747009e+00
      - 1.2264430386499020e+01
      - -1.5205960816543562e+00
      - 1.2486081906982706e+01
      - -1.6176538718668600e+00
      - 1.2772446770761238e+01
      - -1.5591470147722424e+00
      - 1.1677522589865578e+01
      - -1.6379835130755063e+00
      - 1.1390073916290218e+01
      - -1.7298472208850177e+00
      - 1.2167090332000202e+01
      - -1.9838247573145591e+00
      - 1.1983069815049115e+01
      - -1.8784773192844517e+00
      - 1.1360322461955429e+01
      - -1.7355015405666945e+00
      - 1.1560137445867523e+01
      - -1.6473894879235671e+00
      - 1.2214398857240687e+01
      - -1.5439535945653553e+00
      - 1.2455668249403661e+01
      - -1.6489529253059543e+00
      - 1.2653469897720420e+01
      - -1.6009253419851734e+00
      - 1.1422743003398075e+01
      - -1.6583124375031133e+00
      - 1.1356125255152758e+01
      - -1.7763574382813807e+00
      - 1.1905781125421592e+01
      - -1.8758551023980345e+00
      - 1.2338112660562821e+01
      - -2.1532066078128622e+00
      - 1.1404707312747426e+01
      - -1.8277277269082661e+00
      - 1.1458219370559698e+01
      - -1.7321319647229638e+00
      - 1.1938802019755352e+01
      - -1.6202642163565597e+00
      - 1.2231036996799050e+01
      - -1.7316024067833875e+00
      - 1.2268383006568444e+01
      - -1.6681728531020010e+00
      - 1.1320651341562096e+01
      - -1.7463773008538004e+00
      - 1.1212231660865424e+01
      - -1.8614812188865715e+00
      - 1.2172972715991957e+01
      - -2.1580398764437700e+00
      - 1.2415829973089600e+01
      - -1.8187715485702882e+00
      - 1.1944105447409274e+01
      - -1.5831579291715168e+00
      - 1.2200471668415364e+01
      - -1.5028400603439858e+00
      - 1.3236522878717059e+01
      - -1.4316310839627666e+00
      - 1.3596955036688740e+01
      - -1.5366281605381014e+00
      - 1.3535761268386597e+01
      - -1.5129355219586123e+00
      - 1.1651221446094972e+01
      - -1.5938615407632681e+00
      - 1.1142878203392577e+01
      - -1.6784103843613822e+00
      - 1.2109196094695310e+01
      - -1.8683045697515419e+00
      - 1.2127932064224739e+01
      - -1.8954874810712383e+00
      - 1.1526971993546352e+01
      - -1.7348984339191467e+00
      - 1.1590278743432268e+01
      - -1.6451003397186508e+00
      - 1.2392263887512653e+01
      - -1.5447139211041778e+00
      - 1.2626450129963118e+01
      - -1.6426450782557278e+00
      - 1.2751216476406398e+01
      - -1.6061161002167739e+00
      - 1.1435685367784277e+01
      - -1.6973689336894573e+00
      - 1.1223171123379936e+01
      - -1.8095030298856689e+00
      - 1.1850154490817184e+01
      - -1.9082147724119864e+00
      - 1.2427973983485247e+01
      - -1.9466698449363988e+00
      - 1.1469234535564620e+01
      - -1.6357700201585765e+00
      - 1.1582620242663031e+01
      - -1.5229108415706094e+00
      - 1.2770892306223498e+01
      - -1.4794310226934264e+00
      - 1.3290748264428350e+01
      - -1.8766051317099637e+00
      - 1.3085495582252792e+01
      - -1.5673229203663843e+00
      - 1.1585964974769013e+01
      - -1.6865732328482272e+00
      - 1.1287830170552187e+01
      - -1.7890731976419110e+00
      - 1.2168551907351604e+01
      - -2.0006424493913939e+00
      - 1.2174460116387463e+01
      - -2.0087206081103504e+00
      - 1.1420967028620845e+01
      - -1.7966133299176992e+00
      - 1.1281485383586796e+01
      - -1.6662383250683246e+00
      - 1.2013045588675070e+01
      - -1.5852833830181143e+00
      - 1.2803175196328658e+01
      - -2.0290108885952001e+00
      - 1.2357241842131986e+01
      - -1.6696274886505567e+00
      - 1.1329301783458302e+01
      - -1.8120250792312289e+00
      - 1.1164869204648697e+01
      - -1.9282368133564727e+00
      - 1.1828352184479405e+01
      - -2.0412062232991102e+00
      - 1.2373540388831163e+01
      - -1.7618018102677599e+00
      - 1.1904063081908955e+01
      - -1.6291399085387119e+00
      - 1.1955921115112339e+01
      - -1.5469074379184276e+00
      - 1.2944023598141124e+01
      - -1.4620624034812510e+00
      - 1.3281473618296967e+01
      - -1.5789375992019350e+00
      - 1.3483931180627904e+01
      - -1.5273923298245611e+00
      - 1.1730869807375862e+01
      - -1.5929685899990531e+00
      - 1.1156491596698840e+01
      - -1.6553736470316471e+00
      - 1.1911617018773839e+01
      - -1.7509817829571985e+00
      - 1.2082409999784431e+01
      - -1.8811226944473181e+00
      - 1.1484750673707360e+01
      - -1.7380189222747573e+00
      - 1.1477402306329495e+01
      - -1.6367419975729753e+00
      - 1.2307437714578493e+01
      - -1.5516524406321690e+00
      - 1.2649580374916871e+01
      - -1.6724074052238058e+00
      - 1.2795039429668334e+01
      - -1.6092410732105364e+00
      - 1.1476191580635689e+01
      - -1.6794750075974734e+00
      - 1.1277677938062020e+01
      - -1.7866465569715586e+00
      - 1.1765250300919373e+01
      - -1.8664169555056043e+00
      - 1.2315129303983616e+01
      - -1.8582868034995410e+00
      - 1.1452985965910225e+01
      - -1.6904292026344840e+00
      - 1.1456169786642894e+01
      - -1.5853741026897576e+00
      - 1.2493602966848487e+01
      - -1.5136788861253516e+00
      - 1.3153254798494725e+01
      - -1.9131855364050740e+00
      - 1.2979292518121291e+01
      - -1.5741082888135502e+00
      - 1.1597310477456190e+01
      - -1.6721909344343076e+00
      - 1.1234954764848260e+01
      - -1.7470473628889196e+00
      - 1.1873434048733900e+01
      - -1.8548527014925482e+00
      - 1.2171787467591216e+01
      - -1.9944604809278366e+00
      - 1.1593499745028648e+01
      - -1.8333325486831913e+00
      - 1.1381378244037629e+01
      - -1.7065735518621312e+00
      - 1.2053678374408054e+01
      - -1.6160633736272891e+00
      - 1.2992370617444633e+01
      - -2.0749517658362930e+00
      - 1.2544878992216088e+01
      - -1.6747320228356397e+00
      - 1.1283063744860916e+01
      - -1.7701791494600878e+00
      - 1.1136772638242261e+01
      - -1.8823872225144149e+00
      - 1.1774577522018889e+01
      - -1.9925297431023425e+00
      - 1.2349732214896948e+01
      - -1.7567520979814206e+00
      - 1.1799369716176562e+01
      - -1.6366201610732307e+00
      - 1.1892060186125661e+01
      - -1.5440770139158495e+00
      - 1.2874201610485105e+01
      - -1.4709363244510596e+00
      - 1.3102893275086281e+01
      - -1.5796946446588318e+00
      - 1.3400006661894928e+01
      - -1.5429302288211131e+00
      - 1.1765200485694193e+01
      - -1.6013681730328044e+00
      - 1.1325420036282122e+01
      - -1.6689653987593762e+00
      - 1.1966307758468812e+01
      - -1.7448096047766759e+00
      - 1.2347790863246383e+01
      - -2.0059243963819449e+00
      - 1.1463366143797513e+01
      - -1.7152446888258919e+00
      - 1.1526597602579564e+01
      - -1.6173846394875506e+00
      - 1.2459986630122664e+01
      - -1.5435381311540537e+00
      - 1.2620314041157703e+01
      - -1.6414022675383584e+00
      - 1.2862569646721251e+01
      - -1.5883378955923140e+00
      - 1.1664818489405558e+01
      - -1.6575450010456751e+00
      - 1.1385578435112446e+01
      - -1.7451395738293873e+00
      - 1.2162541038747836e+01
      - -1.9951884996853946e+00
      - 1.2241343568305037e+01
      - -1.8656426759139333e+00
      - 1.1586145994369298e+01
      - -1.7270500841676752e+00
      - 1.1504441179650911e+01
      - -1.6189999795103580e+00
      - 1.2401345910747887e+01
      - -1.5385608723805624e+00
      - 1.3073119424305030e+01
      - -1.9426779279089490e+00
      - 1.2942100310713293e+01
      - -1.5867408246149712e+00
      - 1.1675074864371826e+01
      - -1.6702201123906175e+00
      - 1.1390000848778920e+01
      - -1.7589317650500182e+00
      - 1.1892358391906768e+01
      - -1.8427916477123238e+00
      - 1.2342236889835995e+01
      - -2.1234235158562118e+00
      - 1.1484585273787719e+01
      - -1.7983548423937925e+00
      - 1.1460298509560635e+01
      - -1.7003964392909592e+00
      - 1.1995242064109650e+01
      - -1.5920624399260743e+00
      - 1.2749676485004477e+01
      - -2.0303599546430524e+00
      - 1.2285406966705589e+01
      - -1.6345011770135112e+00
      - 1.1417774017524417e+01
      - -1.7371000063077180e+00
      - 1.1287541406194116e+01
      - -1.8503104867492539e+00
      - 1.2114411971383749e+01
      - -2.1219497925208399e+00
   output_scale:
      - 5.2631578947368418e-01
      - 4.9999999999999994e-01
      - 5.2631578947368418e-01
      - 4.9999999999999994e-01
   inv_output_scale:
      - 1.8999999999999999e+00
      - -9.4999999999999996e-01
      - 1.8999999999999999e+00
      - -9.4999999999999996e-01
   weights:
      -
         - 2.2498834878116283e-02
         - -1.8892464855454980e-01
         - 1.9944959948781504e-01
         - -2.5294415077380263e-02
         - 3.3489006943080024e-01
         - -1.8750958936422799e-02
         - 2.2391127839431643e-02
         - 6.2382280599339313e-02
         - -4.2584473795703820e-02
         - 2.9700875280236086e-02
         - 6.3463354656998372e-02
         - -2.2636875595278555e-01
         - 5.2604666776928016e-02
         - 1.1430690536765603e-02
         - -2.3736668588749410e-01
         - -1.0324447294885599e-02
         - 2.0659450824691599e-02
         - 8.6188844923053634e-03
         - 2.6255585169420260e-02
         - -7.5051378135620281e-02
         - 1.4173876466666140e-02
         - -3.3035260139442517e-02
         - -2.4414586696245395e-03
         - 2.6758618118106765e-02
         - -1.3410870378002948e-02
         - 2.2060463133597732e-02
         - -4.0967924207711760e-02
         - 7.1951294843963634e-02
         - -2.7155018233707588e-02
         - 7.3627406615532397e-03
         - 3.3728328883637099e-01
         - 7.4459093702964718e-02
         - 3.3202772594799534e-02
         - -6.2084274016077447e-02
         - 2.3227681814353279e-02
         - -3.0465784875782612e-02
         - -4.1069358107263419e-04
         - -4.4577974531103612e-02
         - 3.3950190492161642e-01
         - 1.1241000301402354e-02
         - -3.3770210869214835e-03
         - -6.1406953987469197e-02
         - 2.2025753353745747e-01
         - 1.7434349243795816e-01
         - -1.8427187358159038e-02
         - 1.9844613876855644e-02
         - -4.0287215560860824e-02
         - -8.4001505452365427e-02
         - -2.5108710273042036e-02
         - -1.3269287593687945e-02
         - 3.1007054558994038e-02
         - -1.6446487309104644e-02
         - 1.0118811090669266e-01
         - 1.2095697579245529e-01
         - -1.3530060966381726e-02
         - -4.1171299791369832e-02
         - 3.9849377569352730e-02
         - 4.2473473161651391e-02
         - 3.1609726278729039e-01
         - 8.0706269426587401e-02
         - -3.3919541452737290e-02
         - 1.7230952806268199e-01
         - 2.9662519571684778e-02
         - -4.2973736666764774e-02
         - 6.9385432146860659e-02
         - -4.0957306060842733e-02
         - -2.4130194141277964e-01
         - -2.6946438759716845e-03
         - 3.6642079578683727e-02
         - -5.2229149455665341e-02
         - -3.1553122031620973e-02
         - 2.6802724955161100e-03
         - -3.5658657812353339e-01
         - -6.7629673960025686e-04
         - 3.2592454747693039e-01
         - 3.3570705262922787e-02
         - -5.4312252331321599e-03
         - 8.1400634529113277e-03
         - -2.0828762316077536e-02
         - 2.4395432748005983e-03
         - -1.1765353637153315e-01
         - -7.8987892742069278e-03
         - -3.6151095509425017e-02
         - -4.7249874463068199e-02
         - 1.9743458226698041e-02
         - 3.4953191666593941e-02
         - 2.0570223443501925e-02
         - -4.3873892524057712e-02
         - 3.6248636637804532e-02
         - 1.1215575837572295e-02
         - 3.0566826960149913e-02
         - 4.4323734386302605e-02
         - -1.4773135477695326e-02
         - -1.4175847809089676e-01
         - -5.0305124844387948e-02
         - 3.9550147248283617e-02
         - 4.4427874775421296e-02
         - -4.4939761072025707e-02
         - -3.6544469877852627e-02
         - -4.7877739356675048e-03
         - -5.1897506569720019e-03
         - -1.5818007080796859e-01
         - 5.9119010580109405e-02
         - 1.9552310484330280e-03
         - -2.0890151774304597e-01
         - 9.4478799791708826e-03
         - -5.0239723675301841e-03
         - 3.2730984342032692e-02
         - 2.1042540164054560e-02
         - -4.6390135938731529e-03
         - -1.1850520455811033e-02
         - -4.9198115168215519e-02
         - -8.8415645961201668e-03
         - 2.6432014326512794e-03
         - 9.7174533012456391e-02
         - 6.1689907294109388e-03
         - 4.3007507195334796e-03
         - 3.3720441678111259e-03
         - -3.2749275514872564e-03
         - -1.9360500661272633e-02
         - 8.2554869413456998e-04
         - 1.1510479744420921e-02
         - -2.3633436547947626e-03
         - -3.1474277824762890e-03
         - 3.3287030600554091e-03
         - -4.0102933001470512e-03
         - 2.0002548078762991e-02
         - -3.3990146345763955e-01
         - 5.9832729117354115e-03
         - -7.8212769180242957e-03
         - 1.1168928450414031e-01
         - 1.0616152431723590e-01
         - -1.1922456580061266e-02
         - 7.8669179671510044e-03
         - 2.1661426931469727e-01
         - 4.7831999674018428e-03
         - 4.4537249121024674e-03
         - 9.9531562450352412e-02
         - -1.7608707604035365e-02
         - 4.4207300413508718e-03
         - -1.4578362227091332e-03
         - -1.1294822490576098e-02
         - 3.1087376422322757e-02
         - -5.4819744248835067e-02
         - 1.8528052238732788e-03
         - -1.2079315751426640e-02
         - 1.1301062806406763e-02
         - 2.5126014146717797e-03
         - 1.0306968443520165e-02
         - 1.6173471273690225e-03
         - -9.2378775233664407e-03
         - -2.6698903609754100e-03
         - 8.0700592612967387e-03
         - 3.6611089908504944e-02
         - -5.8076874533105571e-05
         - -9.0438564356397994e-02
         - -2.2484338380818605e-02
         - -1.0907045487564210e-02
         - -4.1511802817429116e-01
         - 1.9202230133517156e-02
         - 3.3908251252763436e-03
         - 2.2096070425727199e-02
         - -1.1405455742468358e-02
         - 1.2188403056137061e-02
         - -1.5787542779985217e-02
         - 9.1102165106466525e-03
         - -5.0066756301032720e-03
         - -2.5434737646424347e-02
         - -4.6636776462876560e-03
         - -2.6279661281596667e-03
         - 9.9102966682928072e-03
         - -4.9217004824612834e-04
         - -5.2528685072296510e-01
         - 3.2918367004316708e-03
         - 3.3014014332744562e-01
         - -8.4574375960040932e-03
         - 5.4473105999006469e-03
         - -4.5174380497603204e-03
         - 1.9616616700155326e-03
         - 9.5749149461446890e-03
         - -5.6998932972093748e-02
         - 1.1512587462618019e-04
         - 6.0276878635194230e-03
         - -2.0057418749621697e-01
         - -7.3647971366166292e-04
         - 4.0217058342203287e-02
         - 5.0685147905374130e-03
         - -2.1439159189733897e-03
         - -8.4604085578715814e-03
         - -9.2704120290872920e-03
         - -1.2750144856475557e-02
         - -1.4801696599849324e-02
         - 4.9601743421292990e-02
         - -5.1795551189419431e-01
         - 1.5099535205087044e-02
         - -1.5239900561366761e-02
         - -5.6958764491627668e-03
         - 1.3400373914559536e-02
         - 7.2434477373782835e-03
         - 4.2148587826208088e-04
         - -8.2818685264233107e-03
         - -1.4704250409897618e-01
         - 1.0550900341535059e-01
         - 9.3090650009937503e-03
         - 7.6850131358046331e-02
         - 9.4591534123908624e-03
         - -4.9804802394767611e-03
         - 7.1887659072513363e-02
         - 1.3942501694620012e-02
         - -4.6463723664552240e-03
         - -1.3237835649944300e-02
         - -2.2327209965165809e-01
         - 9.9401911229100668e-03
         - 4.9506679860975853e-03
         - -1.9028347862149270e-01
         - 6.0199441621441715e-03
         - 5.6178642530425480e-03
         - -4.3565184048230355e-03
         - -5.1256540737960096e-03
         - -5.6004544370897615e-02
         - -6.7904227787979540e-03
         - 3.0554748531819802e-03
         - 2.9973097450759077e-03
         - -1.6131993809025069e-03
         - 5.6981878914380071e-03
         - -5.9329979079900050e-03
         - 7.6670931019872856e-03
         - 2.2197772108512392e-01
         - -7.3199117835480026e-03
         - -3.0388684637363173e-03
         - 4.4443862576569751e-02
         - 1.6133962639690032e-02
         - -6.4938941453022330e-03
         - -6.1601201257565817e-02
         - -2.3324738520564683e-01
         - -1.5621519377615534e-03
         - 6.2649960126027874e-04
         - -1.4773190684041471e-01
         - -1.7495954351844867e-02
         - 2.3060044842074957e-03
         - 3.5263808920404883e-03
         - -2.2332883775677957e-02
         - 1.7307648033171141e-01
         - -2.0039031846478834e-02
         - 9.5278504254790210e-04
         - -4.4291345943488266e-03
         - 1.0839540071482056e-02
         - -4.6395747235815382e-02
         - 1.2621491683464863e-02
         - -8.8623663285759824e-04
         - -1.0923487534562812e-02
         - 3.0908107688764766e-03
         - 8.8828815560517208e-03
         - -1.6695344964981601e-01
         - 5.8135409493524420e-03
         - 1.2532597086303589e-02
         - -2.6450900626030470e-02
         - 1.4949663755879555e-02
         - 3.1084496362441494e-01
         - 4.9658135331562075e-02
         - 4.2192186324849310e-03
         - -1.4435542905442858e-01
         - -4.4477347821210442e-03
         - -4.6605552905352116e-03
         - 1.8547772415987672e-02
         - 9.5347113806741324e-03
         - 2.0222905652611231e-01
         - 1.7551294300394905e-02
         - 9.7639902384860713e-03
         - -1.0663017755257697e-02
         - -1.4931925671054030e-03
         - -7.2158756119069809e-03
         - 1.8874693299549944e-01
         - 5.5831752502225763e-03
         - 2.1170466001741600e-01
         - -1.0722758293631613e-02
         - 5.4809948049572305e-03
         - 3.8996983909171021e-03
         - -1.6976245823707187e-03
         - 2.3983169800141087e-03
         - -2.6013842113748187e-01
         - 1.3060824176605503e-03
         - 8.9387225974436376e-03
         - -1.7703494981490497e-02
         - -8.3907017637148262e-03
         - 7.7387246309732718e-02
         - 4.1934024949725522e-03
         - -3.8195991712086358e-01
         - 1.4829781711370670e-04
         - -4.6596936607777549e-03
         - -7.9864841565474385e-03
         - -7.2792236563522473e-03
         - 1.7029619961411460e-02
         - -2.1125631934345016e-01
         - 8.5759350949236174e-03
         - -1.0033528795171769e-02
         - -4.6050755208868555e-03
         - -4.3167314131826460e-03
         - 2.6058839042562144e-03
         - 5.3154089678983862e-03
         - -8.7006471147362398e-04
         - -1.1949280557196388e-02
         - 1.9232856060071687e-01
         - -1.2168750736591320e-03
         - 9.2464484635061905e-02
         - -3.7684459602760666e-03
         - 1.9012217092351487e-03
         - 6.1805146836206278e-04
         - -1.2753896228103001e-02
         - 2.9221784404780014e-03
         - 7.6867220798885394e-03
         - -3.6771370711979036e-02
         - 4.3002126508888433e-02
         - -1.2977774379186905e-02
         - 3.0200630611522533e-01
         - -7.1045721231448875e-03
         - 6.8480884994666586e-03
         - -3.4795827302051604e-03
         - 2.0880319600895237e-03
         - -3.1907875004273680e-03
         - -2.4466407353680823e-03
         - -3.6361585404931689e-03
         - -6.7805152707699915e-03
         - 5.8450846970613908e-03
         - 1.1080257199407667e-04
         - -2.2462023776567584e-03
         - -1.4989108846020926e-02
         - 1.6772936323924786e-01
         - -1.7077495817583897e-03
         - -1.2585803248856011e-03
         - 2.1541520373785095e-01
         - 3.1084196443067272e-02
         - 2.4963300354114305e-03
         - -1.7341254897508502e-02
         - -2.0918377427844032e-01
         - -9.9585038508849723e-03
         - 3.4179459277632442e-03
         - -2.3878325223898761e-01
         - -7.0867168731303498e-02
         - -2.8896016584277107e-03
         - -4.7807788747492178e-03
         - -7.3016286830458008e-02
         - 2.3156399023633013e-02
         - 2.9783619302604036e-01
         - -3.7174904159752516e-03
         - 8.4986502724691444e-03
         - -8.9885586439081757e-03
         - -1.4263176073661848e-02
         - -3.7078333264417727e-03
         - -5.9673468856022141e-03
         - -6.8947014609712634e-04
         - 3.5508965948207473e-03
         - 3.9072409733538038e-02
         - 7.7845390283929464e-02
         - -5.3878028493684537e-03
         - 1.8760688483871532e-01
         - -7.5024756367993118e-03
         - 1.5062231639719207e-02
         - 1.6073777485686061e-01
         - 8.2119001415508680e-02
         - -9.7649826162425745e-03
         - 4.9000291219877201e-02
         - 8.3712416012708141e-03
         - -1.0149203775959938e-02
         - 8.4326444143827922e-02
         - -5.3161724526743873e-05
         - 4.9744275685615308e-01
         - 2.9976853584302587e-02
         - 1.9599132920335511e-02
         - -2.2385883050944112e-02
         - -4.8635089539293894e-03
         - 4.9635699085479592e-03
         - 3.4596167052984522e-01
         - -1.5090317938116838e-03
         - -1.6652989919677279e-02
         - -2.5251766245011848e-03
         - 1.0512375369985862e-03
         - 1.9171541789411572e-03
         - -1.2931351512615642e-02
         - -4.5861940509468223e-03
         - 1.1525988196514954e-01
         - 3.4031862868571512e-03
         - -3.0069343473547640e-03
         - -3.0575392075672701e-02
         - 1.9515707451826900e-03
         - 5.9157604701164171e-02
         - 1.5536140861016571e-02
         - 3.2227039620155468e-01
         - 2.0080305290717065e-02
         - 3.6530989238239115e-03
         - -2.7473083523068182e-03
         - 2.2079747003289050e-02
         - -6.7823707514903624e-04
         - 5.3797783708419970e-02
         - 3.0957892335587759e-03
         - 3.6396240928317823e-03
         - 1.0725953715180814e-02
         - -6.7270087509968364e-03
         - -8.7094048010258277e-03
         - 1.6092642464412795e-03
         - -2.2626897932163211e-02
         - 1.7291821143987970e-02
         - 1.2933888470678276e-01
         - 1.4035041004181228e-02
         - -2.7067863215665866e-01
         - 6.5972464855040373e-03
         - -2.3552512509748956e-02
         - -3.7135818585287091e-02
         - 2.2443758642833378e-02
         - -1.8551319063179431e-02
         - -2.3167331005747114e-02
         - 6.0814429191963015e-01
         - -2.2709102229957735e-02
         - -9.1369732128066851e-04
         - 6.6167631928543509e-03
         - 1.2768062663928912e-02
         - -7.6985510617923756e-03
         - 7.2228504970413563e-03
         - -1.8303341554435162e-02
         - 1.7105979835760402e-02
         - -2.8822029709421981e-03
         - 2.2503627813814025e-02
         - -1.9497730926856974e-03
         - -1.7163682018776279e-02
         - 7.3961895784751992e-03
         - -1.2581717117561338e-02
         - 2.1304547792780123e-02
         - -6.1771762406577203e-02
         - 2.2790580225498312e-02
         - -5.9249843172998863e-03
         - -2.3951645826858545e-01
         - -7.3706606334448060e-02
         - -2.5799413529550310e-02
         - 1.3090785119272835e-02
         - -3.0232041269114551e-02
         - 1.0256560712754190e-02
         - -6.4286944779800583e-04
         - -2.4947587668676394e-01
         - 1.3179585367384264e-01
         - -6.9501599950162812e-03
         - 2.6173561594089364e-04
         - 3.9911473723710435e-02
         - -2.3592212736312196e-01
         - -7.1779276227195932e-02
         - -6.4486353211317901e-04
         - -1.8863368230430767e-02
         - 2.3800217632750073e-02
         - 1.2253336639728152e-02
         - 1.3386117694805971e-02
         - 4.2885173699892983e-03
         - -1.6692412771397561e-02
         - 6.9001737729144728e-03
         - -3.6526519567042941e-02
         - 2.4410803837921724e-01
         - 5.8842911523458398e-03
         - 8.9049696490491687e-02
         - -3.8144678372162483e-02
         - -2.2370673788060277e-02
         - 2.7468508725018492e-01
         - -5.3000818251087795e-02
         - 1.5371467065164545e-02
         - 1.1016700620110595e-01
         - -1.0511461245866683e-02
         - 2.3818896160831517e-02
         - -3.6990700132391363e-02
         - 2.4222796635576412e-02
         - 1.6886051843525027e-01
         - 2.8756380604827377e-02
         - -2.1447156291538854e-02
         - 4.0757029380656201e-02
         - 1.6367088867910783e-02
         - -1.4704157611958983e-03
         - -2.2123622363447637e-01
         - 9.7868807052612188e-03
         - -1.6647064393622155e-01
         - -2.5531609465384547e-02
         - 6.3164610026380493e-03
         - 1.3210618672557714e-03
         - 2.1243877982737146e-02
         - -4.6822636799814443e-03
         - -4.9139629873203262e-03
         - 7.6798946167298482e-03
         - 2.4490327503459017e-02
         - -8.2945176323101624e-02
         - -8.6068246766351185e-03
         - -5.7126883273163710e-02
         - -7.1958611791000781e-03
         - 4.7667705076222179e-02
         - -2.9709313358510611e-02
         - -5.5558112996286586e-03
         - -2.4135839485257549e-02
         - -2.6561716199693480e-02
         - 2.5188753203038081e-02
         - 2.1488009307914301e-02
         - 2.7512999326336232e-02
         - -2.3771274307644977e-02
         - -3.0692425760575529e-02
         - 3.8370529169588358e-02
         - 2.2788803546278026e-02
         - 4.3605769434598126e-03
         - -3.8431711648575569e-02
         - -3.6926500077781987e-01
         - 1.1021628339952354e-01
         - 2.8783020260622454e-02
         - -4.6093732604279064e-01
         - 1.8083969858334034e-02
         - -3.6611793320686932e-02
         - -4.4893227461264278e-02
         - 4.3917034266794094e-02
         - -2.9583133417577290e-02
         - -3.8727926349330775e-02
         - -3.7130009999330316e-01
         - -5.2336801301860712e-02
         - -2.8562828647459054e-03
         - 2.2568046937982206e-01
         - 1.1755241583981927e-02
         - -2.2799437450072499e-02
         - -1.9218067868989521e-03
         - -2.8445353197975268e-02
         - 5.2693999026864724e-02
         - -1.3888176871749100e-02
         - 4.6287900254985623e-02
         - 6.4885545447510998e-03
         - -3.7944094994902283e-02
         - 2.8256014458149896e-03
         - -2.1072271770308695e-02
         - 5.1755840195807236e-02
         - -1.8868340136107095e-01
         - 5.4970294673194885e-02
         - -9.8449606998189353e-03
         - -3.4708510975238399e-01
         - 1.9570933351109040e-02
         - -4.3570808207909546e-02
         - 8.0496277505467576e-02
         - 3.3230125581809317e-01
         - 2.4534626842980273e-02
         - 6.1797440785228393e-03
         - -1.7014644609194099e-01
         - 4.5806555620965400e-01
         - -5.1577424021068945e-03
         - 8.8953170825412271e-03
         - -1.9742556464718234e-02
         - 8.3828956153238779e-02
         - 6.4577514718068690e-02
         - 1.5851666981355823e-02
         - -2.7585709948650599e-02
         - 4.8090456506407218e-02
         - 6.4676195449271320e-02
         - 2.9547704901554245e-02
         - 6.2452214029099567e-03
         - -3.3619430549161625e-02
         - 1.6199500618402866e-02
         - -7.1120054335667787e-02
         - 1.3784644829589379e-01
         - 1.6151492834941918e-02
         - 3.2416112197239237e-03
         - -6.0785833870559185e-02
         - -6.0437305302485096e-02
         - 1.0060186538448378e-01
         - -2.4579805858258759e-02
         - 4.1349053258566214e-02
         - -1.4008086342290901e-01
         - -1.8384679068247603e-02
         - 5.1706058472783215e-02
         - -7.9208948577094040e-02
         - 4.3550177538638275e-02
         - 3.7646959280198528e-01
         - 2.0329370714684627e-02
         - -5.3893275559887405e-02
         - 5.9001429497128444e-02
         - 3.1790650534551074e-02
         - -7.0954683126864468e-03
         - -2.2443465212882190e-02
         - 8.1242327336811214e-03
         - 2.9243473982300733e-04
         - -4.2927915328871608e-02
         - 5.0158361430942024e-03
         - -5.5146769669237846e-03
         - 3.8712707868266437e-02
         - 1.6581755307120151e-03
         - 2.3120958075466304e-02
         - 9.3970399286156265e-03
         - 3.9530254400181798e-02
         - -1.3712707263354915e-01
         - -1.3019224112972294e-02
         - 4.8189767151100855e-02
         - -1.9009809821443568e-02
         - -1.9804128694618974e-03
         - -6.2512245121948570e-02
         - -1.4477660246654964e-02
         - -5.2104850008311977e-02
         - -6.7624187025658825e-02
         - 5.5620372637494503e-02
         - -2.1665078667909444e-02
         - 5.1295841532355196e-02
         - -4.4854787022919347e-02
         - -4.9431595342336675e-02
         - 9.4156766854641610e-02
         - 4.9035598829606439e-02
         - -2.3426521117072782e-03
         - -3.5241504757495246e-03
         - 4.4121525182304062e-02
         - -1.9533050470771432e-01
         - 1.1550932292380809e-02
         - -1.0016838360093681e-01
         - 4.4385231185218449e-03
         - -1.3254267402126546e-02
         - -1.4873794768226414e-01
         - 1.8059268618736896e-03
         - -1.2862193044054313e-02
         - 6.4023241358368164e-04
         - -1.3997669225607415e-01
         - -1.8441632944124091e-02
         - 4.2248182972107777e-03
         - -2.5224504733789321e-01
         - -1.2843925789519752e-03
         - -1.0389174770107668e-02
         - 3.6480989888149902e-03
         - -3.2485836997093978e-03
         - 5.4818964987639905e-02
         - 2.8796901054180726e-03
         - 3.4821214208201638e-03
         - 6.5652579100318941e-03
         - -8.9900832608002298e-03
         - -3.0243608150871772e-03
         - -7.5177935640654012e-03
         - 1.1316399381555547e-02
         - -3.7478128681273044e-02
         - 2.1191141960870477e-02
         - 1.3321717623766491e-04
         - -1.9283479560572089e-01
         - 1.9699953419664289e-02
         - -1.3215795075307894e-02
         - 6.6628882558249239e-02
         - 9.6340535347256895e-02
         - 5.3368142693167187e-03
         - -2.1328477536553445e-04
         - 6.8378167617659649e-02
         - -2.7710528177034222e-01
         - -8.7929927082624117e-03
         - 1.8701057299958391e-03
         - 9.9523227948321129e-03
         - 1.2878177641687907e-01
         - -1.1804893284920473e-01
         - 4.9325574205448617e-03
         - -4.6661780862314517e-03
         - 1.4204336751366194e-03
         - 5.9699756444659538e-02
         - 1.1046256817377996e-02
         - 3.3923869490104877e-04
         - -4.4628746443324385e-03
         - 9.5556874562355634e-03
         - -2.6477130574254718e-02
         - 1.4085364816901427e-01
         - 1.4931790725848893e-03
         - -1.9102963968006745e-02
         - -7.4624788290412504e-03
         - -2.9612203345624335e-02
         - 1.6557686087589907e-01
         - -2.3846561253127837e-02
         - 7.6873965305918864e-03
         - -3.7068349002917347e-02
         - -5.9618387763559115e-03
         - 1.7825027226229164e-02
         - -2.0130834901266517e-01
         - 3.4735380723619740e-03
         - -3.0374085459036460e-02
         - -7.8398716275598392e-03
         - -1.5165477158875791e-02
         - 1.7329292810269587e-02
         - 6.8480201084636953e-03
         - -8.5313118840684848e-03
         - 3.6681772654983547e-01
         - 5.6407988976884876e-03
         - 2.8191082285163671e-01
         - -1.1177312509985661e-02
         - -5.1214751919433713e-03
         - -2.6476645109460347e-03
         - 2.3505132379805474e-03
         - -6.7905870653653597e-03
         - -7.5614704712517827e-02
         - -1.0276593979344712e-03
         - 1.8006031493534287e-03
         - -2.5832712031120600e-02
         - -6.5373653466440683e-03
         - -4.1309269665729172e-03
         - -1.3004708028776145e-02
         - -4.3490976184387645e-02
         - -1.9517915112644182e-02
         - -2.1413981850632187e-03
         - -1.9525065349199879e-02
         - -3.9158305585314954e-02
         - 1.3718113633398882e-03
         - -1.6037821407000971e-01
         - 2.7097252834459105e-02
         - -5.3047152486867038e-03
         - -1.8618671355490272e-02
         - 2.1634062756768681e-02
         - 6.2526992299910154e-03
         - 4.6788158799951161e-03
         - -1.6442649164543754e-03
         - -2.6220949020232143e-01
         - -1.6692911133270025e-01
         - -1.1041747681549644e-03
         - 1.2453668179581047e-01
         - -5.8284872437442447e-03
         - 6.9864749674268941e-03
         - -9.3785174607094443e-02
         - -1.8070219739538537e-02
         - -1.0064751559421519e-03
         - 6.3579316900220411e-03
         - -8.5771175931985980e-02
         - -1.2641577120362473e-02
         - 2.1483358936556219e-02
         - -6.5332659669079418e-02
         - -5.8993195019861012e-03
         - -1.5390090776993484e-02
         - -3.3869251775958914e-03
         - -1.0517150291990914e-03
         - 3.1120293071270330e-02
         - -3.8081441920379475e-03
         - 2.3478422764298252e-04
         - 2.8285016897654771e-03
         - -6.7298109900718996e-03
         - -1.0538106199760240e-02
         - 5.2737836998099684e-03
         - -5.5027273049074637e-03
         - -1.4559494411569099e-01
         - -8.4534985578654418e-04
         - -7.4615165017684164e-04
         - 1.4136474294949372e-01
         - -1.2642130145152175e-01
         - -4.4908730168556560e-03
         - -1.2600115988355542e-02
         - 3.0757519254176469e-01
         - -5.3355879909072366e-03
         - 2.9782108830691098e-03
         - 5.6244333319284065e-02
         - -3.3802848672100239e-01
         - 2.4470755106078164e-03
         - -4.5098925594088549e-03
         - 9.6954892152719303e-03
         - 1.4733964762474205e-01
         - -8.6296589574910182e-02
         - 7.2299778558677042e-03
         - 6.5778236584988752e-03
         - 1.0221935597495904e-03
         - 1.2582976081141320e-02
         - -8.2273806417912062e-04
         - -1.1474454487072877e-03
         - 4.3226098884653060e-04
         - 9.3717283241436921e-03
         - 2.1537388191497794e-02
         - 1.9100296789447063e-01
         - 4.5526289259274549e-03
         - 3.1344313084604281e-01
         - 2.1980808794747026e-02
         - -4.5549757419344351e-03
         - 1.1596938962183986e-01
         - -7.7063788554788612e-02
         - -1.5348210044432932e-03
         - 2.1628997933210950e-01
         - 3.7726951226043008e-03
         - 6.5453536514414889e-04
         - -2.0302088609747795e-01
         - -7.8647523020179497e-03
         - -3.2648429343670343e-01
         - 9.0624856294528766e-02
         - -8.8038637980644169e-03
         - 6.7657139386332896e-03
         - -2.6683801437184028e-03
         - -4.3102208107389996e-04
         - -1.3305525375476668e-01
         - -1.5589351078291994e-04
         - 6.9422719404707733e-02
         - 1.0197468976379969e-02
         - -3.5388727819857294e-03
         - -3.6426611648940682e-03
         - 6.6126693952328281e-03
         - -3.0339478049085928e-03
         - 2.5204042501386464e-01
         - -3.8445436527466468e-03
         - -7.3501157927562035e-03
         - 6.7916385100292881e-02
         - 7.1923471200502414e-03
         - -3.4604365529564807e-02
         - -1.2644752106175057e-02
         - -2.6497432301581675e-01
         - -5.3514499323950452e-03
         - 2.1335827576278912e-03
         - 6.6781458853180042e-04
         - -2.0618902204629017e-02
         - -2.6016792212000497e-02
         - 3.1641907822476528e-02
         - 1.4735308084554677e-03
         - -1.4675516809248576e-03
         - 6.2482386571503989e-03
         - 2.3291939420328378e-03
         - 3.0537646015593649e-03
         - 3.3467063977655098e-03
         - -1.4791826341438946e-02
         - -1.3346343970193925e-01
         - -2.9956665997781302e-02
         - 1.0664007549250704e-02
         - -7.0652735228290006e-02
         - 7.6699860730543804e-03
         - -1.1335289828256495e-02
         - 8.9373771005587785e-02
         - 1.5229254096265998e-02
         - -6.0883556388917947e-03
         - -8.1760439535467720e-03
         - -2.5378562270373130e-02
         - -9.7771688625929477e-03
         - 2.1557256485746787e-02
         - -2.4102727974574739e-01
         - 7.6012209669476041e-03
         - -2.3246746321522006e-02
         - -1.8288187391177410e-03
         - -3.7347779179995166e-03
         - 1.6378173008541595e-03
         - 3.0772709080836309e-03
         - 1.3538924856217445e-02
         - -3.0481729673880941e-03
         - -1.9203562020741180e-02
         - 9.4472835108373710e-04
         - 5.0917927938693101e-03
         - 2.0491179144822420e-02
         - -2.5922396851273877e-01
         - 1.6802300390765607e-02
         - 4.9287506330577581e-05
         - -5.9273155766419845e-02
         - 8.9978355270704746e-02
         - -1.8387733353096205e-02
         - -1.1683814026799133e-02
         - -1.2583293532033818e-01
         - 1.0513734399115904e-02
         - 2.6926676548344342e-03
         - -1.4022485942943122e-01
         - -5.5783008924941729e-02
         - 1.3961246010882190e-04
         - -2.0421238504097439e-06
         - 2.5611146606053171e-02
         - -2.2554358241500255e-01
         - 1.1740809049431722e-01
         - 7.1891010403345576e-03
         - -8.9421262898385489e-03
         - 2.5544204401424218e-02
         - -3.2813335445149881e-02
         - 2.7697798955177589e-03
         - -2.7301607241622672e-03
         - -1.5192540090923690e-02
         - 2.7063596844007958e-03
         - 9.3454733792136327e-03
         - 1.4864290962747467e-01
         - -5.9289542105980103e-04
         - 5.6283283421876572e-02
         - -1.0088292491740912e-02
         - -2.5318018639579963e-02
         - 9.4057515571224312e-02
         - 8.2659224719215186e-04
         - 1.4794116642319088e-02
         - -3.2610395551890303e-01
         - -7.7900727645980215e-03
         - 9.1775312294968200e-03
         - -8.2025705132315399e-02
         - 1.0588343031702597e-02
         - -5.8226431400959944e-03
         - 3.9667611777037773e-02
         - -4.0817537020943505e-02
         - 2.3503558445525190e-02
         - 4.6048720876771809e-03
         - 1.5835416139763209e-03
         - -2.1674937159625896e-01
         - 1.9018214513535638e-03
         - 1.4395168834181113e-01
         - -2.0435354980289568e-02
         - 2.7443120552452468e-03
         - -2.0884346960392697e-03
         - 2.9914787592246132e-02
         - 7.7172734381497632e-03
         - -3.4918626488923132e-01
         - 5.0455816695119801e-03
         - 1.8231700474252457e-02
         - -2.3888583894547646e-02
         - -6.8624736684790860e-05
         - -1.4339078987187151e-01
         - -4.4673044217193392e-03
         - 3.3290712828663513e-03
         - -3.2361459954893416e-02
         - -1.1313035595167210e-02
         - -2.3137927984591695e-02
         - -2.3207962911654879e-02
         - 8.2609342697298766e-03
         - 7.1068108525124893e-03
         - -6.9334285965886233e-03
         - -1.6205980271342856e-02
         - -1.6445717858848803e-02
         - 3.5054876361727653e-02
         - 1.7665064383903476e-02
         - -2.4148928785801002e-03
         - 3.8670615333940929e-02
         - 1.0292580343933305e-01
         - -4.1388296556901974e-02
         - -2.4827274473885566e-02
         - -1.6375633533268710e-01
         - -1.7326125755134425e-02
         - 3.1448927600679216e-02
         - 1.1705673609800962e-01
         - -4.0204764001918872e-02
         - 2.6700958414316734e-02
         - 6.1741310710264397e-02
         - -2.7004545702706062e-01
         - 6.4209381668348442e-02
         - 1.1916531099218889e-02
         - -1.3694293527038603e-01
         - -6.7474209568885602e-03
         - 2.5699614380523626e-02
         - 5.6853131198111358e-03
         - 2.8372209876031469e-02
         - -5.8873446922989965e-02
         - 1.3900433988608945e-02
         - -4.1148008469949260e-02
         - -3.4048660376886199e-03
         - 3.4327163352551635e-02
         - -5.9642014809154591e-03
         - 2.6973375262718292e-02
         - -5.3572133261561940e-02
         - 1.7457399657374953e-01
         - -3.6623128358472153e-02
         - 1.4785493148942966e-02
         - 2.3415417086202225e-01
         - 1.0145876970844388e-01
         - 4.7563746213854043e-02
         - -5.3953937560533842e-02
         - -7.4913596552284911e-02
         - -3.3705976961722728e-02
         - -3.7167464000458701e-03
         - 1.2020299914105245e-01
         - 1.0793910740253780e-01
         - 7.4860728554065519e-03
         - -3.0643829166062501e-03
         - -1.3997611137966870e-01
         - -1.2391367377712628e-01
         - -2.4787862858599041e-01
         - -1.4275960917936235e-02
         - 2.4213070375543322e-02
         - -3.9107888120769853e-02
         - -5.8145375270256844e-02
         - -2.5893614096932284e-02
         - -7.4041136969201738e-03
         - 2.5329620883587204e-02
         - -1.6539865288994666e-02
         - 9.5981170491742360e-02
         - -1.5564524280799374e-01
         - -9.8058975708090346e-03
         - 8.3237615328015137e-03
         - 5.7075665985092602e-02
         - 6.2725291327300176e-02
         - -3.4960289011578966e-01
         - 8.5988297634391586e-02
         - -3.6530081651504329e-02
         - 2.7414024813221155e-01
         - 2.4700819829497334e-02
         - -5.5890473125279873e-02
         - 1.7768332042487865e-02
         - -4.7127116395780065e-02
         - -1.6584714453645244e-01
         - -1.7033342389682814e-02
         - 5.2567011898069595e-02
         - -7.4051620856382117e-02
         - -2.9088965552820586e-02
         - 1.2426216209271351e-02
         - -1.3707943450821668e-02
         - -1.2352876260231007e-02
         - -1.7292999548015306e-01
         - 4.5373171314927449e-02
         - -1.3635331397329885e-03
         - 4.6097639366868047e-03
         - -2.6320738105855362e-02
         - 3.5070183421529342e-03
         - -2.9058858709929886e-01
         - -1.1598739089074694e-02
         - -4.2384472708434102e-02
         - -7.6689431108614925e-02
         - 1.7515228335563703e-02
         - 1.1017221383507408e-01
         - 2.3635271313245530e-02
         - 2.6133465509706300e-01
         - 5.2899094041923986e-02
         - 1.5809986920032135e-02
         - 4.7114213191618515e-02
         - 3.9206384104440974e-02
         - -1.0778096173065129e-02
         - -1.7473569643491442e-02
         - -5.1586393217815850e-02
         - 4.3886254637844721e-02
         - 5.7829777592929087e-02
         - -5.4458705000280778e-02
         - -4.6155356887721356e-02
         - -7.7279664461820862e-03
         - 1.5836731506007075e-03
         - 2.1806811332352258e-01
         - 9.7972175891629390e-02
         - -1.8098449490631821e-03
         - -1.5413334250253671e-01
         - 5.4563731680032056e-03
         - -1.0611503993966139e-03
         - -3.9898954209280593e-02
         - 1.1358979437360949e-02
         - -3.6744781306461971e-03
         - -8.9791893726871991e-03
         - -4.6331762963918294e-01
         - 2.2296078522879118e-05
         - 1.1120844281747861e-02
         - 6.0182014488750759e-03
         - -5.9654200798326708e-04
         - -2.5202531576371113e-03
         - 8.2038996690398502e-03
         - -6.2297152263792923e-03
         - -1.8536340722769575e-02
         - 4.7628715481838734e-03
         - 1.2101630235250700e-02
         - 2.8275127439890357e-03
         - -3.0936931484969034e-03
         - 4.2313311123055300e-03
         - -4.4508903313100288e-03
         - 1.5476217448435386e-02
         - -3.0361767884809809e-01
         - -1.9485284285413341e-04
         - 2.3291811391400702e-03
         - -2.2203582093390581e-01
         - -4.1449935245558865e-02
         - -8.4691308423447548e-03
         - -1.5298162115979454e-02
         - 4.3854537819933181e-01
         - 6.7323465250693814e-03
         - -2.3859565349049969e-03
         - 6.2314688967572820e-02
         - 9.2711659372468905e-02
         - 3.4256069014101066e-03
         - -6.9837079554651233e-03
         - -2.5143672462032720e-02
         - -3.1786008209980704e-02
         - -9.2749623724265838e-03
         - -7.6338189753176445e-04
         - -9.6965536126393734e-03
         - 6.9254300021644203e-03
         - -1.1946849506685753e-02
         - 1.1606279982414413e-02
         - -4.7561376381264463e-03
         - -1.7292895602154899e-04
         - -3.2023610715245046e-03
         - 2.8389660233989283e-03
         - -2.6686307230164757e-01
         - 8.0951141612528310e-03
         - -1.6047934551774140e-01
         - -1.3764161436313626e-02
         - -2.6979981612547740e-04
         - -3.7623370538198787e-02
         - 1.0878876733617709e-02
         - 4.2969127623731368e-03
         - 1.7455164335993861e-01
         - -5.4487539454111666e-03
         - 5.0899918959708646e-03
         - -1.9312981152022332e-01
         - 1.4443272546715574e-02
         - -3.0834760485804580e-01
         - -1.7202635738253463e-02
         - -9.1550778119211321e-03
         - 3.7500281231019096e-03
         - 9.1375313439914611e-03
         - 5.7247562339086963e-03
         - 3.1875379220346745e-01
         - 6.0594734754734854e-03
         - 2.2271631122546512e-01
         - -5.9508747012672275e-03
         - 4.1889485688171024e-03
         - 4.4217915827000753e-03
         - 9.0315341191715484e-03
         - 5.3858218780517310e-03
         - 1.5365419826589304e-02
         - 5.3625994412126576e-03
         - 1.0365498309030418e-02
         - -2.7291758454603028e-02
         - -6.3167563254204022e-03
         - 1.7696297868906802e-03
         - 8.9176327448024732e-03
         - 2.4214457703767907e-02
         - -4.8255392223725147e-03
         - 2.2127542116049089e-03
         - -3.1634397823600688e-03
         - -3.9875399266186787e-02
         - 3.4333999294774327e-02
         - -2.7841186631068698e-01
         - 4.4816227257088483e-03
         - -5.6278788444260794e-04
         - -1.0550390837189359e-02
         - 8.5222941716090548e-03
         - 1.3939367779675270e-02
         - -2.8503793705651143e-03
         - 1.6662110741569258e-02
         - 9.2990624667604077e-02
         - -2.5763164290319818e-02
         - -1.1555824902974911e-02
         - 4.0419114895050678e-01
         - -3.5707859426086642e-03
         - 1.5369964089560564e-02
         - 1.6294295552335084e-01
         - -1.6524023929113837e-02
         - 8.9314294444288421e-03
         - 2.3741072570078962e-02
         - -3.0258238965174787e-02
         - 4.4360984410986445e-02
         - -1.1399110647156627e-02
         - 6.5777453424410201e-02
         - -9.6567584644875314e-03
         - 2.4740897981283757e-02
         - 1.7990331329924740e-03
         - 1.3185437912551464e-02
         - -1.1868195849006730e-01
         - 7.1822559070760794e-03
         - -2.3365214261306496e-02
         - -6.9474608842747358e-03
         - 1.1372052357179748e-02
         - 5.4072697287533044e-03
         - 6.3891904873662354e-03
         - -2.1064310577354740e-02
         - -2.7022046670144956e-01
         - -3.1250097605032397e-02
         - 6.1193241827991645e-03
         - -9.8513921671974800e-02
         - -1.0930511761541463e-01
         - 2.6827493192138431e-02
         - -1.4511018271142181e-01
         - -2.7095323121190346e-01
         - -1.7115239189193318e-02
         - -1.8748065627530988e-03
         - -8.9684592047110559e-02
         - 2.9838952728112089e-01
         - 3.2654516837345485e-03
         - -9.3956443801997125e-04
         - -4.0664244135273600e-02
         - 1.4925051589084459e-01
         - 2.8472167162955798e-02
         - -5.8429619202328090e-03
         - 1.0589126859057534e-02
         - -2.1185520725309628e-02
         - -1.3181128942299120e-01
         - -4.0569317667763618e-03
         - -2.7938189271500967e-03
         - 5.1971889799584219e-03
         - -1.0485568976433038e-02
         - 3.7938003225369089e-02
         - -1.5762723600493059e-01
         - -7.5833230386282025e-03
         - -9.0660127219742093e-02
         - 1.9161860467630167e-02
         - 5.6236132430194201e-02
         - -3.1149615181391671e-02
         - 6.3647434737383934e-02
         - -1.5378409929036399e-02
         - -1.0711448253140295e-01
         - 1.0060517031097616e-02
         - -2.7711244477373356e-02
         - -8.9942978046563399e-03
         - -1.6094139209649156e-02
         - -2.7729714955751750e-01
         - -4.2332021457777883e-02
         - 5.0857482346192397e-02
         - -2.6218644770708607e-02
         - -1.6305361282732845e-02
         - -8.9385853744658320e-04
         - 2.9451484468356137e-01
         - -3.9058625419996001e-03
         - 1.9126198063611885e-01
         - 1.2675711303798238e-02
         - 3.0626552275320514e-03
         - 1.6290874411178135e-04
         - -2.4289991297583993e-02
         - -2.3126844889422705e-03
         - -1.7164284672372473e-01
         - -9.4938731668943732e-03
         - -1.5286300670143384e-02
         - 1.0099036030984390e-01
         - 1.2140835640856683e-02
         - 8.8054829639075835e-02
         - 2.7386441780351795e-02
         - -1.8015059582649537e-01
         - 4.2736549323843138e-02
         - 1.9904084110948499e-03
         - 3.1200431157586288e-02
         - 1.2230370559986534e-02
         - -1.0593037052671272e-03
         - -1.9094206426225591e-01
         - -2.6372615798131285e-02
         - 1.6558264912364836e-02
         - 2.6833487215367154e-02
         - -4.8196783638862373e-02
         - -1.6561478896468380e-02
         - -5.6902356788148785e-03
         - 4.4049405804745595e-03
         - 2.1549521886824050e-01
         - 2.3652828516136018e-01
         - -3.8118260733628765e-03
         - -1.1738286335367985e-01
         - -1.0892318209277697e-02
         - 4.0784609875152422e-03
         - 6.0684779745263512e-02
         - -3.9933363060445171e-03
         - 3.4368850157410979e-03
         - -1.8538430394671276e-02
         - 1.0221920498431711e-02
         - -4.3407016016625147e-03
         - -2.4727904868658043e-02
         - 2.1104711576336757e-01
         - -1.0089288742588460e-02
         - 9.8077043986323324e-03
         - -3.1370227580218937e-04
         - -1.7820616558934345e-03
         - -8.1657839850314093e-02
         - -3.3733591825132006e-03
         - -1.0692828320912489e-02
         - -7.8667754127025973e-03
         - 5.4515140495984046e-03
         - 4.9075243077534476e-03
         - -4.3179724632363666e-03
         - -5.9842474650864353e-03
         - -3.1392475712958706e-01
         - -1.8310271572900091e-02
         - 3.6826063369514825e-03
         - 4.5359745489407334e-02
         - -3.7444124937705575e-02
         - 1.8440606243794136e-02
         - -1.0385127190086474e-01
         - -3.3652427105682242e-01
         - -1.4187120260002545e-02
         - -2.9752901716190400e-03
         - -1.4403608608144172e-01
         - 3.2021013910738777e-01
         - -3.6157489773338413e-03
         - -2.6595702502376574e-03
         - -7.2334767879327494e-02
         - -8.2890123276638278e-02
         - -1.5395175055855792e-01
         - -4.2300321536008646e-03
         - 7.0589886445459214e-03
         - -1.5525680078470569e-02
         - -1.0295191473822425e-01
         - -8.3745855038962758e-03
         - 1.1281172716420043e-03
         - 5.1016586250443516e-03
         - -1.0332533465621373e-03
         - 9.8042041078021704e-03
         - 8.4349407081803787e-02
         - -2.1706152972036379e-03
         - 1.8887652701267107e-01
         - 8.2726972379019059e-04
         - 4.1831603678735618e-02
         - -1.3530645455593231e-02
         - -1.5951877663188507e-02
         - -8.3422749049970654e-03
         - 3.4707450668604138e-02
         - -2.5586123069575685e-04
         - -2.2743471000183157e-02
         - -7.3203910023795157e-02
         - -9.2819570008448090e-03
         - 2.7248871303114902e-01
         - 2.8783521265150158e-02
         - 3.0985357171529022e-02
         - 2.6321407922690991e-03
         - -5.5954079201037017e-03
         - -5.4682335774310399e-03
         - 2.8276158473423386e-02
         - -2.0495070398011419e-03
         - -8.2681669514021103e-03
         - 1.1436485682086852e-02
         - 3.0786097588257856e-03
         - 8.9653915934061841e-04
         - -2.0883066638670175e-02
         - -1.4463127151428843e-03
         - 9.1156962955524862e-02
         - -4.3076360658126835e-03
         - -5.8561559280831633e-03
         - 1.9364542728536405e-03
         - 8.3820188583332636e-03
         - 6.6971479752071308e-02
         - 2.2017020075989428e-02
         - 3.0735651578310208e-01
         - 3.2650178884511237e-02
         - 5.3675823853302626e-03
         - 2.0446081695594056e-02
         - -8.4947305359769736e-03
         - 4.3634248990089830e-03
         - 2.2044313721022471e-01
         - -1.8180883847241536e-02
         - 1.2865859387946451e-02
         - 1.8216590602360895e-02
         - -3.8390058080340912e-02
         - -1.3987385813491335e-02
         - -4.2631855251430116e-03
         - 2.0681685523176127e-03
         - 2.5354176361817959e-01
         - 1.5255357534047079e-01
         - -2.4177605152511947e-03
         - -1.9563040307815350e-02
         - -7.3991207227217110e-03
         - 5.3861143350774103e-03
         - 9.4952750933395003e-03
         - -2.0843788169818311e-02
         - -5.2355355025078814e-04
         - 2.3711995288929239e-03
         - -1.7226514727275941e-01
         - 1.1464679321510960e-02
         - -1.0029284652215255e-02
         - 3.5568757572428550e-01
         - -7.0637033379818527e-03
         - 4.3400006435218713e-03
         - -1.1033901636667096e-03
         - 1.2360854198425631e-03
         - -5.7566794326836535e-02
         - 2.5610928136077064e-03
         - -6.4854224935593664e-03
         - -4.7694944651568514e-03
         - 7.5573408829751462e-03
         - 1.3823057544378595e-03
         - -6.6422165745190715e-04
         - -8.9486659671057806e-03
         - 2.3339909764538976e-02
         - -1.2926228413784772e-02
         - -4.0884162113199989e-03
         - 9.7532097839236609e-03
         - -8.0077330151625964e-02
         - 1.6962136100108473e-02
         - -7.7847150018651903e-02
         - -1.7173021824492909e-01
         - -5.8949648740916297e-03
         - 2.5595166329386559e-03
         - 2.2346447710941377e-02
         - 3.3916878483627885e-02
         - 1.6301221709726831e-04
         - -1.3295135732058672e-03
         - 7.3036744893564695e-02
         - -1.2508169446549469e-01
         - -8.7508496069470566e-03
         - -8.7084479627407719e-03
         - -5.1157599358899277e-04
         - -1.3485342613212919e-02
         - -8.1175809863291717e-02
         - -4.2960079439660617e-03
         - 7.9085672211509742e-05
         - 1.0319895156608045e-02
         - -6.8139846712491781e-03
         - 3.7247627228891314e-02
         - 2.4185602811718887e-02
         - -3.7771063469307477e-03
         - -8.7185543167217452e-02
         - 3.1908790014032636e-03
         - 3.2623315690121168e-02
         - 1.0969048024962715e-01
         - 2.2742910354715973e-02
         - -4.2932829570624838e-03
         - 2.0149556550162229e-01
         - 9.7775298952918321e-03
         - -1.7317262010310600e-02
         - 5.0529862647789546e-02
         - -3.9489764132341048e-03
         - -1.2577643159681617e-01
         - -6.7826874609905449e-04
         - 2.5094945865518720e-02
         - -4.6444723155236152e-03
         - -4.8970827177620526e-03
         - 1.4463801123228487e-03
         - 8.1837991060202675e-02
         - -6.2225001065115632e-03
         - 1.6660328193370469e-01
         - 4.5959381965877347e-03
         - -5.1225571124832734e-03
         - 1.2490925648116751e-03
         - -1.6244526204806643e-02
         - 2.8003775417435981e-03
         - 1.4149629157709329e-01
         - -6.0369033690533820e-05
         - -1.8337999380246901e-03
         - -2.2281460403598928e-02
         - 4.9550737808730649e-03
         - -9.3029101033119524e-02
         - -2.8643440938960684e-03
         - -1.2127802897420156e-01
         - 2.5747371593286338e-02
         - 3.0185058736002680e-03
         - 2.4528123907763256e-02
         - 1.8823520655162469e-02
         - 2.4273553505901294e-03
         - -9.5019185769490075e-02
         - -6.2357804634020925e-03
         - 5.6817445165230534e-03
         - 1.2101679589836038e-02
         - -4.0219915720949101e-02
         - -1.5376920384724895e-02
         - 4.7539340401636541e-03
         - -3.2142025660335878e-04
         - -3.8300748744884753e-03
         - -1.8503676708884542e-01
         - -6.0596574078844402e-03
         - 1.1687079294296758e-01
         - 3.5252484028020711e-03
         - 1.3773960265419641e-04
         - 9.3331826430948211e-03
         - -1.6780197377193572e-02
         - -2.0652564211638713e-03
         - -9.9149655443903388e-04
         - -3.1109985303908116e-01
         - 2.3850989699635727e-04
         - -5.9073503701191840e-03
         - 2.5745209482248205e-01
         - -1.5949463458121374e-04
         - 1.9941183493876495e-03
         - 1.3535893271176644e-03
         - -1.7913027099154756e-04
         - -1.4998735570350731e-02
         - -1.1968393826714367e-03
         - -5.6172429824510135e-03
         - 6.5814380012523986e-03
         - 7.8749191058064891e-05
         - -2.4218467124397856e-03
         - -6.3015977571346526e-03
         - -2.5659451262639082e-03
         - -3.2260003506145596e-01
         - 1.1629796107789460e-03
         - -3.5230119527642745e-03
         - -8.9023251291184789e-03
         - -1.1567855345681405e-01
         - 5.0940253228903319e-03
         - 6.4220696848943812e-02
         - 8.0294762471527739e-02
         - 3.0543753481249978e-03
         - 2.2597353877386009e-03
         - 9.3768456888378468e-02
         - 1.8700115208114937e-01
         - -1.6769236226657339e-03
         - -3.4579782791217860e-03
         - -4.5422498505759648e-02
         - -1.0374976283074858e-02
         - -1.3287214332445596e-01
         - 3.8882859916049945e-04
         - 8.1049105863965822e-03
         - -6.9891964061442081e-03
         - 9.2176688364570582e-03
         - -5.7512080759335232e-03
         - 1.2917669893097010e-03
         - 5.2106573409525670e-03
         - 5.6479693180650154e-03
         - 8.8543302606851632e-03
         - 1.3237202804288729e-02
         - 8.5754537564480793e-04
         - -3.8238412463161960e-02
         - 1.0213827987607442e-02
         - 1.9767534898744766e-02
         - -4.0131799111878824e-01
         - -1.1943597016400803e-02
         - 2.6779404612420381e-04
         - 1.8345697541208561e-01
         - -2.5165884283665828e-03
         - -1.1825958383437436e-02
         - 5.8736324791644853e-02
         - -1.0235959468522043e-02
         - 1.4709342356582231e-01
         - -9.8094767615118390e-03
         - 5.4524446789023196e-03
         - -5.9051133332671873e-03
         - -4.7603619772062323e-04
         - 6.0355434690901504e-03
         - 5.2373758519263514e-01
         - 6.7643101313998629e-04
         - 1.2810872991540734e-01
         - 9.0590755639358891e-03
         - 4.5225923311142243e-03
         - 3.7489023450374718e-03
         - -8.0904077342467753e-03
         - -4.7214726265553467e-03
         - 3.1336998566679285e-02
         - -7.6723113987538704e-04
         - -8.0800814336326101e-03
         - -1.2294217582383882e-01
         - 5.5155521137164910e-03
         - 4.7714370637624362e-02
         - -4.5706225927530566e-03
         - 9.8576025504206549e-02
         - 1.1084301469672085e-02
         - -2.7953848842620348e-03
         - 1.9011083232568168e-02
         - 9.9218101257732526e-03
         - 1.6500332455462455e-02
         - -5.6214264619625989e-02
         - 2.2119193753026459e-03
         - 4.3040231653605886e-03
         - 6.4807087961800749e-03
         - -1.4851716762385930e-02
         - -7.2847252087258280e-03
         - 4.7813562006776009e-03
         - -2.9224050646850953e-02
         - -3.0013760582113354e-02
         - -1.8684937272238267e-01
         - 2.0085942950528960e-02
         - 1.5156040013790562e-01
         - 1.4874891730422961e-02
         - -1.9277294062699304e-02
         - -8.6018863433724460e-02
         - 2.4651569836493741e-02
         - -2.5329841311324718e-02
         - -2.4414699423030442e-02
         - -2.6012362992364105e-02
         - -3.2346594300184342e-02
         - 1.4231525576404827e-02
         - -1.3133445694724094e-01
         - 7.9341264724905238e-03
         - -2.2103302142973708e-02
         - -5.0846762383807177e-03
         - -1.3048134071748266e-02
         - 7.4696016624777636e-02
         - -1.3745267755361978e-02
         - 2.4768522864852746e-02
         - 7.0305233525429413e-03
         - -2.5445485224576923e-02
         - 5.7790120877005222e-03
         - -1.7952352127940104e-02
         - 2.8195202871961228e-02
         - -8.9539062156269444e-02
         - 3.7230723703128285e-02
         - -8.5632774966559449e-03
         - -1.4080980000914851e-02
         - -8.9400689282249951e-02
         - -2.7708620280373915e-02
         - 1.4086789519823634e-01
         - 2.6445182285073093e-01
         - 2.6638337229528863e-02
         - -9.0176374308585444e-04
         - 3.5035939637526564e-01
         - -2.9274674591937117e-01
         - -1.1773096401896147e-02
         - 6.9917155810939637e-03
         - 5.3915107482550836e-02
         - -1.6174493285971099e-02
         - -1.5013603775681283e-01
         - 2.4332904849478691e-02
         - -1.5935824008153011e-02
         - 2.7765170344684016e-02
         - 1.0380034658672407e-01
         - 2.0672890718672298e-02
         - 6.0448838520597474e-03
         - -2.0776093266864817e-02
         - 1.6884959220633940e-02
         - -3.8104121064487087e-02
         - 1.5507960383683045e-01
         - 6.2847973705649190e-03
         - 1.4277547161919771e-01
         - -3.5953117688577112e-02
         - -5.1092425551980181e-02
         - 1.4974147619847758e-02
         - -4.9768077471197054e-02
         - 2.8311106268509762e-02
         - 3.4792466843028041e-01
         - -2.5023346842315369e-02
         - 3.9489718221550001e-02
         - -5.0652874636849803e-02
         - 2.1716006220457496e-02
         - -4.5929338942166847e-01
         - 4.6873841772908112e-02
         - -4.7747209173213637e-02
         - 3.1955688698241426e-02
         - 2.5517905119996843e-02
         - -1.3008206898006296e-02
         - 3.8043785031579319e-01
         - -1.8657682459162174e-03
         - 2.7983444602741284e-02
         - -3.2133913011153557e-02
         - 6.8430140462485559e-03
         - -2.4065644815240055e-03
         - 2.1078613441626967e-02
         - 1.8099900577572654e-03
         - 1.3299540935826804e-01
         - 4.7315401179634300e-03
         - 2.1798662976868253e-02
         - -2.6944085705236348e-02
         - -1.9140420194176323e-02
         - -8.6808168762392723e-02
         - -2.3863209461090988e-02
         - 2.5458089602296713e-01
         - -3.9389768917318407e-02
         - -1.3247876240626955e-02
         - -3.7758572539964598e-02
         - -9.9487051193027070e-03
         - 2.7502075681555083e-04
         - -2.0772089999080165e-01
         - 2.4087750702891115e-02
         - -2.8736557488485991e-02
         - -3.9425159208122180e-02
         - 5.4029805350594463e-02
         - 2.6424011624200942e-02
         - 7.1012967240715961e-03
         - 8.2921551997596800e-03
         - -7.6239353812150709e-03
         - 1.0292492664114983e-01
         - -1.5541483854563623e-02
         - -1.1165671312430719e-01
         - -9.0473977522778498e-03
         - 1.2533910664175885e-02
         - -8.5845400133904307e-02
         - -2.1234943692902446e-02
         - 1.6045720016624323e-02
         - 3.5411621550351512e-02
         - 2.6317539082909192e-01
         - 1.2380926561520166e-02
         - 2.1459594504890551e-02
         - -1.4444006434260118e-01
         - -3.5968014229788002e-03
         - -2.4185047126472400e-03
         - -5.5641884838006296e-04
         - 1.5675540205844229e-02
         - 1.6085375561886008e-03
         - 1.8540462084248553e-03
         - -1.6706508358909959e-02
         - -4.5636724797411976e-04
         - 8.6864667018640707e-03
         - -4.5408545561056350e-03
         - 1.0354464617633752e-02
         - -1.9243075092141581e-02
         - 2.5826969115486740e-02
         - -3.8852719246686065e-03
         - 5.8962048140231245e-03
         - 1.4260906291744922e-02
         - 1.3863655162643353e-02
         - 9.5320258120929757e-03
         - -2.2371650324494896e-02
         - 6.5100145168573029e-02
         - -1.3844310211669410e-02
         - 1.5291247283021709e-03
         - -6.7440544452658929e-02
         - -1.1450770457803823e-02
         - 3.4000330990657263e-03
         - -3.4715850106459664e-03
         - 3.6245487048793122e-02
         - 2.8689294186945202e-01
         - 4.9240971439639701e-02
         - -1.0848221693082749e-02
         - 1.0529950410141677e-02
         - -9.9776476519207423e-03
         - -8.8543676098059802e-03
         - -2.1822751052800172e-02
         - -1.1499184533838126e-02
         - 1.6214632631331855e-02
         - 5.7656588527928718e-03
         - 2.0314853710630670e-02
         - 7.0374533128218161e-02
         - -1.3440572826359598e-03
         - 1.6185275701362647e-01
         - 3.1883051343810385e-02
         - 4.8940598288245993e-03
         - -1.4981189671066356e-01
         - -2.7532300996769171e-03
         - -1.2017930235608508e-02
         - 1.9561187376902761e-01
         - 1.8982364916593310e-02
         - -1.3468390206076477e-02
         - -9.9114225686444984e-02
         - -2.5187351062128969e-02
         - -3.4154337938378021e-01
         - 5.8473696506149690e-02
         - 1.5165206160531247e-03
         - -1.4652797840017422e-02
         - -6.4843110213256561e-03
         - 7.7763710522996375e-03
         - -1.4833843086530243e-01
         - 1.0181048779952801e-03
         - 2.3104854880732723e-01
         - 2.0029493930454629e-02
         - -4.4190680441682038e-03
         - -4.5475691286596593e-04
         - -7.6863006899251362e-03
         - 2.6259795076240042e-05
         - -4.5515855171000444e-02
         - -1.0709690687115509e-02
         - -2.1309232733923784e-02
         - 1.2825544360955965e-01
         - 3.4382787020610737e-03
         - -1.2061628930260303e-01
         - -1.7704283793647277e-03
         - -1.6312164816941790e-01
         - 3.5769068663343475e-03
         - 4.5281458521323368e-03
         - 1.0816352422048488e-02
         - -2.3644404403488054e-03
         - -3.4180221836837547e-02
         - -1.3835057850271543e-01
         - -2.3714588533863282e-02
         - 1.8394971540182624e-02
         - 1.2300550536994075e-02
         - -1.1643600412651649e-02
         - -1.0303346242887732e-02
         - -3.0234334092927475e-03
         - 4.3181015031684353e-03
         - 1.3962095055068371e-01
         - 2.6800052066624357e-02
         - -8.7551942028545517e-03
         - -8.5410675276927986e-02
         - 1.9405058519455143e-03
         - 2.5493064649464462e-03
         - 3.3966093188621239e-02
         - -9.4325349234040071e-03
         - 1.1644757005760229e-02
         - 1.8974469843823175e-02
         - -2.2296079666515675e-01
         - 1.0924074575074017e-02
         - 2.8217253720107076e-02
         - 3.6034021990670140e-01
         - 2.2902814624555642e-03
         - -1.2446641061097254e-02
         - 3.3537436281205770e-03
         - 1.1958413155897048e-02
         - -1.0296656474136356e-02
         - 5.5165540475702124e-03
         - -3.9911853567220646e-03
         - -3.1790946285783772e-03
         - 6.3655812288531816e-03
         - -1.1514973684276283e-03
         - 1.4807928551229243e-02
         - -8.7160408956137980e-04
         - -2.8941993090061441e-01
         - 5.0210437325204516e-03
         - -2.0882874997547396e-04
         - -1.9646350373156510e-01
         - 1.5655059360973861e-01
         - 7.2451235217709797e-03
         - -8.2813915776256742e-04
         - 1.1559053509695541e-02
         - 9.0278114341572717e-04
         - -4.6197604605864306e-03
         - -1.8678322941273398e-01
         - -9.8610990122772815e-02
         - 5.5339158878125114e-03
         - -1.4658707090328866e-04
         - -3.8416986250629503e-02
         - 3.5001288381564433e-01
         - -1.0431444889771713e-01
         - -1.1123652196752382e-03
         - 1.5341859647681464e-03
         - 2.5816548487124073e-03
         - -1.4915767271713377e-02
         - -1.3094018929354538e-02
         - -4.3694659065506500e-03
         - 3.8596211689932549e-03
         - -3.9226347385914835e-03
         - 2.2199224824535801e-02
         - -3.5928247257550928e-02
         - -1.3310722821839704e-03
         - 3.3721572941310660e-02
         - 4.9451824180466947e-03
         - -3.0252558893174067e-03
         - 3.7023816071229737e-01
         - 2.5626264263806358e-02
         - -1.9468253956714473e-03
         - -2.3234679581755957e-02
         - -9.0070257628596824e-04
         - -1.1381252477224294e-02
         - -3.8719225379379836e-02
         - -1.2399082303092892e-02
         - 2.1698740415703952e-01
         - 4.0492480499775205e-02
         - -1.1750204227992042e-02
         - -4.2488979551402496e-03
         - -6.1860652578990122e-03
         - 1.0789206975808075e-03
         - -8.8207635212278854e-02
         - -5.7115421523543687e-03
         - 6.3734921522340823e-02
         - 9.4237838031424707e-03
         - -4.2641007645175151e-03
         - 5.7173384355635373e-03
         - 2.8605366933054507e-03
         - -2.5056266559759254e-03
         - -2.1601410942507243e-01
         - 3.2222076120142829e-04
         - -1.6626953845329674e-02
         - -2.4740140182689878e-02
         - 9.5817396191603191e-03
         - -7.3552873651623732e-02
         - 9.5419242730155999e-03
         - -4.8365906052011852e-03
         - -1.0678967095560160e-02
         - -3.6325009265513028e-04
         - -4.3773524323252270e-03
         - -5.8985233412258940e-03
         - 5.5702437053134534e-03
         - -1.2088476560093973e-01
         - -1.6989498935320986e-02
         - -2.9959506302595554e-04
         - 5.9352758541632179e-03
         - 1.6672004055328277e-02
         - 1.4693948503988845e-03
         - 1.1645856900817260e-03
         - 1.3080111406058633e-02
         - 2.2528340986857115e-01
         - 2.0496893608980879e-01
         - -1.7177610135076089e-02
         - -3.1795391062144279e-01
         - -1.2273737160976177e-02
         - 2.2485534173132569e-02
         - 3.7515666577897455e-02
         - -2.4062429289865715e-02
         - 2.2093044549546172e-02
         - 2.4438910045173526e-02
         - 5.0147555642320463e-01
         - 1.5327468210669016e-02
         - -1.0571930656082078e-02
         - -6.6116594103685479e-03
         - -5.7012337603529048e-03
         - 8.1100015226833848e-03
         - 8.5363080493702382e-03
         - 1.6930224683605121e-02
         - -3.1596477905086899e-02
         - 7.0621962421001973e-03
         - -2.1322432987982649e-02
         - -1.0319235567928454e-02
         - 1.0986203502768462e-02
         - 8.5253504535759395e-04
         - 1.1984154771700751e-02
         - -1.1800553294487252e-02
         - 1.5739093473596252e-01
         - -1.4033649295265410e-02
         - 7.4919563038408545e-03
         - 1.5834108872402888e-01
         - 1.4803325618645363e-01
         - 1.8574725957122021e-02
         - -3.8357965539909257e-02
         - -1.1684052294467361e-01
         - -1.9813276317033411e-02
         - -4.5162755982715141e-03
         - -9.2230627458456810e-02
         - 1.0963814390817832e-02
         - 1.2134362598299213e-02
         - -5.0560064134927835e-03
         - -2.0877540904620202e-02
         - 5.5414154559308586e-02
         - 2.5166444916316227e-02
         - -1.6000465056214844e-02
         - 1.6537207111797257e-02
         - -2.3420300276564183e-02
         - -3.6300743885489047e-02
         - -2.1302102265379003e-02
         - -8.5148490308211994e-03
         - 1.8512024831173316e-02
         - -1.3481814631913750e-02
         - 2.7515566848403929e-02
         - 1.8840423629460165e-01
         - 6.4932570951293643e-04
         - -2.8781018795020252e-01
         - 2.2825769576842778e-02
         - 2.4728318401551749e-02
         - -1.0251603958269299e-01
         - 4.6653362878567882e-02
         - -1.6571938991037344e-02
         - -1.6953896258910792e-01
         - 1.4005011960814715e-02
         - -1.6632357104545376e-02
         - -3.5424620479495464e-03
         - -1.8832371573587928e-02
         - -2.1463543821518691e-01
         - -8.5130693740092106e-02
         - 1.4193492489018217e-02
         - -2.6445820709157651e-02
         - -1.8676950614045583e-02
         - 3.7686820809740983e-03
         - 9.0620445358973081e-02
         - -1.2408651041875554e-03
         - -6.0666712508142769e-02
         - 1.6255160871037632e-02
         - 8.2706843531929746e-04
         - 4.6653196758201301e-03
         - -1.8087992690708987e-02
         - 4.5744174718776376e-03
         - -3.4721992622499703e-01
         - -2.3627729012398284e-03
         - -2.3598231954666322e-02
         - -2.5431761677838845e-02
         - 7.6381056825000730e-03
         - 5.1945675227841506e-02
         - 1.3403669923794017e-02
         - 4.2936572449592106e-02
         - 1.9207500412581024e-02
         - 8.3208583552443968e-03
         - 2.6525245463471889e-02
         - 1.9129825124037800e-02
         - 5.9321111335650404e-03
         - -2.9132205627570507e-01
         - -2.9641035126831864e-02
         - 1.2048236074997295e-02
         - 2.6172310944256000e-02
         - -2.4281558714425347e-02
         - -1.9373535324053615e-02
         - -7.4812285072674619e-03
         - -1.0593822589194019e-02
         - 3.4747057254951794e-02
         - 5.2346501845724775e-03
         - 6.7233332653063079e-03
         - -1.6739232395560791e-01
         - 6.3795417907825201e-03
         - -2.3020805551063990e-03
         - 4.1605601486294670e-02
         - 2.8391781107365045e-02
         - -5.4906782167905730e-03
         - -1.8055711209623324e-02
         - 1.0394331794033412e-01
         - -5.4579835300447160e-02
         - 3.2075373580302169e-03
         - -3.3485459882642987e-01
         - 1.3282326554330257e-03
         - 1.0080749409962224e-03
         - 9.0794427874854480e-04
         - -1.0651767880363180e-03
         - -1.4724598911306314e-02
         - 5.0882849090294162e-03
         - 9.9957210052410376e-03
         - 2.3911908162080686e-03
         - -4.7364521460896026e-03
         - 1.7124856530993187e-03
         - -4.1865857360619679e-03
         - 2.3996285846274275e-02
         - -9.0866554913777514e-02
         - 6.3351677900002719e-03
         - 5.2325734520327922e-04
         - 1.4494231132774291e-01
         - 1.5137616053546121e-01
         - -1.4042795306282359e-02
         - -8.9008938135858619e-03
         - 1.8284557366700141e-01
         - 2.0418343318197489e-03
         - 4.7949912627979268e-03
         - 5.7614677381868692e-02
         - -5.4685600248596267e-01
         - 8.9112157345265473e-03
         - -7.9374773263233764e-03
         - -6.3661872551659289e-03
         - -1.6187465752515778e-01
         - -4.6920878017078324e-02
         - -3.7406225011292478e-03
         - -2.7830427773001642e-03
         - 2.0217869949220202e-02
         - -1.1379913292777486e-02
         - 1.2593656859563955e-02
         - -3.1251792817143780e-03
         - -5.6474096323049948e-03
         - 3.0966778444575746e-03
         - -1.8324595236472282e-02
         - 1.2076244974940549e-01
         - 3.9437595115634971e-03
         - 8.4101601440465509e-02
         - -2.3998506693985955e-02
         - -8.5376858742792928e-03
         - 9.3137369414698856e-02
         - -2.5444182476593954e-02
         - 1.3403045306178623e-02
         - 3.2185898313733717e-02
         - -4.7081709470076644e-03
         - 9.2665679143574473e-03
         - -1.0719818142586561e-01
         - 8.7010293998514773e-03
         - -1.4281827658268564e-01
         - 7.2339330680790234e-04
         - -1.6364953579384202e-02
         - 1.8608624540661610e-02
         - 6.8586914886373807e-03
         - 3.7987700373066763e-03
         - -4.5958188627862373e-01
         - 3.1181860546825564e-03
         - 1.1211571362337761e-01
         - -1.8250254755294491e-02
         - -4.8715092168245492e-03
         - -7.0676898950955240e-04
         - 9.5143731432121448e-03
         - -1.2798781630033703e-03
         - 3.7134049130256377e-02
         - 7.1045440499352772e-03
         - 1.0398571353961402e-02
         - -9.0034128298824789e-02
         - -2.0666378555668371e-03
         - -2.7459992643520056e-02
         - 2.3871018534524393e-03
         - 8.1757424515849858e-02
         - -2.0232738391652308e-02
         - -6.1797835563062323e-03
         - -6.1538046501782816e-03
         - -5.5092788128953053e-02
         - 5.1473692110452690e-02
         - -4.3347377070451260e-01
         - 6.4003282025047060e-03
         - -1.5239247242761862e-02
         - -8.9659805538458495e-03
         - 2.4376912101450831e-02
         - 2.8618012389560122e-02
         - 1.7066563336177920e-03
         - 6.4518319738758492e-04
         - 1.2523586527961944e-01
         - -2.0615880681466611e-01
         - -4.0361488107348497e-03
         - -9.1940404756210625e-02
         - 1.4772947573094995e-03
         - -6.3560378868271431e-03
         - 2.7518827343459988e-04
         - 1.9924373036723592e-02
         - 1.0223007094598078e-03
         - -1.0035855443317027e-02
         - -2.9855034729069918e-01
         - -1.0405042404986948e-02
         - -3.7433314050791034e-03
         - -1.3080435997359441e-01
         - 5.0166693420790349e-03
         - 3.4158039865672561e-03
         - 2.5477866230670105e-03
         - -7.6625905205800178e-03
         - -2.4219349867886236e-02
         - 2.8567989095579964e-03
         - -1.2681625162482128e-03
         - 5.1143995023113882e-03
         - 3.1123977925197176e-03
         - 8.2212186715360062e-03
         - -5.7912605281015732e-03
         - 1.3172128683210721e-02
         - 7.0106035011643628e-02
         - -7.5946874919204082e-03
         - -4.4246619960119360e-03
         - 2.0043614105843507e-01
         - 6.8452894063559866e-02
         - -9.7196778632204720e-04
         - -4.2281961146459761e-02
         - -2.1222250589643413e-01
         - -3.9501874419874787e-03
         - 3.6205378932776125e-03
         - 5.5804620799415221e-02
         - 2.2482915255424913e-02
         - 1.5045130832639362e-03
         - -6.7919130591924514e-03
         - -8.7231011455841820e-02
         - -2.0532447347895791e-01
         - -2.4035581708818268e-02
         - -2.1091382401433960e-03
         - 9.1956178576524091e-04
         - 5.5730433515865166e-03
         - -2.2844665068099495e-02
         - 7.7671806300121625e-03
         - -2.8562763693389063e-03
         - -5.3896590355422703e-03
         - 1.9649714074570276e-03
         - -3.0342213392750058e-03
         - 1.1819800354835211e-01
         - 8.0714315448004292e-03
         - -5.5999043899446863e-02
         - -2.3117886486741179e-02
         - 7.5227930528478544e-03
         - -7.0943168929894121e-02
         - -2.0759500608869591e-03
         - 4.4439152483914963e-03
         - 5.3500487854884059e-02
         - 5.3232155543281757e-04
         - -2.2224111117731095e-03
         - -1.0954502069470233e-01
         - 6.0458796933967607e-03
         - -1.6725529834466086e-02
         - -2.1754830133002580e-02
         - 8.2705289699742963e-03
         - 3.4690610444081580e-03
         - 5.8032851199611556e-03
         - 1.7237186608949086e-04
         - -2.2523097222111577e-01
         - 5.3321144512846717e-03
         - 2.1495746475400415e-01
         - -1.1872623511823520e-02
         - 1.8588531350863711e-03
         - -4.8404859041434843e-03
         - 1.7124350232265923e-03
         - 1.3037407136899510e-03
         - -7.0666153687309816e-02
         - -7.1055133668521077e-04
         - -2.3431416509473494e-03
         - 2.4502467553012761e-03
         - -1.7830464282403578e-03
         - 6.1947425554803162e-02
         - 1.9794448187167673e-02
         - -1.4910815567513708e-01
         - -3.5126763883012589e-03
         - -1.2356886050061513e-03
         - -2.7772386245819903e-03
         - -3.7183819879412931e-02
         - 1.7932257979566137e-02
         - 8.3099836820891448e-02
         - -3.5784202711861880e-04
         - -4.7141198103870302e-03
         - -6.2193175066121995e-03
         - 1.5764677046582871e-02
         - 1.1402254836442072e-02
         - -1.7562159665348257e-03
         - 7.1302216165193165e-03
         - -3.2035525906475466e-02
         - 5.5356161474907836e-02
         - -1.1805322133398351e-02
         - 2.4473830846885335e-02
         - -2.4265973840070201e-03
         - 4.6008095714260974e-03
         - 8.2612175662559281e-02
         - -2.2288690213199291e-02
         - 4.0611034654023347e-03
         - 1.4058267044396664e-02
         - -3.3487589358764419e-01
         - 3.4603331050157275e-02
         - -1.6339862052568106e-02
         - 1.5611244838458591e-03
         - -4.1297653031961206e-03
         - 1.1204930226805123e-02
         - 5.9533181891495207e-04
         - -2.0062475294051760e-04
         - -2.9586938481899267e-02
         - 7.3596215229963886e-03
         - -1.2560750721314962e-02
         - -5.7278647586288224e-04
         - 1.9229710710965301e-02
         - 3.3247605893837887e-03
         - 3.5687932645382366e-03
         - -1.1930153184034602e-02
         - -5.0532547303030993e-02
         - -2.2226446772431956e-02
         - 2.1891670871679670e-03
         - 1.8855557956727972e-01
         - 1.7592953341855972e-02
         - 1.8401687106456052e-02
         - -4.7652345260829565e-02
         - 1.2137548830908767e-02
         - -1.1479099776527132e-02
         - 1.1161054912681892e-03
         - 2.9747357652370136e-02
         - 2.1688934727845416e-02
         - 3.6425324399478654e-03
         - -6.4637778237925769e-04
         - -1.6157514314517221e-01
         - -2.0480407495194408e-01
         - 4.7696065425885281e-02
         - -3.8056883626640045e-03
         - 8.7223914494866696e-03
         - -2.0944757801286427e-02
         - -3.0645238090090000e-02
         - -3.3604730875291433e-03
         - -2.9205366867450042e-03
         - 3.7789848306289182e-04
         - -7.7332293690379641e-04
         - 3.9552643387428151e-02
         - 1.7352491015463348e-01
         - 2.3352410722221069e-04
         - -1.5880262694682231e-02
         - 1.1261026431970090e-02
         - 1.7738681470105041e-02
         - -4.4958101537848433e-02
         - 7.2274352469282932e-02
         - -3.9540204044292340e-03
         - 2.4260945248527752e-01
         - 8.2457104378434783e-03
         - -1.8041087930777588e-02
         - 1.2792573182070446e-01
         - -1.2058683003960801e-02
         - -3.4121184167639196e-01
         - -6.2831253508739734e-02
         - 2.2182873452314913e-02
         - -3.6463606115946991e-02
         - -1.1355379865512077e-02
         - 1.6841536590801738e-03
         - 5.6517119546460742e-02
         - -6.0088251682263961e-03
         - -7.6480123476885528e-02
         - 1.2398721992251742e-02
         - -4.1691836007587265e-03
         - -5.0875223213704976e-03
         - -2.0385982626611641e-02
         - 3.9850444514749131e-03
         - 1.0648725231492560e-01
         - 2.3182492156768276e-03
         - -1.9459620356392971e-02
         - 7.7497247084172046e-03
         - 1.6837911662185296e-03
         - 1.0168540585373377e-01
         - 3.8171744582544610e-02
         - 2.1778931974121438e-01
         - 2.2514984711035513e-02
         - 6.1523124109601444e-03
         - 1.1831343234840256e-02
         - 5.5325212605840203e-02
         - -3.4060607589036056e-02
         - -6.9847533331605718e-02
         - -8.8100133066579874e-03
         - 1.3127021302057926e-02
         - 2.3460744803256536e-02
         - -8.7545933510274274e-03
         - -2.4341718331558293e-02
         - -4.9644057189494493e-03
         - -2.0080227519288399e-03
         - 9.5379815252902247e-02
         - 2.7585783801866376e-01
         - -1.4238533879619264e-03
         - -1.9994762690946472e-01
         - 5.8312016855067402e-03
         - -8.4810775206448155e-03
         - 4.8190099943505149e-02
         - -5.2801911153187338e-03
         - -5.1942500406493546e-03
         - 2.4436778901135200e-02
         - 2.4757987538064588e-01
         - 4.1407339229329661e-02
         - -1.4465690247476989e-03
         - -1.3813646414235390e-02
         - 2.7594313052043554e-03
         - -1.8820437464753541e-03
         - -3.8373635474323693e-04
         - -9.4877879136325558e-04
         - 4.1815982276444353e-03
         - -9.1253597149519941e-04
         - 3.7146533707130389e-03
         - -1.5622306575363868e-03
         - 7.4808312594138999e-04
         - 4.6021540792327842e-03
         - 3.8600480837012129e-04
         - -1.9081660557869636e-03
         - 8.4505465971930011e-02
         - -4.9383624199482341e-03
         - -1.7742087882565050e-03
         - -2.3790959427255684e-01
         - -9.9320045939721352e-02
         - 5.8824934601442187e-03
         - -5.1505845853403141e-02
         - 1.0338414066252391e-01
         - 2.9459307501824043e-03
         - -3.2056149349636462e-04
         - -6.3760808813499437e-02
         - -9.0923942289787618e-02
         - 2.4279271583716199e-03
         - 1.8907415282075908e-03
         - 1.9125284405580423e-02
         - 2.6093523266564878e-01
         - -6.1137267916482555e-03
         - 5.1866520253998705e-03
         - -7.1240608061527353e-04
         - 2.9466479003658697e-03
         - -8.6793454516707579e-03
         - -2.7138349101307100e-03
         - 3.1707068582716218e-04
         - -3.6376124950944070e-03
         - 4.6634729210698975e-03
         - 2.4130710722864008e-02
         - 1.2954637070027015e-02
         - -3.6429163635596333e-03
         - 4.0441008690051020e-05
         - 1.9731467213453219e-03
         - 2.3181688869687166e-03
         - 6.8159417728858973e-02
         - 4.1413829461310996e-02
         - -4.7096538487091302e-03
         - -1.7732150212598932e-01
         - -2.0591231012322500e-03
         - -2.2849594278820701e-03
         - 2.0977145207787334e-01
         - 3.3634884299254151e-03
         - 1.4436623547569657e-01
         - -1.6730885740928837e-02
         - 2.3171316931665615e-03
         - -3.3526046537851167e-03
         - 1.7406443854264277e-03
         - 3.0871530899630431e-03
         - 1.8160153246703861e-02
         - 5.1815234699799945e-03
         - 4.0164659244198722e-02
         - 1.8873317337091209e-03
         - 3.9949294892042643e-03
         - -4.9507530417859939e-04
         - -2.2946745866911128e-03
         - -4.8146900952871141e-03
         - 1.8440020901015428e-01
