%YAML:1.0
---
opencv_ml_ann_mlp:
   format: 3
   layer_sizes: [ 324, 100, 2 ]
   activation_function: SIGMOID_SYM
   f_param1: 6.6666666666666663e-01
   f_param2: 1.7159000000000000e+00
   min_val: -9.4999999999999996e-01
   max_val: 9.4999999999999996e-01
   min_val1: -9.7999999999999998e-01
   max_val1: 9.7999999999999998e-01
   training_params:
      train_method: BACKPROP
      dw_scale: 1.0000000000000000e-03
      moment_scale: 0.
      term_criteria:
         epsilon: 1.0000000000000000e-04
         iterations: 300
   input_scale:
      - 1.1792322285518354e+01
      - -1.7697929486213124e+00
      - 1.1460303074476572e+01
      - -1.5638509217413961e+00
      - 1.1746511567108872e+01
      - -1.4593299633215309e+00
      - 1.2908900651153317e+01
      - -1.3501456024035008e+00
      - 1.2881715577759117e+01
      - -1.5839665456309235e+00
      - 1.3041254847691150e+01
      - -1.3575189669775243e+00
      - 1.1724951381736911e+01
      - -1.4376578993102396e+00
      - 1.1354949449171041e+01
      - -1.5530197031664079e+00
      - 1.1708035709962310e+01
      - -1.7644305524932300e+00
      - 1.1501306321049032e+01
      - -1.8104790389265535e+00
      - 1.1133936344376101e+01
      - -1.6872932074881226e+00
      - 1.1239684392403122e+01
      - -1.5557728444215533e+00
      - 1.2144680678318400e+01
      - -1.4452326646449221e+00
      - 1.2203722593349719e+01
      - -1.6940608859130648e+00
      - 1.2201214261808275e+01
      - -1.4402029550982594e+00
      - 1.1384587557008782e+01
      - -1.5559144058033783e+00
      - 1.1201463373630041e+01
      - -1.6810156031756545e+00
      - 1.1426407716128866e+01
      - -1.8019250465677557e+00
      - 1.1599776516761526e+01
      - -1.9105795331907576e+00
      - 1.1020354900355221e+01
      - -1.6914748348166346e+00
      - 1.1265632673305886e+01
      - -1.5888417695878008e+00
      - 1.2254753417046643e+01
      - -1.4567092273821851e+00
      - 1.2289602447744077e+01
      - -1.5436464819132447e+00
      - 1.2242800254169287e+01
      - -1.4661575946661627e+00
      - 1.1334836488853618e+01
      - -1.5611818419136883e+00
      - 1.1113743740906449e+01
      - -1.6774392246212726e+00
      - 1.1633789422150196e+01
      - -1.9101107308960275e+00
      - 1.1364300057974424e+01
      - -1.9344623941485475e+00
      - 1.1037785001780982e+01
      - -1.8267704555100759e+00
      - 1.1084847286659002e+01
      - -1.7114193728144054e+00
      - 1.1729601786681652e+01
      - -1.5771777883618510e+00
      - 1.1755873153340676e+01
      - -1.6494647397285549e+00
      - 1.1743884513446282e+01
      - -1.5771457660585597e+00
      - 1.1000508309341079e+01
      - -1.6924594595679601e+00
      - 1.1017833072498176e+01
      - -1.8375669017937584e+00
      - 1.1296681839305601e+01
      - -1.9453553889641713e+00
      - 1.1671350380027711e+01
      - -1.6690707813078527e+00
      - 1.1486349537187342e+01
      - -1.5606991224508517e+00
      - 1.1803421136870092e+01
      - -1.4727668085471699e+00
      - 1.2813940360765699e+01
      - -1.3699720278497642e+00
      - 1.2693892069359940e+01
      - -1.6093419035077396e+00
      - 1.2788552947607460e+01
      - -1.3811249583932013e+00
      - 1.1731516341033755e+01
      - -1.4815525851003490e+00
      - 1.1276703165389957e+01
      - -1.5657049492002135e+00
      - 1.1424811466128320e+01
      - -1.6521771416470612e+00
      - 1.1559029118672958e+01
      - -1.7889574740078522e+00
      - 1.1137608444086952e+01
      - -1.6509861083240078e+00
      - 1.1276816537100041e+01
      - -1.5604863986571240e+00
      - 1.2135497439998566e+01
      - -1.4475350770545823e+00
      - 1.2147203437602968e+01
      - -1.6984199436715606e+00
      - 1.2214825447520171e+01
      - -1.4660515817807462e+00
      - 1.1445359559569688e+01
      - -1.5811491412251482e+00
      - 1.1087244198614078e+01
      - -1.6786839639371700e+00
      - 1.1289376948448261e+01
      - -1.7696900581547998e+00
      - 1.1390322187251959e+01
      - -1.7871109533269218e+00
      - 1.0996900630779921e+01
      - -1.6791683591709805e+00
      - 1.1259596254791697e+01
      - -1.5980915820459574e+00
      - 1.2139596330126617e+01
      - -1.4948841565281707e+00
      - 1.2142292479560345e+01
      - -1.5635040700407470e+00
      - 1.2226321735770396e+01
      - -1.4907708868142269e+00
      - 1.1288565876688693e+01
      - -1.5886979498320297e+00
      - 1.1141044320288408e+01
      - -1.6948744800702191e+00
      - 1.1304219901915447e+01
      - -1.7818232641049376e+00
      - 1.1443938473877537e+01
      - -1.9255237158186698e+00
      - 1.0915440402539490e+01
      - -1.7697436220657172e+00
      - 1.1057123182113022e+01
      - -1.6978170226443714e+00
      - 1.1543131995148499e+01
      - -1.5663471054287625e+00
      - 1.1743763996079858e+01
      - -1.6569526045256344e+00
      - 1.1729574048258103e+01
      - -1.5924578440981623e+00
      - 1.1092175734252592e+01
      - -1.7183989147854077e+00
      - 1.0944246428251294e+01
      - -1.8264826032930745e+00
      - 1.1175959790253165e+01
      - -1.9102654728664905e+00
      - 1.1826944883686398e+01
      - -1.6722442034596390e+00
      - 1.1593688664813660e+01
      - -1.5416983912841888e+00
      - 1.1740639583405688e+01
      - -1.4635552340692277e+00
      - 1.2505404328506394e+01
      - -1.3587850567963768e+00
      - 1.2615938244084552e+01
      - -1.6235994764724855e+00
      - 1.2785481609879765e+01
      - -1.3986004615881371e+00
      - 1.1702187478034260e+01
      - -1.5005573641810761e+00
      - 1.1103643567752126e+01
      - -1.5762826506431051e+00
      - 1.1327109258376286e+01
      - -1.6546311628104160e+00
      - 1.1879342491847934e+01
      - -1.9067734442910378e+00
      - 1.1254728558211649e+01
      - -1.6003020814273781e+00
      - 1.1324130030416033e+01
      - -1.5194670223275613e+00
      - 1.2028330809845935e+01
      - -1.4143490559521998e+00
      - 1.2153276808040983e+01
      - -1.6976752338552248e+00
      - 1.2278004770563255e+01
      - -1.4451270958799309e+00
      - 1.1513358486941071e+01
      - -1.5740270595212087e+00
      - 1.0931941317672647e+01
      - -1.6496766043478959e+00
      - 1.1432779858571285e+01
      - -1.8813345191110917e+00
      - 1.1495152857732984e+01
      - -1.7935967337606433e+00
      - 1.1140560099242094e+01
      - -1.6684681839939322e+00
      - 1.1309773973208959e+01
      - -1.6050097905973491e+00
      - 1.2008507766875288e+01
      - -1.4933022261258442e+00
      - 1.2119195119409667e+01
      - -1.5844511780637793e+00
      - 1.2128080106907595e+01
      - -1.5040974508415237e+00
      - 1.1463086020441994e+01
      - -1.6207982463129280e+00
      - 1.1198339735480435e+01
      - -1.7167969217143997e+00
      - 1.1212745449125261e+01
      - -1.7770846285773587e+00
      - 1.1822239073351177e+01
      - -2.0628429542252280e+00
      - 1.1138951674663105e+01
      - -1.7362850135814978e+00
      - 1.1229688466438615e+01
      - -1.6768084311998857e+00
      - 1.1631573112251726e+01
      - -1.5518766593049591e+00
      - 1.1703809435815291e+01
      - -1.6586802168988635e+00
      - 1.1872195418071527e+01
      - -1.5890624303414771e+00
      - 1.1211978056980675e+01
      - -1.7075360096749450e+00
      - 1.0871698582649918e+01
      - -1.8001750917981183e+00
      - 1.1409003021892643e+01
      - -2.0439646228761661e+00
      - 1.2073020043915005e+01
      - -1.7741149000671779e+00
      - 1.1553891399792693e+01
      - -1.5840682309174268e+00
      - 1.1711674216471215e+01
      - -1.4976158378799482e+00
      - 1.2811497192504245e+01
      - -1.4001158347252911e+00
      - 1.2946077044723722e+01
      - -1.4850219628158259e+00
      - 1.3004841255035700e+01
      - -1.4185141756037232e+00
      - 1.1622141603200584e+01
      - -1.4959510022203786e+00
      - 1.1143620386283475e+01
      - -1.5677035792547074e+00
      - 1.1777793244376387e+01
      - -1.7450917796525389e+00
      - 1.1771308500969132e+01
      - -1.8192798486847699e+00
      - 1.1150982301640580e+01
      - -1.6973139059421143e+00
      - 1.1292039566991516e+01
      - -1.6143753839215722e+00
      - 1.2149398805671732e+01
      - -1.5090352966358294e+00
      - 1.2125209135650033e+01
      - -1.5758722915842251e+00
      - 1.2246792661458461e+01
      - -1.5143204214823149e+00
      - 1.1215996051795338e+01
      - -1.6031117732535554e+00
      - 1.1125325409335556e+01
      - -1.7048436826033369e+00
      - 1.1543884679599193e+01
      - -1.7915637090972116e+00
      - 1.2033624036667119e+01
      - -1.9052330237452582e+00
      - 1.1224680553126207e+01
      - -1.6699174020166254e+00
      - 1.1351942164589230e+01
      - -1.5847355889894099e+00
      - 1.2187644652309709e+01
      - -1.4906745257565979e+00
      - 1.2355712051750038e+01
      - -1.5695275602518037e+00
      - 1.2477777094860153e+01
      - -1.5111578595815802e+00
      - 1.1338252935014859e+01
      - -1.6041558505154925e+00
      - 1.1155074340626500e+01
      - -1.7003050736884715e+00
      - 1.1693675507674715e+01
      - -1.8755852164072089e+00
      - 1.1726622247123881e+01
      - -1.9475786703193967e+00
      - 1.1174233879117184e+01
      - -1.8008848069489420e+00
      - 1.1147962544610591e+01
      - -1.7149671791098440e+00
      - 1.1631029040042019e+01
      - -1.6005500762831488e+00
      - 1.1895718422478938e+01
      - -1.6984375048744831e+00
      - 1.1931670164313394e+01
      - -1.6397785430834317e+00
      - 1.1030998130956895e+01
      - -1.7374418916696370e+00
      - 1.1013524719134672e+01
      - -1.8534574357228242e+00
      - 1.1387963343030977e+01
      - -1.9244993210234149e+00
      - 1.1935239293352248e+01
      - -1.6682640139207439e+00
      - 1.1542151901709946e+01
      - -1.5676175340723544e+00
      - 1.1788500396455170e+01
      - -1.5048656075766602e+00
      - 1.2641534331441244e+01
      - -1.4117743302811550e+00
      - 1.2812892800889466e+01
      - -1.5073000986369862e+00
      - 1.2850032291569299e+01
      - -1.4291761601311590e+00
      - 1.1535444445835731e+01
      - -1.5135951288198251e+00
      - 1.1267107730209913e+01
      - -1.5943051375070549e+00
      - 1.1761028113396442e+01
      - -1.6660055014946102e+00
      - 1.1673712424907231e+01
      - -1.7806043798395819e+00
      - 1.1192326361193746e+01
      - -1.6664261210299942e+00
      - 1.1350570867474453e+01
      - -1.6063690754868476e+00
      - 1.1976222669278863e+01
      - -1.4893713010820744e+00
      - 1.2157286334953453e+01
      - -1.5829913509084441e+00
      - 1.2298458913040465e+01
      - -1.5111530952656487e+00
      - 1.1370326816888012e+01
      - -1.6172137007567009e+00
      - 1.1118809083985067e+01
      - -1.7014476822935092e+00
      - 1.1506453321434076e+01
      - -1.7714368575601260e+00
      - 1.1756063752830009e+01
      - -1.7879027896264215e+00
      - 1.1136506175073457e+01
      - -1.6645111201912699e+00
      - 1.1361533212958150e+01
      - -1.6160281837476680e+00
      - 1.2138370634729299e+01
      - -1.5198507821518907e+00
      - 1.2275500425032854e+01
      - -1.6143904086219978e+00
      - 1.2269788148159718e+01
      - -1.5350495409851888e+00
      - 1.1236501951732420e+01
      - -1.6160750114054916e+00
      - 1.1080231083034638e+01
      - -1.7032199145922053e+00
      - 1.1424457771662693e+01
      - -1.7711159204882148e+00
      - 1.1609515021393737e+01
      - -1.9171511349434840e+00
      - 1.1020837428270013e+01
      - -1.7678698145723646e+00
      - 1.1034599867680512e+01
      - -1.6967896561251992e+00
      - 1.1589667627594258e+01
      - -1.6059891115361602e+00
      - 1.1851019229775492e+01
      - -1.7171050483676755e+00
      - 1.1870949589412350e+01
      - -1.6362907804139430e+00
      - 1.1018388436993169e+01
      - -1.7402313994845351e+00
      - 1.0900326965317857e+01
      - -1.8310683698602126e+00
      - 1.1238158904079198e+01
      - -1.8976554455015984e+00
      - 1.2085490069607529e+01
      - -1.6788713449748471e+00
      - 1.1726756953365236e+01
      - -1.5755060402976382e+00
      - 1.1810983723724883e+01
      - -1.5175823341907677e+00
      - 1.2467815073899583e+01
      - -1.4185247234724532e+00
      - 1.2616705204128317e+01
      - -1.5154276532463855e+00
      - 1.2824741124401605e+01
      - -1.4516453622469685e+00
      - 1.1630555587090662e+01
      - -1.5308559262636718e+00
      - 1.1304501127220250e+01
      - -1.6092801516545689e+00
      - 1.1724351965835524e+01
      - -1.6726261696975018e+00
      - 1.2094793552833391e+01
      - -1.9219123328521928e+00
      - 1.1331897749294587e+01
      - -1.6479769897777270e+00
      - 1.1334898083978082e+01
      - -1.5824749562522702e+00
      - 1.1982759213993242e+01
      - -1.4874547348141760e+00
      - 1.2135140168047513e+01
      - -1.5858170218808070e+00
      - 1.2361060767252816e+01
      - -1.5104746879760207e+00
      - 1.1565653759967187e+01
      - -1.6101506241788539e+00
      - 1.1205959856612397e+01
      - -1.6807162897839034e+00
      - 1.1810411071066836e+01
      - -1.8911499503330162e+00
      - 1.1802827561595217e+01
      - -1.7998851387484871e+00
      - 1.1154852066922604e+01
      - -1.6815769068133681e+00
      - 1.1320437101791468e+01
      - -1.6247493285974657e+00
      - 1.1968699883023669e+01
      - -1.5239765169862469e+00
      - 1.2028976800945900e+01
      - -1.6230072700954212e+00
      - 1.2273531027373602e+01
      - -1.5590935373761097e+00
      - 1.1271658063905706e+01
      - -1.6368641569729059e+00
      - 1.1176924876476892e+01
      - -1.7213437466011601e+00
      - 1.1514774999904194e+01
      - -1.7836675701872549e+00
      - 1.2050317042523684e+01
      - -2.0617921207791516e+00
      - 1.1171070101025956e+01
      - -1.7636413767066847e+00
      - 1.1176077269850618e+01
      - -1.6932992735876311e+00
      - 1.1674596486533558e+01
      - -1.5907758957691567e+00
      - 1.1853990484798583e+01
      - -1.7024206778675430e+00
      - 1.1868609518487576e+01
      - -1.6201712166920741e+00
      - 1.1155578928157254e+01
      - -1.7213408345883947e+00
      - 1.1000763644236995e+01
      - -1.7958749701031913e+00
      - 1.1788252815110251e+01
      - -2.0514661152772202e+00
      - 1.2336516015856912e+01
      - -1.7739107163823060e+00
      - 1.1799791068585451e+01
      - -1.5702826032932786e+00
      - 1.1893290659248711e+01
      - -1.4996295987847632e+00
      - 1.2799898152487000e+01
      - -1.4164577408504206e+00
      - 1.3091158666510635e+01
      - -1.5148072984615393e+00
      - 1.3367859189812112e+01
      - -1.4716804937563654e+00
      - 1.1654408538976282e+01
      - -1.5432751272787848e+00
      - 1.1025699602548601e+01
      - -1.6065323135818912e+00
      - 1.1893811074641798e+01
      - -1.7860208103514885e+00
      - 1.1927323058087635e+01
      - -1.8311477923684503e+00
      - 1.1370601755304612e+01
      - -1.7107432554300019e+00
      - 1.1363027916994005e+01
      - -1.6442629954998531e+00
      - 1.2071391860914913e+01
      - -1.5282287620445556e+00
      - 1.2171233569651573e+01
      - -1.6154795897529390e+00
      - 1.2509834081462888e+01
      - -1.5650949572891513e+00
      - 1.1364362390147669e+01
      - -1.6503968722287139e+00
      - 1.1075688210845465e+01
      - -1.7405999935119685e+00
      - 1.1556346726148329e+01
      - -1.8104929445066642e+00
      - 1.2362120847102275e+01
      - -1.9088512615296276e+00
      - 1.1418886443521705e+01
      - -1.6248796393067753e+00
      - 1.1393607576853066e+01
      - -1.5287198767586494e+00
      - 1.2408376707265468e+01
      - -1.4703121812872877e+00
      - 1.2815154585188543e+01
      - -1.8411330487706208e+00
      - 1.2840355479449300e+01
      - -1.5207828917975701e+00
      - 1.1559221494013386e+01
      - -1.6408696796632376e+00
      - 1.1041406088024313e+01
      - -1.7134438892413613e+00
      - 1.1848602200532834e+01
      - -1.9187656776678501e+00
      - 1.2019896489091865e+01
      - -1.9575059135380273e+00
      - 1.1331622409829340e+01
      - -1.7833023716368055e+00
      - 1.1149687939873370e+01
      - -1.6771312858825103e+00
      - 1.1625938263409237e+01
      - -1.5670032853699696e+00
      - 1.2465850976868095e+01
      - -2.0082345840721318e+00
      - 1.2095697130185838e+01
      - -1.6272883485012679e+00
      - 1.1273030531286537e+01
      - -1.7682093909724979e+00
      - 1.0902126079506083e+01
      - -1.8486053793063018e+00
      - 1.1482438859370388e+01
      - -1.9498357206557291e+00
      - 1.2207849904914749e+01
      - -1.6926756464303763e+00
      - 1.1774776599568140e+01
      - -1.5912283494137702e+00
      - 1.1743898621374875e+01
      - -1.5303059272497122e+00
      - 1.2583882440945679e+01
      - -1.4418024071181565e+00
      - 1.2719024779899190e+01
      - -1.5414312771290424e+00
      - 1.3058418441765317e+01
      - -1.4811008786806454e+00
      - 1.1657161203430366e+01
      - -1.5464139938558268e+00
      - 1.1060155282599929e+01
      - -1.5971612892203257e+00
      - 1.1653348326212274e+01
      - -1.6672766017593887e+00
      - 1.1876815238878200e+01
      - -1.7991095615321446e+00
      - 1.1349956547962558e+01
      - -1.6975604494542802e+00
      - 1.1260534554686719e+01
      - -1.6147344769867646e+00
      - 1.2001952915251618e+01
      - -1.5379564140128832e+00
      - 1.2179809630430217e+01
      - -1.6416924741784511e+00
      - 1.2380750507049292e+01
      - -1.5629568986452622e+00
      - 1.1301068804563409e+01
      - -1.6338691042525872e+00
      - 1.1050708525684707e+01
      - -1.7152485179531298e+00
      - 1.1434151540151220e+01
      - -1.7730352969621586e+00
      - 1.2124962757679668e+01
      - -1.7976862827883557e+00
      - 1.1317823286996557e+01
      - -1.6574883108460432e+00
      - 1.1281031986626044e+01
      - -1.5800258036547594e+00
      - 1.2089250048559967e+01
      - -1.4968293934458785e+00
      - 1.2646545642675012e+01
      - -1.8783433667319427e+00
      - 1.2607935141343741e+01
      - -1.5309343420626289e+00
      - 1.1581750593257674e+01
      - -1.6335790911702843e+00
      - 1.1161488416443266e+01
      - -1.6944184810893925e+00
      - 1.1611083818986861e+01
      - -1.7726496828957485e+00
      - 1.1939013476439310e+01
      - -1.9139742153633907e+00
      - 1.1400985926722166e+01
      - -1.7882081636599703e+00
      - 1.1127440829948576e+01
      - -1.6848749956081897e+00
      - 1.1663513994941200e+01
      - -1.6011872901026842e+00
      - 1.2512939021233890e+01
      - -2.0346341875289773e+00
      - 1.2151296126420585e+01
      - -1.6331482710836580e+00
      - 1.1204985290489979e+01
      - -1.7318678662108649e+00
      - 1.0988631519966503e+01
      - -1.8232274759951530e+00
      - 1.1459152558099952e+01
      - -1.8967767452848585e+00
      - 1.2162550899559079e+01
      - -1.6714373975383539e+00
      - 1.1617519234388384e+01
      - -1.5873255946062634e+00
      - 1.1619871633201459e+01
      - -1.5181806268259390e+00
      - 1.2531712230249180e+01
      - -1.4509802640650165e+00
      - 1.2649360459895050e+01
      - -1.5568633343344946e+00
      - 1.2904173100411688e+01
      - -1.4964721527384417e+00
      - 1.1592731868871082e+01
      - -1.5675268787287047e+00
      - 1.1205642387996621e+01
      - -1.6181193887766705e+00
      - 1.1648877851342135e+01
      - -1.6597048784516759e+00
      - 1.2077044413362353e+01
      - -1.9067835669240523e+00
      - 1.1351929178811828e+01
      - -1.6651432489568887e+00
      - 1.1326009970948203e+01
      - -1.5918538197649914e+00
      - 1.2183331898785307e+01
      - -1.5176972323498426e+00
      - 1.2215993995653502e+01
      - -1.6177662403187612e+00
      - 1.2457897104720676e+01
      - -1.5446065194300258e+00
      - 1.1501058988672790e+01
      - -1.6298322365819711e+00
      - 1.1240392273033081e+01
      - -1.6939363799985105e+00
      - 1.1813881196880507e+01
      - -1.8952417245901643e+00
      - 1.2075202020421388e+01
      - -1.7772827896514876e+00
      - 1.1430465559193395e+01
      - -1.6716158780964552e+00
      - 1.1171856761484197e+01
      - -1.5865535749399575e+00
      - 1.1946550756037361e+01
      - -1.5127668593350883e+00
      - 1.2652883247764493e+01
      - -1.9204203667370952e+00
      - 1.2418311521574472e+01
      - -1.5375588041442101e+00
      - 1.1521743136699905e+01
      - -1.6320464976609335e+00
      - 1.1234770547671882e+01
      - -1.7044774068977742e+00
      - 1.1578346791417133e+01
      - -1.7515294096396001e+00
      - 1.2114968413916653e+01
      - -2.0232672700713898e+00
      - 1.1356724464466271e+01
      - -1.7447565370917590e+00
      - 1.1179339494660486e+01
      - -1.6682018994563517e+00
      - 1.1620084604076798e+01
      - -1.5662833370566536e+00
      - 1.2408561362768394e+01
      - -2.0161685391132478e+00
      - 1.1921222919392479e+01
      - -1.5973423446322150e+00
      - 1.1204566124450038e+01
      - -1.6940302643011433e+00
      - 1.1042775903015761e+01
      - -1.7789677996587445e+00
      - 1.1715555426221487e+01
      - -2.0070757069557881e+00
   output_scale:
      - 5.2631578947368418e-01
      - 4.9999999999999994e-01
      - 5.2631578947368418e-01
      - 4.9999999999999994e-01
   inv_output_scale:
      - 1.8999999999999999e+00
      - -9.4999999999999996e-01
      - 1.8999999999999999e+00
      - -9.4999999999999996e-01
   weights:
      -
         - -3.3751340811228451e-03
         - -1.7115317786237177e-01
         - -2.9549957817615746e-01
         - -3.9040683060325094e-03
         - -1.0292404076139873e-01
         - -5.8385665761149835e-04
         - -2.0700561920976679e-03
         - -5.3794020192992953e-02
         - -1.9443687993715243e-02
         - 5.8917312578900946e-03
         - 3.3724172777396437e-03
         - -8.1390333406983817e-02
         - -3.8152712862906300e-02
         - 1.6566427250058250e-02
         - 2.1860241479765646e-01
         - -1.9739941908832786e-03
         - 7.0009055557534857e-03
         - 6.0793064877309117e-03
         - 6.4292636793048287e-03
         - 9.3515226755235305e-03
         - 6.0868464123615511e-03
         - -6.6175223867431339e-03
         - 4.8994786577066405e-03
         - 6.8039417990596283e-03
         - -6.7492610767021432e-03
         - 4.0417343654345099e-03
         - -6.0082363658431007e-03
         - 2.6943660542071241e-01
         - 6.6522781116412633e-04
         - -5.1516991687640288e-03
         - -1.4551309063924127e-03
         - -1.5484327632461351e-03
         - 9.1006017254923724e-04
         - 7.8613219277542085e-02
         - -2.7470334345708974e-02
         - -7.9173151498982183e-03
         - 4.8416540956990883e-03
         - -2.2553123788214496e-01
         - -2.3932970525130701e-01
         - 4.4440486269477731e-03
         - 7.0417690624483020e-04
         - -1.1790855551169631e-01
         - 1.5862744641499539e-02
         - 1.6856102209914722e-01
         - -4.9973733228628116e-04
         - -1.1423188870972141e-03
         - -1.1389962939403055e-02
         - 2.3274479843430635e-02
         - 9.3027332644777638e-05
         - -2.6823325457631716e-03
         - 5.4553479341047191e-03
         - -1.8874159502238828e-03
         - 2.7128417608663764e-02
         - 1.3878185969641971e-01
         - -7.2357731947222930e-03
         - 1.8256020085290095e-01
         - -1.3984155429249024e-03
         - -2.6352434255008709e-03
         - -3.3862479269236648e-02
         - -1.6411103437735493e-02
         - -5.5412343263839675e-03
         - 2.4318043825758303e-02
         - 7.0873203591838314e-03
         - -6.9791614864930032e-03
         - -5.5479710723577512e-02
         - -5.4900694669428032e-03
         - -4.3555282832324643e-01
         - 4.1621510066995757e-02
         - 8.6853318067885658e-03
         - 3.9126328575952753e-03
         - -5.8040120953782573e-03
         - -6.4296455590702331e-03
         - -2.5038607024534054e-01
         - 2.8505046179670007e-03
         - 1.4077049523879995e-01
         - -1.7654670380754683e-03
         - -3.2311842881662428e-03
         - 4.5554080105353473e-03
         - -2.0118658542148012e-03
         - 1.0804270517946527e-03
         - -4.6620814049987619e-01
         - 6.7939305645757563e-04
         - -5.1591168136975417e-03
         - -1.2808533855008711e-01
         - 3.8266745916910095e-03
         - -9.0684193987922490e-02
         - 9.6502579374268388e-04
         - -5.8273097379825105e-02
         - 2.1809809180895175e-03
         - -9.5839227637974783e-04
         - -6.6196760982033045e-03
         - 1.7710556065451254e-02
         - 2.6428511817621226e-03
         - -4.3966051971521238e-02
         - 1.7820753186933963e-02
         - 8.7376117662553536e-03
         - 6.2431777852973097e-03
         - 2.4247291362792602e-02
         - -7.8615899989657786e-03
         - -2.0185279989322585e-03
         - -2.5547739818919949e-02
         - 6.2751371916503165e-02
         - -8.5753288467846023e-02
         - 2.1853892258371279e-02
         - -7.3577616009459682e-02
         - 2.0345771810916548e-02
         - -2.2682470098443982e-02
         - -2.6235683648419349e-02
         - 3.6380157218686190e-02
         - -2.5074764945930833e-02
         - -5.3044575979793139e-02
         - 2.8701554459638446e-02
         - -5.6565129929828976e-02
         - -6.4129312438773733e-03
         - 1.3411406379191101e-01
         - 8.7804865137575145e-03
         - -1.6490765085039910e-02
         - -3.0311496350399333e-03
         - -1.4690894710008791e-02
         - 2.9454332719455623e-02
         - -6.5856142381427131e-03
         - 3.9042220145249842e-02
         - 8.4905009285345925e-04
         - -2.4740140709093049e-02
         - 3.0885948471875407e-03
         - -1.7583863485113940e-02
         - 4.4340177202593693e-02
         - -5.3758694792218276e-01
         - 3.4599711740474472e-02
         - -1.7051065984757453e-02
         - -1.4398157022828431e-01
         - 3.3151675158112522e-03
         - -4.0249366070830621e-02
         - 3.1137634024088236e-02
         - -3.3075752297142585e-01
         - 2.2693865786613178e-02
         - 8.2847974975811776e-03
         - 7.2963640756355266e-02
         - -6.0773806632280117e-02
         - -5.6355609892573466e-03
         - 3.8449979031373550e-03
         - 2.2216614617353698e-03
         - -9.8715007735124746e-02
         - 2.6107139242257421e-03
         - 1.3792393794641018e-02
         - -2.8462334961850452e-02
         - 3.5511692955135829e-02
         - 4.1704809276358605e-02
         - 2.9624050912806611e-02
         - 1.0324656026578314e-02
         - -2.6518366224147483e-02
         - 9.4179213595760522e-03
         - -3.5042905913700094e-02
         - 3.6567589484444618e-01
         - 7.8393193723390094e-03
         - 1.4657890912533805e-01
         - -4.3778640783703492e-02
         - -4.4729465086914472e-02
         - 1.3230231751317706e-01
         - -1.4319501065262696e-01
         - 2.5780866971467999e-02
         - -2.2609154130810299e-01
         - -2.4754235240615562e-02
         - 4.1583373478573944e-02
         - -1.2693802538886167e-01
         - 3.1374217378922646e-02
         - -3.5178780266738119e-01
         - 6.6283479550381955e-02
         - -4.2573208724001985e-02
         - 4.0241058099120618e-02
         - 3.0121381176096029e-02
         - -9.9985226925858994e-03
         - -1.7755560886756633e-01
         - 8.3977266316098750e-03
         - 5.1272689467568244e-01
         - -3.3749951985937152e-02
         - 6.1424514438236924e-03
         - -4.6000062968286643e-03
         - 2.8343542541490817e-02
         - 6.0385670260409332e-03
         - -4.3315679393750162e-01
         - 5.3888308748148333e-03
         - 3.2693692500783550e-02
         - -9.9507416496856446e-02
         - -1.3686081146322261e-02
         - -2.2298562802196869e-02
         - -1.1862027756223069e-02
         - -2.4661869522655550e-02
         - -3.7306136334720547e-02
         - -1.9155396236675330e-02
         - -3.8241510345592526e-02
         - -2.4295654299089097e-02
         - 4.1443097847205262e-02
         - -5.1681523478147591e-02
         - 4.1744548229510341e-02
         - -3.7425119533505351e-02
         - -2.7956731867401233e-02
         - 3.8604871283322614e-02
         - 3.3385563085229074e-02
         - 2.1271454283375148e-03
         - -1.2960196321583961e-02
         - 3.3190638250106097e-01
         - -1.7009700836800540e-01
         - 1.4021230706570003e-02
         - 4.4382951089568584e-01
         - 1.0651934807097403e-02
         - -8.6161312767054493e-03
         - 1.1522170333525934e-01
         - 9.5782898193225666e-03
         - -1.0012378158081281e-02
         - -2.7010627187954699e-02
         - 1.6106928821731178e-01
         - -3.0162277636603271e-02
         - -1.0025215713360337e-02
         - 1.9157342227202118e-01
         - 6.9236950215897167e-03
         - -2.7676057807019907e-03
         - -5.4626552766787843e-03
         - -4.5260771805176797e-03
         - -3.3557847446109429e-02
         - -6.9087691346544963e-03
         - 1.2819575829467061e-02
         - 2.2940563791723771e-03
         - -8.8659218093889783e-03
         - 3.6587650008462883e-03
         - -4.4700916161793591e-03
         - 1.4187331138463238e-02
         - -6.1924190352790801e-02
         - 7.4787586862904067e-03
         - -4.2855479488793004e-03
         - -6.2173186884000552e-02
         - 2.7961516087500207e-02
         - -1.5836249020390335e-02
         - -1.0370299442215440e-01
         - -2.1471976767960352e-01
         - 2.7739691561381149e-03
         - 1.6259807150452556e-03
         - 6.7139345845559417e-02
         - -1.8687402707968856e-01
         - 1.2731913458450790e-03
         - 3.4962537246274613e-03
         - 1.3171573561680594e-01
         - -5.1055537589575206e-02
         - -1.2081254441892164e-01
         - 2.1729072770281252e-03
         - -5.9961656406181691e-03
         - 1.7255376122262522e-02
         - -2.5976293972188060e-02
         - 1.4462605039579935e-02
         - -1.1431071753818937e-03
         - -1.3317818060927489e-02
         - 5.8699441880413440e-03
         - 5.8999945562302023e-04
         - -9.2859114923424552e-02
         - 8.1428174199255198e-03
         - 2.2792702649733154e-02
         - -2.8632926758751055e-02
         - 6.5708212511491814e-03
         - 1.6770740589362876e-01
         - -1.3297504193712770e-04
         - 1.2399354604696449e-02
         - 2.1541678712201712e-01
         - -5.3570955747111399e-03
         - 8.4906222529390080e-03
         - 1.1402225187224654e-01
         - 1.3208268270975829e-02
         - 2.3818519842547206e-01
         - 4.0858418033698045e-02
         - -1.8030722787762833e-02
         - 1.2596954372861468e-04
         - 3.4226436692062485e-03
         - -8.1897091991659995e-03
         - 3.9604942375663160e-01
         - 7.4114021398396764e-03
         - -1.5708765106632314e-01
         - -1.5021788537244613e-02
         - 5.2951110924960637e-03
         - 4.9926458199588625e-03
         - 8.9801063167236923e-03
         - 1.7538045833453610e-03
         - 3.0785921298763650e-02
         - 1.5682181205159231e-03
         - 1.7600666070097092e-02
         - -2.3660677019919016e-03
         - -9.8110670882084420e-03
         - 1.6162961322755617e-01
         - -8.8220208362295213e-03
         - 1.6700923496517048e-01
         - -1.7678970296242096e-02
         - -7.4300323517721267e-03
         - -1.0855648226752224e-02
         - 1.1346338678681722e-03
         - 7.8618672238592174e-03
         - -2.9417912987088596e-01
         - 9.9685158352621917e-03
         - -1.5065323531784244e-02
         - -1.2097108997277121e-02
         - -2.8273242430718435e-03
         - 1.0819118838234925e-02
         - 4.1632493727382794e-03
         - -1.4953873986721562e-02
         - 2.3054024578125878e-01
         - 8.8649035680810312e-02
         - 8.5014487008947849e-03
         - 1.3851813901189949e-01
         - 3.5334245197180614e-03
         - -8.2700238767617548e-03
         - 7.6512989506196422e-02
         - 1.2229223698345200e-02
         - -6.3738538755767774e-03
         - -2.1318785094715242e-02
         - -2.4264763953462321e-01
         - 5.6402033431780301e-03
         - -1.9455655062091112e-02
         - -1.4778973344657970e-01
         - -1.7807546963948641e-03
         - -5.3910275147285693e-03
         - -4.9500742057644927e-03
         - -3.3785725329131930e-03
         - -9.4014145993204373e-03
         - -4.1929440123478455e-03
         - 1.3064931138411029e-02
         - -4.4332783452099072e-03
         - -7.0617679245185052e-03
         - 3.1221991455450872e-03
         - -4.6596670233023680e-03
         - 9.0459688893070253e-03
         - 3.6786541795745520e-01
         - 1.6716918503768573e-02
         - -7.0767876440139760e-03
         - 9.1369349465982255e-02
         - 5.7290891798899299e-03
         - -1.4797401642675611e-02
         - -4.2538394510260598e-02
         - -2.1089277031681253e-01
         - 1.1568549840866157e-04
         - 6.5296020475095794e-03
         - 1.9542550877637160e-01
         - 2.3481602455070413e-02
         - -4.4216279027527233e-03
         - -5.6075513591489464e-03
         - -1.5840499614820247e-01
         - 3.2677008609692898e-01
         - 5.4260061285462645e-02
         - 1.2109599024797727e-03
         - -1.1344923856653239e-03
         - 1.1363312642694547e-02
         - -1.9350115192726978e-02
         - 6.7014367950544232e-03
         - -3.7998488213779650e-03
         - -1.1934059687404701e-02
         - 1.0153621889605681e-02
         - -7.9529959472444001e-03
         - -1.5080688055022654e-01
         - -8.4519823712243293e-04
         - -1.1271243234358355e-01
         - -3.1783338165634126e-02
         - -6.3208680868137917e-03
         - -5.2994745553360791e-02
         - 1.1199944841019017e-01
         - 5.9837332576522760e-03
         - 1.1795289323807506e-01
         - -6.6179929757352750e-05
         - 1.0272373607307829e-02
         - 1.5245506884923948e-01
         - 1.2813842176500397e-02
         - 8.2795386529362341e-03
         - -9.5780276081400939e-02
         - -1.0092849662658764e-02
         - 3.0369522804912738e-03
         - 5.4632009869588190e-03
         - 2.3998841610575437e-03
         - 1.4676296007508205e-01
         - 7.8383815906842014e-04
         - 3.0291235104000014e-01
         - -1.5452266317950356e-02
         - 2.5495879134180190e-03
         - 1.0649477434317080e-03
         - 5.5388150943728827e-03
         - -4.2869829575822660e-03
         - -1.4550967930285716e-01
         - 7.1184455968623609e-03
         - 5.8000568308897555e-04
         - 5.8657343638164085e-02
         - -3.8193946474680621e-03
         - 2.6572848033014140e-02
         - -3.3021121613539461e-03
         - -2.6122668101427521e-01
         - -6.2852914656647829e-03
         - -3.9067549443914332e-03
         - -1.6856396812284867e-02
         - -1.5726528472104043e-02
         - 1.1968404917589852e-02
         - -3.1719158157704463e-01
         - -6.4204778264522209e-03
         - -1.2039872190300699e-02
         - -9.5238327967962638e-03
         - -7.2908615419139521e-03
         - 1.8570655634993289e-02
         - 1.5117158178656353e-03
         - -2.9597656895580127e-02
         - 2.1236179076026132e-01
         - 2.6693819167103539e-01
         - 1.9867862582771251e-02
         - 3.1148804860854588e-02
         - 7.9008613016571770e-03
         - -2.8306463587460206e-02
         - -9.9323716450482770e-06
         - 5.1332912971729046e-02
         - -2.3136695769643893e-02
         - -2.6650394237767851e-02
         - 1.8011147448955020e-01
         - -2.0342903245502524e-02
         - -2.0696879691747123e-02
         - -4.4037670689202335e-01
         - 1.4780886494393677e-02
         - -1.3171131316253424e-02
         - 6.3352503984382734e-03
         - -1.9223059045498758e-02
         - 4.2221210661686409e-02
         - -2.8777596507165051e-03
         - 3.3733434921077374e-02
         - -2.0885994828590045e-03
         - -2.3456490536458666e-02
         - 8.6602843920120208e-03
         - -1.2590557815070338e-02
         - 2.9983432477746468e-02
         - 1.1114673536296093e-02
         - 3.3987006866417147e-02
         - -8.7332797522135710e-03
         - 1.9638513157535120e-02
         - 4.0686305898629087e-02
         - -3.5562744793652561e-02
         - 5.1048844144825453e-02
         - 2.6010120465006774e-02
         - 1.4056963774947320e-02
         - 5.1887286852772519e-04
         - 2.1045160135795452e-01
         - 1.6384386470657863e-01
         - -7.0758016943224967e-03
         - -1.4851734824145122e-03
         - -2.0843071683860004e-01
         - -2.2664835879073510e-02
         - -1.3612104055303767e-01
         - 3.8571921515218122e-03
         - -2.3375758387057188e-02
         - 3.4580970710173312e-02
         - 4.5239295756151932e-02
         - 2.0632835544973319e-02
         - 4.3175967757622608e-03
         - -2.2670286944234883e-02
         - 1.1532615910907066e-02
         - -4.5833399023335400e-02
         - 1.9640178817738554e-01
         - 9.5897998653773527e-03
         - -7.3895314568650033e-02
         - -4.6154221884184533e-02
         - -3.3446195928567013e-02
         - 3.8282990047535470e-01
         - 5.8548661800765886e-02
         - 2.1717518782601725e-02
         - 1.0786437178663981e-01
         - -1.4418687016428631e-02
         - 3.4914819705998454e-02
         - -7.6412818308414593e-02
         - 2.9476370082458299e-02
         - 3.5880190129782230e-01
         - -6.5553292304130900e-02
         - -3.8964122744812577e-02
         - 3.6934207785332844e-02
         - 2.0454136395871805e-02
         - -2.2009973562196502e-03
         - 6.1655084528150092e-02
         - 1.1146316355587384e-02
         - -8.7257084313663344e-02
         - -2.6036596144519867e-02
         - 7.4964486462282230e-03
         - 1.9366856886340689e-03
         - 3.3943745926224338e-02
         - -4.5207467315742621e-03
         - -2.9368005495914551e-01
         - 8.7720174582804136e-03
         - 1.3146070537449329e-02
         - -2.1572018253120297e-02
         - -1.0777088254100389e-02
         - -6.8662045190979570e-02
         - -9.0908251474168342e-03
         - -8.2992995242694864e-02
         - -4.4752151265003946e-02
         - -9.9366751238106274e-03
         - -3.9139365580890241e-02
         - -5.0781805254864608e-02
         - 2.2189778493087613e-02
         - -1.8322959051465257e-01
         - 4.9173422517600719e-03
         - -3.1027693607542081e-02
         - -3.6775552294568747e-02
         - 3.9033854940632308e-02
         - 4.2365112006774029e-02
         - 3.8300440666465215e-03
         - -4.9757028449929665e-02
         - -4.9941851705174334e-01
         - 1.7003337251483788e-01
         - 3.9911736575015344e-02
         - -3.5778175982234056e-01
         - 2.2966993483038323e-02
         - -4.6680154101253757e-02
         - -1.0142217971278121e-01
         - 7.8892031457596684e-02
         - -3.4710058629354688e-02
         - -5.9463443049373989e-02
         - 1.0292739486869599e-02
         - -4.4761226909293142e-02
         - -1.5580218529004014e-02
         - -3.0588760665513498e-01
         - 1.3496140687135271e-02
         - -3.1647928642615099e-02
         - -4.7568170994974832e-03
         - -3.3033392705980262e-02
         - 1.1241191001912822e-01
         - -1.6738625317011792e-02
         - 6.3221422412253703e-02
         - 7.8460157216278525e-03
         - -4.9991581215753048e-02
         - 5.6404677904799720e-03
         - -2.7174080147085167e-02
         - 7.2618666034798079e-02
         - -7.8834034362602404e-02
         - 7.0232971413052847e-02
         - -1.5168993153827878e-02
         - -5.7722123400737561e-02
         - 5.2590752530759066e-02
         - -6.1991019333279891e-02
         - 1.5159524353462694e-01
         - 1.9860952692336367e-01
         - 3.1924033330754595e-02
         - 8.0010737091173994e-03
         - -6.0203382371918905e-02
         - 1.6645748414683031e-01
         - -9.4038831865500550e-03
         - 9.7924422768214444e-03
         - 4.3028747446748422e-02
         - 2.2518057684171439e-01
         - 2.9447553819052470e-02
         - 1.7743814305833498e-02
         - -3.8093453051570796e-02
         - 6.8680638697264831e-02
         - 1.3119643646890369e-01
         - 4.4254345899901765e-02
         - 9.4118484953117816e-03
         - -4.2843079330629023e-02
         - 1.8896346755719114e-02
         - -1.1853571382580061e-01
         - 1.3503332843679999e-01
         - 2.2020043125707631e-02
         - 1.2550003880993166e-01
         - -7.6304137846333664e-02
         - -8.8248344435461049e-02
         - 6.7054370559051127e-02
         - 9.7204629983781727e-03
         - 5.2193782456700984e-02
         - -1.8508902477971972e-02
         - -2.4215534147675338e-02
         - 7.1460880440873675e-02
         - -2.0498030599776595e-01
         - 5.4374442032976110e-02
         - 2.6913552115046735e-01
         - 6.3233282368710939e-02
         - -9.0617770389697705e-02
         - 8.2966409354040843e-02
         - 4.2241502110786880e-02
         - -1.0603625734992702e-02
         - 1.2920713948418330e-01
         - 1.0094370470346106e-02
         - -6.7587395763932592e-02
         - -5.5490685952681126e-02
         - 6.1667613630936235e-03
         - -5.6317775132004762e-03
         - 5.7300229744014074e-02
         - 8.2385653660287518e-04
         - -3.8289260154899291e-01
         - 1.2270353380583439e-02
         - 3.8053462633006643e-02
         - -4.1872799691306606e-03
         - -1.9054185353372579e-02
         - -1.9411457871525753e-01
         - -1.3480833387609959e-02
         - 6.0842919145984387e-02
         - -9.0323108621160053e-02
         - -2.0853168988701851e-02
         - -7.7071358858296690e-02
         - -1.0735997887846543e-01
         - 5.6458876699713882e-02
         - -3.8951227792359461e-02
         - 2.8285756764729008e-02
         - -5.8774165369710266e-02
         - -6.4473899356295356e-02
         - 9.0099253044155891e-02
         - 7.5613422653457774e-02
         - -9.2513627082233311e-04
         - 4.1811873803718628e-03
         - -2.2959566408099299e-03
         - -1.0897641652942038e-01
         - 6.7073019919754564e-03
         - -1.4034026895013482e-01
         - 2.3142837340849403e-03
         - -6.1274649474287500e-03
         - -6.3526861807754492e-02
         - -8.1921936028715968e-03
         - -6.2900656920114083e-03
         - 1.0769327063652072e-02
         - 2.4514483122367495e-02
         - -1.3463708519162650e-02
         - -6.5545948264169153e-03
         - 5.2560386256748685e-02
         - -3.8548213120401210e-04
         - -3.6030520826311652e-03
         - 7.3643411611920709e-03
         - 1.0694872750004339e-03
         - 4.1088984264237453e-02
         - 5.6324855352826919e-03
         - -5.9109098897342166e-03
         - 5.7719935676803840e-03
         - -2.7160714519084556e-03
         - 6.6046464937123651e-04
         - -2.4742583266817975e-03
         - 7.4789990699522472e-03
         - 6.3747925433848357e-02
         - 9.3364145761640743e-03
         - 9.7423485737259386e-04
         - 6.5291142518977580e-02
         - -4.6365084821812882e-02
         - -3.2492631328543066e-03
         - 7.0284805704481729e-02
         - 5.9182244503466919e-01
         - -3.4148972490845590e-04
         - -5.3006294320815110e-04
         - 1.5463353624827711e-01
         - -2.0552812133326595e-01
         - -5.1098907436050046e-03
         - -1.3998226756924023e-04
         - -1.2630199175487683e-01
         - 2.1243931397183133e-01
         - 3.8412039264127409e-02
         - 1.0042615455198877e-03
         - -1.4139432450366392e-03
         - -4.3219360733467342e-03
         - 4.7844742974600243e-02
         - 6.8273896935640366e-03
         - -2.9012891077827446e-03
         - 1.1314069879649797e-03
         - 3.8920496695872614e-03
         - -4.6122754782389794e-02
         - -6.5407929942427917e-02
         - 1.7473752484936391e-03
         - 1.2007858739274500e-01
         - -6.5848206916921366e-03
         - -1.8914747310149221e-02
         - 1.4783498742077805e-01
         - 5.8072800588201287e-02
         - -3.4735663194394704e-04
         - 2.4394753615670584e-01
         - -3.5798563584438152e-03
         - 5.8200648581079205e-03
         - -1.8506135859124215e-01
         - -3.2629063136560212e-03
         - -3.0513369444892025e-01
         - -3.8395034211249873e-02
         - -1.6518528874263996e-02
         - 1.2395414798246646e-02
         - 1.5298577669789234e-03
         - -4.7650962496181655e-03
         - -2.2925619255412788e-01
         - 4.6726202601306763e-03
         - 2.1539033693168029e-02
         - -5.8737874111704147e-03
         - -4.4690554930284735e-03
         - -2.2322597551835506e-03
         - -3.4108248074191669e-03
         - -5.3574692838724916e-03
         - -4.0159358478736897e-02
         - -1.8693982164406939e-03
         - -6.7037568167771112e-03
         - -2.6575074733199318e-02
         - -2.9925245353588379e-03
         - -1.4499055997132473e-01
         - 8.6498600197655584e-06
         - 4.5936312609536023e-01
         - -1.6816811520030051e-02
         - -1.0841714561887345e-03
         - -1.4583831806095651e-02
         - 1.3466007244370495e-02
         - -6.4872682598380669e-03
         - 1.6329684028671382e-02
         - -2.5426520881657679e-03
         - 3.6524274644119526e-04
         - -1.0331281447008863e-02
         - 5.0246399542098225e-02
         - -5.0434650607060283e-03
         - 4.2984017783577605e-03
         - -1.4644642455298715e-02
         - -5.1854149297444130e-01
         - -7.4845228968389035e-02
         - 1.0728430284013690e-02
         - -2.1831810289333485e-03
         - 5.3132765361647120e-03
         - -9.2497434458186072e-03
         - -9.9727101464839082e-02
         - 1.6443705865948372e-03
         - -1.1880567832366452e-02
         - -3.2674823309157011e-02
         - -5.4336130438313916e-02
         - -8.9509385902815930e-02
         - 5.8400184320821979e-03
         - -1.0039661593220865e-02
         - 2.7718168563041785e-03
         - -1.4284357842232174e-02
         - 1.1906526141729247e-03
         - -1.1003258124607413e-02
         - 7.1075658703996084e-02
         - -5.5697845333153194e-03
         - 1.8178701800476312e-02
         - 6.1863756791053970e-03
         - -1.6145152131068489e-02
         - -4.0493057303803903e-03
         - -2.9107189459892505e-03
         - 2.9199122230992636e-02
         - 1.5494439801800461e-01
         - 1.5828845922099981e-02
         - -9.4147750865072235e-03
         - -8.3228029071781978e-03
         - -2.0147945778927990e-03
         - -2.5279147728294905e-02
         - 1.2519224941795140e-01
         - -1.1203459884611315e-01
         - 6.5576513799892452e-03
         - 6.6226726246970506e-03
         - -1.8027496041320015e-01
         - -2.1985810716488022e-01
         - 2.5578714751484867e-03
         - -4.9737076515793963e-03
         - -1.0357300477242215e-01
         - 2.5340633892326325e-01
         - 1.5478007772871638e-01
         - 1.2781068895420612e-02
         - -5.7685911557567972e-03
         - 2.3370289278414457e-02
         - 7.0638366266474475e-02
         - 1.5284473228458653e-02
         - 2.3006737379091258e-03
         - -1.2877037971744616e-02
         - 1.3810624215188947e-02
         - -7.3644860225723835e-02
         - -8.4040923220464622e-02
         - 1.0882869383243406e-02
         - 6.4612327671270064e-02
         - -3.9364839436294728e-02
         - -3.6653056856746274e-02
         - -1.5818460762654948e-03
         - 1.4706173071647108e-02
         - 1.4341694975313899e-02
         - 1.2173472319763050e-01
         - -1.0058030455560580e-02
         - 1.9349430751444133e-02
         - -1.0424523836762423e-01
         - 1.5819957983377455e-02
         - -4.4580973401200603e-02
         - 7.7074059309039846e-03
         - -3.9890378576474303e-02
         - 3.6801866587349796e-02
         - 1.1878902230648004e-02
         - -3.2242525132760431e-03
         - 8.7722614339818664e-02
         - 1.4273449915354550e-03
         - 6.6142107316308674e-01
         - -1.7791121109960038e-02
         - -1.1817921978438200e-03
         - -5.1728494730785548e-03
         - 1.6835955418927611e-02
         - -1.0919304026405935e-03
         - -1.8107407840791259e-01
         - 1.4019793441439052e-03
         - 1.1269654984725258e-02
         - -1.7093030424460051e-01
         - -6.5176810468800745e-04
         - -1.7152812144790569e-01
         - -1.2716556481821675e-02
         - 1.7600873933224175e-02
         - -3.8681691175875978e-02
         - -7.1004260337391096e-03
         - -3.0455280729268858e-02
         - -1.8902885923365340e-02
         - 2.6525005145406674e-02
         - -6.6069747519498581e-02
         - 3.2322817711012558e-02
         - -2.6535292540406284e-02
         - -1.9632506305448088e-02
         - 1.2608077400202405e-01
         - 2.2803180151842222e-02
         - 3.6973841479940209e-03
         - -6.2522558889982292e-03
         - -1.1743881503729635e-01
         - 2.5002292884830835e-01
         - 2.2665365865193114e-03
         - -2.6173038271057136e-01
         - 1.4249208503338475e-03
         - -4.0254589191344335e-03
         - -8.9077120868994566e-02
         - -6.5167858094686039e-03
         - 9.5698793421017945e-04
         - -2.1165908358791504e-02
         - 4.4919809060751964e-02
         - -5.8320351562336656e-02
         - 1.4524748316272245e-02
         - -3.8596891422841823e-01
         - 3.2995833521877100e-03
         - -4.5348184345063471e-03
         - 3.9201511249116466e-04
         - 2.4626599442586231e-04
         - 4.5032237341160311e-02
         - 4.8375160580841651e-03
         - 2.0243238818641028e-03
         - -4.2830500297705680e-03
         - -4.8861056342090004e-03
         - -8.7973745145563569e-04
         - 7.4423482704421258e-03
         - 1.0953745268678332e-02
         - 7.8729713103772539e-02
         - 4.8375515106980384e-03
         - 4.6366480631027697e-03
         - -2.5736652192549442e-01
         - 3.1608019231959571e-02
         - -8.1580539302000578e-03
         - 1.1291338272816374e-01
         - 6.1068305352901020e-01
         - 2.1897939620213356e-03
         - -2.9801187211034839e-04
         - 4.7361612385310734e-03
         - 1.2985619356056272e-01
         - 2.5291846036588931e-03
         - 5.7034508180821991e-04
         - 1.0351196140658677e-02
         - 4.0959504711434350e-02
         - 1.9305789895437026e-01
         - 2.3175206531282325e-03
         - -2.2733677833593980e-04
         - 1.2295923502990075e-02
         - 4.8007495215112418e-02
         - -4.0079301009774866e-03
         - -4.3216253750298691e-03
         - -8.1811913164951122e-03
         - -2.3627562692934570e-03
         - -9.4459220510402161e-03
         - 1.0090422670867000e-01
         - -5.0994834086841110e-03
         - 5.5096748784340982e-02
         - -1.9777952852634933e-02
         - -2.0439167578601095e-02
         - 2.7119904158611957e-01
         - 1.7121493999141058e-01
         - 6.0420838731912226e-03
         - 1.0809995159961303e-01
         - 4.1651489544981706e-05
         - 2.4101081962761336e-04
         - -9.5085354326607266e-02
         - 5.8315179672483461e-03
         - 1.4304211469110678e-01
         - 2.8546029309806306e-02
         - -1.6583056078847767e-02
         - 1.8407292608847058e-02
         - -2.3924632616811833e-03
         - 3.2390647621681670e-03
         - 1.4683341561319235e-02
         - -1.3946524649151718e-03
         - 1.9534211626440973e-01
         - -1.2464082848768793e-02
         - 1.7082655678081946e-03
         - -2.5091065581491533e-03
         - 7.8431243408978411e-03
         - 8.0662467328721458e-03
         - 5.4275142633559155e-02
         - 1.9203009124894789e-03
         - 4.1571907867807480e-03
         - -1.3758080227441663e-01
         - 4.6380308648200311e-03
         - -9.3515674389112902e-02
         - -1.1302794370286777e-03
         - -3.3108519204575214e-02
         - -1.7968885101493914e-02
         - -4.1139300883891719e-03
         - -1.7718727572504998e-02
         - -4.1624592903381488e-03
         - 1.8720849523966607e-02
         - -1.8233627638355623e-01
         - 2.5165378883187799e-02
         - -7.9380812413357999e-03
         - -1.0319379726302326e-02
         - 7.4648777439817099e-02
         - 4.6127080898036431e-04
         - -1.8608074650889555e-03
         - 2.6266734032293949e-02
         - -9.9052771859920757e-02
         - -9.6033114215449550e-02
         - -1.6878467536021236e-02
         - 1.6945419786530327e-01
         - -8.3366525358467142e-03
         - 2.3175878033240283e-02
         - 1.9059050879529818e-02
         - -2.6558753926035305e-02
         - 1.3612263621385977e-02
         - 2.7323494136270790e-02
         - -4.1210389672968295e-01
         - 1.4419043165620371e-02
         - 6.3202002857034477e-03
         - -6.2431159274571862e-03
         - -2.5607181998545127e-03
         - 2.0539513419762827e-02
         - 4.5040154034231570e-03
         - 1.9992414872616389e-02
         - -3.7778311460074633e-02
         - 1.0259786427504327e-02
         - -3.0716087000060635e-02
         - -1.4773712532161840e-04
         - 2.5735681851709564e-02
         - -4.3111576399419609e-03
         - 1.9156000434294058e-02
         - -3.7748531919794472e-02
         - 9.3353180970942029e-02
         - -2.4773763029565722e-02
         - 1.0057768458029113e-02
         - 4.7963433445112127e-02
         - -1.1040257294765082e-02
         - 3.7026689563364933e-02
         - -2.5427779001260813e-03
         - -7.6366536893331768e-02
         - -2.3946523350763575e-02
         - -1.7007052474562500e-03
         - -1.4244675992806405e-01
         - 4.2746290305335499e-02
         - 5.0849086963349515e-03
         - -1.0148519873076915e-03
         - -9.1998811772056460e-02
         - -2.5962296962301584e-01
         - -7.7288176633864544e-02
         - -3.1799411236335747e-03
         - 1.5930321688085908e-02
         - -2.6024080398977471e-02
         - -4.4072459291581587e-02
         - -1.6175375783800506e-02
         - -2.7862902150909983e-03
         - 1.3311022608945249e-02
         - -9.1124458243612323e-03
         - 6.0495416611505787e-02
         - -1.2274903790120592e-01
         - -8.7056910644648360e-03
         - 5.6220385297357497e-02
         - 4.6044724948274204e-02
         - 4.0061546607047645e-02
         - 8.7183680590589563e-02
         - -2.6240071733928068e-02
         - -2.0675411553601024e-02
         - 3.2188079046048708e-02
         - 1.2902632382805498e-02
         - -3.6965817174157527e-02
         - 2.8869632426945017e-02
         - -2.9685895316133866e-02
         - -9.7176192338786369e-02
         - -6.7854837659786236e-03
         - 5.0910711341431304e-02
         - -4.3661120190872607e-02
         - -1.9413649824363079e-02
         - 8.5299478496378631e-03
         - -9.9369321261858993e-03
         - -1.1005353904354972e-02
         - -2.6411200778909655e-01
         - 2.8036816611806958e-02
         - -8.2572697382116839e-04
         - 2.9329925261913641e-03
         - -2.0798724157720459e-02
         - 2.7753770331542808e-03
         - -2.3472380710490842e-01
         - -8.3141979238601574e-03
         - -2.6105342874053587e-02
         - -2.7971763932762139e-02
         - 1.1353283048933408e-02
         - -2.1572294764996233e-03
         - 1.0563773376257935e-02
         - 1.6111463113239935e-01
         - 4.3555068103430496e-02
         - 1.1277190126349184e-02
         - 3.2621840966210611e-02
         - 3.7171526851409814e-02
         - -1.8028323883352602e-02
         - -7.5173969659738746e-03
         - -5.4431025642078705e-03
         - 2.9789651769930606e-02
         - 3.6937305176720649e-02
         - -1.3740245237289148e-02
         - -2.8898688412425003e-02
         - -6.9776374985916862e-03
         - -2.2952423316692567e-04
         - 6.1230851512082539e-02
         - -3.6111431222241192e-01
         - -1.8073358221508686e-04
         - 3.5663546678867354e-03
         - 7.0513222009981821e-03
         - 1.7064699323860928e-03
         - 7.9822892301581808e-02
         - 9.5360565293434833e-03
         - -8.1441945459520167e-03
         - -2.4092948831945220e-02
         - -3.0593469543480206e-01
         - -3.3366937614989566e-02
         - 1.7087636764813628e-03
         - -2.7060457431279640e-02
         - -5.1213103146349986e-04
         - -8.6243115335892968e-03
         - 6.0167509026707875e-03
         - -6.7557579085510073e-03
         - -1.0843897139240319e-02
         - 2.4965898148630932e-03
         - 1.1258024746452671e-02
         - 3.6390196860754385e-03
         - -5.7533565575207104e-03
         - 4.0228126038559407e-03
         - -6.3907997928328575e-03
         - 8.7136220801650472e-03
         - -1.9054893403201312e-01
         - 1.6536506463631635e-03
         - 9.3863337948326320e-04
         - 1.1498049170535175e-01
         - -2.3825090511576708e-02
         - -6.4188417448086468e-03
         - -3.9570441517683803e-02
         - 1.4953645450598815e-01
         - 8.0522172394002396e-03
         - -1.6295648391536964e-03
         - -1.7735338162464834e-01
         - 5.4531034299751110e-03
         - -1.9577953717371451e-04
         - -4.9585514724397230e-03
         - 3.4499718223321013e-02
         - -2.5533682945820246e-01
         - 1.2514521676594503e-01
         - 4.7631527139871512e-03
         - -1.1082411666938980e-02
         - 3.5969213775081869e-03
         - -5.5463987778883806e-03
         - 1.1375904512866046e-02
         - -3.1616438926633009e-03
         - -1.2902613147926583e-03
         - 7.9980246205141857e-04
         - 6.2905386420708705e-03
         - 6.8793582873809087e-02
         - 9.4572207103013756e-03
         - 9.8027488809707700e-02
         - -4.7421531295379123e-03
         - 1.7665379727160877e-03
         - -1.0601604047647463e-02
         - -1.0896207722999167e-01
         - 5.3379652142088218e-03
         - -2.4808086412610705e-01
         - -8.0251918072112259e-03
         - 4.4540038627387032e-03
         - -2.4576821133084920e-02
         - 1.1945497547781153e-02
         - -2.1051840959353080e-01
         - 5.1277353990596013e-02
         - -5.1691292467801603e-03
         - 1.8754434359345158e-03
         - 9.1091549213067752e-03
         - 3.5760629779056008e-03
         - -1.5483084913955866e-01
         - 6.9498707345052330e-03
         - 1.0412898162326296e-01
         - -4.3226534630023874e-03
         - 4.2233593790260366e-03
         - 4.3352948608124291e-03
         - 1.1353954962875277e-02
         - 3.8553747877292091e-03
         - -3.0932340861061280e-01
         - 6.1831144145234789e-03
         - 1.4654907522620364e-02
         - -7.3158524458820512e-02
         - -8.0982156528475492e-03
         - 8.5497261175975059e-02
         - -1.3101333667574150e-03
         - -5.8656605863182915e-02
         - 3.3335847117120904e-03
         - 5.7867743488478713e-04
         - 1.0225021795653845e-03
         - -4.8752906148498169e-03
         - 1.8629816772849490e-02
         - 5.3048051914329597e-02
         - 2.0378661165816048e-02
         - 2.1105345574831801e-03
         - -4.7439391443882808e-03
         - 2.3783594673876016e-02
         - 1.4548635399551988e-02
         - -1.9742685537174937e-03
         - -6.5856087415440863e-03
         - 1.0247095434730032e-01
         - -9.0531843347485624e-02
         - 8.2419333890690599e-03
         - 2.3648489459184635e-01
         - 9.9225275397571266e-03
         - -6.3039666799438662e-03
         - 1.3596238944623645e-01
         - 1.2618813550693711e-02
         - -1.0457523417701156e-02
         - -1.3864153488938484e-02
         - 4.9497898829026978e-02
         - -4.5891379444414022e-02
         - -1.6217722755164414e-02
         - 5.5478477495366559e-02
         - -2.0019077269358117e-03
         - 7.4797347339545088e-05
         - -2.8646227025372400e-03
         - -3.6905323839931401e-04
         - -2.2862716353304814e-02
         - 9.9435601252996259e-04
         - 5.8897090910613493e-03
         - -3.2464453641964362e-03
         - -1.3236586206912990e-02
         - 7.7773684258075973e-03
         - -5.8996895797741034e-03
         - 1.2476673589774862e-02
         - 1.9099555132795235e-01
         - 7.7201499366929020e-03
         - -3.0670829756552845e-03
         - -9.2535193183673758e-02
         - -1.9866624848799527e-02
         - -5.7847754924493294e-03
         - -8.4718240440386269e-02
         - -1.3333345667733790e-01
         - 2.4667660963764975e-03
         - 3.1307774474129534e-03
         - -6.1934602374071487e-02
         - -1.9339600309464383e-01
         - -4.3722463248852556e-03
         - 1.5554397756653605e-03
         - -3.0601723479210672e-02
         - 2.9014809319185958e-01
         - 2.6329286917365021e-02
         - 2.7219802418853639e-03
         - -6.2468439037108824e-03
         - 6.3640479459290619e-03
         - -2.2627367333379077e-02
         - 1.4078973559673984e-02
         - 4.5429428349364797e-03
         - -1.3753807743514203e-02
         - 1.2648497065345793e-03
         - -1.5061696657267790e-03
         - -2.5669634573537253e-01
         - 7.4518767704188164e-05
         - -1.1044995266829674e-01
         - -1.5643858410046761e-02
         - 5.5354288725395174e-03
         - 2.7026569378174670e-01
         - 1.0237153766240259e-02
         - 1.2354911063865187e-02
         - 3.3740341039003863e-02
         - -6.1582281363320255e-03
         - 8.2659796938179646e-03
         - 4.6591824895114507e-02
         - 1.0071738983323520e-02
         - 5.1807696907874928e-02
         - -3.1113302345667452e-02
         - -7.6973250579064779e-03
         - 8.3759173834729687e-03
         - 4.5799585195405602e-03
         - -7.8445913547029178e-03
         - 9.2521056391358603e-02
         - 1.9379438634527255e-03
         - -5.5120369210872967e-02
         - -1.5839459956545978e-02
         - 4.1039215478995278e-03
         - -3.6826178741180670e-04
         - 6.1967269172802297e-03
         - -4.4896734131522143e-03
         - 1.3294583474236210e-02
         - -3.4817535710277084e-03
         - 1.5282369592874547e-02
         - -9.6728759051905561e-02
         - 1.1394509143075441e-03
         - 1.5959214887818732e-01
         - 2.9754033396027775e-03
         - -1.3812678016914151e-01
         - -3.3541751555048213e-03
         - -1.0147571206681133e-02
         - -5.6056481175850766e-03
         - -1.8697285190679796e-02
         - 1.8203003323958238e-02
         - -8.2428548969160950e-02
         - 1.4269501670155890e-02
         - -1.2299930966740980e-02
         - -7.6041040018188771e-03
         - 4.3578006132589164e-02
         - 1.6458475220033027e-02
         - -5.2362709185781332e-03
         - -1.8164271106405831e-02
         - 1.5490182441218947e-01
         - 3.2507013802772723e-03
         - 1.5241142782205905e-02
         - -2.8604034216788543e-01
         - 1.4225973079092145e-03
         - -1.8377774090303806e-02
         - 7.6747666762107050e-02
         - 2.9156627902187333e-02
         - -1.5900980976901971e-02
         - -3.5707344786745518e-02
         - -2.5030986510630771e-01
         - -3.9042200956533733e-02
         - -2.5777308189828117e-02
         - -1.9269175956756063e-01
         - -1.1641549181390294e-03
         - -1.2001753929465163e-02
         - -9.0731220250728889e-04
         - -1.3723236206164694e-02
         - -8.0565782915235327e-03
         - -5.9964219537516810e-03
         - 2.2453866256682130e-02
         - -4.9700700498201481e-03
         - -1.7641591033790288e-02
         - 8.8139105218864380e-03
         - -1.1741660972984883e-02
         - 3.0316434041534814e-02
         - -1.7057458012721224e-01
         - 2.0084194981743284e-02
         - -5.7740207625528615e-03
         - 1.1326428009775286e-01
         - 4.2789912332282826e-02
         - -1.4838895600694364e-02
         - -3.8013362125406812e-02
         - 8.2087401642826685e-02
         - 5.0458003928593089e-03
         - 2.5022551756436633e-03
         - 2.4865032948588880e-02
         - 3.9292123765101501e-02
         - -6.8191894293774214e-03
         - -3.6097441770057636e-03
         - -7.7890897406253295e-02
         - -1.7530506930913847e-01
         - 3.3441910561560109e-02
         - 5.5488535617834968e-03
         - -9.2883081406422551e-03
         - 1.5662904128490369e-02
         - 5.7115415760155682e-03
         - 1.1426454220313506e-02
         - 4.9246129337621510e-03
         - -1.4763684338644951e-02
         - 1.0925394122859707e-02
         - -1.2079867375985360e-02
         - 2.0299234871498744e-02
         - 6.5561490095964086e-03
         - -3.3952569438347083e-02
         - -4.2912084461804716e-02
         - -1.2088886377264945e-02
         - -2.0556208107446736e-01
         - 9.1498366299023540e-02
         - 1.9471735182476996e-02
         - 2.2658347271543591e-01
         - -1.5904706667792264e-02
         - 1.7883238167652422e-02
         - 8.9872646071031126e-02
         - 1.9012330954018119e-02
         - -3.2675922503619698e-02
         - -6.9778137596654841e-02
         - -3.0887993222621708e-02
         - 2.0312914802503145e-02
         - 1.5342095655558859e-02
         - -9.2771659658464675e-03
         - 2.5622135009487162e-02
         - 3.2893510023671406e-03
         - -1.5584126933583844e-01
         - -1.3957288090000635e-02
         - 5.3784172125368700e-03
         - 1.1086494057436984e-03
         - 1.2151400311328518e-02
         - -1.5527316830454177e-03
         - 1.1242470604807922e-01
         - 1.1888636560537249e-03
         - 8.8714071338898744e-03
         - -6.6356571496187830e-02
         - -1.2207114718367561e-03
         - 4.3299332358243382e-02
         - -9.3451756911397642e-03
         - -2.3250795089069870e-01
         - -1.8926103845447427e-02
         - -7.7093826962113653e-03
         - -2.2261843500997001e-02
         - -2.7917009765688328e-02
         - 2.3326509624270943e-02
         - -1.3140853824639687e-01
         - 2.2534377895523801e-03
         - -1.7747633225540505e-02
         - -2.1373271147186051e-02
         - 3.9251680353730292e-02
         - 1.7163522612141966e-02
         - -5.1194938823296149e-03
         - -7.2783026470201306e-03
         - 1.6112526413935502e-01
         - -2.4681703430955576e-03
         - 5.8513849116988963e-03
         - -1.7165869980388035e-01
         - -3.6740928780886850e-03
         - -6.6801979696139609e-03
         - 4.2490662295701226e-02
         - -3.4352833332837764e-03
         - -8.0298835268219054e-03
         - 1.3027678291956614e-03
         - 1.0162109280163843e-01
         - 1.2895295055692311e-02
         - -1.6859461548701417e-02
         - -5.9608582869612126e-01
         - -4.2286467046572336e-03
         - -5.0155129185395211e-03
         - -3.4209088710867399e-03
         - -3.7291304621954835e-03
         - -8.4745252990707214e-03
         - 1.5724334137410909e-03
         - 9.0151226715777244e-03
         - -3.9525387902280742e-03
         - -1.7871095628629072e-03
         - 3.2401758358171825e-03
         - -2.7756461204099291e-03
         - 2.5171971434591856e-03
         - 1.8774160096736295e-01
         - 5.4401464532092105e-03
         - -7.6066923907149838e-03
         - -3.5547297645437501e-02
         - -1.5201317847526739e-02
         - 1.6416852147475224e-03
         - -3.3098914085672441e-02
         - 1.7572493238053102e-01
         - 2.8816596510046941e-03
         - 4.2028756221866017e-03
         - -3.8842718263009085e-02
         - -6.1096886638463639e-02
         - -9.2847867371036619e-04
         - -2.4831353810078009e-03
         - -1.1581658712211736e-01
         - 9.2111596995983314e-02
         - 4.6679604431646878e-03
         - -2.2320041568827192e-03
         - -6.8731052588929687e-03
         - -1.8824135422887448e-03
         - -9.0080338682578340e-03
         - 5.1579171655346898e-03
         - 1.2011318462998757e-03
         - 1.5591331154631725e-03
         - -9.2853305828490110e-05
         - 2.1137840097554133e-02
         - 5.6295534261981431e-02
         - -2.4793269043447096e-04
         - -1.7188117175880457e-01
         - -1.3369085002634725e-02
         - 8.0356145436241474e-03
         - -3.9529206736572092e-02
         - 1.4386261553505561e-01
         - 5.5917849839003273e-03
         - 3.3540611108352375e-01
         - 2.5682297727060107e-03
         - 6.5801459078121676e-04
         - 4.6045077425294317e-02
         - 7.0433140722801282e-03
         - 2.2032865816514019e-01
         - -9.7888168746898679e-02
         - -2.1645495046185193e-03
         - -7.1001075687379227e-03
         - 3.5770707071562627e-03
         - 4.2386769707114926e-04
         - -1.3176990705393002e-01
         - -4.1857701226311137e-03
         - 3.1405469745907383e-02
         - 1.7885949399729136e-04
         - -3.9236307418110050e-03
         - 1.5170202178414766e-03
         - -8.7846330541813155e-04
         - 2.3311476998822715e-03
         - 1.1999931152383457e-01
         - 1.9279805905283922e-03
         - -1.1843023670622094e-02
         - 2.0395417692573397e-02
         - 1.3349063029103724e-03
         - 2.3243080413485918e-02
         - -7.4487260162794996e-03
         - -2.5629992150914305e-01
         - 1.4117407142839350e-03
         - -2.4284600790700234e-03
         - -1.4431859455627763e-03
         - 2.0217158608054459e-03
         - -6.7277118182407589e-03
         - -1.7464324640356751e-01
         - -9.7668001616320090e-03
         - -7.2898930883299766e-03
         - -1.3174280004075863e-03
         - -2.9364007910603809e-02
         - -2.6417114500307823e-03
         - 4.4790345151748271e-03
         - -1.1158766537599552e-02
         - -1.4679552335214258e-01
         - -1.0532425466368264e-01
         - 4.2805014678824098e-03
         - -1.5878980757384792e-01
         - 8.4311168980865572e-03
         - -1.1930997087787077e-02
         - -2.3942984003801930e-03
         - 4.3190729613992399e-03
         - -1.0619368834557181e-02
         - -5.6806812423604754e-03
         - -4.1120816825766188e-01
         - -3.6546681202412881e-03
         - -8.1390668934020523e-03
         - 2.8572948317009156e-02
         - 2.4915238502347227e-03
         - -5.3860206041114658e-03
         - -1.3125454046618253e-03
         - -6.2555454755525777e-03
         - 3.3723179073998237e-02
         - -2.9883462994443216e-03
         - 1.2076956313389231e-02
         - 7.6518834710671592e-03
         - -1.0115890873967668e-02
         - -2.1469453439824297e-04
         - -1.0995888242598917e-02
         - 1.5617574125982562e-02
         - 5.9538657458435139e-02
         - 1.8469900949398061e-02
         - -7.8195445553765029e-03
         - -8.5075720011346390e-02
         - 2.3776492073349399e-02
         - -1.3986517161697276e-02
         - 3.5281689332062847e-02
         - 2.8881004782796982e-01
         - 1.2728110612002961e-02
         - 4.0100490647644515e-03
         - 5.8334623734563211e-02
         - 4.5783565740922169e-03
         - -4.1731448982460411e-03
         - -4.0215417400254879e-03
         - 7.8812303644303944e-02
         - -2.0362631395311270e-01
         - -1.0829441883699641e-01
         - 5.8211885506797637e-03
         - 2.6591950447240399e-04
         - 1.0962081431985604e-02
         - 4.0233422078336252e-02
         - 6.6408666041705153e-03
         - 3.6771284055271045e-03
         - -4.9489520386774349e-03
         - 1.0978235410038307e-02
         - -8.2721501653651337e-03
         - -2.2142774910681270e-02
         - 4.5155416771445198e-03
         - 4.3917031887384869e-02
         - -1.0408438321860626e-02
         - -7.4199930888190491e-03
         - -3.0978263077232343e-01
         - 9.8612091374693497e-02
         - 1.2682198638568421e-02
         - 6.8376329603265618e-02
         - -1.0722138193064112e-02
         - 9.2554735664019880e-03
         - -6.8187477028677418e-02
         - 6.2375302569653819e-03
         - 2.8843995589941995e-01
         - 3.4948692813286560e-02
         - -2.7983412878618729e-02
         - 5.4899490642815688e-03
         - 1.0213877687331129e-02
         - 4.0303007221916846e-03
         - 3.6597706245864770e-01
         - 2.7297896620427052e-03
         - 5.9120000141649989e-02
         - -4.1324460410232166e-03
         - 5.5370586344391914e-03
         - 3.6742765746179862e-03
         - 6.9322767665414365e-03
         - -5.2166787927851767e-03
         - 3.0245814896530260e-01
         - 1.5487003503028289e-03
         - -4.9025974515942033e-04
         - 6.2944960136145731e-03
         - 9.0875876626712957e-04
         - -4.9168892330920387e-02
         - -3.4296552012946994e-03
         - 1.8950977917437214e-02
         - -1.6623981976861227e-02
         - -8.2331198152162440e-03
         - -1.0032058578920658e-02
         - -6.3812503960933948e-03
         - 4.5557822400866437e-03
         - -3.8001509242863642e-02
         - -1.3244991608001462e-03
         - -1.2857140198264115e-02
         - -1.0470438859019320e-02
         - 1.9501973145014544e-02
         - 7.3175824915992747e-03
         - 5.2480670648730326e-03
         - -1.5221080659369411e-02
         - -2.0742088278384013e-02
         - -5.7436476673170429e-02
         - 1.1179448552578375e-02
         - 1.2866689126043832e-01
         - 5.9762791240039973e-03
         - -8.2546650283819665e-03
         - -7.6811807651963354e-02
         - 4.1552983254850521e-03
         - -1.4593941563974611e-02
         - -1.0831576698872702e-02
         - -3.7097590442473949e-01
         - -2.3180464649742685e-02
         - -2.6344082005261981e-03
         - -3.0490904149329059e-02
         - 5.2423905931491032e-03
         - -1.0894227482230323e-02
         - -7.0081203591993530e-04
         - -4.0405919320401027e-03
         - 4.9586041056570426e-02
         - -7.8762274413826383e-03
         - 1.2815963500876965e-02
         - 2.3815963002063161e-03
         - -1.4469039182170075e-02
         - 2.0899535279490819e-03
         - -1.0153448884624695e-02
         - 1.3742305136102573e-02
         - -1.5035428778731477e-02
         - 2.1782710310710895e-02
         - -3.3431078181160498e-03
         - -2.5062211621975067e-01
         - 3.6050490788875301e-03
         - -1.5381066822679260e-02
         - 8.5186771281951623e-02
         - 6.8879717300809251e-01
         - 1.7713178918337277e-02
         - -3.2336809025711628e-03
         - -7.2617623979405618e-02
         - -1.1104216340527544e-01
         - -6.5430459570508994e-03
         - 3.1743597223187476e-03
         - -3.4516407611478471e-02
         - -4.8484888632745965e-01
         - 7.2446398624828809e-02
         - 1.3311156380227963e-02
         - -4.8892443399560174e-03
         - 1.5563059728990645e-02
         - 4.4243852179930307e-02
         - 9.1585143970415190e-03
         - 1.6703982764691591e-04
         - -8.6712323048521410e-03
         - 9.1741913599608978e-03
         - -4.4340032385778445e-02
         - 6.0881936946152682e-02
         - 3.9189120509691066e-03
         - 1.1173923327397890e-01
         - -2.2206781551859012e-02
         - -3.1373216946743387e-02
         - 7.5606578097253352e-02
         - 2.3475808376727005e-03
         - 1.3420489307169542e-02
         - -5.1649488659634361e-02
         - -1.3869637086713156e-02
         - 2.1400575681614097e-02
         - -1.6952643181292004e-01
         - 7.9233685548613497e-03
         - -3.0752626316835241e-01
         - 2.7173033978886586e-02
         - -4.0647648003925327e-02
         - 2.5716740380410961e-02
         - 1.5452962563389232e-02
         - -8.4225397884263101e-03
         - -2.3433523175955751e-01
         - -3.2043239955667525e-03
         - 4.1597134385482537e-01
         - -2.0346424922284095e-02
         - 5.9887498456145903e-03
         - 1.9330670581040456e-04
         - 9.5591608641495858e-03
         - 4.0694082722717408e-03
         - 2.1853072542106333e-02
         - 5.7252794294652726e-04
         - 1.1503591287012787e-02
         - 1.7539987974791553e-02
         - -1.1884901351725518e-02
         - -1.4517689261681896e-01
         - -8.0884829847677805e-03
         - -7.6009759986386080e-02
         - -2.4844890977384706e-02
         - -7.1346056926468761e-03
         - -2.3531767411945445e-02
         - 1.8164168808636159e-02
         - 9.3852003668962233e-03
         - 1.9345639453232418e-02
         - 4.4067938710622163e-03
         - -1.6246494549827153e-02
         - -2.0353112939303714e-02
         - 3.0232820606514953e-02
         - 1.0088230380525221e-02
         - 4.3697757176436721e-03
         - 5.2723989565673663e-03
         - -2.6905184917987789e-02
         - -2.7466695000021989e-02
         - -1.3228503825236018e-02
         - -1.6647773114739126e-01
         - -2.9291534752475369e-03
         - 8.0150168799273218e-03
         - -5.3323393082524158e-02
         - -2.2493116808594837e-02
         - 1.3856385629526284e-02
         - 1.5567904045243674e-02
         - 2.5468023384560695e-01
         - -1.1726447072467797e-02
         - 9.5814109853176489e-03
         - 3.2899220159675224e-01
         - -2.5743277699623855e-04
         - 9.4799292074838736e-03
         - 2.3952814550553671e-03
         - 9.5227195053600965e-03
         - 9.9326456492127273e-03
         - -2.2783505278678979e-05
         - -1.8353678684424918e-02
         - 3.1784206775368798e-03
         - 9.8185009539302308e-03
         - 2.0992918540486197e-03
         - 4.4565252300048036e-03
         - -9.3725823398985702e-03
         - 4.4589193618329290e-02
         - -8.8612461619799101e-03
         - 2.2857736601436763e-03
         - -2.2824886658494841e-02
         - 6.1326013047038407e-02
         - 8.4422825346749612e-03
         - 3.8675961586298088e-02
         - -2.3471329129579363e-01
         - -9.5669025102188623e-03
         - 2.3702624180743140e-03
         - -2.2614231799916629e-01
         - 1.5922613101873787e-01
         - 3.8023628567860385e-03
         - -1.9774580455793429e-03
         - -4.9109553595951955e-03
         - -2.1800180137868764e-02
         - 1.4007826325498143e-01
         - -6.6547740497476457e-03
         - 5.7328314311297776e-03
         - -7.5462204106474711e-03
         - 2.9599130337164496e-03
         - -1.7182789579004265e-02
         - -9.1234348895631746e-03
         - 1.2373412750087524e-02
         - 4.5425288002030545e-03
         - -1.3463655899728765e-02
         - -4.9607174945774352e-02
         - -9.9924876523715435e-04
         - 9.8165223431634058e-02
         - 1.1478218623375903e-02
         - 2.0076800144289428e-03
         - -2.0786222432307086e-01
         - 3.9148261151383063e-02
         - -9.7206405812769979e-03
         - -5.4474669955035054e-02
         - 1.0842059364071566e-02
         - -1.3772637111610576e-02
         - -6.7813778420281023e-02
         - -1.5042741450027883e-02
         - -2.0114356984770751e-01
         - 3.3115410451131914e-02
         - 9.8797143407491073e-03
         - -1.7181738081293964e-03
         - -1.6099649354115312e-03
         - 7.0606535313714929e-03
         - -1.3555041972547968e-02
         - -2.4409462532426664e-04
         - 4.2394429455659556e-02
         - 9.8651623102085553e-03
         - -3.3690936109547877e-03
         - -3.0679425161431861e-03
         - -1.4178254999897650e-02
         - 7.7603479806686844e-04
         - -1.3627894721928083e-01
         - -7.4874522214743323e-03
         - -5.1179765893664547e-03
         - 2.8094073144443885e-02
         - -8.1789796800053893e-04
         - -6.2756251756889661e-02
         - 2.1592508895757826e-04
         - 5.5988058145390041e-02
         - 3.3777115985745058e-03
         - 1.9865763006087435e-03
         - 5.6756099713793778e-03
         - 3.4001134997333059e-02
         - -5.6953624087500978e-03
         - 5.3869077472336199e-02
         - -8.5852446679027580e-03
         - 9.8691444579993345e-03
         - 4.4585168264865320e-03
         - 1.7451413547715407e-02
         - -1.2515920819815025e-02
         - -9.6084385188908137e-04
         - 3.3118181007186318e-02
         - 3.3898688264089753e-02
         - 1.3531638934386656e-01
         - -3.5654969103431793e-02
         - 1.8559216192318689e-02
         - -1.3922098298772398e-02
         - 3.1827420234010868e-02
         - -1.2494950099567885e-02
         - -7.1215682890593018e-02
         - 3.4348581649505876e-02
         - 5.1204649368344402e-02
         - -2.4636003871568454e-01
         - 2.3763536056156217e-02
         - 1.5638284415536566e-02
         - -3.8564678613213367e-02
         - -8.6436963702719201e-03
         - 2.2375549669359830e-02
         - 3.9133345326488782e-03
         - 2.6699220643328688e-02
         - -4.1331409425690226e-02
         - 9.2511888020656730e-03
         - -4.7642789570060400e-02
         - -5.8591443940623706e-03
         - 3.9400591206614086e-02
         - -5.1018279699465690e-03
         - 2.5808145738423795e-02
         - -5.1328371850037809e-02
         - 5.7409905868778775e-02
         - -4.1598818811468465e-02
         - 1.3033335253545964e-02
         - 2.0981459549608859e-02
         - -1.5683524165538806e-02
         - 5.1672246981747050e-02
         - -1.3620889953576353e-03
         - 3.3334640210640455e-02
         - -2.3338506048941530e-02
         - -1.1771965770519798e-02
         - -1.8094941171936485e-01
         - 4.6225622480480164e-02
         - 1.0894341444785198e-02
         - 8.0521125827698521e-04
         - -1.2025127433316322e-02
         - 1.0163813711394687e-02
         - 5.6430925025795310e-02
         - -1.0527254845394652e-02
         - 2.4497010491358565e-02
         - -4.2751454945295780e-02
         - -4.9577168938565563e-02
         - -4.1632404879191114e-02
         - -9.9990038819594163e-03
         - 2.9567426631661110e-02
         - -1.8146135077431975e-02
         - 6.5647343346253190e-02
         - 1.7202347213560315e-02
         - -1.4302638391948432e-02
         - 1.4693318435034311e-01
         - 4.8126083853760021e-02
         - 5.1906829651070213e-02
         - -3.5047458525599279e-01
         - 1.7425819770514539e-01
         - -3.4674432927252474e-02
         - 1.5717782865277080e-01
         - 1.8357947141691495e-02
         - -5.5196247318271351e-02
         - 3.8278922785118026e-02
         - -4.4948037942471160e-02
         - 3.3279931043793370e-01
         - 2.7573020439072886e-02
         - 6.4143836729770976e-02
         - -4.8356825833783784e-02
         - -3.3308221035852022e-02
         - 7.3909967799642715e-03
         - 3.6997506235808725e-01
         - -1.3357828020348465e-02
         - 1.8683840532974186e-01
         - 4.9730144639874262e-02
         - -7.0594035864153292e-03
         - 4.7265931285808910e-03
         - -4.6243386935361321e-02
         - -2.7043571562750113e-03
         - -8.6048475661533994e-02
         - -7.1936904145306468e-03
         - -4.8892639653906105e-02
         - 9.2060143859647656e-03
         - 2.2809311736389389e-02
         - -2.3007605238579757e-02
         - 1.0585718658350472e-02
         - -9.5332038006605599e-02
         - 4.8970024144907830e-02
         - 1.7074611177498877e-02
         - 4.6752772595663870e-02
         - 8.9200846184147559e-02
         - -4.4991446315417592e-02
         - 1.6073488694653516e-02
         - -2.2123274296338046e-02
         - 3.7369769491781502e-02
         - 4.5319079590190110e-02
         - -1.3585987431842937e-02
         - -5.5046084729416946e-02
         - 2.5557106860099642e-03
         - -4.6239549266453425e-03
         - -1.8852182902917244e-01
         - -2.8549065466914980e-01
         - -1.1518551970242702e-03
         - -4.0290830064572229e-02
         - 2.2451854037262533e-04
         - 2.4910985076432141e-03
         - 4.9090693070272208e-04
         - -4.3957375781672323e-04
         - 4.2473611665287446e-03
         - -2.6038177748555140e-03
         - -1.2182275020316458e-01
         - 9.5826387719925125e-03
         - 9.3271202583227412e-03
         - -1.5335796604626153e-01
         - -1.1649583572424112e-03
         - -5.9946794473781364e-03
         - 4.5760187911619652e-03
         - 2.0262206469899994e-03
         - -4.2146803974157073e-03
         - 1.3507284479711911e-04
         - -1.9205439281028965e-04
         - -5.4405626642618360e-03
         - -3.7345575159711502e-03
         - 4.8597486058630252e-03
         - -3.0048457477891721e-03
         - 5.3174995072325960e-03
         - -1.5489279412793830e-01
         - 3.1545911765290639e-03
         - -1.8504045202433709e-03
         - -2.6653696344843031e-01
         - 2.8931083294096178e-02
         - -5.0238485893445723e-03
         - 1.2673786361725467e-02
         - -6.4006347539006123e-02
         - -3.1227869689004870e-03
         - -5.9266263161629582e-04
         - -1.1268466711566576e-01
         - 9.8317463068011146e-02
         - 4.6417726835047673e-03
         - -6.3542247490051438e-04
         - 7.4364661047326780e-02
         - -4.2697918501819136e-02
         - 5.9721724898279260e-03
         - -1.5758176489758672e-03
         - 4.9752228149549914e-04
         - -3.2265261282118734e-03
         - 6.4033169391318652e-03
         - -1.5186815477838810e-03
         - 6.2128236587550407e-04
         - -7.3637160611944867e-04
         - -2.2616896443329731e-03
         - 1.9333506317657869e-02
         - -1.5770069850772203e-01
         - 6.2408307214627300e-03
         - 1.1905715524581127e-01
         - 6.5233309470769454e-03
         - 1.6235862401717792e-04
         - 8.0426339690821804e-04
         - 4.8660923056707687e-04
         - 1.5834496979468937e-03
         - 1.2182973364919568e-01
         - -1.1723995149196303e-03
         - 6.6841339072920168e-03
         - -9.5477197851185538e-02
         - 3.9917114120998406e-03
         - -2.1495838495574043e-01
         - 5.5937426878379798e-02
         - 1.0459209927416659e-03
         - 1.2947008694459884e-04
         - -1.3884978836216746e-04
         - -3.8142187921842317e-03
         - 1.5287550996622007e-01
         - 2.4406216423098373e-03
         - 4.5200658054966186e-01
         - -7.2648194544414233e-03
         - 1.9546042136004173e-03
         - 2.7035603354329590e-03
         - -1.4729374233220479e-03
         - 2.4002892550778021e-03
         - -3.4735660690908032e-01
         - 3.8324645859462414e-03
         - -3.1624992949202181e-03
         - -2.3754702682682930e-02
         - -4.3758479319421315e-03
         - -2.0380955728065094e-02
         - 4.4367850327227034e-03
         - 5.2096861351988356e-02
         - 3.7668036888150358e-03
         - -3.4895213625046081e-04
         - 3.6745499612300574e-03
         - 4.2999065561345421e-03
         - 7.3939337532702874e-03
         - -1.0974360537387393e-01
         - 3.9042573608854565e-03
         - -6.8245647969074610e-03
         - 2.6298972778336879e-03
         - -6.9772673718229697e-03
         - -4.5962478387923241e-04
         - -5.1585499884722469e-03
         - -8.4610681446684686e-03
         - 1.4224932188599214e-02
         - -2.1993974416395798e-01
         - 7.1149886317589681e-03
         - -3.7122482172931076e-01
         - 6.3595150359344816e-03
         - -6.8574282494238592e-04
         - 7.6549873339326710e-02
         - 8.2740900630567851e-03
         - -9.2410022525623615e-03
         - -1.3913457407076885e-03
         - 1.8289200046346657e-01
         - -9.5639091222676810e-03
         - 6.9557823562567097e-03
         - -2.5109877928863278e-01
         - 3.6246131853581498e-05
         - -1.8340971631232376e-03
         - -2.9318998155834228e-03
         - -3.8419895065756448e-03
         - 2.2397988950557026e-03
         - 2.3648921494217648e-03
         - 5.3410604070651107e-03
         - 3.2488097936587126e-03
         - -4.1648391537034710e-03
         - 4.9654173554913308e-04
         - -9.2540802379204069e-03
         - 6.4939610972081490e-03
         - -9.8073431983740356e-02
         - 2.0802037140791752e-03
         - -6.0336210051952123e-05
         - -3.1255819413522939e-01
         - 2.8218063573438625e-02
         - -1.2878818435070534e-02
         - -4.3462949276126761e-02
         - -1.2447273999280274e-01
         - 2.9703807357905503e-03
         - 4.9765053734549857e-03
         - 1.3803735654703983e-02
         - -2.7697250228753201e-01
         - 3.7192952790797052e-03
         - -4.9273334355423044e-03
         - 2.1353314522001210e-01
         - -8.0279470839963896e-02
         - 4.2999766292764835e-02
         - 9.4971927335515830e-04
         - -1.8472049939251716e-03
         - 9.3481005164273625e-03
         - -1.9227977252334646e-03
         - 1.1278455977485434e-02
         - -1.5587551558950317e-04
         - -5.8925901035299082e-03
         - 6.2526753410631587e-03
         - 6.2922147669875212e-03
         - 9.6944665643283259e-02
         - 3.9993004618698366e-03
         - 5.3750593734063185e-02
         - 5.2887883456727430e-03
         - 1.2316262439300157e-03
         - -6.4816040648902853e-02
         - -4.0969808217281092e-02
         - 1.1120242739782935e-02
         - -2.5070547756785350e-01
         - -5.7937317057390565e-03
         - 5.7670788562781024e-03
         - -4.2825838642511320e-02
         - 4.6728662766731257e-03
         - -2.3247990886710725e-02
         - 6.5651002352451845e-02
         - -1.0026277718536356e-02
         - 5.6506346564854934e-03
         - 7.2034994843874411e-03
         - 8.6295063181669783e-04
         - -1.9145692304866377e-01
         - 3.8623812133560184e-03
         - 2.9879813607130538e-02
         - -1.3353617773040087e-02
         - -5.3586686584369747e-03
         - -1.0978514286458002e-03
         - 3.3560902556772861e-03
         - -2.9953671685707343e-03
         - -7.9497896359738890e-02
         - 7.8287006223858105e-03
         - 1.7132512010115616e-02
         - 6.2789460821371136e-03
         - -3.8474342557904624e-03
         - 1.0268298013143007e-01
         - -5.5589883934809552e-03
         - 1.0305098460887213e-01
         - -6.8747828708754979e-03
         - -5.6814662969472155e-03
         - 4.1968698770329270e-03
         - -6.8758109480718758e-03
         - 1.1789353353189680e-02
         - 1.0751986618490332e-01
         - 7.7218365766118357e-03
         - -7.6499133798352617e-03
         - -2.0823554332371954e-04
         - -6.1170127889946142e-03
         - 9.1021624208301004e-03
         - 2.8531799562663946e-03
         - -1.2780111856198040e-02
         - 1.1735155315900218e-03
         - -2.1373636263532500e-01
         - 8.6353639801549711e-03
         - 2.1905874540632205e-03
         - 8.6125596744880163e-03
         - -1.9287939461317034e-02
         - 1.1336106236817614e-01
         - 3.5511416918841125e-02
         - -1.2003710032774046e-02
         - -2.6725444799696282e-02
         - -5.6075880627136081e-02
         - -3.9206156904069915e-02
         - -9.8489036782858936e-03
         - 1.0039978809041609e-01
         - 8.2484848545890110e-03
         - -1.3686387421913838e-02
         - -2.3036072258810301e-03
         - -1.6062244552729196e-02
         - -6.7890987956074553e-03
         - -1.8466506657920949e-03
         - 1.7069590983642038e-02
         - 6.6172192290999184e-03
         - -1.3235035515995796e-02
         - 6.9908453568328114e-03
         - -1.5798237591352588e-02
         - 2.6430394168257376e-02
         - 1.9621554466465713e-01
         - 1.3098974492453390e-02
         - -9.8856627217345765e-03
         - -3.1132162783164698e-02
         - 2.5593190307936185e-02
         - -1.8568008488423753e-02
         - -7.9755887609252979e-02
         - -2.3923575279488053e-02
         - 8.6882056875833141e-03
         - 6.8099457125667335e-03
         - -9.8329245639787247e-02
         - 3.4159036000540571e-02
         - -5.9808383714746449e-03
         - -4.4047207955362488e-03
         - 1.4442089164989844e-01
         - -3.4856929692658314e-02
         - 1.3638636856471628e-01
         - 2.1151301325804529e-03
         - -9.5158442924935770e-03
         - 2.0012120255218150e-02
         - 1.0295856720562375e-04
         - 1.8933808839148556e-02
         - 2.7661032940057050e-03
         - -1.6198125579090946e-02
         - 9.1765613470308344e-03
         - -6.6312737572106137e-03
         - -5.8177274484753308e-02
         - 1.3336881751342705e-02
         - 1.1604118585083548e-02
         - -2.8996224107876362e-02
         - -8.0875376784369027e-03
         - 1.7160068596216910e-01
         - -8.8655136287479924e-02
         - 2.0433234334857601e-02
         - -1.7011054303683451e-01
         - -6.7431122100582068e-03
         - 1.8494842311496711e-02
         - -3.8689224546383356e-02
         - 2.0576982731836464e-02
         - -4.0759225180302727e-01
         - 5.6718717786282256e-02
         - -1.8289959410273705e-02
         - 1.9163469379099383e-02
         - 1.8156491873098611e-02
         - -6.2324435428324117e-03
         - -4.7641666802006835e-02
         - 1.0221149036981044e-02
         - 2.9001646780076176e-02
         - -2.6434870610727017e-02
         - 1.7631746827878705e-03
         - -4.2553384888785696e-03
         - 2.0901342487027390e-02
         - -8.3952564993794638e-04
         - -2.8549764718428211e-01
         - 2.8912612366503573e-03
         - 1.9418470379920411e-02
         - -3.9442803666342820e-02
         - -9.3989676757959099e-03
         - 1.5960191153915004e-01
         - -1.0985289133102783e-02
         - -2.9850894484976881e-01
         - -2.4727929459638032e-02
         - -7.8986713717439407e-03
         - -1.1073883041461041e-02
         - -3.9073067607233017e-02
         - 2.2872548307574108e-02
         - -4.4189743758879130e-02
         - 1.6134870487140671e-02
         - -1.7715802021034510e-02
         - -2.4507065047939623e-02
         - 2.2986641121664032e-02
         - 2.6535153354991136e-02
         - -1.9689641061884722e-03
         - -2.2210144448512128e-02
         - -2.2916474304508436e-01
         - 6.4554369658702440e-02
         - 1.4497406952303747e-02
         - 2.1917175956632792e-01
         - 1.3601751896812878e-02
         - -2.3127339180921476e-02
         - 8.4880346073208185e-02
         - 2.2201446464956032e-02
         - -1.9422448986986821e-02
         - -2.8685619440850765e-02
         - -4.3566181083654715e-01
         - 6.5133514358147477e-03
         - -2.4214084927690369e-02
         - 9.9395639339358841e-02
         - 3.7830268627653280e-03
         - -1.6789284782479891e-02
         - -5.4308434278987272e-03
         - -1.6142102642913155e-02
         - -3.2138614060319591e-03
         - -2.7875186522203181e-04
         - 2.7622067147793600e-02
         - 4.1059299628303696e-03
         - -1.1845283380965174e-02
         - 7.2036676949880467e-03
         - -1.1489562009526154e-02
         - 3.5763178039274937e-02
         - 1.8700898351049119e-01
         - 1.8393469866914175e-02
         - -1.0740963888585508e-02
         - 9.6609669407048071e-02
         - -8.3073847935564472e-03
         - -1.9075466742019435e-02
         - -4.4403959673903065e-02
         - 4.1688781869468744e-01
         - 1.3542318353052260e-02
         - 7.8370041302523123e-03
         - -1.5273530344292017e-02
         - 3.3970577253344424e-02
         - -5.2569864925608775e-03
         - 2.2388266684627914e-03
         - -1.6495630911910789e-01
         - -7.5582400101251099e-02
         - 1.6859575758671891e-01
         - 6.4094198440616630e-03
         - -1.4841430258314615e-02
         - 2.0610264084631517e-02
         - 1.0949711956383478e-02
         - 2.4396011269447893e-02
         - 6.4373761448022569e-03
         - -2.4002069326020031e-02
         - 1.2381514582962718e-02
         - -1.3034228965879149e-02
         - 4.9872674798881765e-02
         - 1.1686687478191037e-02
         - -8.0332447019590997e-02
         - -3.7072317252011593e-02
         - -2.6199416985913992e-02
         - 9.0147099612843298e-02
         - 1.0193249914288775e-01
         - 2.9156797348843973e-02
         - 1.2540680462713802e-01
         - -9.9836876475986810e-03
         - 2.7133994857412705e-02
         - 5.9561205233320758e-02
         - 1.9973900598250240e-02
         - -3.1444575206863790e-01
         - -8.2706011545466224e-02
         - -3.2210645006687029e-02
         - 1.2683169851077956e-02
         - 1.5441831075598380e-02
         - -7.4240233022376118e-03
         - -1.2293220932809795e-01
         - 1.8820846013444562e-03
         - 2.3995961562820209e-01
         - -2.0912022185806279e-02
         - -2.4027257487220831e-03
         - -5.3361184409921178e-03
         - 1.8507483082383966e-02
         - 1.0362667954327449e-03
         - 1.0935408662596253e-01
         - 1.0248181727416365e-02
         - 2.9070405891000120e-04
         - 1.2284281767135231e-02
         - -1.3965290215368254e-02
         - 7.7214119553480925e-02
         - -6.8919475081229819e-03
         - -2.8772165103338385e-02
         - -3.0850519876605403e-02
         - -9.4328320575079901e-03
         - -2.1025381203693627e-02
         - -3.6901462855711151e-02
         - 1.6031485475330121e-02
         - -1.5552589547594409e-01
         - 7.7782292116879040e-04
         - -2.0779704725838750e-02
         - -2.0135295070860666e-02
         - 9.9206944529178446e-03
         - 2.2608365929648266e-02
         - -4.3550504110892825e-03
         - 1.3725704244886418e-02
         - -1.3488999289842192e-02
         - -2.1235404828836921e-01
         - -1.7779758313820691e-02
         - 2.9305420719529923e-01
         - -5.9883819322047683e-03
         - 1.0917372504542951e-02
         - 5.8946819094081310e-02
         - -1.6145363742124004e-02
         - 1.0486385385083900e-02
         - 3.7830986886659292e-02
         - 6.9729447356879767e-03
         - 3.3662131574547588e-02
         - -8.6679240453703711e-03
         - 4.2239444383561542e-01
         - -3.6920497663143425e-03
         - 9.4854035122868031e-03
         - 3.4977377978977209e-04
         - 1.2368631381121009e-02
         - -3.3220675535195719e-02
         - 4.1883078168500933e-03
         - -1.8927914100365321e-02
         - -4.7185206409400835e-03
         - 1.7199911356373752e-02
         - 2.6704766982281847e-03
         - 1.3564948289076072e-02
         - -2.8386457970386681e-02
         - 1.0323544188842675e-01
         - -2.8957472348320669e-02
         - 6.5769686877313327e-03
         - 1.4803897263482010e-01
         - -6.5984906404068774e-02
         - 3.0795892836113760e-02
         - -4.6521971424041707e-02
         - -2.6975657968657440e-01
         - -1.2756916902350614e-02
         - -4.3490277883070274e-03
         - -2.8702344764636456e-02
         - 2.7588595230967500e-01
         - 8.2604754479078876e-03
         - -9.6607745659640844e-04
         - -7.1885590329059515e-02
         - -1.7415231966966441e-01
         - 1.3809808799824580e-01
         - -1.5433096678932078e-03
         - 1.3782742975317647e-02
         - -1.8367832985353962e-02
         - -4.5000814508296412e-02
         - -2.0244273505537588e-02
         - -6.9274468691911204e-03
         - 1.2085226449779718e-02
         - -3.6776291998751685e-03
         - 5.7806331336951712e-02
         - -7.3404723822542203e-03
         - -9.5383805538270944e-03
         - -1.0775222902607137e-01
         - 2.8542310457728193e-02
         - 4.6345672167375437e-02
         - 1.4054832591985555e-01
         - 1.7509408011408392e-01
         - -2.1918066715265690e-02
         - 1.5907185383750236e-01
         - 1.0960870434317515e-02
         - -2.7560392199056791e-02
         - 4.8225896777977333e-02
         - -2.2689100358962599e-02
         - 1.6910410698622702e-01
         - -5.6215938706673615e-02
         - 3.7331973796385073e-02
         - -3.7326635589709355e-02
         - -1.7963646275509899e-02
         - 1.0405982950051039e-02
         - -1.2106274572581296e-01
         - 1.2320883298416558e-03
         - 7.2763457667122000e-02
         - 3.1540300741360383e-02
         - 3.0899937917540708e-03
         - 2.6910442567734395e-04
         - -2.0481220527253680e-02
         - -4.2400135768856199e-03
         - 2.0055206298537098e-01
         - -6.4148560886398446e-03
